/*
 * Copyright (c) 2024 EdgeImpulse Inc.
 *
 * Generated by Edge Impulse and licensed under the applicable Edge Impulse
 * Terms of Service. Community and Professional Terms of Service
 * (https://docs.edgeimpulse.com/page/terms-of-service) or Enterprise Terms of
 * Service (https://docs.edgeimpulse.com/page/enterprise-terms-of-service),
 * according to your product plan subscription (the “License”).
 *
 * This software, documentation and other associated files (collectively referred
 * to as the “Software”) is a single SDK variation generated by the Edge Impulse
 * platform and requires an active paid Edge Impulse subscription to use this
 * Software for any purpose.
 *
 * You may NOT use this Software unless you have an active Edge Impulse subscription
 * that meets the eligibility requirements for the applicable License, subject to
 * your full and continued compliance with the terms and conditions of the License,
 * including without limitation any usage restrictions under the applicable License.
 *
 * If you do not have an active Edge Impulse product plan subscription, or if use
 * of this Software exceeds the usage limitations of your Edge Impulse product plan
 * subscription, you are not permitted to use this Software and must immediately
 * delete and erase all copies of this Software within your control or possession.
 * Edge Impulse reserves all rights and remedies available to enforce its rights.
 *
 * Unless required by applicable law or agreed to in writing, the Software is
 * distributed on an "AS IS" BASIS, WITHOUT WARRANTIES OR CONDITIONS OF ANY KIND,
 * either express or implied. See the License for the specific language governing
 * permissions, disclaimers and limitations under the License.
 */
// Generated on: 12.09.2024 20:39:06

#include <stdio.h>
#include <stdlib.h>
#include "edge-impulse-sdk/tensorflow/lite/c/builtin_op_data.h"
#include "edge-impulse-sdk/tensorflow/lite/c/common.h"
#include "edge-impulse-sdk/tensorflow/lite/micro/micro_mutable_op_resolver.h"
#include "edge-impulse-sdk/porting/ei_classifier_porting.h"

#if EI_CLASSIFIER_PRINT_STATE
#if defined(__cplusplus) && EI_C_LINKAGE == 1
extern "C" {
    extern void ei_printf(const char *format, ...);
}
#else
extern void ei_printf(const char *format, ...);
#endif
#endif

#if defined (__GNUC__)  /* GNU compiler */
#define ALIGN(X) __attribute__((aligned(X)))
#define DEFINE_SECTION(x) __attribute__((section(x)))
#elif defined (_MSC_VER)
#define ALIGN(X) __declspec(align(X))
#elif defined (__TASKING__) /* TASKING Compiler */
#define ALIGN(X) __align(X)
#define DEFINE_SECTION(x) __attribute__(section(x)))
#elif defined (__ARMCC_VERSION) /* Arm Compiler */
#define ALIGN(X) __ALIGNED(x)
#define DEFINE_SECTION(x) __attribute__((section(x)))
#elif defined (__ICCARM__) /* IAR Compiler */
#define ALIGN(x) __attribute__((aligned(x)))
#define DEFINE_SECTION(x) __attribute__((section(x)))
#elif defined (__clang__) /* LLVM/Clang Compiler */
#define ALIGN(X) __ALIGNED(x)
#define DEFINE_SECTION(x) __attribute__((section(x)))
#endif

#ifndef EI_MAX_SCRATCH_BUFFER_COUNT
#ifndef CONFIG_IDF_TARGET_ESP32S3
#define EI_MAX_SCRATCH_BUFFER_COUNT 14
#else
#define EI_MAX_SCRATCH_BUFFER_COUNT 28
#endif // CONFIG_IDF_TARGET_ESP32S3
#endif // EI_MAX_SCRATCH_BUFFER_COUNT

#ifndef EI_MAX_OVERFLOW_BUFFER_COUNT
#define EI_MAX_OVERFLOW_BUFFER_COUNT 10
#endif // EI_MAX_OVERFLOW_BUFFER_COUNT

using namespace tflite;
using namespace tflite::ops;
using namespace tflite::ops::micro;

namespace {

#if defined(EI_CLASSIFIER_ALLOCATION_STATIC_HIMAX) || defined(EI_CLASSIFIER_ALLOCATION_STATIC_HIMAX_GNU)
constexpr int kTensorArenaSize = 242592;
#else
constexpr int kTensorArenaSize = 241568;
#endif

#if defined(EI_CLASSIFIER_ALLOCATION_STATIC)
#if defined (EI_TENSOR_ARENA_LOCATION)
#define STRINGIZE(x) #x
#define STRINGIZE_VALUE_OF(x) STRINGIZE(x)
uint8_t tensor_arena[kTensorArenaSize] ALIGN(16) DEFINE_SECTION(STRINGIZE_VALUE_OF(EI_TENSOR_ARENA_LOCATION));
#else
uint8_t tensor_arena[kTensorArenaSize] ALIGN(16);
#endif
#elif defined(EI_CLASSIFIER_ALLOCATION_STATIC_HIMAX)
#pragma Bss(".tensor_arena")
uint8_t tensor_arena[kTensorArenaSize] ALIGN(16);
#pragma Bss()
#elif defined(EI_CLASSIFIER_ALLOCATION_STATIC_HIMAX_GNU)
uint8_t tensor_arena[kTensorArenaSize] ALIGN(16) __attribute__((section(".tensor_arena")));
#else
#define EI_CLASSIFIER_ALLOCATION_HEAP 1
uint8_t* tensor_arena = NULL;
#endif

static uint8_t* tensor_boundary;
static uint8_t* current_location;

template <int SZ, class T> struct TfArray {
  int sz; T elem[SZ];
};

enum used_operators_e {
  OP_CONV_2D, OP_DEPTHWISE_CONV_2D, OP_PAD, OP_ADD, OP_SOFTMAX,  OP_LAST
};

struct TensorInfo_t { // subset of TfLiteTensor used for initialization from constant memory
  TfLiteAllocationType allocation_type;
  TfLiteType type;
  void* data;
  TfLiteIntArray* dims;
  size_t bytes;
  TfLiteQuantization quantization;
};

typedef struct {
  TfLiteTensor tensor;
  int16_t index;
} TfLiteTensorWithIndex;

typedef struct {
  TfLiteEvalTensor tensor;
  int16_t index;
} TfLiteEvalTensorWithIndex;

TfLiteContext ctx{};
static const int MAX_TFL_TENSOR_COUNT = 4;
static TfLiteTensorWithIndex tflTensors[MAX_TFL_TENSOR_COUNT];
static const int MAX_TFL_EVAL_COUNT = 4;
static TfLiteEvalTensorWithIndex tflEvalTensors[MAX_TFL_EVAL_COUNT];
TfLiteRegistration registrations[OP_LAST];

namespace g0 {
const TfArray<4, int> tensor_dimension0 = { 4, { 1,96,96,1 } };
const TfArray<1, float> quant0_scale = { 1, { 0.0039215688593685627, } };
const TfArray<1, int> quant0_zero = { 1, { -128 } };
const TfLiteAffineQuantization quant0 = { (TfLiteFloatArray*)&quant0_scale, (TfLiteIntArray*)&quant0_zero, 0 };
const ALIGN(16) int32_t tensor_data1[4*2] = { 
  0, 0, 
  0, 1, 
  0, 1, 
  0, 0, 
};
const TfArray<2, int> tensor_dimension1 = { 2, { 4,2 } };
const ALIGN(16) int8_t tensor_data2[16*3*3*1] = { 
  /* [0][0][][] */ -85, -109, -30, 
  /* [0][1][][] */ 66, -36, 17, 
  /* [0][2][][] */ 32, 127, 20, 
  /* [1][0][][] */ 105, -95, -11, 
  /* [1][1][][] */ -127, 104, 23, 
  /* [1][2][][] */ 14, -2, -13, 
  /* [2][0][][] */ -24, -3, -48, 
  /* [2][1][][] */ 36, 95, 127, 
  /* [2][2][][] */ -13, -95, -80, 
  /* [3][0][][] */ 121, 127, 59, 
  /* [3][1][][] */ 3, -20, -14, 
  /* [3][2][][] */ -100, -126, -43, 
  /* [4][0][][] */ 18, -59, -5, 
  /* [4][1][][] */ 20, -127, -2, 
  /* [4][2][][] */ 14, -84, -18, 
  /* [5][0][][] */ -64, 27, -2, 
  /* [5][1][][] */ -127, 34, 4, 
  /* [5][2][][] */ -78, 29, 2, 
  /* [6][0][][] */ -15, 80, 127, 
  /* [6][1][][] */ -50, 56, -16, 
  /* [6][2][][] */ -36, -51, -88, 
  /* [7][0][][] */ 37, 24, -17, 
  /* [7][1][][] */ 127, 71, -3, 
  /* [7][2][][] */ 36, 7, -17, 
  /* [8][0][][] */ -21, -31, 52, 
  /* [8][1][][] */ -54, -87, 127, 
  /* [8][2][][] */ -26, -62, 96, 
  /* [9][0][][] */ -22, 45, -10, 
  /* [9][1][][] */ -14, 127, -11, 
  /* [9][2][][] */ -5, 87, -7, 
  /* [10][0][][] */ 24, 87, 12, 
  /* [10][1][][] */ -37, -127, -30, 
  /* [10][2][][] */ 12, 39, 17, 
  /* [11][0][][] */ 7, -19, 10, 
  /* [11][1][][] */ 65, -93, 35, 
  /* [11][2][][] */ -85, 127, -46, 
  /* [12][0][][] */ -41, 50, -9, 
  /* [12][1][][] */ -127, 115, 6, 
  /* [12][2][][] */ -78, 80, 6, 
  /* [13][0][][] */ 67, 9, -19, 
  /* [13][1][][] */ 114, 104, -8, 
  /* [13][2][][] */ 80, 127, 53, 
  /* [14][0][][] */ -30, -28, 48, 
  /* [14][1][][] */ 44, 98, -127, 
  /* [14][2][][] */ -16, -70, 81, 
  /* [15][0][][] */ -101, -33, 18, 
  /* [15][1][][] */ -127, -117, 22, 
  /* [15][2][][] */ -34, -85, -10, 
};
const TfArray<4, int> tensor_dimension2 = { 4, { 16,3,3,1 } };
const TfArray<16, float> quant2_scale = { 16, { 0.056799449026584625, 0.30061745643615723, 0.07616298645734787, 0.045074108988046646, 0.0052436627447605133, 0.0081007806584239006, 0.04114740714430809, 0.006238084752112627, 0.036020912230014801, 0.00793476402759552, 0.13640053570270538, 0.26318585872650146, 0.084999755024909973, 0.0036393885966390371, 0.23590768873691559, 0.0077159064821898937, } };
const TfArray<16, int> quant2_zero = { 16, { 0,0,0,0,0,0,0,0,0,0,0,0,0,0,0,0 } };
const TfLiteAffineQuantization quant2 = { (TfLiteFloatArray*)&quant2_scale, (TfLiteIntArray*)&quant2_zero, 0 };
const ALIGN(16) int32_t tensor_data3[16] = { 1736, 407, 770, -638, 75148, 51387, 2628, 4474, 6377, 7996, 1211, -11, 4915, -1753, 132, 47603, };
const TfArray<1, int> tensor_dimension3 = { 1, { 16 } };
const TfArray<16, float> quant3_scale = { 16, { 0.00022274295042734593, 0.0011788920965045691, 0.00029867840930819511, 0.00017676122661214322, 2.056338416878134e-05, 3.1767769542057067e-05, 0.00016136238991748542, 2.4463079171255231e-05, 0.00014125848247203976, 3.1116724130697548e-05, 0.00053490407299250364, 0.0010321014560759068, 0.00033333239844068885, 1.4272112821345218e-05, 0.00092512823175638914, 3.0258459446486086e-05, } };
const TfArray<16, int> quant3_zero = { 16, { 0,0,0,0,0,0,0,0,0,0,0,0,0,0,0,0 } };
const TfLiteAffineQuantization quant3 = { (TfLiteFloatArray*)&quant3_scale, (TfLiteIntArray*)&quant3_zero, 0 };
const ALIGN(16) int8_t tensor_data4[1*3*3*16] = { 
  /* [0][0][][] */ 5,-6,13,4,-18,11,13,16,-2,-12,1,-2,-9,-8,5,0, 8,-9,8,2,14,-2,13,-26,-7,9,-5,85,-13,20,-2,2, 4,0,2,2,1,-14,-4,11,6,1,-2,-6,1,-5,-1,2, 
  /* [0][1][][] */ 9,-10,0,2,127,-25,-127,-21,127,127,3,-5,113,-27,1,-18, -127,127,127,-2,-86,-92,-14,-101,18,-106,127,127,127,127,127,127, 15,-11,-7,0,-11,127,5,-10,2,-13,-2,-6,10,-6,-11,-6, 
  /* [0][2][][] */ -1,-3,-1,-20,-17,15,59,7,-10,-8,-3,1,-3,-1,-6,-12, 23,-26,-5,-127,7,-16,-4,127,-3,1,-2,-14,-11,-61,-11,-36, 1,-1,-3,-8,0,-5,2,-2,4,2,-2,-3,1,-7,-11,-10, 
};
const TfArray<4, int> tensor_dimension4 = { 4, { 1,3,3,16 } };
const TfArray<16, float> quant4_scale = { 16, { 0.0042098518460988998, 0.0092616574838757515, 0.0074990564025938511, 0.0071081104688346386, 0.050588924437761307, 0.038474150002002716, 0.0068666422739624977, 0.043506775051355362, 0.014442418701946735, 0.05136672779917717, 0.0094142062589526176, 0.0089184409007430077, 0.0044512762688100338, 0.015728848055005074, 0.0091093927621841431, 0.021109253168106079, } };
const TfArray<16, int> quant4_zero = { 16, { 0,0,0,0,0,0,0,0,0,0,0,0,0,0,0,0 } };
const TfLiteAffineQuantization quant4 = { (TfLiteFloatArray*)&quant4_scale, (TfLiteIntArray*)&quant4_zero, 3 };
const ALIGN(16) int32_t tensor_data5[16] = { 23349, -569, -158, 3207, -884, 422, 9406, 1102, -1352, 301, -2346, 3082, 625, -420, -337, -1298, };
const TfArray<1, int> tensor_dimension5 = { 1, { 16 } };
const TfArray<16, float> quant5_scale = { 16, { 9.905533806886524e-05, 0.00021792136249132454, 0.00017644838953856379, 0.00016724965826142579, 0.0011903276899829507, 0.00090527412248775363, 0.00016156805213540792, 0.0010236888192594051, 0.00033982162130996585, 0.0012086288770660758, 0.00022151073790155351, 0.00020984567527193576, 0.00010473591100890189, 0.00037009053630754352, 0.00021433865185827017, 0.00049668829888105392, } };
const TfArray<16, int> quant5_zero = { 16, { 0,0,0,0,0,0,0,0,0,0,0,0,0,0,0,0 } };
const TfLiteAffineQuantization quant5 = { (TfLiteFloatArray*)&quant5_scale, (TfLiteIntArray*)&quant5_zero, 0 };
const ALIGN(16) int8_t tensor_data6[8*1*1*16] = { 
  /* [0][0][][] */ -15,-10,-14,-64,-24,-37,20,-16,32,4,-25,-1,106,127,-13,-101, 
  /* [1][0][][] */ 127,-60,-46,21,-51,71,-73,-42,-43,85,-33,-53,-10,7,-59,-12, 
  /* [2][0][][] */ -34,-98,37,44,48,-55,-85,-21,31,-90,28,-127,46,-20,-78,26, 
  /* [3][0][][] */ 37,8,10,11,-15,71,-52,-22,127,45,8,20,0,-16,6,22, 
  /* [4][0][][] */ -90,-34,-27,-127,-2,40,48,-126,34,-19,-47,-34,-117,36,-38,-19, 
  /* [5][0][][] */ 85,53,72,-27,47,-46,-122,-127,-18,-71,63,53,-57,44,65,-44, 
  /* [6][0][][] */ 98,40,-127,-71,24,-71,2,-78,-42,17,-121,90,87,-88,7,71, 
  /* [7][0][][] */ -127,-4,102,-30,-66,3,1,-62,-51,62,83,-31,62,-27,29,29, 
};
const TfArray<4, int> tensor_dimension6 = { 4, { 8,1,1,16 } };
const TfArray<8, float> quant6_scale = { 8, { 0.0072522838599979877, 0.0091362893581390381, 0.0075381174683570862, 0.010656511411070824, 0.008987104520201683, 0.0071658706292510033, 0.0078646149486303329, 0.011038357391953468, } };
const TfArray<8, int> quant6_zero = { 8, { 0,0,0,0,0,0,0,0 } };
const TfLiteAffineQuantization quant6 = { (TfLiteFloatArray*)&quant6_scale, (TfLiteIntArray*)&quant6_zero, 0 };
const ALIGN(16) int32_t tensor_data7[8] = { -7184, -2937, 11761, -9152, 22414, 7808, -8341, 11511, };
const TfArray<1, int> tensor_dimension7 = { 1, { 8 } };
const TfArray<8, float> quant7_scale = { 8, { 0.00017064197163563222, 0.00021497151465155184, 0.00017736747395247221, 0.00025074146105907857, 0.00021146128710824996, 0.00016860871983226389, 0.00018504976469557732, 0.00025972607545554638, } };
const TfArray<8, int> quant7_zero = { 8, { 0,0,0,0,0,0,0,0 } };
const TfLiteAffineQuantization quant7 = { (TfLiteFloatArray*)&quant7_scale, (TfLiteIntArray*)&quant7_zero, 0 };
const ALIGN(16) int8_t tensor_data8[48*1*1*8] = { 
  /* [0][0][][] */ -40,27,-8,-10,-75,-28,-127,37, 
  /* [1][0][][] */ 80,-69,-52,-48,127,-92,81,31, 
  /* [2][0][][] */ -103,124,-51,-127,64,-13,-22,47, 
  /* [3][0][][] */ 42,25,81,17,85,127,120,-1, 
  /* [4][0][][] */ -78,-125,78,5,-45,-127,-2,-47, 
  /* [5][0][][] */ 127,-31,83,67,-76,-5,4,-27, 
  /* [6][0][][] */ 26,39,127,-30,42,-39,-43,25, 
  /* [7][0][][] */ 26,8,-127,-34,-37,91,88,-69, 
  /* [8][0][][] */ 6,127,-38,28,64,110,63,58, 
  /* [9][0][][] */ -2,127,-64,96,3,-106,43,113, 
  /* [10][0][][] */ 1,-127,-7,-23,-85,-118,-57,-73, 
  /* [11][0][][] */ -127,-72,108,50,0,-74,102,57, 
  /* [12][0][][] */ -26,51,-127,81,45,-55,-60,88, 
  /* [13][0][][] */ 103,-127,100,92,19,41,38,-60, 
  /* [14][0][][] */ -35,115,-59,-124,-29,-127,-30,-66, 
  /* [15][0][][] */ 35,106,37,-24,34,-66,104,-127, 
  /* [16][0][][] */ -113,-127,-58,87,-55,25,-6,69, 
  /* [17][0][][] */ -35,-113,-127,88,-55,88,-48,90, 
  /* [18][0][][] */ -103,-72,-48,94,-14,86,5,127, 
  /* [19][0][][] */ 62,-127,103,-112,8,-55,35,-33, 
  /* [20][0][][] */ -10,80,40,6,51,127,74,1, 
  /* [21][0][][] */ 30,113,46,-33,38,-61,92,-127, 
  /* [22][0][][] */ 24,17,109,15,-8,127,38,-39, 
  /* [23][0][][] */ -102,-70,45,-67,87,101,-60,-127, 
  /* [24][0][][] */ -99,-90,36,-94,117,114,-47,-127, 
  /* [25][0][][] */ 127,7,-64,-19,18,34,-63,-5, 
  /* [26][0][][] */ -127,-32,-127,-26,-49,-40,27,-15, 
  /* [27][0][][] */ 78,31,0,-66,-127,-21,88,90, 
  /* [28][0][][] */ -127,-82,-2,43,-63,-117,3,0, 
  /* [29][0][][] */ 127,95,50,-112,7,16,-62,-96, 
  /* [30][0][][] */ -88,-66,39,-71,66,78,-46,-127, 
  /* [31][0][][] */ 45,44,-11,127,4,-68,3,17, 
  /* [32][0][][] */ -13,127,7,36,33,75,-3,42, 
  /* [33][0][][] */ -43,127,-87,36,17,-34,-34,6, 
  /* [34][0][][] */ -127,-112,-44,100,-21,25,22,100, 
  /* [35][0][][] */ -53,127,-32,-1,66,106,63,73, 
  /* [36][0][][] */ 68,21,2,-52,-127,-39,85,98, 
  /* [37][0][][] */ -69,118,27,26,-127,111,-27,-95, 
  /* [38][0][][] */ 31,26,25,20,118,79,127,53, 
  /* [39][0][][] */ -20,-75,43,-22,16,52,-91,127, 
  /* [40][0][][] */ -79,-51,-71,127,-28,9,7,80, 
  /* [41][0][][] */ 127,20,57,111,-45,-13,1,-22, 
  /* [42][0][][] */ -41,7,-66,-127,57,-102,-2,87, 
  /* [43][0][][] */ 20,-9,76,-5,31,127,91,6, 
  /* [44][0][][] */ -27,-30,-66,127,49,11,-47,-45, 
  /* [45][0][][] */ 70,118,116,-115,51,-65,26,-127, 
  /* [46][0][][] */ -34,-127,-42,38,-6,41,-65,125, 
  /* [47][0][][] */ 43,46,115,24,99,127,122,-14, 
};
const TfArray<4, int> tensor_dimension8 = { 4, { 48,1,1,8 } };
const TfArray<48, float> quant8_scale = { 48, { 0.0046371547505259514, 0.0041458373889327049, 0.00276404176838696, 0.0034635437186807394, 0.00065713154617697001, 0.0028551912400871515, 0.0054663675837218761, 0.0024670425336807966, 0.003087987657636404, 0.0061968406662344933, 0.0033956265542656183, 0.0030709535349160433, 0.0024317821953445673, 0.0035668802447617054, 0.0027069894131273031, 0.0030468855984508991, 0.0022712452337145805, 0.00078023812966421247, 0.0023347116075456142, 0.0036802450194954872, 0.0040446314960718155, 0.0020061691757291555, 0.004834300372749567, 0.0035502698738127947, 0.0051614963449537754, 0.0075315609574317932, 0.0033648377284407616, 0.010941788554191589, 0.0022295170929282904, 0.00062662921845912933, 0.0039435946382582188, 0.008035929873585701, 0.0041918833740055561, 0.0036163879558444023, 0.0028222750406712294, 0.0036565563641488552, 0.0054790801368653774, 0.0064033372327685356, 0.0038472006563097239, 0.0045683449134230614, 0.0032662251032888889, 0.0031539553310722113, 0.0033388666342943907, 0.004944878164678812, 0.0047025592066347599, 0.002174947876483202, 0.0026969332247972488, 0.0032543151173740625, } };
const TfArray<48, int> quant8_zero = { 48, { 0,0,0,0,0,0,0,0,0,0,0,0,0,0,0,0,0,0,0,0,0,0,0,0,0,0,0,0,0,0,0,0,0,0,0,0,0,0,0,0,0,0,0,0,0,0,0,0 } };
const TfLiteAffineQuantization quant8 = { (TfLiteFloatArray*)&quant8_scale, (TfLiteIntArray*)&quant8_zero, 0 };
const ALIGN(16) int32_t tensor_data9[48] = { 893, -519, -495, 1021, 14357, 2182, -292, 3235, 1322, 1016, 48, 2663, 1041, 415, -804, 456, 3109, 11159, 2869, -644, 989, -1028, -29, 2094, -284, -637, 1376, -39, 3660, 14577, 1756, -88, 445, -226, 2331, -5, 357, -242, 1086, 1262, 1411, 1948, 259, -250, 496, 2175, 1113, -244, };
const TfArray<1, int> tensor_dimension9 = { 1, { 48 } };
const TfArray<48, float> quant9_scale = { 48, { 0.00050266954349353909, 0.0004494105523917824, 0.00029962329426780343, 0.00037544962833635509, 7.1233342168852687e-05, 0.00030950395739637315, 0.00059255660744383931, 0.00026742846239358187, 0.00033473919029347599, 0.00067174015566706657, 0.00036808737786486745, 0.00033289266866631806, 0.00026360622723586857, 0.00038665134343318641, 0.00029343881760723889, 0.00033028368488885462, 0.00024620394106023014, 8.4578146925196052e-05, 0.0002530837373342365, 0.00039894014480523765, 0.00043843977618962526, 0.0002174695982830599, 0.00052404019515961409, 0.00038485077675431967, 0.0005595083930529654, 0.00081642443547025323, 0.0003647498378995806, 0.0011860945960506797, 0.00024168060917872936, 6.7926877818536013e-05, 0.00042748733540065587, 0.00087109825108200312, 0.0004544019466266036, 0.00039201800245791674, 0.0003059358277823776, 0.00039637228474020958, 0.00059393461560830474, 0.0006941244937479496, 0.00041703818715177476, 0.00049521052278578281, 0.00035406020469963551, 0.00034189011785201728, 0.00036193456617183983, 0.00053602689877152443, 0.00050975941121578217, 0.00023576528474222869, 0.00029234870453365147, 0.0003527691587805748, } };
const TfArray<48, int> quant9_zero = { 48, { 0,0,0,0,0,0,0,0,0,0,0,0,0,0,0,0,0,0,0,0,0,0,0,0,0,0,0,0,0,0,0,0,0,0,0,0,0,0,0,0,0,0,0,0,0,0,0,0 } };
const TfLiteAffineQuantization quant9 = { (TfLiteFloatArray*)&quant9_scale, (TfLiteIntArray*)&quant9_zero, 0 };
const ALIGN(16) int8_t tensor_data10[1*3*3*48] = { 
  /* [0][0][][] */ -45,-88,-18,-2,127,-57,65,-56,-87,-79,-22,-66,111,44,54,-127,63,-13,2,-57,-99,113,-14,8,-20,83,57,-36,69,-77,10,-47,-94,-81,44,70,16,70,123,-55,-117,-18,32,82,43,-121,89,97, -62,-109,-86,68,-91,104,64,-58,-73,42,65,-127,127,98,76,-81,-80,-81,37,-60,-108,71,-56,112,-103,94,88,-118,95,-55,3,-127,-50,-86,79,127,105,99,127,-42,-127,-60,62,93,76,126,90,74, -25,-42,-65,92,-51,-33,31,-6,108,27,49,-93,32,47,-50,-9,-80,-16,30,-18,-42,31,-67,-1,-86,46,25,-84,28,57,102,-62,-10,0,-5,45,54,58,57,11,-21,95,71,33,37,37,16,-127, 
  /* [0][1][][] */ -127,-97,-19,-64,-95,-75,87,-105,-127,-127,89,-90,90,56,-112,-70,127,-127,-66,-83,-98,127,-43,4,-12,111,92,-57,-114,-89,-2,-67,-90,-127,-127,76,35,86,11,-101,85,-19,86,127,78,127,127,-119, -116,-127,-127,-99,-27,127,127,-127,99,71,127,-118,105,127,39,-110,63,-110,-127,-127,-127,95,-127,127,-125,127,127,-127,-127,127,-27,-121,-127,-105,52,123,127,127,-7,-127,111,-95,127,127,127,7,118,115, -53,-59,-113,127,79,-47,49,-16,80,31,19,-68,17,60,53,-51,-11,4,-17,-63,-54,32,-75,-17,-127,66,22,-90,-62,38,127,-85,-67,0,66,79,61,71,-16,-30,54,127,82,24,45,-47,20,31, 
  /* [0][2][][] */ -127,-21,20,32,-51,-26,28,-39,53,-42,15,-45,-1,26,-47,6,-77,-24,95,-48,-30,58,-66,-22,-7,66,58,-24,37,54,-10,-25,12,-90,-36,47,13,11,-47,-47,30,-9,39,52,32,67,20,-61, -96,-43,-42,-65,93,49,69,-51,116,33,-43,-55,6,33,-127,-62,58,0,59,-80,-73,44,-63,61,-81,74,60,-50,39,2,-32,-47,-64,-28,-56,56,30,19,-85,-79,42,-45,76,92,51,-108,28,7, -56,-32,-53,-27,-25,-12,19,-10,-62,24,-16,-19,-2,10,14,-9,49,31,1,-54,-63,17,-11,-30,-72,22,14,-43,4,-71,50,-26,-104,13,31,49,2,24,-39,-45,15,52,23,30,17,-3,15,49, 
};
const TfArray<4, int> tensor_dimension10 = { 4, { 1,3,3,48 } };
const TfArray<48, float> quant10_scale = { 48, { 0.0026729940436780453, 0.0042141503654420376, 0.0066982596181333065, 0.0071394951082766056, 0.034746218472719193, 0.0073533523827791214, 0.0068886773660778999, 0.0043517579324543476, 0.0049992678686976433, 0.0033561554737389088, 0.0026173044461756945, 0.0019047569949179888, 0.003561720484867692, 0.0024221839848905802, 0.011847736313939095, 0.0080758733674883842, 0.0050589884631335735, 0.01410880871117115, 0.0055275955237448215, 0.0054788342677056789, 0.0041417460888624191, 0.017552221193909645, 0.0048667946830391884, 0.010770116932690144, 0.005255579948425293, 0.0031525474041700363, 0.0025525842793285847, 0.0038973803166300058, 0.0080572608858346939, 0.041605036705732346, 0.011210179887712002, 0.003054117551073432, 0.0042490004561841488, 0.0054510016925632954, 0.0080466233193874359, 0.0023091437760740519, 0.0040974747389554977, 0.0020574838854372501, 0.0059279566630721092, 0.002803026931360364, 0.0049649081192910671, 0.0061826282180845737, 0.0028633847832679749, 0.0028902415651828051, 0.0030313034076243639, 0.014016463421285152, 0.0028013961855322123, 0.008719821460545063, } };
const TfArray<48, int> quant10_zero = { 48, { 0,0,0,0,0,0,0,0,0,0,0,0,0,0,0,0,0,0,0,0,0,0,0,0,0,0,0,0,0,0,0,0,0,0,0,0,0,0,0,0,0,0,0,0,0,0,0,0 } };
const TfLiteAffineQuantization quant10 = { (TfLiteFloatArray*)&quant10_scale, (TfLiteIntArray*)&quant10_zero, 3 };
const ALIGN(16) int32_t tensor_data11[48] = { 11378, 3773, 3906, -1833, 1858, -927, -972, 28704, -2264, 559, 9821, 66440, 1691, 7428, 981, 10425, -3228, 13998, 515, 7243, 14502, -59, 2791, -8978, 10525, 1861, 2326, 13143, 1217, 598, -7918, 10611, 5416, 90, -1554, 7300, -8094, 11793, -3043, 19018, -3679, -1340, 5746, 3089, 2658, -2730, 1892, -747, };
const TfArray<1, int> tensor_dimension11 = { 1, { 48 } };
const TfArray<48, float> quant11_scale = { 48, { 6.2893981521483511e-05, 9.9156481155660003e-05, 0.00015760611859150231, 0.00016798812430351973, 0.00081755808787420392, 0.00017302006017416716, 0.00016208652232307941, 0.00010239430412184447, 0.00011762983194785193, 7.8968369052745402e-05, 6.1583632486872375e-05, 4.4817810703534633e-05, 8.380519284401089e-05, 5.6992565077962354e-05, 0.0002787702833302319, 0.00019002055341843516, 0.00011903502308996394, 0.00033197196898981929, 0.00013006107474211603, 0.00012891374353785068, 9.7452852060087025e-05, 0.00041299345321021974, 0.00011451281898189336, 0.00025341453147120774, 0.00012366070586722344, 7.4177587521262467e-05, 6.0060807300033048e-05, 9.1703070211224258e-05, 0.00018958261352963746, 0.00097894202917814255, 0.00026376894675195217, 7.1861592005006969e-05, 9.9976481578778476e-05, 0.00012825886369682848, 0.00018933232058770955, 5.4332795116351917e-05, 9.6411175036337227e-05, 4.8411387979285792e-05, 0.00013948132982477546, 6.5953572629950941e-05, 0.00011682137119350955, 0.00014547360478900373, 6.7373759520705789e-05, 6.8005683715455234e-05, 7.1324786404147744e-05, 0.00032979913521558046, 6.5915206505451351e-05, 0.00020517226948868483, } };
const TfArray<48, int> quant11_zero = { 48, { 0,0,0,0,0,0,0,0,0,0,0,0,0,0,0,0,0,0,0,0,0,0,0,0,0,0,0,0,0,0,0,0,0,0,0,0,0,0,0,0,0,0,0,0,0,0,0,0 } };
const TfLiteAffineQuantization quant11 = { (TfLiteFloatArray*)&quant11_scale, (TfLiteIntArray*)&quant11_zero, 0 };
const ALIGN(16) int8_t tensor_data12[8*1*1*48] = { 
  /* [0][0][][] */ -46,0,32,9,-36,-13,8,11,-41,-7,-55,-54,-26,-60,-14,-31,39,-36,33,39,-8,31,-34,13,1,-41,51,-10,-6,-20,17,13,81,29,36,-127,16,-3,-22,-27,-2,-15,40,40,32,3,22,0, 
  /* [1][0][][] */ 1,34,61,-24,-12,47,-53,-28,9,30,-16,-91,14,97,-9,65,-22,8,-34,-59,13,-94,-22,21,-85,-17,-2,-125,-27,-19,42,-69,52,91,-55,5,122,-39,0,47,-32,39,-81,-35,127,-18,-41,-27, 
  /* [2][0][][] */ 2,-24,-58,12,-3,42,31,5,-8,41,-3,22,59,-86,19,-50,39,-92,29,36,-32,46,-4,25,-18,57,-23,-64,20,7,20,-63,-47,-80,30,-27,102,24,-7,-69,2,24,75,31,127,15,23,25, 
  /* [3][0][][] */ -14,17,-70,45,15,-33,-69,-108,18,-16,-35,2,2,27,33,79,-7,6,-41,21,9,-104,27,-55,-80,-15,127,-15,-46,0,-62,11,-2,-79,9,-11,-19,-40,-19,99,-43,-34,1,18,39,12,-42,45, 
  /* [4][0][][] */ -19,-48,-6,6,30,-29,-11,-9,28,-30,54,-78,7,30,10,13,-16,-23,12,-9,-9,-50,5,-21,17,-8,40,52,37,22,-15,33,-12,0,1,0,-66,85,39,-28,27,-22,-20,-20,-73,9,127,11, 
  /* [5][0][][] */ 47,-22,6,19,31,-41,37,-127,26,-38,-3,122,-81,67,25,-67,5,-88,17,1,-37,74,-36,-51,-57,81,-23,5,-21,42,-46,-30,30,51,36,-6,-42,-3,-45,-41,21,-39,-50,-10,-34,55,98,22, 
  /* [6][0][][] */ 50,-20,24,-10,-37,-18,-32,17,-38,4,-39,127,-43,-35,-5,55,14,46,18,33,36,-78,-22,16,21,39,-65,6,11,-38,13,38,7,13,-12,-2,10,7,-2,-3,-2,-17,38,59,-3,-34,76,-14, 
  /* [7][0][][] */ -22,0,-6,64,28,34,15,24,23,6,68,-3,117,106,54,53,42,42,-6,8,14,-18,-89,-22,15,-2,-28,60,31,-26,-33,-17,29,4,48,-90,-66,42,43,47,-29,34,81,127,-52,-21,-104,60, 
};
const TfArray<4, int> tensor_dimension12 = { 4, { 8,1,1,48 } };
const TfArray<8, float> quant12_scale = { 8, { 0.0094895306974649429, 0.0045993071980774403, 0.0061979289166629314, 0.00606955261901021, 0.0072941072285175323, 0.0058591477572917938, 0.009409511461853981, 0.0055616670288145542, } };
const TfArray<8, int> quant12_zero = { 8, { 0,0,0,0,0,0,0,0 } };
const TfLiteAffineQuantization quant12 = { (TfLiteFloatArray*)&quant12_scale, (TfLiteIntArray*)&quant12_zero, 0 };
const ALIGN(16) int32_t tensor_data13[8] = { 8081, 17608, -4495, 7347, -1726, 2071, -11795, -18788, };
const TfArray<1, int> tensor_dimension13 = { 1, { 8 } };
const TfArray<8, float> quant13_scale = { 8, { 0.00022328307386487722, 0.00010821899195434526, 0.00014583361917175353, 0.00014281300536822528, 0.00017162605945486575, 0.00013786229828838259, 0.00022140027431305498, 0.00013086275430396199, } };
const TfArray<8, int> quant13_zero = { 8, { 0,0,0,0,0,0,0,0 } };
const TfLiteAffineQuantization quant13 = { (TfLiteFloatArray*)&quant13_scale, (TfLiteIntArray*)&quant13_zero, 0 };
const ALIGN(16) int8_t tensor_data14[48*1*1*8] = { 
  /* [0][0][][] */ 62,127,-90,-83,16,72,12,65, 
  /* [1][0][][] */ 63,-68,38,-127,-53,61,-83,-40, 
  /* [2][0][][] */ -30,127,110,44,107,10,49,13, 
  /* [3][0][][] */ 100,35,-99,48,-20,-87,-127,-38, 
  /* [4][0][][] */ -31,34,20,-64,-38,110,127,49, 
  /* [5][0][][] */ 12,79,-127,-71,39,76,26,-16, 
  /* [6][0][][] */ -9,127,68,57,63,-4,11,-76, 
  /* [7][0][][] */ 127,-26,-49,23,38,5,117,-5, 
  /* [8][0][][] */ 55,121,79,94,127,72,108,-104, 
  /* [9][0][][] */ 62,99,-127,-85,13,97,5,68, 
  /* [10][0][][] */ -70,-51,28,-49,-14,-26,-41,127, 
  /* [11][0][][] */ 18,-110,-127,-25,19,-5,34,-20, 
  /* [12][0][][] */ -28,-96,-120,-25,-127,25,-82,46, 
  /* [13][0][][] */ -17,16,-95,105,-127,-27,-12,-10, 
  /* [14][0][][] */ -60,-36,-127,2,26,-4,-18,-43, 
  /* [15][0][][] */ 22,-109,-127,10,-102,-21,-30,-12, 
  /* [16][0][][] */ 127,-64,-13,57,-76,24,29,99, 
  /* [17][0][][] */ -24,111,127,-35,-40,-18,-32,-24, 
  /* [18][0][][] */ -1,-127,49,79,-13,-82,44,-99, 
  /* [19][0][][] */ 127,-44,-61,38,-97,2,31,88, 
  /* [20][0][][] */ -26,-127,73,66,-15,-92,-1,-76, 
  /* [21][0][][] */ 5,-55,-21,-28,127,-10,37,16, 
  /* [22][0][][] */ -127,10,-74,49,61,43,-88,-116, 
  /* [23][0][][] */ -103,-34,87,17,-121,127,109,-35, 
  /* [24][0][][] */ -26,60,5,-46,-58,127,101,-1, 
  /* [25][0][][] */ -59,-110,-127,-60,-47,-24,-22,-36, 
  /* [26][0][][] */ -9,61,-41,127,-126,35,-95,2, 
  /* [27][0][][] */ 25,-127,26,69,22,-52,3,-123, 
  /* [28][0][][] */ 17,127,80,50,127,-30,35,-71, 
  /* [29][0][][] */ 118,32,-37,-15,67,-127,-103,32, 
  /* [30][0][][] */ 21,-14,27,-127,29,-21,20,-25, 
  /* [31][0][][] */ 46,-38,9,64,-17,27,11,127, 
  /* [32][0][][] */ -61,-74,-13,-75,-48,127,45,62, 
  /* [33][0][][] */ -34,45,47,-29,44,127,-111,76, 
  /* [34][0][][] */ 43,127,-76,-50,26,53,-61,74, 
  /* [35][0][][] */ 25,-127,33,47,-29,-77,41,-94, 
  /* [36][0][][] */ -15,-36,-80,-15,-127,-44,-17,2, 
  /* [37][0][][] */ -53,-127,63,74,-45,-89,-12,-53, 
  /* [38][0][][] */ -83,37,83,-67,-127,-90,-59,95, 
  /* [39][0][][] */ 76,-127,57,37,-15,-77,-10,-84, 
  /* [40][0][][] */ 6,56,11,52,-127,-17,-62,17, 
  /* [41][0][][] */ 116,123,-91,-127,53,4,-17,10, 
  /* [42][0][][] */ -15,-39,-14,16,127,12,47,23, 
  /* [43][0][][] */ 127,26,85,17,-76,-41,58,120, 
  /* [44][0][][] */ 81,43,-26,24,71,-125,-127,14, 
  /* [45][0][][] */ 53,10,14,11,80,-127,-8,-53, 
  /* [46][0][][] */ 67,-48,-16,127,58,66,26,77, 
  /* [47][0][][] */ -74,-62,60,67,-42,31,127,-65, 
};
const TfArray<4, int> tensor_dimension14 = { 4, { 48,1,1,8 } };
const TfArray<48, float> quant14_scale = { 48, { 0.0036635524593293667, 0.002224283292889595, 0.00098545802757143974, 0.00239558145403862, 0.0031739259138703346, 0.004065284039825201, 0.0021539365407079458, 0.00095950445393100381, 0.0020755091682076454, 0.0039868103340268135, 0.0029743816703557968, 0.0028919684700667858, 0.00070151296677067876, 0.00359953916631639, 0.0038523201365023851, 0.00060583284357562661, 0.0046166717074811459, 0.0033717418555170298, 0.0043433085083961487, 0.0032073464244604111, 0.0031481850892305374, 0.0029687134083360434, 0.0061833797954022884, 0.00057550350902602077, 0.0023814172018319368, 0.0021259922068566084, 0.00078976457007229328, 0.0037191601004451513, 0.0016988456482067704, 0.001933539635501802, 0.0064172185957431793, 0.0058923829346895218, 0.003285170067101717, 0.003030482679605484, 0.0041301590390503407, 0.0041344347409904003, 0.002822845708578825, 0.0046974243596196175, 0.0027790344320237637, 0.003684137249365449, 0.0022745777387171984, 0.002993803471326828, 0.0027806260623037815, 0.0028514729347079992, 0.0019459764007478952, 0.0031826402992010117, 0.0046878834255039692, 0.0022147004492580891, } };
const TfArray<48, int> quant14_zero = { 48, { 0,0,0,0,0,0,0,0,0,0,0,0,0,0,0,0,0,0,0,0,0,0,0,0,0,0,0,0,0,0,0,0,0,0,0,0,0,0,0,0,0,0,0,0,0,0,0,0 } };
const TfLiteAffineQuantization quant14 = { (TfLiteFloatArray*)&quant14_scale, (TfLiteIntArray*)&quant14_zero, 0 };
const ALIGN(16) int32_t tensor_data15[48] = { 2068, 4912, 12898, 1458, 2125, -1365, 5024, 13160, 3453, -452, 4030, -2379, 19003, -1465, 1682, 24746, -481, 1356, 129, 2370, 3229, 3379, 414, 25970, 4668, 3867, 17563, 1581, 6124, 5562, 595, 990, 779, 1991, -328, 272, -2559, -411, 3048, 1785, 4733, 2339, 3750, 3689, 5490, 3040, 1785, 4924, };
const TfArray<1, int> tensor_dimension15 = { 1, { 48 } };
const TfArray<48, float> quant15_scale = { 48, { 0.00027062895242124796, 0.00016430922551080585, 7.279641431523487e-05, 0.00017696311988402158, 0.0002344599342904985, 0.00030030510970391333, 0.0001591126638231799, 7.0879206759855151e-05, 0.00015331918257288635, 0.00029450820875354111, 0.00021971946989651769, 0.00021363154519349337, 5.1821210945490748e-05, 0.00026590024936012924, 0.00028457335429266095, 4.4753258407581598e-05, 0.00034103647340089083, 0.00024907270562835038, 0.00032084295526146889, 0.00023692872491665184, 0.0002325584355276078, 0.00021930075308773667, 0.0004567702126223594, 4.2512809159234166e-05, 0.00017591680807527155, 0.00015704840188845992, 5.8340410760138184e-05, 0.00027473672525957227, 0.00012549481471069157, 0.00014283180644270033, 0.00047404403449036181, 0.00043527406523935497, 0.00024267760454677045, 0.00022386368073057383, 0.00030509746284224093, 0.00030541332671418786, 0.00020852540910709649, 0.00034700174001045525, 0.00020528904860839248, 0.00027214956935495138, 0.00016802450409159064, 0.00022115417232271284, 0.00020540661353152245, 0.00021064012253191322, 0.00014375051250681281, 0.00023510366736445576, 0.00034629693254828453, 0.00016360133304260671, } };
const TfArray<48, int> quant15_zero = { 48, { 0,0,0,0,0,0,0,0,0,0,0,0,0,0,0,0,0,0,0,0,0,0,0,0,0,0,0,0,0,0,0,0,0,0,0,0,0,0,0,0,0,0,0,0,0,0,0,0 } };
const TfLiteAffineQuantization quant15 = { (TfLiteFloatArray*)&quant15_scale, (TfLiteIntArray*)&quant15_zero, 0 };
const ALIGN(16) int8_t tensor_data16[1*3*3*48] = { 
  /* [0][0][][] */ 18,-48,10,11,-21,-104,-50,43,-37,7,-18,9,39,-5,-7,5,105,-4,18,12,-8,-22,-74,29,-11,-14,-14,-25,-44,72,2,-107,80,-14,-43,-56,-7,-36,-6,-19,-11,56,11,-6,-16,56,127,-11, -127,-106,-19,127,-70,59,-100,127,20,5,-5,0,47,19,1,-41,-44,57,22,13,4,127,10,127,127,-33,-65,31,64,-124,8,-103,103,-9,-27,-127,25,13,-62,-44,-122,-8,-84,-108,34,45,43,120, -8,-11,13,9,-18,23,27,65,-1,-44,-10,8,-21,8,9,4,-66,19,-72,-22,-6,-34,127,27,-43,-1,-2,-2,14,40,26,-4,-7,-9,-16,69,11,14,8,56,31,-19,30,-34,-6,48,-27,-10, 
  /* [0][1][][] */ -10,-19,-27,5,33,-110,113,-93,-9,23,16,37,127,19,6,-30,-34,-39,24,57,58,-68,31,20,-56,127,-82,-13,127,-99,47,-127,-33,7,-68,16,14,-58,-56,3,127,127,5,-127,-71,-59,-4,95, 105,-127,127,6,127,65,-78,-75,40,127,127,-127,-102,127,127,127,127,127,127,127,127,116,-4,9,118,-100,-127,127,41,127,127,-7,-127,127,127,126,-127,127,-127,-108,46,41,-127,-32,127,-127,-22,88, 31,25,-40,-6,-46,127,-127,85,111,-73,9,71,-33,19,24,-65,8,6,-116,20,19,-117,-37,0,67,-14,-22,115,-64,-35,29,-53,-36,23,105,-28,43,3,-11,-97,118,9,29,30,-61,99,102,-73, 
  /* [0][2][][] */ -6,33,8,-33,6,-69,-25,-13,3,11,4,1,-25,-7,12,2,-67,-12,8,-28,-1,-18,83,-7,-93,5,41,-16,15,-4,2,40,-1,-5,-49,32,-2,-6,6,45,-15,-12,3,-6,-23,17,-26,12, 42,-12,-33,-37,39,28,103,-99,127,-23,4,9,-84,-17,-6,-65,-22,72,26,33,12,47,-23,-31,-55,54,84,-6,-79,14,-32,-26,-9,-1,-31,6,49,-20,-5,127,-108,-3,-17,44,35,52,-6,-127, -1,24,5,-29,-7,7,-23,-33,-30,-19,-9,9,18,-3,7,15,52,15,-18,-10,-8,-18,-52,-14,21,-30,22,-24,-12,2,-14,3,44,-10,-13,-50,-4,10,22,11,0,-3,-1,5,-20,18,58,-53, 
};
const TfArray<4, int> tensor_dimension16 = { 4, { 1,3,3,48 } };
const TfArray<48, float> quant16_scale = { 48, { 0.01367302518337965, 0.0056841084733605385, 0.032485995441675186, 0.01101663988083601, 0.0091603025794029236, 0.014539750292897224, 0.0083648832514882088, 0.013225418515503407, 0.004268172662705183, 0.014421828091144562, 0.010891514830291271, 0.092419996857643127, 0.02034594863653183, 0.029738578945398331, 0.012239045463502407, 0.031770803034305573, 0.0089085018262267113, 0.003296190407127142, 0.011773754842579365, 0.011918878182768822, 0.01221510861068964, 0.011834525503218174, 0.0037550765555351973, 0.01858045719563961, 0.0077549563720822334, 0.01814216747879982, 0.018763061612844467, 0.010477636940777302, 0.011368172243237495, 0.023099495097994804, 0.005743587389588356, 0.0040487558580935001, 0.0063250027596950531, 0.0087235020473599434, 0.007059282623231411, 0.020348165184259415, 0.13028852641582489, 0.014779349789023399, 0.0053860456682741642, 0.010129116475582123, 0.0083746043965220451, 0.0062874490395188332, 0.011850186623632908, 0.0081350989639759064, 0.017469169571995735, 0.0040555396117269993, 0.002589002950116992, 0.0071275001391768456, } };
const TfArray<48, int> quant16_zero = { 48, { 0,0,0,0,0,0,0,0,0,0,0,0,0,0,0,0,0,0,0,0,0,0,0,0,0,0,0,0,0,0,0,0,0,0,0,0,0,0,0,0,0,0,0,0,0,0,0,0 } };
const TfLiteAffineQuantization quant16 = { (TfLiteFloatArray*)&quant16_scale, (TfLiteIntArray*)&quant16_zero, 3 };
const ALIGN(16) int32_t tensor_data17[48] = { -1249, 11673, -1084, -352, 137, -838, 5255, -420, -4032, 138, -4976, -169, 1211, -847, -4472, 3535, 6166, 3959, -403, -5492, -6590, -542, 17536, -6349, -3424, -112, 6998, -6212, -1898, 180, -9154, 10783, 3486, -432, 1865, 50, -18, -737, 12454, 276, 3443, -3290, 3447, 6807, -376, 8092, 1689, -907, };
const TfArray<1, int> tensor_dimension17 = { 1, { 48 } };
const TfArray<48, float> quant17_scale = { 48, { 0.00032171825296245515, 0.00013374372792895883, 0.00076437636744230986, 0.00025921507040038705, 0.00021553653641603887, 0.00034211177262477577, 0.00019682077981997281, 0.0003111863334197551, 0.00010042759095085785, 0.0003393371298443526, 0.00025627095601521432, 0.0021745881531387568, 0.00047872820869088173, 0.00069973128847777843, 0.00028797754202969372, 0.00074754829984158278, 0.00020961181144230068, 7.7557422628160566e-05, 0.00027702952502295375, 0.00028044419013895094, 0.00028741432470269501, 0.00027845942531712353, 8.8354747276753187e-05, 0.00043718723463825881, 0.0001824695646064356, 0.00042687452514655888, 0.00044148380402475595, 0.00024653263972140849, 0.00026748640812002122, 0.00054351752623915672, 0.00013514322927221656, 9.5264847914222628e-05, 0.00014882360119372606, 0.00020525888248812407, 0.000166100770002231, 0.0004787803627550602, 0.0030656123999506235, 0.00034774941741488874, 0.00012673049059230834, 0.00023833215527702123, 0.00019704952137544751, 0.00014793997979722917, 0.00027882793801836669, 0.00019141410302836448, 0.00041103930561803281, 9.542446059640497e-05, 6.0917718656128272e-05, 0.00016770588990766555, } };
const TfArray<48, int> quant17_zero = { 48, { 0,0,0,0,0,0,0,0,0,0,0,0,0,0,0,0,0,0,0,0,0,0,0,0,0,0,0,0,0,0,0,0,0,0,0,0,0,0,0,0,0,0,0,0,0,0,0,0 } };
const TfLiteAffineQuantization quant17 = { (TfLiteFloatArray*)&quant17_scale, (TfLiteIntArray*)&quant17_zero, 0 };
const ALIGN(16) int8_t tensor_data18[8*1*1*48] = { 
  /* [0][0][][] */ -44,-41,-29,-63,0,-8,80,65,-93,-83,-32,-2,-58,4,-58,34,-79,10,17,127,54,-31,21,79,52,70,10,5,-90,-61,-88,-59,-58,97,36,-48,21,-29,82,-4,34,-4,0,-109,30,-37,-26,-90, 
  /* [1][0][][] */ -22,61,-29,-32,-74,56,-27,-50,-41,84,-18,16,46,41,-54,-10,-12,-118,76,-57,127,10,-53,25,55,-7,-89,73,37,-18,67,32,-31,-11,-2,-19,-2,109,-19,-32,63,47,-11,7,90,17,-24,50, 
  /* [2][0][][] */ -25,-34,112,8,92,-47,-13,18,-31,11,-11,50,8,-54,-48,-127,-54,-98,-31,13,-102,37,-43,-39,-54,17,1,-41,-45,6,-36,-8,0,2,29,-10,24,-38,-49,2,38,-28,26,-45,-46,-50,-63,-56, 
  /* [3][0][][] */ 31,24,63,-4,11,-44,22,75,-53,-19,42,-21,-78,43,-20,41,64,37,-33,23,-102,-67,127,4,3,1,-71,-24,-45,58,103,-70,8,-100,-27,36,-16,-70,-15,63,-86,-63,64,-13,-98,-70,65,-13, 
  /* [4][0][][] */ 19,-12,78,-34,10,-12,-6,-2,-54,-6,-20,11,48,-76,40,-95,42,50,-5,-39,16,31,17,11,2,4,46,-17,32,25,-127,-19,-28,-18,6,14,52,-3,33,8,-39,-13,-68,22,-14,-97,6,25, 
  /* [5][0][][] */ 26,-54,64,20,25,26,32,5,-79,-12,-48,31,33,7,22,-47,93,73,-11,-9,80,-63,127,-91,-14,52,10,38,9,23,-31,-36,-18,-48,-40,10,46,18,72,1,-99,31,36,39,57,-19,71,1, 
  /* [6][0][][] */ -33,39,-127,80,36,27,41,27,-23,-10,49,-59,-85,-13,-24,25,-100,20,-13,96,9,42,-78,-84,-5,-11,26,65,-35,-41,-48,10,39,68,-46,-32,-7,-15,87,6,61,54,-110,-41,-38,107,-46,-30, 
  /* [7][0][][] */ 41,62,-86,21,20,59,123,79,49,77,-93,-1,-31,-14,-66,-39,29,42,115,99,84,11,127,27,104,115,-42,104,-78,40,-3,-68,27,-70,-20,31,3,96,-65,72,-58,58,-5,-78,89,-14,38,-27, 
};
const TfArray<4, int> tensor_dimension18 = { 4, { 8,1,1,48 } };
const TfArray<8, float> quant18_scale = { 8, { 0.0031588717829436064, 0.0046796579845249653, 0.0064027332700788975, 0.0051728058606386185, 0.0052667316049337387, 0.0065501886419951916, 0.0032170373015105724, 0.0039900783449411392, } };
const TfArray<8, int> quant18_zero = { 8, { 0,0,0,0,0,0,0,0 } };
const TfLiteAffineQuantization quant18 = { (TfLiteFloatArray*)&quant18_scale, (TfLiteIntArray*)&quant18_zero, 0 };
const ALIGN(16) int32_t tensor_data19[8] = { 3787, 627, 23795, -2520, 4607, -13609, 985, -16166, };
const TfArray<1, int> tensor_dimension19 = { 1, { 8 } };
const TfArray<8, float> quant19_scale = { 8, { 7.4326395406387746e-05, 0.00011010959860868752, 0.00015065254410728812, 0.00012171308480901644, 0.00012392310600262135, 0.00015412208449561149, 7.5694995757658035e-05, 9.3884198577143252e-05, } };
const TfArray<8, int> quant19_zero = { 8, { 0,0,0,0,0,0,0,0 } };
const TfLiteAffineQuantization quant19 = { (TfLiteFloatArray*)&quant19_scale, (TfLiteIntArray*)&quant19_zero, 0 };
const ALIGN(16) int8_t tensor_data20[48*1*1*8] = { 
  /* [0][0][][] */ 66,34,127,-26,69,99,-81,-48, 
  /* [1][0][][] */ 9,-81,-127,20,55,21,27,7, 
  /* [2][0][][] */ -127,-1,-53,-19,46,24,-75,-42, 
  /* [3][0][][] */ 53,74,106,-83,0,-127,3,-12, 
  /* [4][0][][] */ -127,21,-52,-26,57,10,-36,-45, 
  /* [5][0][][] */ -81,19,-48,-4,5,34,-68,-127, 
  /* [6][0][][] */ -32,-127,-124,49,111,6,3,43, 
  /* [7][0][][] */ -71,-127,-108,-82,-73,-85,21,102, 
  /* [8][0][][] */ 89,39,-5,-2,100,-82,-127,17, 
  /* [9][0][][] */ -32,63,-56,98,-70,-44,127,-29, 
  /* [10][0][][] */ -23,127,34,61,113,-16,-13,58, 
  /* [11][0][][] */ -73,-47,-32,-12,-85,105,127,-12, 
  /* [12][0][][] */ 67,32,-127,35,-13,-37,-63,-10, 
  /* [13][0][][] */ 66,-35,-71,10,23,-127,-21,-26, 
  /* [14][0][][] */ 8,-70,82,7,127,-122,-61,29, 
  /* [15][0][][] */ -34,-43,-4,127,66,84,-73,26, 
  /* [16][0][][] */ 109,37,-36,28,70,-116,-127,-25, 
  /* [17][0][][] */ 55,127,49,76,47,64,21,-80, 
  /* [18][0][][] */ 29,-6,-8,-8,127,-1,37,-10, 
  /* [19][0][][] */ 15,127,26,21,-126,17,27,-34, 
  /* [20][0][][] */ -42,25,56,-127,5,37,-25,106, 
  /* [21][0][][] */ -36,70,30,-127,31,38,-7,107, 
  /* [22][0][][] */ -63,-90,-101,9,-125,127,113,-39, 
  /* [23][0][][] */ 105,54,-127,28,20,-70,-82,-22, 
  /* [24][0][][] */ -49,46,11,-5,-21,74,-127,90, 
  /* [25][0][][] */ -101,-58,-127,9,-50,-79,71,100, 
  /* [26][0][][] */ 42,-8,-32,-20,117,-8,127,-35, 
  /* [27][0][][] */ 127,-67,21,90,-4,25,-17,73, 
  /* [28][0][][] */ 67,73,32,-2,127,-103,63,-45, 
  /* [29][0][][] */ -9,-19,-35,-38,-73,22,127,-41, 
  /* [30][0][][] */ 44,-127,-56,-70,-110,-5,5,-68, 
  /* [31][0][][] */ 9,25,-10,-7,-127,-7,-23,-15, 
  /* [32][0][][] */ 39,-57,-58,99,-9,-87,111,-127, 
  /* [33][0][][] */ 52,127,44,32,42,-4,-51,-12, 
  /* [34][0][][] */ -125,-35,127,-10,-9,105,103,15, 
  /* [35][0][][] */ -32,57,127,-23,-62,-54,-27,24, 
  /* [36][0][][] */ -110,16,106,-14,-6,127,76,39, 
  /* [37][0][][] */ -8,-85,-6,-127,-57,-70,62,34, 
  /* [38][0][][] */ 48,-12,83,-58,58,49,-127,9, 
  /* [39][0][][] */ -7,90,-127,-48,-26,7,8,75, 
  /* [40][0][][] */ 71,-56,15,38,14,5,9,127, 
  /* [41][0][][] */ -50,103,127,5,26,83,-70,21, 
  /* [42][0][][] */ 57,-108,-86,-21,-127,12,-4,-76, 
  /* [43][0][][] */ -9,-82,26,-69,127,-43,6,36, 
  /* [44][0][][] */ 4,127,122,28,11,60,-94,17, 
  /* [45][0][][] */ -38,54,13,91,-121,74,-127,23, 
  /* [46][0][][] */ -45,-34,68,49,-127,-112,-30,4, 
  /* [47][0][][] */ -23,60,33,-108,-127,45,-24,60, 
};
const TfArray<4, int> tensor_dimension20 = { 4, { 48,1,1,8 } };
const TfArray<48, float> quant20_scale = { 48, { 0.0026965392753481865, 0.0036362020764499903, 0.0035195962991565466, 0.002851713914424181, 0.0024638439062982798, 0.0031641016248613596, 0.0021389208268374205, 0.001629294827580452, 0.0034462681505829096, 0.0034215385094285011, 0.0021464782766997814, 0.0021026104222983122, 0.0030059404671192169, 0.0030918484553694725, 0.0030530472286045551, 0.0017137050163000822, 0.0029637692496180534, 0.0026597590185701847, 0.0019670799374580383, 0.0030190807301551104, 0.0034858554136008024, 0.0028163085225969553, 0.0023938249796628952, 0.0014495134819298983, 0.0025815663393586874, 0.002814129926264286, 0.0028910960536450148, 0.0037819419521838427, 0.0011732970597222447, 0.0032945289276540279, 0.0017959664110094309, 0.0016837769653648138, 0.0024259982164949179, 0.0024629796389490366, 0.0023236216511577368, 0.0034536856692284346, 0.0022821654565632343, 0.0025672914925962687, 0.0030830486211925745, 0.0019766758196055889, 0.0036197048611938953, 0.00097083038417622447, 0.0016114192549139261, 0.003071856452152133, 0.0011344187660142779, 0.0025862243492156267, 0.0028430952224880457, 0.0024739501532167196, } };
const TfArray<48, int> quant20_zero = { 48, { 0,0,0,0,0,0,0,0,0,0,0,0,0,0,0,0,0,0,0,0,0,0,0,0,0,0,0,0,0,0,0,0,0,0,0,0,0,0,0,0,0,0,0,0,0,0,0,0 } };
const TfLiteAffineQuantization quant20 = { (TfLiteFloatArray*)&quant20_scale, (TfLiteIntArray*)&quant20_zero, 0 };
const ALIGN(16) int32_t tensor_data21[48] = { 1498, -865, 697, -1444, 3209, -491, 3443, -3602, 841, 751, 1696, 3931, 435, -511, 586, 4703, -1366, 3020, 4468, 1022, -686, 2132, -552, 5958, 1547, 1501, 1255, -620, 8240, -266, 2482, -1979, -361, 2858, -680, 1353, 1890, 1036, 233, 4044, 1428, 9848, -3217, 1398, 8186, -77, 2111, 2373, };
const TfArray<1, int> tensor_dimension21 = { 1, { 48 } };
const TfArray<48, float> quant21_scale = { 48, { 0.00026308893575333059, 0.0003547675150912255, 0.00034339079866185784, 0.00027822860283777118, 0.00024038591072894633, 0.00030870683258399367, 0.00020868466526735574, 0.00015896279364824295, 0.00033623652416281402, 0.00033382375841028988, 0.00020942201081197709, 0.00020514201605692506, 0.00029327577794902027, 0.00030165741918608546, 0.00029787176754325628, 0.00016719830455258489, 0.00028916131122969091, 0.00025950043345801532, 0.00019191893807146698, 0.00029455780168063939, 0.00034009886439889669, 0.00027477426920086145, 0.00023355448502115905, 0.00014142236614134163, 0.00025187153369188309, 0.00027456169482320547, 0.00028207094874233007, 0.00036898665712215006, 0.00011447319411672652, 0.00032143201678991318, 0.00017522418056614697, 0.00016427837545052171, 0.00023669347865507007, 0.00024030158238019794, 0.00022670507314614952, 0.00033696022001095116, 0.00022266038286034018, 0.00025047882809303701, 0.00030079885618761182, 0.00019285516464151442, 0.0003531579568516463, 9.4719449407421052e-05, 0.00015721876116003841, 0.00029970690957270563, 0.00011068001913372427, 0.00025232601910829544, 0.00027738770586438477, 0.00024137193395290524, } };
const TfArray<48, int> quant21_zero = { 48, { 0,0,0,0,0,0,0,0,0,0,0,0,0,0,0,0,0,0,0,0,0,0,0,0,0,0,0,0,0,0,0,0,0,0,0,0,0,0,0,0,0,0,0,0,0,0,0,0 } };
const TfLiteAffineQuantization quant21 = { (TfLiteFloatArray*)&quant21_scale, (TfLiteIntArray*)&quant21_zero, 0 };
const ALIGN(16) int8_t tensor_data22[1*3*3*48] = { 
  /* [0][0][][] */ -95,72,-127,90,-116,61,-62,114,-81,-58,77,-94,79,-127,-69,-49,74,89,89,-111,82,-103,98,-100,-76,-53,74,110,-105,-55,-109,113,51,-91,69,-110,-67,-121,83,-71,-6,-72,77,-83,100,64,-47,-51, -120,104,-51,104,-62,97,-40,127,-127,-87,98,-118,112,-127,-70,-79,97,122,127,-127,99,-108,109,-127,-111,-89,91,98,40,-63,-127,104,69,-127,103,-122,-88,-99,108,-86,-68,101,90,-64,-46,106,-53,-75, -67,68,25,33,-13,75,-22,46,-77,-42,51,-44,68,-81,-53,-9,44,48,70,-55,45,-57,25,-51,-31,-31,31,19,110,-40,-79,95,35,-79,51,-56,-43,-53,54,-83,-84,-52,57,-31,-86,48,-35,-50, 
  /* [0][1][][] */ -94,95,-65,105,-90,108,-127,89,-99,-95,77,-103,82,-107,-118,-78,109,107,-55,-100,104,-127,118,-72,-96,-83,95,123,-127,-99,-111,106,87,59,89,-111,-98,-127,106,-75,-118,-96,106,-89,127,69,-115,-90, -127,127,-97,127,-127,127,-120,106,-90,-127,127,-127,127,-119,-127,-127,127,127,-66,-110,127,-99,127,-95,-127,-127,127,127,27,-127,-118,127,127,73,127,-127,-127,-114,127,-115,-119,127,127,-78,-66,127,-127,-127, -92,73,-72,32,-64,65,-50,36,-67,-50,68,-61,72,-73,-83,-13,72,61,-35,-28,46,-53,43,-40,-46,-44,55,38,116,-63,-89,63,51,33,57,-82,-32,-49,63,-70,-23,-84,55,-34,-110,69,-42,-68, 
  /* [0][2][][] */ -39,48,-13,62,-55,52,-103,116,-36,-44,23,-37,43,-70,-51,-30,61,38,-90,-38,30,-49,51,-21,-48,-47,48,23,-87,-46,-47,70,55,88,71,-107,-47,-73,36,-117,-127,-29,44,-99,77,36,-81,-50, -54,78,-84,78,-86,36,-120,51,-15,-51,58,-53,86,-89,-65,-41,73,54,-115,-18,25,-22,40,-41,-89,-64,63,48,20,-57,-76,97,76,115,78,-108,-57,-40,36,-127,-80,73,69,-127,-35,68,-84,-74, -21,34,-72,20,-71,15,-76,42,-27,-27,28,-27,60,-39,-33,7,48,22,-84,-1,14,12,10,-18,-12,-34,35,23,91,-16,-10,41,21,69,31,-73,4,-34,27,-63,-6,-33,28,-48,-58,50,-34,-43, 
};
const TfArray<4, int> tensor_dimension22 = { 4, { 1,3,3,48 } };
const TfArray<48, float> quant22_scale = { 48, { 0.0029886595439165831, 0.0035099117085337639, 0.0028865581844002008, 0.0040220851078629494, 0.0034852754324674606, 0.0030010479968041182, 0.0017508070450276136, 0.011147948913276196, 0.0034032175317406654, 0.002016392769291997, 0.002159973606467247, 0.0034668354783207178, 0.0028314271476119757, 0.0036710062995553017, 0.0014007220743224025, 0.0041107642464339733, 0.002828638069331646, 0.0023979039397090673, 0.0055768038146197796, 0.0017034641932696104, 0.0030326580163091421, 0.0026567524764686823, 0.0036663319915533066, 0.0049884957261383533, 0.0026239657308906317, 0.0032534927595406771, 0.0025827966164797544, 0.0018753815675154328, 0.0082373879849910736, 0.0047856736928224564, 0.0022507263347506523, 0.0088761597871780396, 0.0042054280638694763, 0.00619493518024683, 0.0025110438000410795, 0.0020328299142420292, 0.0038052897434681654, 0.0022137598134577274, 0.0031052709091454744, 0.0029983718413859606, 0.0023034815676510334, 0.0086612515151500702, 0.0069066723808646202, 0.0035706064663827419, 0.0063269375823438168, 0.0023695682175457478, 0.0018405945738777518, 0.0022281378041952848, } };
const TfArray<48, int> quant22_zero = { 48, { 0,0,0,0,0,0,0,0,0,0,0,0,0,0,0,0,0,0,0,0,0,0,0,0,0,0,0,0,0,0,0,0,0,0,0,0,0,0,0,0,0,0,0,0,0,0,0,0 } };
const TfLiteAffineQuantization quant22 = { (TfLiteFloatArray*)&quant22_scale, (TfLiteIntArray*)&quant22_zero, 3 };
const ALIGN(16) int32_t tensor_data23[48] = { 12077, 44, 17577, -57, 17081, -1005, 44157, 796, 7740, 41664, 6256, 28620, 72, 14820, 50694, 20119, 1668, 1554, 5456, 54079, -352, 18411, 647, 16340, 12982, 33919, -673, -606, -5645, 13913, 25341, 171, 114, -5380, 3282, 21006, 7982, 34603, 4080, 25387, 26106, 1290, 1289, 14214, 3206, 3000, 43230, 23387, };
const TfArray<1, int> tensor_dimension23 = { 1, { 48 } };
const TfArray<48, float> quant23_scale = { 48, { 7.0321402745321393e-05, 8.2586157077457756e-05, 6.7919019784312695e-05, 9.4637296569999307e-05, 8.2006481534335762e-05, 7.0612892159260809e-05, 4.1195460653398186e-05, 0.00026230467483401299, 8.0075711593963206e-05, 4.7444536903640255e-05, 5.0822909543057904e-05, 8.1572601629886776e-05, 6.6621818405110389e-05, 8.6376618128269911e-05, 3.2958167139440775e-05, 9.6723866590764374e-05, 6.6556189267430454e-05, 5.64212714380119e-05, 0.00013121891242917627, 4.0081511542666703e-05, 7.1356662374455482e-05, 6.2511826399713755e-05, 8.6266634752973914e-05, 0.00011737637396436185, 6.1740371165797114e-05, 7.6552772952709347e-05, 6.0771686548832804e-05, 4.4126627471996471e-05, 0.00019382090249564499, 0.00011260408791713417, 5.2958268497604877e-05, 0.00020885081903543323, 9.8951248219236732e-05, 0.00014576318790204823, 5.9083384257974103e-05, 4.7831294068600982e-05, 8.953623182605952e-05, 5.2088467782596126e-05, 7.3065202741418034e-05, 7.0549926022067666e-05, 5.4199568694457412e-05, 0.00020379415946081281, 0.0001625099394004792, 8.4014274762012064e-05, 0.00014886911958456039, 5.5754546337993816e-05, 4.3308107706252486e-05, 5.2426774345804006e-05, } };
const TfArray<48, int> quant23_zero = { 48, { 0,0,0,0,0,0,0,0,0,0,0,0,0,0,0,0,0,0,0,0,0,0,0,0,0,0,0,0,0,0,0,0,0,0,0,0,0,0,0,0,0,0,0,0,0,0,0,0 } };
const TfLiteAffineQuantization quant23 = { (TfLiteFloatArray*)&quant23_scale, (TfLiteIntArray*)&quant23_zero, 0 };
const ALIGN(16) int8_t tensor_data24[16*1*1*48] = { 
  /* [0][0][][] */ 29,38,23,-36,80,79,-45,59,-16,111,1,44,-41,43,-17,47,27,87,40,-60,-70,93,-11,55,65,53,40,63,-46,-52,-15,83,-23,10,-73,63,63,-127,-32,21,18,-42,59,-1,-11,-62,-61,-15, 
  /* [1][0][][] */ -48,-4,-82,-35,11,94,-53,13,-10,-43,-39,41,66,-26,-32,-23,-22,-21,-7,11,-69,53,-111,-48,-47,-36,52,65,-25,-26,49,-34,20,-64,-37,54,17,-55,127,-38,-23,37,-51,-13,33,57,28,23, 
  /* [2][0][][] */ 10,9,54,-34,-14,-79,12,24,102,79,-69,20,119,-58,127,85,-66,-29,-41,36,93,-73,-39,-100,16,-44,45,-72,48,51,-43,20,40,-25,57,51,-63,12,1,-27,31,30,60,-27,25,-100,105,-45, 
  /* [3][0][][] */ 38,6,-18,-32,37,111,15,-14,44,-47,20,-27,-54,13,14,44,-48,-66,40,-122,-11,9,-23,-16,-34,98,127,62,-15,-44,20,47,60,-28,87,39,-37,-52,-3,51,28,8,-10,9,17,15,-9,-17, 
  /* [4][0][][] */ 83,1,12,-47,83,85,41,13,53,-5,-98,25,38,-9,15,-21,-90,-105,-15,-81,-17,25,-31,-44,-74,127,-91,114,-50,-49,24,71,36,-53,15,-19,-16,20,-19,25,-38,-14,-3,47,-36,93,-25,-40, 
  /* [5][0][][] */ 7,-3,-57,5,-19,54,22,-25,72,60,37,86,55,-24,39,-1,-41,127,-15,37,8,-10,-62,-17,37,-4,-67,-38,-24,20,16,-16,-41,-11,42,18,-47,-2,-93,3,96,-19,36,58,-19,13,-41,28, 
  /* [6][0][][] */ 48,9,20,67,8,-34,103,-46,6,55,127,100,52,30,-35,55,46,-35,-70,73,51,-69,-38,64,-82,78,79,-6,106,42,-24,6,93,-80,-105,-16,86,29,-3,-11,13,66,47,-24,57,126,29,-10, 
  /* [7][0][][] */ -107,-2,-36,26,-57,-42,19,39,76,119,-44,-60,-95,8,-26,-26,-69,95,5,123,-40,36,21,31,-23,-80,-31,-76,33,43,-1,1,-24,12,14,-26,-10,-52,127,15,7,47,19,-26,58,66,-24,4, 
  /* [8][0][][] */ -6,-92,65,-62,71,-64,70,-34,-17,-110,22,5,-31,-1,37,31,-1,3,-44,97,7,38,-15,33,65,-13,-68,-28,-127,-27,-60,-98,10,-57,5,84,1,26,104,24,13,0,72,111,-12,-64,-48,73, 
  /* [9][0][][] */ 21,-38,29,-68,34,72,-34,41,18,-34,-38,-10,22,-45,122,-17,6,-105,44,39,-80,47,49,-45,-22,-65,-27,71,53,71,-38,-26,-47,25,-19,127,-26,-38,-64,-17,-19,-1,33,100,58,77,-65,20, 
  /* [10][0][][] */ -8,26,-18,-11,29,33,-70,-44,60,43,58,-8,-32,-15,56,-52,-63,127,-4,54,-1,3,26,21,-38,46,1,95,42,3,-41,-10,82,8,-17,40,-6,-50,-39,21,-81,4,34,-14,19,42,32,36, 
  /* [11][0][][] */ -25,45,-16,31,30,52,-5,1,19,17,-127,-69,67,24,-11,-50,-6,23,-38,-40,-16,-1,97,-3,47,13,-15,32,-15,31,-8,50,26,-6,-58,6,43,86,93,23,32,-34,57,-3,-62,-22,83,11, 
  /* [12][0][][] */ -59,2,43,15,-55,-61,7,5,-41,-41,-127,13,74,-91,27,31,42,104,90,-120,-33,45,-46,-89,-3,-18,34,-25,12,19,-17,78,65,73,33,-32,-49,-21,25,-8,-35,5,56,7,30,-15,-38,-33, 
  /* [13][0][][] */ -39,-106,-42,-100,9,23,62,17,-102,29,102,-60,49,47,127,9,100,17,-6,-90,64,-64,116,-1,-65,13,-33,2,-46,-104,-111,15,44,-32,-75,69,39,-54,69,-59,8,41,77,54,58,-29,88,-65, 
  /* [14][0][][] */ 58,13,-65,8,-41,23,-82,-34,-29,49,67,57,-9,-68,8,-51,62,-103,12,2,101,-57,16,5,-7,124,-89,4,-52,-24,-81,4,127,48,91,-28,-80,18,-11,67,-18,-39,100,-32,-50,-39,-54,55, 
  /* [15][0][][] */ -70,4,47,24,94,-5,8,34,19,69,-12,61,61,-16,-36,-19,14,43,8,-44,26,-49,-55,-61,46,-78,-47,62,-34,10,27,5,-60,-6,127,-19,-98,15,57,-26,-50,-30,14,-2,-35,-31,-19,-2, 
};
const TfArray<4, int> tensor_dimension24 = { 4, { 16,1,1,48 } };
const TfArray<16, float> quant24_scale = { 16, { 0.0052901445887982845, 0.0057357535697519779, 0.0052411574870347977, 0.0071154693141579628, 0.0043596071191132069, 0.006258031353354454, 0.0043595391325652599, 0.0052529918029904366, 0.0037211987655609846, 0.0036725928075611591, 0.007807265967130661, 0.0068090199492871761, 0.0046689803712069988, 0.0036270893178880215, 0.0063335010781884193, 0.0051224818453192711, } };
const TfArray<16, int> quant24_zero = { 16, { 0,0,0,0,0,0,0,0,0,0,0,0,0,0,0,0 } };
const TfLiteAffineQuantization quant24 = { (TfLiteFloatArray*)&quant24_scale, (TfLiteIntArray*)&quant24_zero, 0 };
const ALIGN(16) int32_t tensor_data25[16] = { -6618, 10051, -20299, -527, 7369, -14902, -37619, -9437, -5616, 4774, -17887, -11618, 5905, -11951, -3892, 978, };
const TfArray<1, int> tensor_dimension25 = { 1, { 16 } };
const TfArray<16, float> quant25_scale = { 16, { 0.00012447399785742164, 0.00013495891471393406, 0.00012332135520409793, 0.00016742281150072813, 0.00010257898975396529, 0.00014724780339747667, 0.00010257739631924778, 0.00012359980610199273, 8.7557622464373708e-05, 8.6413951066788286e-05, 0.00018370038014836609, 0.00016021223564166576, 0.00010985836706822738, 8.5343279351945966e-05, 0.00014902355906087905, 0.00012052898819092661, } };
const TfArray<16, int> quant25_zero = { 16, { 0,0,0,0,0,0,0,0,0,0,0,0,0,0,0,0 } };
const TfLiteAffineQuantization quant25 = { (TfLiteFloatArray*)&quant25_scale, (TfLiteIntArray*)&quant25_zero, 0 };
const ALIGN(16) int8_t tensor_data26[96*1*1*16] = { 
  /* [0][0][][] */ 27,6,-15,49,-127,-10,91,50,48,63,-10,18,14,1,32,95, 
  /* [1][0][][] */ -34,23,-88,-2,116,127,-5,-26,-9,20,-73,18,-77,79,-58,-59, 
  /* [2][0][][] */ -52,70,84,-9,59,92,15,36,29,-16,38,-31,66,-127,-8,22, 
  /* [3][0][][] */ 127,-25,15,0,44,47,-20,-5,40,42,-62,-31,-40,48,-47,61, 
  /* [4][0][][] */ -64,-18,4,29,-122,-14,-77,-31,-3,16,-11,-41,-17,45,-34,127, 
  /* [5][0][][] */ -127,2,50,14,107,22,23,18,-64,-1,-36,7,-88,72,-77,-29, 
  /* [6][0][][] */ -127,14,-34,39,-26,-90,90,18,-4,-42,-40,51,19,-2,-54,3, 
  /* [7][0][][] */ -32,127,18,-98,91,102,127,34,53,-10,32,34,93,35,-29,36, 
  /* [8][0][][] */ -44,-34,-64,43,-38,86,-39,-71,37,-19,69,47,127,76,-127,16, 
  /* [9][0][][] */ -12,-127,-11,71,-31,-64,-17,54,45,47,-3,59,-62,11,0,-40, 
  /* [10][0][][] */ -48,-45,-86,63,-62,100,53,-65,38,-23,35,-35,39,127,-60,83, 
  /* [11][0][][] */ -49,-77,-52,30,-6,59,34,30,16,24,72,-69,17,117,-84,127, 
  /* [12][0][][] */ -38,-97,-93,85,-118,-127,19,90,80,64,-35,96,4,-68,-15,-5, 
  /* [13][0][][] */ -68,-12,-31,-7,-21,9,32,17,-24,127,-2,-27,39,36,16,-10, 
  /* [14][0][][] */ -84,-5,-36,-29,17,60,-48,-100,127,-24,72,28,66,-22,-66,-71, 
  /* [15][0][][] */ 3,-127,96,-53,-38,-43,6,59,15,-47,-107,-30,86,-34,-27,-47, 
  /* [16][0][][] */ -14,-38,19,-30,28,27,-24,-24,59,-127,37,-13,-4,-10,-71,-82, 
  /* [17][0][][] */ -17,-7,38,-56,22,-21,-35,15,112,-52,19,72,95,-52,-14,-127, 
  /* [18][0][][] */ 69,12,-9,-104,-4,-32,111,-51,28,55,-22,60,-4,60,-13,-127, 
  /* [19][0][][] */ -58,-49,-26,-74,-67,51,-13,-29,29,-29,4,-127,-2,-17,-27,-24, 
  /* [20][0][][] */ 7,63,80,-94,52,-11,-31,90,-117,-127,30,-86,-31,105,-24,-15, 
  /* [21][0][][] */ 6,-122,-127,-31,82,49,120,51,-88,-98,-20,-10,120,-113,-25,29, 
  /* [22][0][][] */ 75,-13,83,-15,13,-8,52,22,37,127,25,20,7,-9,105,-11, 
  /* [23][0][][] */ -127,-67,-8,52,54,48,31,-7,-21,0,-9,-112,19,57,64,125, 
  /* [24][0][][] */ -4,4,4,52,6,-90,-10,-55,9,116,-127,54,-6,-70,60,-68, 
  /* [25][0][][] */ 81,-33,71,127,22,1,-32,34,-123,60,62,-64,-25,21,75,11, 
  /* [26][0][][] */ -12,13,13,51,-45,107,-25,36,-52,-28,-75,38,3,19,39,-127, 
  /* [27][0][][] */ 48,7,1,-39,-52,-7,-95,11,-109,-19,-71,-36,-93,55,-10,127, 
  /* [28][0][][] */ -62,9,22,-7,5,-22,-127,18,-27,-32,1,-19,7,-65,-52,-28, 
  /* [29][0][][] */ -14,-122,-26,98,-27,10,127,0,80,55,-112,66,41,-37,-50,72, 
  /* [30][0][][] */ 29,-70,-28,-3,-127,6,46,-45,21,22,-30,-43,-14,30,-2,45, 
  /* [31][0][][] */ -127,-27,-17,74,-24,20,-48,-31,-21,-45,-4,-40,-34,-71,-31,73, 
  /* [32][0][][] */ -127,-88,-91,-17,-90,-43,19,-42,116,48,-47,-49,42,44,32,3, 
  /* [33][0][][] */ -10,24,-96,27,-119,-64,48,-19,-127,10,-50,-68,1,76,47,68, 
  /* [34][0][][] */ 32,67,-23,22,-77,-40,52,15,16,-127,-21,27,-26,-10,53,112, 
  /* [35][0][][] */ 54,-45,-69,0,-127,0,59,-32,22,40,-20,3,28,66,57,86, 
  /* [36][0][][] */ -16,-4,-67,42,127,-16,61,76,-97,11,-96,-109,29,-32,36,58, 
  /* [37][0][][] */ -127,64,2,-80,23,-102,-37,-23,-26,-31,-20,37,69,-86,15,-117, 
  /* [38][0][][] */ 26,124,19,-55,-80,-67,-127,-65,-50,-73,59,69,-82,-85,88,2, 
  /* [39][0][][] */ 19,-39,16,86,1,63,70,-41,-24,48,24,-5,0,127,60,100, 
  /* [40][0][][] */ 114,36,56,109,-46,-36,29,52,-82,51,12,-31,-46,-12,127,-12, 
  /* [41][0][][] */ -26,-6,12,48,-110,118,-3,57,-58,24,-102,6,16,33,55,-127, 
  /* [42][0][][] */ 23,-127,53,-6,108,-3,49,6,-22,-80,-110,-21,-16,-1,-1,9, 
  /* [43][0][][] */ -30,-69,-29,4,127,18,0,64,-67,-42,-121,-74,127,6,-50,72, 
  /* [44][0][][] */ -26,-58,-86,-104,21,94,58,17,-24,-127,-66,70,-67,12,18,82, 
  /* [45][0][][] */ 17,-56,-74,13,-127,50,-33,-51,65,-55,17,-54,-10,18,-16,52, 
  /* [46][0][][] */ 13,-78,-35,-27,108,-54,6,99,-14,-14,25,54,-38,-40,40,-127, 
  /* [47][0][][] */ -64,-47,-28,89,4,16,24,61,-5,127,85,78,-71,53,-16,91, 
  /* [48][0][][] */ 43,-15,-73,-81,38,-67,-1,54,48,-68,-6,29,-61,10,-41,-127, 
  /* [49][0][][] */ 41,58,0,19,-24,-16,102,70,-61,127,-69,9,-43,-18,108,125, 
  /* [50][0][][] */ -9,-8,1,-7,-127,-2,-10,-38,57,13,34,40,-30,-64,5,3, 
  /* [51][0][][] */ 17,0,-23,-127,-28,112,79,-73,-4,17,30,-72,77,91,-49,17, 
  /* [52][0][][] */ 23,-14,0,-86,87,-104,-7,-30,29,2,127,-48,41,5,-39,97, 
  /* [53][0][][] */ -77,-56,16,-61,-25,-85,38,-119,-22,92,-127,46,-27,-26,0,-50, 
  /* [54][0][][] */ 44,61,17,-29,-127,-36,-48,-91,-17,-19,35,40,-45,-50,72,25, 
  /* [55][0][][] */ 14,7,-19,68,-27,19,42,-22,0,127,13,61,13,14,-3,38, 
  /* [56][0][][] */ 29,-127,-89,40,-98,57,20,12,118,-16,5,24,-30,-32,58,118, 
  /* [57][0][][] */ 63,51,65,-101,89,-2,-4,-4,75,-42,19,125,74,-83,127,-73, 
  /* [58][0][][] */ 108,-109,34,-72,51,8,13,127,91,119,-5,71,75,19,90,-12, 
  /* [59][0][][] */ -48,60,30,-42,-5,-106,-1,9,-15,12,-127,-118,-115,-59,94,-5, 
  /* [60][0][][] */ 21,-32,21,27,21,-26,-1,-37,6,127,-23,49,-15,-13,-29,-19, 
  /* [61][0][][] */ 66,72,8,-31,-74,-127,-32,-52,-24,-9,-29,20,-47,-20,89,87, 
  /* [62][0][][] */ -16,91,-38,34,-46,127,-42,15,-47,13,-46,26,-30,44,58,-79, 
  /* [63][0][][] */ 33,-3,-75,-127,-7,-37,63,-21,2,-88,-21,36,-25,51,30,-30, 
  /* [64][0][][] */ -44,17,6,-32,56,-73,24,111,-127,-13,-85,-53,-62,74,69,49, 
  /* [65][0][][] */ -52,-7,-60,-40,66,71,-14,-66,-108,-62,17,-31,-118,127,-55,55, 
  /* [66][0][][] */ -20,54,-20,20,-48,127,-8,29,-62,9,-32,33,-29,47,44,-72, 
  /* [67][0][][] */ -1,-22,-34,-29,20,-69,67,-87,-14,25,3,127,-34,-2,-23,-80, 
  /* [68][0][][] */ 42,-127,-2,117,-4,-14,-6,104,91,72,77,45,-91,66,1,-11, 
  /* [69][0][][] */ 19,70,78,-123,77,11,-28,127,26,110,52,84,83,-103,23,-126, 
  /* [70][0][][] */ 59,41,40,-37,109,10,-127,-64,-127,-92,1,50,-29,47,-123,-14, 
  /* [71][0][][] */ -41,-68,26,-61,38,-6,30,21,-104,59,-127,-58,18,70,-15,48, 
  /* [72][0][][] */ -22,27,58,-43,-61,-16,-90,-107,-1,65,-54,2,29,86,-127,23, 
  /* [73][0][][] */ 1,-35,-31,-55,42,-104,46,-74,93,92,91,-24,34,-32,-100,127, 
  /* [74][0][][] */ -2,-5,-26,74,-66,-4,92,18,59,56,17,100,127,33,-60,20, 
  /* [75][0][][] */ -29,27,-35,28,-45,127,-8,10,-50,29,-47,39,-12,43,28,-67, 
  /* [76][0][][] */ -44,70,-46,39,-71,-4,-19,12,50,54,-45,-35,51,-45,-127,14, 
  /* [77][0][][] */ 103,99,-127,90,85,95,84,60,42,8,86,-28,71,43,52,28, 
  /* [78][0][][] */ 8,-53,-7,-79,62,-118,39,-49,39,41,122,-36,14,-28,-42,127, 
  /* [79][0][][] */ -35,53,2,18,-5,-38,-26,-10,-127,-11,35,9,104,30,-83,-42, 
  /* [80][0][][] */ -99,23,68,-1,68,63,-9,-127,-104,52,-70,-74,4,-116,28,74, 
  /* [81][0][][] */ 65,90,-25,-14,24,-8,86,79,-116,115,-54,-44,-29,43,93,127, 
  /* [82][0][][] */ 66,108,-48,-33,-19,-55,72,-97,13,13,-43,53,127,-53,64,-84, 
  /* [83][0][][] */ 1,-11,29,23,-9,28,-9,-127,53,-38,98,22,55,-53,-56,-108, 
  /* [84][0][][] */ -127,-94,-39,-25,-1,96,98,6,76,61,90,89,60,98,-66,14, 
  /* [85][0][][] */ 113,12,82,-47,55,-18,-9,98,26,72,-51,10,-51,41,127,3, 
  /* [86][0][][] */ -75,84,-21,-1,35,81,16,21,115,48,127,-14,-43,82,19,-27, 
  /* [87][0][][] */ 6,-66,15,-52,51,-127,32,-32,41,-14,75,-44,42,-46,-55,84, 
  /* [88][0][][] */ -66,58,53,-11,97,-26,46,-13,-53,-64,81,-44,84,127,98,-108, 
  /* [89][0][][] */ -23,37,-9,26,-34,127,-12,34,-43,13,-26,23,-6,62,26,-86, 
  /* [90][0][][] */ 48,-83,25,1,107,16,74,41,-13,-127,-109,-38,-7,-7,-55,38, 
  /* [91][0][][] */ -24,38,-35,-54,4,-55,-77,27,-91,2,-119,-127,-95,-69,-12,39, 
  /* [92][0][][] */ 68,54,60,41,-127,-103,8,-8,-16,39,-20,-40,-12,-87,13,-6, 
  /* [93][0][][] */ -14,-127,-89,25,-87,-76,-14,125,71,52,-14,48,-65,30,18,-49, 
  /* [94][0][][] */ 97,14,112,6,6,-44,16,37,-6,47,-9,24,13,-10,127,-4, 
  /* [95][0][][] */ -52,-37,-39,-21,127,6,33,69,-32,-13,-81,-60,8,9,-45,44, 
};
const TfArray<4, int> tensor_dimension26 = { 4, { 96,1,1,16 } };
const TfArray<96, float> quant26_scale = { 96, { 0.0044846036471426487, 0.001935685402713716, 0.0038847627583891153, 0.0035209932830184698, 0.0035785408690571785, 0.0013440920738503337, 0.0038872805889695883, 0.0021487274207174778, 0.0016620514215901494, 0.0026058186776936054, 0.0018909038044512272, 0.0027223585639148951, 0.003119834465906024, 0.0066430936567485332, 0.002996781375259161, 0.0030609730165451765, 0.0056802504695951939, 0.0026814278680831194, 0.0028373992536216974, 0.0015084074111655354, 0.004602520726621151, 0.0012221394572407007, 0.0033662391360849142, 0.0022566900588572025, 0.0019874069839715958, 0.0031500379554927349, 0.0037449626252055168, 0.0037844150792807341, 0.0034155070316046476, 0.0039726598188281059, 0.0048023052513599396, 0.0025131767615675926, 0.0040194671601057053, 0.0011874535121023655, 0.002121517900377512, 0.0040807528421282768, 0.0019663043785840273, 0.0039735566824674606, 0.0020683445036411285, 0.0047663054428994656, 0.00085082923760637641, 0.0033633238635957241, 0.0028070858679711819, 0.0024056779220700264, 0.0019625413697212934, 0.0022646763827651739, 0.0019399974262341857, 0.0020027095451951027, 0.0041533824987709522, 0.003787235589697957, 0.0039810100570321083, 0.0017727974336594343, 0.0031501224730163813, 0.0026335737202316523, 0.00227748928591609, 0.0056116040796041489, 0.0030972971580922604, 0.0014736740849912167, 0.00225645094178617, 0.003048045327886939, 0.0027613930869847536, 0.0018097347347065806, 0.0033604875206947327, 0.0052088722586631775, 0.00077223108382895589, 0.0013611679896712303, 0.0039797225035727024, 0.0033401297405362129, 0.0012415116652846336, 0.0023722671903669834, 0.0030633315909653902, 0.0024008110631257296, 0.0022258081007748842, 0.0023796421010047197, 0.0048711840063333511, 0.0038799638859927654, 0.0039531639777123928, 0.0013916229363530874, 0.0028293316718190908, 0.0030823755078017712, 0.0020859437063336372, 0.0029299049638211727, 0.0024387110024690628, 0.0010801745811477304, 0.0033671623095870018, 0.0019939243793487549, 0.0028812952805310488, 0.0039981282316148281, 0.0040260376408696175, 0.0044267047196626663, 0.00280523463152349, 0.0013951878063380718, 0.003088794182986021, 0.0024800153914839029, 0.0029169244226068258, 0.0021161045879125595, } };
const TfArray<96, int> quant26_zero = { 96, { 0,0,0,0,0,0,0,0,0,0,0,0,0,0,0,0,0,0,0,0,0,0,0,0,0,0,0,0,0,0,0,0,0,0,0,0,0,0,0,0,0,0,0,0,0,0,0,0,0,0,0,0,0,0,0,0,0,0,0,0,0,0,0,0,0,0,0,0,0,0,0,0,0,0,0,0,0,0,0,0,0,0,0,0,0,0,0,0,0,0,0,0,0,0,0,0 } };
const TfLiteAffineQuantization quant26 = { (TfLiteFloatArray*)&quant26_scale, (TfLiteIntArray*)&quant26_zero, 0 };
const ALIGN(16) int32_t tensor_data27[96] = { 1276, 6811, 535, 1757, 2931, 11822, -346, 2529, 9665, -1113, 7147, 3188, 1705, 411, 3140, 200, 1799, 3865, -295, 9991, 611, 11030, -1131, 2199, -6528, 1152, 2352, 1541, 3968, 969, 1988, 3993, 1594, 13143, 4277, 2474, 5098, 1826, 3931, 1238, 21008, 1574, 2374, 1075, 3505, 6332, 6751, 7146, 1256, -718, 2020, 6293, 2810, -2573, 5184, 202, 1611, 10004, 963, 1727, 2732, 8635, 3127, -1, 22408, 11463, 1916, 2819, 10317, 3530, 2759, 1897, -4049, 4924, 1266, 2674, 576, 10413, 3626, 4328, 4051, 957, 3838, 14886, -385, 6025, 4097, 1733, -1045, 2081, 1708, 10762, 2902, 2384, 3149, 5513, };
const TfArray<1, int> tensor_dimension27 = { 1, { 96 } };
const TfArray<96, float> quant27_scale = { 96, { 0.00026295150746591389, 0.00011349751730449498, 0.00022778025595471263, 0.00020645090262405574, 0.00020982515707146376, 7.880986959207803e-05, 0.00022792788513470441, 0.00012598908506333828, 9.7453186754137278e-05, 0.00015279029321391135, 0.00011087177699664608, 0.00015962352335918695, 0.00018292924505658448, 0.00038951300666667521, 0.00017571411444805562, 0.00017947793821804225, 0.00033305739634670317, 0.00015722359239589423, 0.0001663688599364832, 8.8444379798602313e-05, 0.00026986547163687646, 7.1659262175671756e-05, 0.00019737699767574668, 0.00013231938646640629, 0.0001165301728178747, 0.00018470019858796149, 0.00021958317665848881, 0.00022189643641468138, 0.00020026578567922115, 0.00023293403501156718, 0.00028157970518805087, 0.00014735831064172089, 0.00023567855532746762, 6.9625479227397591e-05, 0.00012439367128536105, 0.0002392719907220453, 0.00011529283801792189, 0.00023298662563320249, 0.00012127588706789538, 0.00027946886257268488, 4.9887756176758558e-05, 0.00019720607087947428, 0.00016459144535474479, 0.00014105519221629947, 0.00011507219460327178, 0.00013278766709845513, 0.00011375034955563024, 0.00011742742935894057, 0.0002435305796097964, 0.00022206181893125176, 0.00023342364875134081, 0.00010394669516244903, 0.00018470516079105437, 0.00015441769210156053, 0.00013353893882595003, 0.0003290323365945369, 0.00018160778563469648, 8.6407817434519529e-05, 0.00013230537297204137, 0.00017871992895379663, 0.00016191229224205017, 0.00010611248580971733, 0.00019703975704032928, 0.00030541844898834825, 4.5279211917659268e-05, 7.9811099567450583e-05, 0.00023334815341513604, 0.0001958460925379768, 7.2795141022652388e-05, 0.00013909616973251104, 0.00017961623962037265, 0.0001407698291586712, 0.00013050864799879491, 0.00013952859444543719, 0.00028561835642904043, 0.00022749888012185693, 0.00023179090931080282, 8.1596808740869164e-05, 0.00016589582082815468, 0.00018073286628350616, 0.00012230779975652695, 0.00017179285350721329, 0.0001429920521331951, 6.3335253798868507e-05, 0.0001974311308003962, 0.00011691231338772923, 0.00016894267173483968, 0.00023442736710421741, 0.0002360638027312234, 0.00025955663295462728, 0.0001644829026190564, 8.1805832451209426e-05, 0.00018110920791514218, 0.00014541391283273697, 0.00017103175923693925, 0.00012407626491039991, } };
const TfArray<96, int> quant27_zero = { 96, { 0,0,0,0,0,0,0,0,0,0,0,0,0,0,0,0,0,0,0,0,0,0,0,0,0,0,0,0,0,0,0,0,0,0,0,0,0,0,0,0,0,0,0,0,0,0,0,0,0,0,0,0,0,0,0,0,0,0,0,0,0,0,0,0,0,0,0,0,0,0,0,0,0,0,0,0,0,0,0,0,0,0,0,0,0,0,0,0,0,0,0,0,0,0,0,0 } };
const TfLiteAffineQuantization quant27 = { (TfLiteFloatArray*)&quant27_scale, (TfLiteIntArray*)&quant27_zero, 0 };
const ALIGN(16) int8_t tensor_data28[1*3*3*96] = { 
  /* [0][0][][] */ -85,-6,10,-9,82,8,28,-20,-15,-9,-11,-44,-71,3,-4,33,-26,0,-35,-20,-6,35,18,29,3,-18,-23,-1,27,6,9,5,-8,-2,-54,-2,-8,-56,-43,15,-15,-6,45,-47,-30,39,-94,-30,4,13,8,58,-75,-14,49,-22,-3,-15,4,-33,0,-33,-10,-32,-33,-28,-60,-53,-21,25,52,-7,20,0,10,-11,-33,16,127,-16,-114,31,-97,-35,1,-30,-26,23,-23,-24,-5,-39,-4,28,-13,-1, -61,23,61,-99,-41,15,127,-49,-3,-8,-36,24,-110,1,-78,106,-17,68,58,-26,-13,127,127,105,22,2,52,39,127,29,127,-37,-107,-16,-124,-33,-36,-112,127,-19,-50,-127,16,-41,57,-29,-26,-17,61,-11,40,127,-99,1,-68,-6,-89,-3,-10,11,-14,-127,-118,-9,-80,-2,-16,-89,5,15,-119,89,-127,-15,-1,-27,-98,-38,-9,-105,-127,22,21,-87,125,82,-105,44,-127,-6,21,-17,7,127,-56,-92, -47,4,12,28,65,5,44,-32,-24,19,-17,7,-44,-1,-9,9,-17,-8,3,-22,-13,8,40,16,-13,-12,17,-12,9,10,0,8,32,5,-51,61,-12,-57,-37,-5,-22,-19,37,-33,-11,-24,-77,-41,-20,7,16,30,-1,-58,9,-20,57,-15,2,-41,1,-22,-68,3,-53,-43,127,-35,-11,23,34,4,-1,-1,-5,19,-27,41,-48,-14,-61,13,-111,-13,17,-32,-43,-25,-51,-44,-19,41,4,33,-24,-1, 
  /* [0][1][][] */ -121,8,55,-80,44,83,-43,-17,-18,-23,-12,-54,-117,22,30,123,-26,39,80,19,19,-8,95,-33,51,4,94,28,-1,12,-16,-20,-127,-14,48,3,-20,-67,-67,-127,-26,10,97,-38,-96,127,-91,-90,73,54,23,-39,-127,109,76,-39,25,-41,36,-21,15,-24,76,-72,-21,8,-40,-65,-18,-4,-110,-1,90,127,11,-74,-127,-46,-48,-53,-46,7,-11,-89,52,8,-115,69,-69,127,89,-88,127,-2,-59,-10, 67,127,127,127,-127,-127,127,-45,127,127,-54,-62,-71,127,-13,101,127,-127,127,127,127,-65,97,-127,-127,-127,127,127,-99,127,2,127,-38,127,127,-81,127,52,8,-28,127,18,-127,-101,127,-14,127,106,127,-127,127,-95,116,127,-127,127,-127,127,-127,127,-113,115,91,-127,127,127,-24,127,-105,-127,-30,-127,-5,113,127,75,21,-127,86,-127,79,127,127,127,127,78,-127,127,-67,60,8,-5,-94,-20,-127,-30, -127,-15,63,-103,16,44,-78,4,-48,-10,2,127,-127,16,26,127,-30,53,108,14,5,-16,82,-30,37,-3,67,17,-8,8,3,-17,-74,-26,74,127,-9,-90,-76,-89,-40,-16,37,-58,-76,-64,-67,-127,28,63,6,-31,119,5,94,-50,94,-37,50,-62,0,-27,-127,-20,-57,-22,-56,-66,-22,4,-127,-2,29,-89,-9,127,-96,-21,-57,13,-112,-17,-92,-98,-10,20,-108,40,-53,-79,127,127,-45,-10,-69,-14, 
  /* [0][2][][] */ -46,-29,-5,6,39,4,-9,24,-26,3,44,-49,124,0,3,-34,-10,-8,-59,-21,-21,-3,-34,-35,17,-21,16,3,18,1,-35,17,-21,-10,19,-13,-16,-34,-32,7,-37,-4,14,2,21,20,-49,-13,-31,-5,-8,-11,-20,24,35,-22,5,-25,4,-28,-10,19,-5,5,-15,-25,107,22,27,19,-17,-8,51,1,-5,-44,-33,46,-19,23,-33,25,-85,-21,5,-14,93,-9,-43,28,-9,-31,-17,-20,-25,-6, -34,-53,35,-105,-47,0,24,127,-69,75,127,-10,-33,34,127,59,-9,-33,102,-38,-21,-34,107,-6,24,21,63,7,17,13,-64,-45,1,-39,-101,-2,-109,-127,18,-87,-29,-124,-48,127,19,-25,-40,-12,26,-21,4,3,62,80,-45,-38,-63,-55,44,-77,127,49,93,21,-71,-45,-26,-70,127,26,-120,7,72,-39,32,-37,-2,-27,-1,65,-103,-15,-77,-82,47,-127,24,8,-75,-2,66,-1,12,-84,-22,127, -23,18,16,14,37,-7,-18,19,-27,8,17,57,103,6,4,-37,-11,14,14,-17,-22,-9,-3,-21,-11,-16,-13,5,17,7,-39,10,16,-1,-7,13,-18,-21,-39,4,-49,-11,-2,-18,32,-8,-49,1,-39,-3,2,-13,-7,6,24,-23,66,-16,14,-38,-5,24,-2,6,-21,-27,-20,8,28,13,-36,-11,-5,-54,-5,-2,-35,51,73,59,-22,8,-89,16,-10,-7,68,-4,-16,-15,6,35,-2,-9,-10,-15, 
};
const TfArray<4, int> tensor_dimension28 = { 4, { 1,3,3,96 } };
const TfArray<96, float> quant28_scale = { 96, { 0.0034298943355679512, 0.014202991500496864, 0.0049386275932192802, 0.0074109318666160107, 0.0094843078404664993, 0.022235509008169174, 0.0051124002784490585, 0.01024292316287756, 0.013093286193907261, 0.011065337806940079, 0.01406068354845047, 0.0072025195695459843, 0.0038105982821434736, 0.0061003961600363255, 0.008068133145570755, 0.0062748510390520096, 0.014687441289424896, 0.017473148182034492, 0.0052972491830587387, 0.02182818204164505, 0.011663878336548805, 0.013515854254364967, 0.0038879306521266699, 0.007984532043337822, 0.15615759789943695, 0.0068388902582228184, 0.0064621935598552227, 0.0064134174026548862, 0.016084285452961922, 0.0070853647775948048, 0.010295677930116653, 0.017257381230592728, 0.0036773337051272392, 0.026342250406742096, 0.0074938130564987659, 0.0089448904618620872, 0.013635437004268169, 0.0037350908387452364, 0.0090105719864368439, 0.0051734228618443012, 0.018473370000720024, 0.0075912587344646454, 0.012034863233566284, 0.0056996014900505543, 0.0075056743808090687, 0.012517121620476246, 0.0066115590743720531, 0.009091806598007679, 0.0065496666356921196, 0.012441816739737988, 0.0086605474352836609, 0.011035294272005558, 0.0071391640231013298, 0.009134465828537941, 0.012164916843175888, 0.013600590638816357, 0.006421992089599371, 0.017372401431202888, 0.024222802370786667, 0.0081760426983237267, 0.015749996528029442, 0.011793212965130806, 0.0073492806404829025, 0.0059824804775416851, 0.011526629328727722, 0.019583685323596001, 0.0056622792035341263, 0.0053670960478484631, 0.012628380209207535, 0.020375045016407967, 0.0052347825840115547, 0.012050251476466656, 0.016097299754619598, 0.0094693200662732124, 0.007996533066034317, 0.0093269236385822296, 0.0031404651235789061, 0.010824926197528839, 0.0064275986514985561, 0.0067437221296131611, 0.0032490333542227745, 0.0079212337732315063, 0.004393863957375288, 0.0095244543626904488, 0.0042521273717284203, 0.016238667070865631, 0.0049035064876079559, 0.0089664189144968987, 0.0054307198151946068, 0.0093668289482593536, 0.0040609077550470829, 0.010270676575601101, 0.015177029184997082, 0.0098915724083781242, 0.0040308218449354172, 0.014585197903215885, } };
const TfArray<96, int> quant28_zero = { 96, { 0,0,0,0,0,0,0,0,0,0,0,0,0,0,0,0,0,0,0,0,0,0,0,0,0,0,0,0,0,0,0,0,0,0,0,0,0,0,0,0,0,0,0,0,0,0,0,0,0,0,0,0,0,0,0,0,0,0,0,0,0,0,0,0,0,0,0,0,0,0,0,0,0,0,0,0,0,0,0,0,0,0,0,0,0,0,0,0,0,0,0,0,0,0,0,0 } };
const TfLiteAffineQuantization quant28 = { (TfLiteFloatArray*)&quant28_scale, (TfLiteIntArray*)&quant28_zero, 3 };
const ALIGN(16) int32_t tensor_data29[96] = { 14147, -2093, -8607, 7232, -42, 65, 1122, -845, 4897, -4222, -1596, -1782, 8442, -2721, -3749, -8990, 874, 245, -10473, -1170, -1182, -1135, -7009, 1866, -1, 8451, -14067, -5241, -3149, -3601, 897, -981, 11790, 7, 1735, -2884, 2498, 11697, 3918, 9822, 4152, 5398, -874, 7439, 835, -627, 9952, 5776, -6357, 250, -6017, -1139, 877, -3853, -2097, 2579, 1125, 3516, 292, 4543, -129, 809, 776, 5785, 9613, 888, 13051, 11288, -573, 151, 12383, 80, -432, 874, -3124, 388, 18095, 3914, 8399, 5880, 12701, -2281, 9000, 12230, -1243, -86, 11291, -6948, 10182, 183, -7619, -1503, 193, -496, 17209, 240, };
const TfArray<1, int> tensor_dimension29 = { 1, { 96 } };
const TfArray<96, float> quant29_scale = { 96, { 8.0703401181381196e-05, 0.00033418805105611682, 0.00011620300210779533, 0.00017437487258575857, 0.00022316018294077367, 0.00052318844245746732, 0.00012029177014483139, 0.00024100995506159961, 0.00030807731673121452, 0.00026036088820546865, 0.00033083962625823915, 0.00016947105177678168, 8.9661138190422207e-05, 0.00014353873848449439, 0.00018983843619935215, 0.00014764355728402734, 0.00034558685729280114, 0.00041113290353678167, 0.00012464115570764989, 0.00051360431825742126, 0.00027444420265965164, 0.00031802011653780937, 9.1480724222492427e-05, 0.0001878713519545272, 0.0036742964293807745, 0.00016091506404336542, 0.000152051608893089, 0.00015090394299477339, 0.00037845378392376006, 0.00016671446792315692, 0.00024225124798249453, 0.00040605603135190904, 8.6525498772971332e-05, 0.00061981764156371355, 0.00017632501840125769, 0.00021046801703050733, 0.00032083381665870547, 8.7884494860190898e-05, 0.00021201345953159034, 0.00012172760034445673, 0.00043466754141263664, 0.00017861786182038486, 0.00028317325632087886, 0.00013410826795734465, 0.00017660410958342254, 0.00029452051967382431, 0.00015556610014755279, 0.00021392486814875156, 0.00015410980267915875, 0.00029274864937178791, 0.0002037775848293677, 0.00025965398526750505, 0.00016798033902887255, 0.00021492861560545862, 0.00028623334947042167, 0.00032001390354707837, 0.00015110570529941469, 0.00040876239654608071, 0.00056994828628376126, 0.00019237748347222805, 0.00037058815360069275, 0.00027748735737986863, 0.00017292425036430359, 0.00014076425577513874, 0.00027121481252834201, 0.00046079259482212365, 0.0001332301035290584, 0.00012628461990971118, 0.00029713835101574659, 0.00047941284719854593, 0.00012317135406192392, 0.00028353533707559109, 0.00037876001442782581, 0.00022280753182712942, 0.00018815371731761843, 0.0002194570261053741, 7.3893301305361092e-05, 0.00025470415130257607, 0.00015123761841095984, 0.00015867581532802433, 7.6447846367955208e-05, 0.00018638197798281908, 0.00010338503489037976, 0.00022410480596590787, 0.0001000500560621731, 0.0003820862912107259, 0.00011537662794580683, 0.00021097456919960678, 0.00012778164818882942, 0.00022039597388356924, 9.5550771220587194e-05, 0.0002416629868093878, 0.00035710658994503319, 0.00023274288105312735, 9.4842871476430446e-05, 0.00034318113466724753, } };
const TfArray<96, int> quant29_zero = { 96, { 0,0,0,0,0,0,0,0,0,0,0,0,0,0,0,0,0,0,0,0,0,0,0,0,0,0,0,0,0,0,0,0,0,0,0,0,0,0,0,0,0,0,0,0,0,0,0,0,0,0,0,0,0,0,0,0,0,0,0,0,0,0,0,0,0,0,0,0,0,0,0,0,0,0,0,0,0,0,0,0,0,0,0,0,0,0,0,0,0,0,0,0,0,0,0,0 } };
const TfLiteAffineQuantization quant29 = { (TfLiteFloatArray*)&quant29_scale, (TfLiteIntArray*)&quant29_zero, 0 };
const ALIGN(16) int8_t tensor_data30[16*1*1*96] = { 
  /* [0][0][][] */ 31,26,14,-4,-4,-75,-19,-3,-24,-69,4,-16,51,-73,54,39,-87,-40,39,30,78,23,-57,1,-5,64,127,70,25,79,51,-24,10,2,27,-8,19,33,-15,0,119,23,24,-13,-15,13,7,-46,46,-39,100,-4,-63,-4,29,10,6,-40,5,11,-7,50,-47,-10,24,2,63,12,13,-35,3,10,21,47,7,36,64,-30,48,25,-10,41,35,32,-59,-6,-6,78,33,4,-70,-12,28,-13,103,69, 
  /* [1][0][][] */ 13,33,-35,-30,12,-15,76,-69,-52,-33,-54,-60,10,-43,14,-45,-24,-32,-21,-5,-29,-84,112,-34,-10,18,4,45,-56,21,-50,9,-26,19,1,-11,-10,61,-41,66,15,19,-6,-59,35,-58,-3,26,-68,1,44,-105,-51,44,45,50,23,23,-67,3,-46,-8,-24,-6,31,22,86,6,-25,-127,0,-3,30,67,-14,22,-44,-28,86,-36,47,-23,63,-64,-24,-58,-14,17,-22,-54,43,-16,59,-67,-26,53, 
  /* [2][0][][] */ -12,-1,22,-27,81,53,-51,41,-54,47,23,-29,40,-5,30,36,24,-28,-127,9,-22,-22,-8,32,0,-12,-33,15,-45,-11,-40,81,-17,-29,2,33,-40,34,-27,-34,63,14,20,29,1,68,27,-11,-76,13,-12,17,-13,43,1,-61,45,23,52,19,-23,11,-4,45,44,9,-29,-11,8,-9,-7,-22,34,48,25,55,-39,-12,-25,-38,32,41,52,3,-11,-51,-3,-37,-28,-31,2,76,-12,-27,86,-46, 
  /* [3][0][][] */ 39,-20,-23,-127,-1,-47,117,-10,30,126,-75,-23,20,-31,-35,86,64,50,-38,33,-62,44,11,-1,-41,104,61,-12,-49,-6,-69,82,5,-18,56,-2,14,-61,-39,78,24,11,-29,17,59,-37,22,33,62,-46,44,-41,120,31,19,-21,13,-23,-23,-60,-44,85,87,-12,-17,-12,119,-47,-43,-32,-74,23,1,-60,-5,-59,21,-62,127,-11,-17,-65,-54,-48,-36,-53,105,92,-32,38,-48,10,10,-112,-18,51, 
  /* [4][0][][] */ -20,72,35,19,-26,15,-51,-17,3,-35,4,-25,33,32,-26,24,-15,-44,-23,-78,17,-33,-73,8,-38,-28,-8,10,-36,127,-43,-14,16,-35,16,-33,69,37,-35,10,23,13,6,-43,-57,0,66,-23,11,-31,-53,0,-61,9,33,10,-3,48,-43,15,-27,-52,-12,9,64,23,-66,-9,-3,4,-13,-65,-34,65,50,72,-42,-1,-60,24,9,61,12,-73,41,-62,-22,-59,-26,-45,-36,-19,8,5,39,-19, 
  /* [5][0][][] */ 8,-9,24,-7,-21,-22,-15,-12,30,14,-26,2,-23,-29,8,-29,-9,10,-49,-52,-27,14,-22,8,20,-49,58,-16,-7,38,28,64,-7,-90,11,-1,-36,-37,-31,5,-52,-7,-29,7,10,1,-95,19,-27,8,38,-2,18,-76,13,27,-32,-60,-9,-23,33,9,10,52,-48,-1,103,-18,-19,-24,8,14,-17,30,30,20,-12,-11,127,39,-23,-15,-29,10,39,71,-6,80,5,-32,-21,1,18,-6,-33,16, 
  /* [6][0][][] */ -1,-51,58,33,-47,105,-37,-89,-8,-61,-83,44,10,17,-44,57,19,13,6,-60,-79,-9,-78,-40,5,-49,-8,66,-127,23,-24,-28,36,52,-31,-4,-16,-30,20,-28,-44,33,43,-34,16,26,-72,-11,26,20,-69,-92,66,-22,-35,4,7,-10,16,-18,-27,-34,24,5,38,-78,-56,-36,-93,-7,2,-44,-62,-86,9,-99,70,8,-54,31,-35,70,12,-67,62,-26,-20,-2,-83,62,-71,62,23,-42,64,-92, 
  /* [7][0][][] */ -31,4,-56,66,-28,2,54,8,-100,10,92,44,11,-56,-10,-35,-22,-3,4,16,-60,5,-26,-24,63,54,12,73,-33,30,7,38,-63,-127,41,113,-14,35,-55,-11,-13,-14,24,-92,37,73,83,73,-7,52,-35,18,39,-63,44,-58,-4,25,-72,-35,43,34,25,-60,73,-47,91,-17,-47,-29,79,21,-37,-26,-90,-33,47,-55,92,-35,-3,-10,-77,-16,56,0,-61,54,-20,21,13,32,56,-32,90,-22, 
  /* [8][0][][] */ -20,-58,9,-6,-10,-2,20,13,-19,-10,62,46,6,35,-8,-7,59,0,13,-1,-10,-73,-33,-24,-28,-35,75,5,-9,53,-7,-22,-13,9,-5,-9,-38,-11,14,-38,-4,39,27,-43,10,-23,26,-12,33,9,47,-4,-3,18,-41,-5,-15,97,-39,4,-12,-57,-59,0,-80,-23,-5,7,-8,14,48,-16,-12,-127,45,-105,17,19,-43,22,-24,-2,2,51,60,-51,-38,58,-47,78,17,-7,-52,4,-3,-62, 
  /* [9][0][][] */ -19,-31,-19,12,12,7,-7,35,-40,3,46,57,-19,40,23,-45,-11,31,-20,-27,-2,34,-5,8,-22,23,10,9,42,-8,13,-3,-5,-11,20,63,-20,-12,13,4,-2,-24,3,10,0,54,20,34,-28,0,-7,24,127,20,-12,-8,21,-20,23,13,-10,-5,85,6,21,28,62,-5,29,3,-29,15,24,-115,-34,-104,-27,-19,37,-1,-1,25,-2,-43,33,11,-53,-5,9,107,33,31,53,37,-15,31, 
  /* [10][0][][] */ 20,46,9,-8,-16,1,-40,-27,65,11,-41,29,15,7,-4,-54,-34,3,25,-6,18,-22,-15,-29,24,-24,-80,34,-24,50,-12,-4,25,25,-32,0,15,10,-4,3,36,-10,54,-43,-32,0,9,28,18,10,9,-43,-21,-7,-4,36,-10,12,-2,-9,-13,-49,-11,19,-3,-1,-86,-37,-41,-20,55,-17,-12,17,33,13,60,-15,-95,19,-3,30,6,-6,-1,11,-71,-127,-29,25,3,29,48,-30,10,14, 
  /* [11][0][][] */ 13,-27,10,-16,-46,16,9,12,73,-21,-20,-47,31,0,17,-12,-39,62,13,-44,6,47,9,-18,25,28,70,7,36,-60,-35,28,17,115,-87,12,25,-7,45,12,-63,48,-20,13,-54,7,-2,-31,63,-15,-14,-7,-24,17,-89,78,-18,-4,12,-38,46,12,-8,-72,-1,-27,-127,-92,18,-14,-98,32,73,27,-22,8,38,66,-116,-36,-9,-13,-5,-1,-31,-12,62,88,34,-65,9,3,-29,18,90,24, 
  /* [12][0][][] */ 34,36,-41,-27,8,-21,-1,36,48,-34,16,-15,0,-20,-17,21,7,-34,-24,18,5,54,5,42,-29,-33,-127,-3,86,-29,37,11,-17,-77,77,-6,30,-19,-5,32,3,-50,6,46,43,3,22,-20,-64,-10,-41,100,65,-25,31,-71,10,17,-40,-32,23,58,69,4,-5,-15,31,15,105,35,8,19,2,-4,-24,7,-37,-39,43,-55,16,-50,27,-39,-5,4,14,-95,4,27,-38,14,20,64,7,49, 
  /* [13][0][][] */ -6,31,-67,26,20,6,-13,-1,39,70,-58,46,-42,-28,33,-39,26,46,59,8,-44,-40,-10,15,52,43,-26,18,25,39,65,-24,-9,54,-9,66,16,-49,-49,-36,12,-20,17,10,51,51,-19,48,-44,30,-13,-17,-5,-48,60,36,16,-42,-22,-20,44,16,11,-25,21,98,127,35,14,-7,-56,-18,43,57,-89,63,17,-70,119,-25,-25,-37,13,16,18,47,-22,-33,-2,-19,10,57,45,23,61,50, 
  /* [14][0][][] */ -19,69,30,14,-52,-43,43,46,-59,-29,79,-9,-69,7,78,-8,-35,35,-68,37,-16,39,-108,16,-68,12,-59,-109,15,4,26,98,-70,23,17,-16,-31,-51,-2,-61,36,-40,67,-19,-5,76,-64,25,-2,-36,100,40,-2,30,-35,26,-50,39,34,30,46,79,4,32,30,-43,10,-76,61,63,78,47,-42,44,31,5,32,-5,44,14,-72,124,12,-117,116,-15,-5,23,-127,-8,-13,-6,-49,-12,51,39, 
  /* [15][0][][] */ 73,-28,9,44,19,5,-16,-22,13,33,-46,-12,59,55,-17,-19,-4,18,-63,34,-3,-29,23,38,59,-26,67,13,22,-38,-23,36,58,34,-18,-73,54,45,54,56,57,33,-16,24,-46,-127,12,-38,-25,-13,-18,-1,-7,-37,-14,55,-14,5,-17,13,4,-58,-40,40,19,30,-68,42,-6,-28,-8,-12,-3,-116,-40,-90,-22,30,-115,23,72,-42,44,13,-55,4,-11,-31,31,84,-9,-66,-21,-30,26,-18, 
};
const TfArray<4, int> tensor_dimension30 = { 4, { 16,1,1,96 } };
const TfArray<16, float> quant30_scale = { 16, { 0.0038743449840694666, 0.0021323221735656261, 0.0029914029873907566, 0.0028650506865233183, 0.0039655454456806183, 0.0055685862898826599, 0.0031999102793633938, 0.0026172983925789595, 0.0047963703982532024, 0.0042883311398327351, 0.0037031807005405426, 0.0036889039911329746, 0.0040829391218721867, 0.0046789343468844891, 0.0022094240412116051, 0.003060437273234129, } };
const TfArray<16, int> quant30_zero = { 16, { 0,0,0,0,0,0,0,0,0,0,0,0,0,0,0,0 } };
const TfLiteAffineQuantization quant30 = { (TfLiteFloatArray*)&quant30_scale, (TfLiteIntArray*)&quant30_zero, 0 };
const ALIGN(16) int32_t tensor_data31[16] = { -28729, -573, -1842, -16393, 13617, -7234, 24023, -10450, 10104, -10828, 13860, 10224, -6757, -30125, -8229, 9185, };
const TfArray<1, int> tensor_dimension31 = { 1, { 16 } };
const TfArray<16, float> quant31_scale = { 16, { 9.1161062300670892e-05, 5.0172286137240008e-05, 7.0385955041274428e-05, 6.7412955104373395e-05, 9.3306953203864396e-05, 0.00013102556113153696, 7.5292009569238871e-05, 6.1583494243677706e-05, 0.000112855777842924, 0.00010090191062772647, 8.7133666966110468e-05, 8.6797743279021233e-05, 9.6069154096767306e-05, 0.00011009257286787033, 5.1986447942908853e-05, 7.2010290750768036e-05, } };
const TfArray<16, int> quant31_zero = { 16, { 0,0,0,0,0,0,0,0,0,0,0,0,0,0,0,0 } };
const TfLiteAffineQuantization quant31 = { (TfLiteFloatArray*)&quant31_scale, (TfLiteIntArray*)&quant31_zero, 0 };
const ALIGN(16) int8_t tensor_data32[96*1*1*16] = { 
  /* [0][0][][] */ -41,14,-29,-48,-19,-48,-58,-55,69,-60,6,-29,64,-127,5,-70, 
  /* [1][0][][] */ -72,88,-106,-124,-56,43,-7,51,-2,6,105,-35,47,127,38,30, 
  /* [2][0][][] */ -67,6,-99,9,5,-51,6,-48,-127,79,81,16,66,35,-64,96, 
  /* [3][0][][] */ -43,-48,21,-38,-70,-1,-49,-127,-2,16,26,-67,-69,-44,-113,-41, 
  /* [4][0][][] */ 97,8,7,27,-63,-22,-127,6,5,65,-3,41,20,30,-56,-52, 
  /* [5][0][][] */ -82,33,-105,-61,31,-64,-26,-86,66,-37,8,-19,-7,-127,-99,-46, 
  /* [6][0][][] */ -15,-25,-36,30,-84,77,50,-37,-11,-30,117,-37,13,15,-127,1, 
  /* [7][0][][] */ -29,95,127,-84,78,61,-4,-47,25,71,-92,-24,47,12,34,69, 
  /* [8][0][][] */ -75,-6,21,-13,42,54,127,103,-44,-28,-53,-102,27,53,-56,-45, 
  /* [9][0][][] */ 39,67,90,5,-127,-1,-111,-125,25,14,112,31,-39,-76,73,-50, 
  /* [10][0][][] */ -35,-115,20,-79,-107,43,27,24,-27,-40,-8,40,-34,67,-127,-7, 
  /* [11][0][][] */ 96,-39,-17,85,-73,-2,72,-12,127,122,-35,42,29,-65,-13,99, 
  /* [12][0][][] */ -68,-77,127,-22,84,-46,-15,78,57,-14,90,114,-53,17,-110,48, 
  /* [13][0][][] */ -11,-38,12,22,18,7,127,31,-80,18,10,4,-20,109,79,-52, 
  /* [14][0][][] */ 127,-97,103,-12,84,60,96,85,60,57,68,30,59,-29,30,-43, 
  /* [15][0][][] */ -10,108,5,-40,54,127,-76,48,-39,-10,-36,-11,-46,122,-30,-48, 
  /* [16][0][][] */ -27,78,127,-27,14,70,-3,-33,0,10,-12,67,59,-24,91,119, 
  /* [17][0][][] */ 2,49,24,-127,17,-43,-7,-80,-70,60,-30,74,-65,-31,76,-12, 
  /* [18][0][][] */ -90,20,-79,-99,119,109,-67,-76,28,87,127,67,0,112,-54,-18, 
  /* [19][0][][] */ 57,127,66,39,35,-15,-4,-14,-26,110,48,121,42,59,-52,51, 
  /* [20][0][][] */ 114,26,38,76,-74,-34,-36,65,-48,-44,-127,-24,78,-46,50,-31, 
  /* [21][0][][] */ -62,-64,-28,105,-13,27,-127,32,-2,14,13,17,5,30,-67,-9, 
  /* [22][0][][] */ -5,-5,-39,-53,127,5,-24,55,37,74,24,43,-17,25,-2,16, 
  /* [23][0][][] */ -73,36,-34,17,27,99,126,107,-39,127,-15,-29,3,39,-67,-32, 
  /* [24][0][][] */ 24,-66,19,-1,127,41,87,-19,29,1,30,10,-61,29,13,-10, 
  /* [25][0][][] */ 127,-77,93,26,22,-21,-24,120,117,-26,-75,-6,125,-57,94,26, 
  /* [26][0][][] */ 56,26,118,90,61,-8,-70,-24,4,73,-2,127,23,-72,21,-75, 
  /* [27][0][][] */ -81,33,-57,22,-45,103,47,-119,94,-71,121,12,36,-68,111,127, 
  /* [28][0][][] */ -47,38,-101,-102,44,-66,5,-45,-117,127,-40,47,-16,69,-36,69, 
  /* [29][0][][] */ 96,78,-56,53,7,58,-54,-19,46,20,14,65,-127,-3,-15,69, 
  /* [30][0][][] */ -16,87,-105,-53,76,-33,20,12,-47,49,-73,-11,18,49,-6,127, 
  /* [31][0][][] */ 33,-118,73,40,78,-57,-93,44,-5,10,32,-31,-83,73,27,127, 
  /* [32][0][][] */ -41,58,14,37,-98,67,45,27,59,-127,14,-69,11,30,38,31, 
  /* [33][0][][] */ -70,-16,38,77,-7,18,-40,1,-38,-60,15,-18,2,-14,-4,127, 
  /* [34][0][][] */ -14,25,-73,-80,43,-12,-2,56,21,-5,-4,-19,-36,-22,-27,127, 
  /* [35][0][][] */ 40,-14,7,-35,-1,25,-56,-18,-5,-127,-58,-8,4,-37,22,-6, 
  /* [36][0][][] */ -23,6,-127,-22,45,107,-4,50,-37,-1,41,23,-6,31,-37,52, 
  /* [37][0][][] */ 33,34,66,-90,39,-127,64,-26,-95,72,-85,-39,10,15,97,68, 
  /* [38][0][][] */ -61,127,36,-47,42,32,92,-92,40,-2,-119,27,-55,-115,-114,21, 
  /* [39][0][][] */ 107,30,-98,-116,-19,-52,-8,-66,7,12,2,-16,53,4,-127,-89, 
  /* [40][0][][] */ -43,5,-73,-83,-74,-15,3,-127,12,9,12,-59,45,72,36,61, 
  /* [41][0][][] */ -39,-91,-10,127,-11,-31,-58,-19,-5,-45,56,-58,-53,-16,5,33, 
  /* [42][0][][] */ -37,63,-32,-127,32,0,17,-12,46,9,-49,8,82,-13,-3,29, 
  /* [43][0][][] */ 6,65,-19,11,127,48,33,-8,-10,16,-5,-70,-91,-47,-34,5, 
  /* [44][0][][] */ 101,-10,33,41,-33,-10,-1,30,33,-56,19,21,127,-17,-30,-27, 
  /* [45][0][][] */ 13,-78,-51,52,-20,-93,26,45,52,1,-2,31,-102,127,30,-36, 
  /* [46][0][][] */ -19,-96,67,80,-23,-41,-101,33,5,-47,10,-11,50,66,69,127, 
  /* [47][0][][] */ -38,-55,10,59,-4,3,57,25,1,-71,-127,-45,46,-20,-53,21, 
  /* [48][0][][] */ -52,85,-9,-35,-1,70,-14,-114,10,-34,9,-33,45,-127,-32,-10, 
  /* [49][0][][] */ -64,-2,41,-26,1,-7,102,127,-25,-19,-20,8,-33,27,-46,26, 
  /* [50][0][][] */ 54,28,-91,34,27,-127,-37,4,-84,47,-40,0,19,-88,-94,-34, 
  /* [51][0][][] */ -92,35,-42,119,-6,33,-44,-68,-49,-82,-6,-59,23,46,-47,127, 
  /* [52][0][][] */ -127,0,28,-15,5,33,63,-2,42,-72,-27,-35,-109,-67,-113,6, 
  /* [53][0][][] */ -51,-53,-56,-127,-35,15,11,58,53,-48,-43,6,-22,45,59,97, 
  /* [54][0][][] */ 11,-30,4,-10,-56,62,75,-22,-8,-84,45,7,-27,-20,-127,47, 
  /* [55][0][][] */ -18,-45,-32,43,84,-43,32,100,-74,-48,-127,-31,57,-18,-30,29, 
  /* [56][0][][] */ 67,-39,-66,-47,-108,41,-127,4,-6,-19,-40,-4,109,-15,27,9, 
  /* [57][0][][] */ -63,4,13,-55,127,54,60,68,-31,65,14,-23,-62,83,-118,-30, 
  /* [58][0][][] */ 22,2,15,-24,33,-20,-39,-53,32,-127,-66,3,-59,-38,-41,50, 
  /* [59][0][][] */ -80,-27,-28,-9,11,55,-63,-7,52,127,-74,-11,-25,9,10,28, 
  /* [60][0][][] */ 11,-46,11,20,-127,-37,49,4,8,39,-13,48,-4,-47,41,45, 
  /* [61][0][][] */ 30,23,-65,-8,-18,-17,-127,-80,-38,8,22,92,73,-20,68,40, 
  /* [62][0][][] */ 62,-12,58,-13,-26,41,36,118,-63,118,17,82,67,59,49,127, 
  /* [63][0][][] */ 4,-108,-24,-18,-55,25,54,-15,-4,-13,5,-28,-28,127,106,29, 
  /* [64][0][][] */ 8,-36,-127,-32,11,71,17,-19,-21,-110,15,25,50,-54,-39,106, 
  /* [65][0][][] */ -19,-22,78,37,77,-27,86,57,-32,-2,-127,-70,16,78,-63,-4, 
  /* [66][0][][] */ -56,-86,26,-110,-35,-127,72,-47,19,-38,8,71,-61,-47,-60,73, 
  /* [67][0][][] */ -11,-71,-84,1,-74,108,-22,-127,-68,-21,-22,-80,26,-24,-57,17, 
  /* [68][0][][] */ 127,41,44,0,-72,-7,-79,-67,-58,-107,-23,0,23,-30,50,-42, 
  /* [69][0][][] */ 29,5,24,-25,-16,-32,-12,17,-8,127,-26,4,10,31,62,-14, 
  /* [70][0][][] */ 30,-27,-16,40,-127,27,-32,-93,67,92,22,53,11,-54,-12,29, 
  /* [71][0][][] */ 104,-68,111,64,-54,-68,30,-13,127,-12,-63,28,29,-63,45,46, 
  /* [72][0][][] */ -16,-74,30,105,77,-3,-127,91,75,-3,24,-4,-33,-70,-81,99, 
  /* [73][0][][] */ 46,23,51,-127,63,-90,-47,40,12,115,-33,4,24,-98,12,-24, 
  /* [74][0][][] */ 77,19,36,49,-127,-28,49,10,-88,-30,15,-58,27,-52,12,26, 
  /* [75][0][][] */ 112,118,-112,27,89,67,-28,-42,-19,-27,49,101,-127,58,59,85, 
  /* [76][0][][] */ -90,-29,17,-57,-50,-11,107,-17,-44,36,92,34,-65,-127,-19,99, 
  /* [77][0][][] */ -74,127,-30,-12,-30,-64,70,57,23,-68,-17,53,-22,50,-2,52, 
  /* [78][0][][] */ 99,26,-59,16,-70,31,-127,-38,-12,10,-82,10,41,-99,28,40, 
  /* [79][0][][] */ -86,-51,126,40,-49,-110,-65,-64,-44,47,-19,-11,-36,127,-67,111, 
  /* [80][0][][] */ 63,109,12,-127,-10,41,83,-42,-6,14,-40,34,85,-49,6,-6, 
  /* [81][0][][] */ 25,-76,3,-85,116,30,-1,127,89,30,-8,-56,-8,27,-75,-91, 
  /* [82][0][][] */ 104,37,108,21,122,-127,19,39,-10,117,-55,37,-7,-61,20,-109, 
  /* [83][0][][] */ -61,99,38,6,35,50,127,109,-5,70,-15,-86,-75,109,-48,-74, 
  /* [84][0][][] */ 26,-75,-27,115,-4,-51,-101,35,-80,47,-34,23,-127,68,4,-89, 
  /* [85][0][][] */ -61,79,18,-48,-22,-56,-35,-45,17,47,8,-66,-127,-35,-60,37, 
  /* [86][0][][] */ -12,58,90,116,57,-30,61,26,3,25,-56,-77,33,75,-127,-66, 
  /* [87][0][][] */ -35,63,120,-59,-127,-28,37,14,47,-23,-1,23,-52,18,0,9, 
  /* [88][0][][] */ -26,-91,-127,25,44,22,-19,45,-33,-112,-112,-115,115,6,38,38, 
  /* [89][0][][] */ 7,24,7,-101,-8,-43,-24,36,127,-9,14,-100,-1,-50,37,-57, 
  /* [90][0][][] */ -4,61,5,4,-40,52,41,126,-17,-80,-22,127,40,5,-33,78, 
  /* [91][0][][] */ -40,-10,-10,44,61,38,-15,-114,-12,28,-32,3,-70,-127,-49,-3, 
  /* [92][0][][] */ -51,24,-9,-40,-127,-5,-73,17,-14,60,68,47,-2,-18,47,10, 
  /* [93][0][][] */ 124,53,102,51,-127,-72,8,21,-35,-50,-30,-68,30,-45,-5,-14, 
  /* [94][0][][] */ -47,-125,19,-127,0,52,-24,27,80,-14,19,31,13,84,-48,45, 
  /* [95][0][][] */ -35,-65,-46,-65,93,116,-46,36,85,52,-88,49,-7,127,-97,57, 
};
const TfArray<4, int> tensor_dimension32 = { 4, { 96,1,1,16 } };
const TfArray<96, float> quant32_scale = { 96, { 0.0021492352243512869, 0.0016637709923088551, 0.0033722613006830215, 0.0031113617587834597, 0.0014756245072931051, 0.001652868464589119, 0.0019197817891836166, 0.0023876440245658159, 0.0021059550344944, 0.0010400767205283046, 0.0037011357489973307, 0.0020588156767189503, 0.0019364911131560802, 0.0027245050296187401, 0.0029382195789366961, 0.002181139076128602, 0.0030290321446955204, 0.0018057964043691754, 0.0017151834908872843, 0.0017898161895573139, 0.0020254319533705711, 0.0013786928029730916, 0.0013350212248042226, 0.0020485161803662777, 0.0022890609689056873, 0.0027995193377137184, 0.00079568877117708325, 0.0019291375065222383, 0.0025942109059542418, 0.00213627889752388, 0.0015326455468311906, 0.0022057814057916403, 0.001557361101731658, 0.0037589045241475105, 0.0027572244871407747, 0.0026677781715989113, 0.0025563335511833429, 0.0018959240987896919, 0.0019494097214192152, 0.0027405309956520796, 0.0029256539419293404, 0.0028988488484174013, 0.0027113312389701605, 0.0031919546891003847, 0.0038339626044034958, 0.0024999452289193869, 0.0022600123193114996, 0.0024419913534075022, 0.0021003563888370991, 0.0029110114555805922, 0.0020729009993374348, 0.0031566107645630836, 0.002451807027682662, 0.0021633685100823641, 0.0045953686349093914, 0.0025813027750700712, 0.0025128298439085484, 0.0018234448507428169, 0.0021396083757281303, 0.0034075574949383736, 0.0028373613022267818, 0.0018413793295621872, 0.0024540729355067015, 0.0019930293783545494, 0.0026372962165623903, 0.0015161248156800866, 0.0016797119751572609, 0.0030143172480165958, 0.0017356495372951031, 0.0043169865384697914, 0.0017208835342898965, 0.0021280501969158649, 0.0018350161844864488, 0.0027721473015844822, 0.0022512192372232676, 0.0016668325988575816, 0.002170276828110218, 0.003033994697034359, 0.0021466168109327555, 0.0015902123413980007, 0.002129651140421629, 0.0018742919201031327, 0.0014211448142305017, 0.0019771764054894447, 0.0018768452573567629, 0.0030836057849228382, 0.0018876718822866678, 0.0029076959472149611, 0.00061079504666849971, 0.0029158287215977907, 0.0034757668618112803, 0.0029044628608971834, 0.0013468348188325763, 0.0023310016840696335, 0.0033238306641578674, 0.0020162975415587425, } };
const TfArray<96, int> quant32_zero = { 96, { 0,0,0,0,0,0,0,0,0,0,0,0,0,0,0,0,0,0,0,0,0,0,0,0,0,0,0,0,0,0,0,0,0,0,0,0,0,0,0,0,0,0,0,0,0,0,0,0,0,0,0,0,0,0,0,0,0,0,0,0,0,0,0,0,0,0,0,0,0,0,0,0,0,0,0,0,0,0,0,0,0,0,0,0,0,0,0,0,0,0,0,0,0,0,0,0 } };
const TfLiteAffineQuantization quant32 = { (TfLiteFloatArray*)&quant32_scale, (TfLiteIntArray*)&quant32_zero, 0 };
const ALIGN(16) int32_t tensor_data33[96] = { 4732, 3458, 563, -770, 7471, 7092, 6827, 1418, -431, 11373, 834, -3287, 3646, 2208, 470, -610, 2395, 6326, -594, 1, 4326, 8496, 9985, -1767, -3336, -403, 16387, -316, 1232, 1457, 8186, -1828, 7085, 1671, 3318, -3381, 1125, -4541, -240, 1493, 1619, 997, 1956, -728, 998, 2172, 3435, 3768, 4122, 2058, 5080, 2015, -2486, 1801, 615, 2069, 1762, 3113, 4831, 752, -930, 5427, 3437, 4694, 2662, 6858, -5397, 2113, 4926, -552, 5979, 2038, 3503, 2090, 3284, 2322, -884, 1769, 2669, 5705, 2811, 3455, 7342, 782, 2931, 2851, 1542, -927, 22890, -801, 825, -959, 8972, 2315, -25, -752, };
const TfArray<1, int> tensor_dimension33 = { 1, { 96 } };
const TfArray<96, float> quant33_scale = { 96, { 0.00015178155445028096, 0.00011749748955480754, 0.0002381531085120514, 0.00021972808463033289, 0.00010421036131447181, 0.00011672754044411704, 0.00013557728379964828, 0.0001686182658886537, 0.00014872505562379956, 7.3451461503282189e-05, 0.00026137862005271018, 0.00014539601397700608, 0.00013675731315743178, 0.00019240779511164874, 0.00020750057592522353, 0.00015403464203700423, 0.00021391386690083891, 0.00012752749898936599, 0.00012112830154364929, 0.00012639895430766046, 0.00014303841453511268, 9.7364929388277233e-05, 9.4280789198819548e-05, 0.00014466865104623139, 0.0001616562221897766, 0.00019770539074670523, 5.6192489864770323e-05, 0.00013623798440676183, 0.0001832062698667869, 0.00015086655912455171, 0.00010823725460795686, 0.00015577492013107985, 0.00010998269863193855, 0.00026545830769464374, 0.00019471847917884588, 0.0001884016819531098, 0.00018053132225759327, 0.00013389241939876229, 0.00013766964548267424, 0.00019353957031853497, 0.00020661317103076726, 0.0002047201560344547, 0.00019147744751535356, 0.00022541964426636696, 0.0002707590174395591, 0.00017654911789577454, 0.00015960476594045758, 0.00017245634808205068, 0.00014832966553512961, 0.00020557909738272429, 0.00014639073924627155, 0.00022292361245490611, 0.00017314954311586916, 0.00015277967031579465, 0.00032453041058033705, 0.00018229467968922108, 0.00017745903460308909, 0.00012877385597676039, 0.00015110168897081167, 0.0002406457788310945, 0.00020037783542647958, 0.00013004041102249175, 0.00017330955597572029, 0.00014075011131353676, 0.00018624900258146226, 0.00010707054025260732, 0.00011862326209666207, 0.00021287468553055078, 0.00012257363414391875, 0.00030487074400298297, 0.00012153084389865398, 0.00015028544294182211, 0.00012959103332832456, 0.00019577234343159944, 0.00015898379206191748, 0.00011771370918722823, 0.00015326753782574087, 0.00021426432067528367, 0.00015159664326347411, 0.00011230268864892423, 0.00015039849677123129, 0.00013236473023425788, 0.00010036294406745583, 0.00013963055971544236, 0.00013254504301585257, 0.00021776791254524142, 0.00013330964429769665, 0.00020534495706669986, 4.3135074520250782e-05, 0.00020591930660884827, 0.00024546281201764941, 0.00020511663751676679, 9.5115079602692276e-05, 0.00016461811901535839, 0.00023473288456443697, 0.0001423933426849544, } };
const TfArray<96, int> quant33_zero = { 96, { 0,0,0,0,0,0,0,0,0,0,0,0,0,0,0,0,0,0,0,0,0,0,0,0,0,0,0,0,0,0,0,0,0,0,0,0,0,0,0,0,0,0,0,0,0,0,0,0,0,0,0,0,0,0,0,0,0,0,0,0,0,0,0,0,0,0,0,0,0,0,0,0,0,0,0,0,0,0,0,0,0,0,0,0,0,0,0,0,0,0,0,0,0,0,0,0 } };
const TfLiteAffineQuantization quant33 = { (TfLiteFloatArray*)&quant33_scale, (TfLiteIntArray*)&quant33_zero, 0 };
const ALIGN(16) int8_t tensor_data34[1*3*3*96] = { 
  /* [0][0][][] */ 64,124,12,28,-41,5,42,47,81,-77,-92,56,-16,-35,33,-28,-98,23,-6,36,34,72,40,89,10,-6,-60,28,2,15,24,-32,-39,14,-31,89,4,82,-15,-9,18,-39,-5,45,-127,8,2,-32,-7,-116,-17,2,22,55,-39,-13,-55,-82,-49,-125,-127,-9,-88,10,-31,48,-11,-19,-18,62,32,2,-35,5,31,19,-12,-33,-127,15,21,-80,57,-13,-110,-44,1,16,-127,18,-102,48,75,-3,87,-5, -48,-45,11,65,-19,85,-35,3,70,9,-127,55,-26,-42,-88,86,-105,77,35,106,127,14,83,127,30,8,9,72,11,127,5,-127,65,86,12,31,78,104,-20,-127,127,-21,101,127,-70,-30,127,-79,-15,-127,-113,-20,16,127,-23,-127,11,30,-127,-61,-55,-124,-20,106,-33,71,33,-51,-6,127,127,-1,-81,21,-38,-87,32,-62,-72,127,10,-59,127,-59,-106,-8,127,44,74,82,-109,6,127,-25,127,12, 24,-127,9,18,-14,-10,-1,43,73,20,-49,9,-21,20,18,-80,-46,14,13,38,32,35,22,83,26,-30,16,47,15,22,13,-77,-34,-71,-28,42,-11,20,-1,48,-9,30,-22,37,-91,7,-2,-9,42,-94,12,-7,10,9,-6,-11,90,-106,-8,-87,-75,24,-53,-5,61,25,-51,-25,-11,29,23,28,-12,-38,2,29,-9,-15,-86,1,27,-64,38,5,-28,-42,10,-48,-92,9,-51,29,40,41,54,-16, 
