#include <stdint.h>
// dimension (153, 128). 
// 153 is num_embeddings. 128 is dim_feat
const int16_t input_embed_weights[19584] = {
    0, 0, 0, 0, 0, 0, 0, 0, 0, 0, 0, 0, 0, 0, 0, 0, 0, 0, 0, 0, 0, 0, 0, 0, 0, 0, 0, 0, 0, 0, 0, 0, 0, 0, 0, 0, 0, 0, 0, 0, 0, 0, 0, 0, 0, 0, 0, 0, 0, 0, 0, 0, 0, 0, 0, 0, 0, 0, 0, 0, 0, 0, 0, 0, 0, 0, 0, 0, 0, 0, 0, 0, 0, 0, 0, 0, 0, 0, 0, 0, 0, 0, 0, 0, 0, 0, 0, 0, 0, 0, 0, 0, 0, 0, 0, 0, 0, 0, 0, 0, 0, 0, 0, 0, 0, 0, 0, 0, 0, 0, 0, 0, 0, 0, 0, 0, 0, 0, 0, 0, 0, 0, 0, 0, 0, 0, 0, 0, -327, 244, 2316, -1530, -190, -864, 1230, -1067, 746, -140, 3613, -2488, -771, 4794, -1332, -3908, 1787, 398, -362, 1553, -272, 1334, 727, -745, -2680, -127, 751, -670, 1171, -477, -1867, 1234, 1969, -980, -2702, 37, -2053, -3182, 3590, 2290, -1048, -3560, 2055, 1264, 92, -92, 2364, 1288, -4328, 469, -3563, 1567, -1124, -1216, 1822, 1654, -5292, 817, -1557, -5087, 824, 751, -808, -4277, -3754, 928, 771, 341, -2767, 835, 2999, -1035, 1449, -2195, 1570, -3168, 1199, 761, 3644, 3233, -314, 659, 1954, 634, -3064, -1975, -808, -4692, 2276, 4147, -4, 852, 650, 4939, 1590, 653, 2068, -2181, 1114, 798, 38, -961, 678, 868, 324, 69, -4155, -1580, -3402, -957, -1601, 4175, 102, 3458, 363, -7, -661, -2262, 134, 767, -1651, -336, -54, -1973, 3702, -1092, -1557, -2289, 1776, 330, 922, -2500, 4091, -3024, -172, 606, -248, -2651, -1667, 497, -82, 1445, -2274, 16, 1520, 486, -2698, 688, -976, -2376, 1455, 2408, -3592, -2666, 843, 4136, -2071, 2326, 1107, 11, -1959, -848, -199, 3268, -2181, -2022, 1029, 263, -405, -2655, 473, -339, 2305, 408, -831, 1426, -1103, -1774, 2451, -4399, -304, 1197, -2600, -1344, 239, -3347, -1205, 1103, 51, 1231, 2787, 748, 159, 4507, -1352, -1573, -952, 2071, 1333, 1959, 1980, 4694, -620, 998, 48, -1290, -895, 218, -254, 578, -190, -982, 5533, -1176, -2480, -1981, -2858, -1826, 1791, 2510, 1362, -2666, -1496, -54, -3358, -1158, -2503, -1907, -3697, -3688, 1160, 545, -1139, -625, -1390, -2158, 2186, 2659, 856, -1329, -2745, -2459, -746, -2569, -2254, -133, -2996, -4560, -212, 1425, 1240, -4158, -567, -1715, -703, -67, 659, -866, -1879, -214, 826, 431, 1468, 1180, 229, -2576, 1127, 384, -60, 283, -970, 7162, 3058, 182, -273, 715, -332, -1501, -5649, 2323, -170, -1054, -2133, 3970, 793, 685, -117, -159, -1258, -323, -2881, -2200, 1357, 2930, -2568, -1261, 1284, -2749, -895, 1388, 1912, -438, -342, -895, -516, -1681, 1023, 6691, -1045, -17, -5340, -4332, 2506, -1632, -6502, 1509, -280, 114, 1208, -679, -697, 1929, 1706, -1715, 388, -4374, 2783, -277, -2047, 2929, 1720, 5143, -1035, -442, 1238, 869, 1744, 1455, 509, -1205, -865, 678, 1379, 3133, -432, -1454, -2190, -1978, 865, -132, -2199, -3201, 933, -4362, 1988, 297, -1819, -2254, 547, 1488, 4194, -2683, -4479, -3667, -177, 4019, 1589, -1886, 3555, 3563, 1197, -1076, 410, -3033, -2718, 531, -2228, 2323, -1763, -1956, -133, 1627, -2062, -609, 2129, 33, -63, -1914, 641, 20, -839, -1510, -600, -2657, 672, 1615, 1574, -2241, 122, -435, -3136, 2490, -2092, -2171, -624, 1540, 1309, 688, -518, 1029, 1244, -2924, 2505, -746, 1874, 340, 613, -718, 1345, -927, 3336, -767, 1754, -787, -1396, 1252, -2804, -792, 464, 2266, 3249, -155, -950, 1810, -1848, -3345, -2657, 626, 929, 1097, -743, 360, 722, 150, 6640, 3809, 2653, -1500, 816, -505, -1281, -3855, -2949, 1341, 3021, -1830, -1401, 500, -221, -1531, -2374, 1179, 331, 665, 4577, 2611, -1074, 3224, 652, 899, -2468, 2141, -3993, -1223, 1372, 1054, 1319, 2249, -1165, 75, -3541, 228, 3697, -3773, 1177, -1503, 1395, -1656, 1111, -1066, 1845, -220, 2045, 801, -341, 1062, 474, 540, -3913, 2522, 3299, -282, 374, -3909, 2801, 495, 1103, -4961, 2884, 1149, 2924, -108, -1606, 2464, 234, -292, 105, 3787, 2830, -1748, -27, 410, 3311, -4297, 1282, 2902, -72, -3213, -1308, 2112, 472, 164, 1852, -493, -1459, -1376, 93, -2520, -2345, -852, -1581, 1843, -733, -1346, -2123, -345, -1164, 520, 656, -469, 732, -990, 2337, 2050, -664, 195, -546, -1015, -4013, 2305, 387, 2027, -1483, 512, 399, -3158, 603, -1406, 1874, 2517, 598, -4175, 1039, 4807, -499, 3850, 1087, -631, -1115, 144, 279, 253, -1621, 4046, 550, -1150, -304, -1069, 815, 2139, -111, 1584, 1929, -182, -2421, 524, 2193, -2816, -1614, 3808, -2837, 2695, -2625, -1822, -2307, -1267, -557, -1584, 1047, 1116, -558, -248, 1368, -1660, -3979, -1208, 2440, -1874, -1225, -201, -2718, -697, 1089, -632, -735, -1575, -6775, -3713, -346, 537, -184, -1669, 499, -65, -1438, -1091, -1624, 66, 1693, 2247, -1644, 3314, -846, -2631, 2268, 1002, 1123, -1786, -1628, 1186, -2129, -3495, 2236, 1359, -55, 2607, -292, 2356, -81, 554, 606, 823, 1766, 850, 1326, 103, -125, 2849, 1072, -4421, -1439, -313, -540, 1637, 1894, 362, 2347, -2552, 1476, 4320, -339, -1567, 88, 1928, 492, 1978, -68, -2440, 1465, 490, -2213, 1186, 1983, 2047, -4063, 1864, -243, 969, 739, -371, -5221, 1943, -1043, -2103, -1570, 62, 197, 492, 1117, 783, 2478, 1622, -2326, 260, -5109, 1507, -2080, 1804, -2923, -3211, -1702, -1232, -899, 855, -1104, -1009, 1681, 1553, 845, 2728, -1783, -2303, 11, 1128, -275, -4147, 677, -140, -6180, 2939, 2650, 1872, -2091, -3117, 2373, 4189, 714, 683, -994, -2818, -4188, 2380, 1645, 266, -489, -4438, -1771, -2713, 3039, 4559, -1251, -125, 1515, 1317, 312, -2693, 1387, -2301, -1487, -505, -1817, -2334, -1172, 1683, -429, 205, 4296, -1630, -554, 275, -254, -390, 52, 1968, -7237, -100, -2013, 723, 1452, 125, 1448, -284, 1977, 1315, -1658, 2588, 532, 1409, 2142, -2916, 2270, 267, 789, -1565, -2680, -2254, 3180, 1205, -4003, 231, 1296, 2041, -2154, 1626, 1216, -3309, 2847, -1096, -342, -1293, -1626, -1679, -1805, -2210, -1234, -110, 1936, -1027, -264, -2023, -3148, -1657, 3235, -1877, 4617, 362, 6020, -1008, -1139, 4269, 1843, -3706, 1764, -1140, 2356, 1022, -687, -562, -2292, -193, -393, -2598, -1026, 1043, -1515, -2265, 1539, -2127, 2142, 1482, -306, -403, 2003, -2319, -2997, 1669, 1380, -43, 1663, 4766, 3992, -1538, -2602, -1565, 2309, -490, -1341, 4554, 1406, -1285, 2760, -1283, 1016, 2137, 6971, -4473, 475, -2186, 625, 3183, 1136, -186, 3422, 1225, 707, -673, 1076, -1058, 1402, 1240, -2629, 682, 1096, -135, -2158, -2097, -4928, -678, 1711, -2233, 3514, -2016, -2609, 1761, 1246, 1527, 346, 429, 2685, 3050, -3218, 1371, 729, -605, -4160, -2151, -105, 1778, -1671, 508, 2922, 2756, 1197, 2244, 741, -4587, 1941, -693, -97, 1631, -57, 1176, -2369, 229, -2807, -1470, -1705, 1798, -924, -2183, -1602, -2412, -1401, -3150, -288, -2406, -1378, 1142, -1493, 3975, 1143, -1824, 1752, -2458, 1794, 105, 3259, -2100, -1621, -961, -2331, -743, 2508, -698, -24, -3850, -456, 1451, -914, 3861, 2965, 154, -2818, 776, 66, 254, 4241, -357, -1175, 2101, 2603, -348, -2617, 1550, 2040, -253, 1729, 1363, 2364, -2082, -2927, 1198, 569, -1997, 1065, -1673, -3631, 721, -150, 1113, -406, -1789, 1504, 1635, 435, 2055, -1519, -441, -1151, -1158, -3875, -1888, -49, 868, -657, -1553, 1299, 1904, -1479, -333, -49, 3371, -3800, -1287, -2649, 2649, 692, -404, -1718, -2191, 2721, -1124, -2225, 773, 837, -269, -217, -2044, -79, -595, 183, 1761, -939, -1773, -1703, 764, 2285, -2662, -1282, -211, -310, -3454, 4421, -2996, 361, 188, -904, -2855, 3145, -4257, 71, 1859, -616, -1756, -518, -2684, 851, 630, -1324, -2203, 735, -70, 1067, 2577, 26, -325, -1520, 1462, 3474, -1600, 1827, -3654, -1422, 254, -1221, 1725, 112, -2299, -765, -225, 360, 2302, -345, -714, -2945, 2841, 995, 3990, -692, -1885, 639, -863, -1958, -222, 1899, -2561, 510, 1934, 2259, -80, -244, -3311, -1884, 1112, -231, -1813, -587, -2064, 4212, 1759, 2394, -178, 6981, 419, -6008, 1352, 390, 1267, 536, 2998, -3496, -1415, 2069, 229, 2312, -528, -2844, -2164, 2648, 1810, 970, -3768, 1715, 1968, 2245, -580, 360, -586, -3732, -2564, 2221, -414, 1752, 2018, -2014, 1438, 4089, 863, 1607, -3542, -94, -2667, -3671, 1618, 1925, 1527, -784, -3122, -4221, -3006, -1382, 820, -1089, 1524, -2187, 158, -3788, -378, -230, 2212, 722, -320, 3857, -1791, 1097, -443, 290, -42, -4114, -150, -3247, 2102, 2722, 1373, -4317, -3869, -2244, -1578, 1838, 1015, 47, 854, -511, -2936, -4665, -1502, 1021, -902, 2001, 1914, 2315, -323, 1110, 564, 3720, 553, 3978, 19, 299, 6707, 934, 1086, 546, 3761, 2154, -1908, 3296, 2671, -2692, -2456, 198, 598, -1242, -1564, 3364, 1579, -370, -203, 1220, 2781, -1402, 664, 5589, 1184, -2544, -1056, 929, 263, 754, 1507, 4581, -1514, -569, 584, -206, -858, 487, 1077, 3631, -858, 46, -1896, 1402, -2282, -1979, 2131, 639, -2090, 1512, 2148, 4263, 2521, -112, -2346, 3144, -1274, 3071, -4246, -1499, -2034, -5811, -3375, 1178, -297, -3784, -2267, 2345, 5188, -3446, 1334, 1191, -1589, -2510, -2752, -1385, -3849, -1661, -1155, -831, 2576, 1068, 3028, -2894, -4750, -1170, -298, -1604, -1424, -1013, 184, -1792, 695, -2909, 2517, 2936, 508, -2225, 1563, 820, -957, 2059, 295, -457, -799, 2207, 412, 323, -3710, 1820, 107, -2083, 2618, -2718, 701, -268, -5266, -109, -1027, 1627, 1199, 3896, 311, 2476, -394, -3767, 3628, 1524, -4361, 1136, -1092, -1892, 887, 3117, -2111, 2323, 2264, -293, 2047, 71, -2078, 369, 366, 799, 111, 1113, 1415, 2601, 1328, -955, 1014, -1258, -1123, -2342, 2682, -2115, 667, 910, -1413, -1931, -551, -1934, 99, -1762, -1438, -2737, -5149, 2156, 823, 752, -412, -150, -486, 805, 478, 585, -617, 2074, 3336, 2333, -258, -1054, -1615, -3282, -1071, 538, 595, -1176, 2446, -1323, -193, -2172, 3978, -3558, -1007, -1151, 2613, 189, -484, -365, 1747, -1640, -1776, -1608, 1393, -534, 2656, 2003, -22, 1131, -1144, -3978, -2224, -5407, 2528, -3810, -373, -1912, -1558, -2376, 1622, 2328, -1331, 984, 1806, 546, 2920, -85, 1189, 2571, -44, 419, -3892, 1726, -2209, 28, -2740, -653, -1485, -134, -4877, -1054, -327, 1920, 243, 3709, -276, 162, -1073, 2040, -2053, 2132, 2457, -1969, 5662, 158, -750, -2672, -1912, 588, 539, -98, -1786, -1099, -1041, 1780, -713, 3167, -1310, 588, -2085, 3116, -276, -2610, -4300, 2312, -230, 2008, -2626, -2610, 2388, -397, -171, 1840, -4844, -1555, -2264, -1255, 314, -5239, -581, -2798, 2192, 2103, 949, -1063, -1346, 1621, 572, -873, 2864, -1433, -734, -417, 299, 1386, 1067, 429, 3023, -1449, -760, 880, 480, 2195, -1726, 338, -1149, 1167, 1978, -1129, 2286, -499, -1375, -2985, 2393, 2180, 760, 2282, -496, 1475, -653, -4029, 728, 403, 2373, -2318, 3271, 1015, -1311, -2550, -557, -1355, -1718, -2713, 164, -5367, 471, -813, 2489, -2314, 1158, -1797, -1745, -1724, 1378, -6145, -301, -1054, -2668, 379, -1505, -2051, -857, -1562, 3472, 4304, 679, 124, 3622, 1749, -2608, 2882, -280, -4104, -928, 193, 4853, -3229, 2409, -1517, -1190, 686, 3409, 1741, 3691, 1938, -266, 685, 512, -3610, -2551, 359, 683, 715, -3531, 2519, 683, 705, 988, 3437, 2829, 766, 194, 251, -2792, 3559, -1518, -1202, -645, -1796, -76, -1227, -2326, -606, -99, 2075, 1024, 2245, -418, 262, 3301, 894, 1296, 1169, -636, 2347, -2650, -2716, -1238, -152, -5398, 3324, 450, -1740, -1158, 2125, 155, 749, 4317, 738, 81, 4606, -587, -1256, 1576, -3222, 2312, 79, 22, -802, -369, -2761, -420, -1884, -1172, -1870, -155, -2904, -1186, -3282, -528, -1050, 2283, 659, -2005, -1525, -1457, -2288, -988, 1634, 549, -5979, -1078, -2378, -1352, 2146, 2555, 674, 102, 2310, -2167, 1510, 1034, -218, 576, 719, 616, -444, 1363, -3040, 361, -3152, -1565, -832, -448, 4675, 1355, -2037, -484, 1414, 992, 613, 56, -342, -1675, 2114, -2709, -2259, -206, 1297, 1747, 2552, 3413, 1983, -1380, 4220, -341, 74, -1211, -4531, 1666, 732, -1082, -227, 1340, 2342, -1326, -1091, 929, -370, -1032, -427, -830, -32, -2378, 987, 35, 3356, -1525, 953, 1136, 2324, -3051, 868, -562, -1068, -563, -2552, -2836, -1409, 2359, -2483, -3102, -1125, -320, 1210, 124, 1050, 249, -713, -440, 2092, 396, 1495, 388, -4334, -179, 2334, -199, 2051, -1547, -3123, 2006, -2487, 1657, 3016, 2036, -1759, 23, -1098, -3274, -882, -2297, 2205, 1503, -970, 4351, -673, 590, 243, 3002, -1277, 3318, -670, 685, 847, 800, 203, -802, 341, 1870, 368, 307, 735, 131, -1237, 535, -996, 555, 1319, -3381, 4119, 1590, 5550, -1724, 801, -583, 2430, 2856, -3679, 1217, -3439, 188, -286, 488, 1962, 1908, 1740, 454, -559, 1765, -463, 2980, -112, 105, 1371, 3130, 1480, -3689, 1993, -599, -2071, -2683, 2119, 936, 155, -2075, -1354, -1897, -3328, -89, 1492, 422, 169, 4287, 1295, 3438, 631, 654, 2978, -494, -1960, -1612, -4218, 1829, 1192, 322, -670, 65, -1793, -3982, -1860, 257, -2225, -2034, -4418, 266, -2339, 174, 1380, 895, 276, 2233, 733, -1765, -2448, -4343, -92, -1016, 444, 1693, 1655, 2525, 3339, -1228, -621, -1370, -104, 125, -2203, 112, 3282, -1126, -1499, 751, 1153, 975, 1259, -3955, -4886, -1146, 1642, 659, -1512, 2944, 3494, -2375, 1308, 618, 2256, -369, 243, -3504, 769, -819, 4501, -1052, 275, -797, 4379, -2957, -5518, 3312, -590, 49, -2258, 2630, -1373, -2117, -2595, 686, 924, -20, 118, -1658, -2079, 818, -467, 1986, -1607, -630, -3175, -3162, 381, 1362, 812, -2356, 1026, -382, 1940, -1600, -947, 1692, -2982, 1423, -90, 590, -1014, -2635, -486, -1574, 1810, -166, 2410, -18, 368, 1786, 770, -156, 635, 1308, -1107, -2711, -1922, 377, -2728, -424, -692, -244, -1036, 450, -1889, 1212, -4491, 3321, 776, -1620, 674, -1556, -3321, -1000, 1343, 1406, -651, -3750, 1100, -3462, -940, 934, 753, 1590, -62, -1389, 4282, 2720, -786, -642, 3597, 2233, -4362, 1448, -1863, 56, 1452, -730, 525, 69, -1385, 141, 836, -1129, 2054, 1330, 4908, -1743, 796, -53, -1618, -1468, -567, 56, 1476, -4060, 1247, 85, -1735, -570, -1315, -1390, 467, -3448, -1737, -1017, -788, 1186, 495, 2086, 2276, 847, 2000, -2171, 125, 2595, -713, -898, 784, -973, -1507, 1527, 1228, 1951, 3160, 1878, -4454, 542, 2836, 1867, 1130, -511, -1997, -2186, 2826, -1442, 1292, -1457, -911, -1414, -554, 443, -3745, 1979, -1346, 1127, -330, -2899, 1972, 534, 1346, -1818, -703, -431, 92, -1567, -199, 4840, -1896, -1109, 2583, 1902, -1727, -672, 941, -2643, -954, 533, -601, -978, -3252, -414, 2001, 1538, 1298, -2445, -1245, 836, -593, 3860, 4163, -1553, 883, -1952, 1972, 431, -2016, 1220, 724, -1181, -3035, 2248, 1077, -937, -1657, -2190, -2067, -687, 2493, 2003, -3951, 2905, -1974, -169, -3043, -1077, 427, 154, 2653, 180, 345, 2332, -791, -1915, -1909, -1160, 1229, 2942, 1213, 120, -1234, 1825, -2074, -377, 895, -1624, -1865, 549, -890, 3176, 745, 389, -1866, 2833, -3485, 1807, 1826, -2669, 1110, 728, 452, 1895, 5180, -513, 786, 1198, -171, -1180, 1471, -1499, 1698, -2944, -3874, 1700, 914, 646, -686, 2413, 3023, 4938, 1490, -2397, -2065, -1733, -251, -1249, -2884, -2306, 587, 327, 753, 1027, -129, -1987, 628, 270, 2004, 224, -953, -2124, -671, -412, -609, 590, -164, 338, -328, -1362, -1837, -232, -1376, -2987, 1670, 3153, 1119, 393, 2446, 1306, -1708, 1562, -1309, -5486, 292, 1051, -729, -529, -1692, -2791, 195, -418, 4882, 1183, -1606, 748, -1173, -2206, 838, 2368, 1799, 1698, 155, -2188, -137, 1133, -1543, -1033, -865, -960, -3268, 2673, -239, 2718, -2115, 579, 1010, -4082, 274, 1003, 421, 424, -1665, 545, 484, 758, -720, 1167, 422, -1020, 1613, 537, 2024, -2202, -1166, 4191, 451, -767, 4743, -943, -388, 750, 1017, -1765, 1008, 2089, -3110, -4012, 3112, -1612, 565, -3527, 538, 1491, 2446, -2299, -2733, 477, -5475, -3091, 12, -10, 3228, -272, -1684, 1030, -242, -1554, -564, -202, -303, 3703, 2062, -1229, -1900, -132, 845, 1582, -4280, 238, 2374, -1579, -1634, -2152, 1257, 601, -816, 315, -1352, -33, 560, 1515, -2020, 546, -415, 225, -1887, 1008, -1390, -584, -1342, -562, 2827, -1042, 1976, -3157, 1730, -239, -2565, 1281, 1005, -576, 5634, 1345, -666, -516, -2452, 2419, 588, 1512, -1401, 3249, 1758, 2528, 220, -1892, 1461, -274, 2797, -2255, 805, 659, -2145, 2142, 4458, 256, 971, -3030, -1122, 632, 328, -1197, -949, -337, 2878, 447, -419, 438, -477, -1494, 3384, -823, 1457, 1816, -1634, 610, -1051, -934, 1898, -1150, -1599, -416, 2360, -4821, -2311, -171, 1796, -106, -1913, 476, -794, 1943, 908, 1658, -663, -206, 292, 886, 587, 945, -645, -1548, 2365, -1052, 3288, 2025, 265, -2813, 1478, -3850, 856, 2004, -680, -2508, -643, 2567, 3663, 1319, -1305, -670, 1462, 806, 1427, 629, -124, -1275, 1170, -714, 2636, -1298, 2048, 2671, 3219, 802, 1260, -268, 1163, 2006, 851, 622, 1936, 1131, 1675, -947, 1517, -1130, -3499, 5061, 1120, 627, -542, 2706, 469, 1801, -2057, 3544, 1686, -890, 1676, 892, 798, 2669, 825, 312, -133, -104, -294, 844, 100, 327, 2795, 512, 1252, 1109, -1706, -3958, -1237, -2447, 922, -1965, -1160, -3903, 1809, 1306, 46, -1090, 283, -2032, -2798, 2692, 3259, 1793, -2201, -2053, 2974, -344, 2869, 604, 1464, 3459, 722, -623, -1812, -1580, -434, -2543, 2779, -3108, 1696, 281, 2672, -1902, -1449, -1042, -1239, 2230, -265, 99, -1552, 1497, 1940, -2319, 616, -1834, -3209, -2551, 5502, -960, -1254, 1450, -45, -1016, 1225, 292, 869, -677, 901, -1605, -421, -291, -1313, 2149, -2006, 2100, 1059, -1260, -3772, -2149, 1670, 848, -607, 4258, -2330, -2113, 4074, 1105, -2774, 788, 50, -2626, 154, 1105, -3859, -2869, -841, -3735, 835, -926, -1147, 3638, -866, 1167, -1082, -1336, 2867, -3842, -3119, 139, 1046, -2930, -1528, -2845, -737, -2500, 37, -2789, 272, 3024, -1234, -2144, 2291, 2017, -307, 980, 1404, 1505, -2029, -872, -1901, 2153, -936, -292, 758, -513, -643, -46, 554, 4642, 412, -985, -682, 2615, -3184, -4521, -3720, -860, 753, -2932, -4284, 236, 78, 2217, 835, 3352, -2617, 277, 2288, -1892, -1018, 1632, 568, -451, 1505, -3290, 1903, 1059, -4692, 2215, -1739, -1466, -2391, -741, 2645, 472, 260, -4012, -627, -1879, 2840, 1862, 979, -2500, -2541, 1244, 188, -3406, 1699, 1132, 584, 5362, 546, 636, 1309, 941, 1198, -345, -101, 1963, 2700, -3436, -2437, -3290, -80, 6259, -1081, -2561, -2408, 1495, -2186, -375, -1598, 3552, -988, 348, -3095, 336, -101, -204, -355, 2885, 2380, 1282, 1340, -3044, 1449, 1676, 944, 3794, -1368, 1587, 561, 2280, -1592, -525, 2491, 4866, -3136, 1018, -169, -1341, -1296, -3679, -2038, 2206, -207, 496, 247, -1189, 4740, -209, -2087, -1853, 3596, -2409, 1188, 1556, 323, 1123, 2337, 303, 717, 426, -372, 834, -45, -4372, 3024, -2411, 5242, 582, 2274, -2573, -2238, -3496, -941, -771, -1412, 2896, 1996, -1081, 1867, 3727, -5090, -6192, 774, 323, -3916, -880, 578, -3450, 2115, -38, 5, -2731, -2734, 3648, -276, -1540, 741, 4283, 3177, -2987, -240, 1276, 1374, 557, -975, -1741, -80, -981, 1152, 1122, 1480, 1299, -2118, -1333, 2204, -539, -1354, -3057, 1245, -3966, 318, 1363, -227, 2253, 60, -1166, -3294, -94, 4208, 562, 5709, 118, -1486, -2332, -3311, -1070, 1792, 1803, -69, -1114, -2384, 2332, 3901, 1790, 3672, 2883, -442, -4352, 1467, 3245, 1602, 494, 2132, 1832, -1135, 2553, 1109, -2420, -4921, 4936, -298, -2595, -330, -4626, 1577, -756, 77, 1995, 358, -83, 1048, 63, 28, 1116, -1171, -3473, 2370, 5402, 294, -914, -2398, 836, 3206, 883, -898, -2206, 1113, -2510, -313, -196, 2865, 643, 434, -2880, 47, 1730, -704, -515, -1503, -5110, -4252, 1410, 186, 2198, 1240, -969, 2901, -849, -3270, 129, 4397, 2445, 465, -774, 416, 2218, -163, 576, -1786, 1610, 238, 5281, 696, 638, -302, 2727, -2095, -4448, -1109, -628, -3149, 466, -408, -1660, -680, -56, -53, -2663, -135, -411, -14, 4118, 1303, -1158, 1770, 783, -1708, -2862, -54, -3728, -3066, -6402, 594, -4166, -2753, 564, 5292, 1438, -1249, -1275, 520, 294, 2111, -607, 1012, 2472, 1177, 1543, -671, 885, -2932, -1510, 1843, -431, 3259, -1786, -721, -3058, -1243, -245, -1294, -1474, 569, 2051, 1107, -673, -2536, 1611, -822, 319, -1027, 6910, -1314, -1930, 242, 248, -2008, -3671, -2994, -1327, 71, 3104, 1890, 4029, -1405, -1016, 2771, 321, -460, 1652, -410, -992, -189, -671, -64, 2116, 1972, 457, -3022, -1572, 3144, 1578, -4527, -336, 907, -496, -1898, 3646, -1114, 2411, 3479, -5085, -744, 3232, 351, -2351, 4194, 1148, 576, -1840, -1751, 1141, 875, 1381, 1038, 3533, -4029, -1849, -695, -443, 1518, -756, -3278, -196, 2287, 2204, -942, 3802, -3698, -1285, -333, 1873, 208, -2811, -651, -1412, 984, 1712, 563, -1142, 338, 122, 1495, 2523, -1283, -404, 89, -658, -371, 553, -1634, -800, -1221, 1102, 1040, 1206, 3507, -2286, -227, -1338, 2734, -5734, -2637, 2794, 762, -6, 2246, -2350, -4416, -383, -2782, 241, 3119, -1450, -1750, -348, 3350, 1008, 299, 1756, -694, -158, 706, 2721, 988, -656, 1523, 1365, -638, 1281, 497, -1358, 3576, 73, 2894, 1988, -272, 2122, 1612, 2688, -6688, -195, 1141, -532, -878, 2801, -1377, -3531, -1385, 1033, -269, -1492, -972, -73, -1292, 1309, 1415, -3497, 1923, 940, 2486, 484, -2749, 3835, -891, 1040, 3011, -1457, 3219, 2518, -997, 1678, -1823, -591, 354, -1699, -1894, -681, 1842, -1410, 2580, -1260, 1140, 768, -1967, -1014, -4462, -655, -2592, -1070, -1938, 2387, -541, 90, -319, -304, 2839, 22, -257, -5, -2144, -404, -2679, -1605, -313, -864, -280, 1836, 3657, 266, 2392, 2571, -428, 2310, -759, 2264, -3120, 1737, -3624, -165, -1298, -1089, 376, -851, 3684, 719, 518, -539, -1564, 854, -742, 149, -905, -3737, 448, -476, 3234, 1878, 358, 639, -40, 3218, -1637, 662, -987, 2165, -3971, 2595, -2785, 1103, 1120, 50, 420, 4749, -1991, 1060, 1431, 693, 2034, 168, -667, 3432, 2221, 4437, 970, 2865, 2959, -128, 1413, -2791, 2772, -2181, -448, 2594, -555, 65, -2361, 78, 3467, -281, 921, -1815, 3299, -732, 772, -4837, -353, -1696, 131, -2150, -389, -1344, 1421, -408, -1697, 1437, -279, 1643, 255, 3038, -526, -1833, 37, 516, -1375, -3467, -1200, 886, 286, -71, -1286, 2245, -1439, -360, 2793, 461, 1643, 850, -441, 1686, 2855, 10, -1263, -3147, 3022, -4687, -408, -5023, -1961, -1919, -566, -669, -1549, 568, 3957, -2886, 5306, 1172, -12, 2661, 3888, -1533, -419, -3098, -3232, -418, 540, 1137, -4632, -1344, -1452, -2915, 1254, -1922, -834, -670, -943, -2064, 906, 2916, -778, 942, -86, -732, 857, 1233, 884, -1533, -1239, -1861, 1168, 3682, -2660, 1732, 37, -19, 1800, -1764, 2236, -514, -2828, -381, 2078, -3873, 2718, 2090, -248, 1278, 982, -1102, 246, 861, 596, 4525, -403, -593, -3212, -842, -84, -573, 1375, -732, 777, 1325, 630, 1435, -2310, -367, -1648, -854, 528, 166, 637, -2723, -589, -1134, -411, -1209, 2006, -659, -747, 38, 1190, -1799, 3029, 2023, -4829, 2343, -1792, -2191, -1827, 849, -822, 2631, -2693, 1115, 879, 161, 1819, 2045, 182, 1187, -5559, 2808, 392, 291, 1415, -1822, -3427, 130, -745, 2468, -820, 1733, 645, 3987, 1011, -3947, -3312, -1449, 193, 657, -1494, -4467, -1050, 2857, 1491, 1445, 422, 1529, 3595, -1096, -1384, 1867, -3272, 829, -2574, -925, -2015, -2938, -973, 2721, -1434, 1817, 3741, -1089, 1004, 5209, -911, 340, -1366, -2763, -7, -4687, 3028, 2161, 1433, 2723, 4511, -1294, -760, -742, 454, -2337, -532, -763, -187, 2051, 1682, -1929, -2986, 739, 4319, -1273, -2863, 1938, -3598, 653, 2644, -2205, 969, 404, 1701, 968, 51, 3291, 2550, -1944, -2286, 1926, 315, 1045, 255, -2682, 1188, 704, -462, 80, -798, 234, 1232, -2378, 3869, 1738, 956, -4703, 2573, 1052, 2077, 335, 859, -608, 191, -2386, -3519, -2346, -2705, -225, -1819, 1331, 1378, 2280, -437, -351, -1843, -1163, -1906, 1236, 2179, -2430, 2759, -2146, 1949, 3652, 2884, 2097, -1226, 45, -762, -411, -2567, -763, -5782, 207, 432, -1481, -346, 2189, -1770, -257, -362, 2579, 2273, 3034, -132, 767, -1013, -1291, -2270, 532, -2343, -250, 634, 3772, 3216, 345, -531, -780, 1867, -312, 56, -2047, 2079, 258, 1396, -761, 317, 4166, -1526, 182, 4115, -441, 252, -3204, -902, -1698, 274, 344, -24, 2055, 2465, 18, 2082, -881, 839, 2931, 1589, 2228, -907, 1760, 308, -3169, -300, 2165, -38, 4123, 1847, 1296, 244, 692, -1296, 1923, 1089, -2883, 557, 1185, 1322, -2558, -954, 848, 865, 2927, 3408, -1302, -197, 2318, 2335, -2349, -137, 637, -1817, 1513, 1562, 2783, -35, -3929, 1107, 3776, -1993, -3383, 1416, 49, 1099, 2039, -327, 1442, 404, -561, 599, -1555, -2550, -3025, 1672, -3916, -3020, 480, 401, -951, 1507, -4343, -2196, -56, -374, -1617, -1041, -2892, 574, 4689, -249, 1217, -3200, -5431, 586, -2597, 2228, 2332, -875, -15, 2220, -379, 1999, 431, 1050, 732, -1741, -1751, 3397, 4854, -1104, -3353, 611, 1297, 3722, -1961, 1681, -979, 329, -863, 2745, 4416, -435, 2335, -1492, -436, 955, 863, 1653, 1692, -557, -2180, 1921, 3494, 2445, -3281, -381, 4418, -907, -721, 1152, 489, -1842, 1051, 673, 250, 121, -667, 170, -655, 22, -273, 865, 168, -2105, -1744, 221, -2550, 1320, -2106, -91, -272, -204, 5365, -2180, 2093, -2199, 754, 902, 2248, -1105, 875, -1708, 1423, -1845, 1571, 1190, 3016, -720, -1393, 3739, -3750, 2208, -425, -1849, 2421, -1095, -2813, 692, -1034, 134, -1277, -4361, 1938, -1081, 0, 1396, 3228, -1351, -1846, 3317, 498, 4141, -2507, -2065, -308, 463, 1838, 547, -983, -864, -288, -451, -901, -556, 327, -126, -3117, -1505, 1111, 2985, 857, 1146, -2918, 4133, -1274, -275, -421, -2264, -837, 939, 490, 2392, -1510, -1514, -937, -88, -123, -1837, 2710, -1782, 846, -1241, 969, 37, -253, 2530, -1221, 2404, -2297, -1968, 1198, 1672, -2178, 1644, -559, -3608, -972, 127, 293, 512, -1468, -5756, 267, -2222, 1538, 1952, -671, 1349, -1761, -962, -1999, -1323, 946, 1785, -1538, -3163, 2715, -2414, -490, 195, 729, 2728, -1526, -2253, -514, -691, -2136, 1535, 2109, 2366, -2443, 2380, 1936, 549, 541, -3226, 2893, -1600, -3000, 324, 1375, -17, 2306, 2660, 1598, -1202, 1895, -1834, 2902, 547, 3173, -1072, 3516, -654, 2388, 676, 1655, 2776, -871, 2719, 286, 303, 4273, 3402, 2165, -184, -3049, -379, -548, -262, 1992, -2231, 65, -1411, 1779, 2571, 66, -1325, 2155, 368, -1157, 891, 486, -2059, 1242, 1015, 1151, -713, -1761, -428, 167, 850, 2038, -1041, 896, -1400, 3987, 1351, -639, -2670, -21, -1361, 473, 3714, -180, 3931, 2018, -2410, 4084, -1851, -356, 1924, 1609, -4095, 572, -1408, 2604, -2893, 2168, -1354, 900, -1987, 1405, 1617, -2149, 390, 625, -566, -1344, -894, 259, 1823, -2072, 2849, -126, -1424, 3260, 545, 1856, 700, -1721, 1082, 1664, -3977, 2327, 1986, 807, 3243, -1961, 1247, 1382, 882, -4072, -1400, -2167, 3059, 621, -62, -590, 24, 382, 1399, -2979, -479, 1917, -2469, -753, -1427, 2169, 600, 553, 510, -210, -632, -1030, 218, -1043, 615, 1939, 2494, 1573, -2184, 2013, 3268, -351, -3153, 1181, 2506, 5446, 1755, 1722, 935, 2066, 3605, -958, -344, 325, 1303, 274, 2117, 68, 2477, 856, -1183, -819, -1056, -1821, -4222, 3085, -3318, 2579, -5076, -2445, 1492, 254, 1273, -2865, 1657, -1766, -2456, 1103, 3434, -2941, -247, -2265, 4232, -1248, -977, 1276, 599, -1752, 495, -328, 3102, 383, -1987, 3071, 894, -1632, -669, 1370, 1798, -1116, -1565, 4350, 2306, -3761, 981, 2739, -1016, -513, -665, -327, 359, -1134, -2660, -2260, -852, -277, -253, 808, -1672, -1088, 1580, 4498, -915, -955, 559, -1368, 450, -406, 613, -1161, 1595, 1365, 425, -2524, -1669, 3867, 2880, -286, -117, -261, -1846, 513, -2400, -836, -90, -105, 687, -96, -1605, -1750, 659, -462, 141, 218, -3048, 181, -478, -2149, 81, 2575, -1147, -1248, 1663, -271, 2918, -1840, -647, -651, -131, 1857, -1863, 2245, 221, -1389, -2422, 1201, 4830, -920, 1144, -4304, -469, -1381, -4365, -914, -2419, 1293, -2937, 2216, -255, -63, 896, 2037, -591, 2711, 806, 4246, -241, -449, -183, -578, -175, 1336, 378, 723, 1983, -2250, -798, -1935, -1904, -610, 789, 337, 1778, -4207, -1455, 811, 1607, -539, 520, 1527, -80, -176, -1497, -647, 1021, -4372, 1651, 1896, -2964, -2202, -1333, 442, -2288, -2009, -1004, -1522, -2387, -506, -2016, 2786, 47, 1171, 517, -2464, 2445, -1708, -2264, -3178, -2168, -1063, -486, -430, -1680, -323, -54, -1021, 1416, 448, -2158, -1989, -1246, 1281, -3779, 4606, -878, 3937, 883, 650, -1113, 488, -111, -734, 642, -31, 4076, -1353, 116, 2242, -610, -3407, -2340, -1781, -702, 1102, 521, 893, 3780, -2769, -37, 1696, 407, -157, -735, -1303, -63, -2508, 1699, 1976, 953, 1822, 1715, 180, 644, -1536, -2676, 406, -1714, 2114, -573, -1514, -3104, -358, 2200, 3163, 88, -1820, -614, -5, 4627, -165, -4006, 3256, -4405, 1289, -217, -3589, 2210, 2136, 75, 402, 23, -1023, -3426, -1110, -1247, 398, -1573, -4104, 5739, 353, 2006, -2553, 1172, -1252, 274, -857, 352, -1591, 970, -995, 988, 785, -1562, -450, 1359, -586, 98, -2766, -2704, -1101, 1269, 1, 3330, 1702, -1089, 1445, 560, -1498, -970, 1512, -3109, 1803, 3412, 200, -2872, -458, 96, 122, 2158, 1253, -25, -1139, 2050, 3787, -1268, 5070, 690, 1338, 980, 203, -1292, -565, -3050, 1645, 4816, 999, -1522, 835, -1035, 1715, -1504, 2460, 4436, -1962, 409, 509, 1670, -2903, 1050, -1256, -1519, 1091, 33, 396, 3046, 1756, -405, -1801, 773, -1254, 2335, -549, 1141, 5541, -1610, 208, 220, -3001, 842, -77, -4297, 1060, -1537, 458, 3576, -1582, -2783, 2580, -106, 1885, -196, -3410, -901, -1660, -1630, -622, -3356, 1015, -2344, -2241, 1050, -2222, -84, 115, -3249, 2226, 291, 1869, -3082, -1010, 843, 217, 1223, -1140, 1798, -212, -1422, -2704, 757, -702, -1496, 5604, -3873, -301, 1161, 1650, -2023, 1494, 232, 2061, -1512, -833, 1177, 2124, -518, 2854, -1201, -1384, 908, -385, 704, -2011, -1263, 241, -1626, 1091, 2794, -1159, 267, -3393, -992, -1682, -586, -551, 1315, 739, -1673, 1277, -4334, 310, -6, 1259, 1405, 1437, 651, -26, -1647, 2483, -2960, -675, -2531, 156, -2309, 931, 1478, -371, 1693, 4184, 2102, -1612, -3628, -3217, -3944, 2128, -1596, 494, -1619, -1069, 270, 1100, -271, 857, 1179, 44, -642, -2527, 1879, -1392, 772, 2373, 3123, -228, 1176, -1126, -2371, -432, -2472, -396, -2087, -2719, 3192, 705, -3254, 2843, -2496, -2984, -3596, -2010, -1653, 2647, 2445, -1300, 2442, -557, -239, 807, -2232, -5029, 1560, -887, 2878, -2892, 2837, 284, -477, 1770, 275, -359, -3625, 1684, -1187, 2631, 1941, -972, 2768, 1074, -1930, 909, 245, 2114, -1445, 1645, -1296, -4701, 1072, -185, -3604, 372, 316, -1769, -1820, -2585, 1748, 1441, -3299, 3535, 892, -305, 463, 3800, 1138, 1325, 661, 2623, -205, 966, 334, -473, 3341, -1937, 618, -833, 1782, -1572, -2397, -2248, -39, 2222, 452, -973, 115, -48, 537, 1169, 2319, 1828, -1162, -268, 909, 542, -2898, -2029, -938, -1921, 654, -1501, -873, 2019, 3030, -1532, 2172, -980, -1894, -289, 2157, -394, -1242, -681, 1996, -1699, 1952, -757, -228, 1059, 2311, 472, 336, -1560, -1697, -2656, 2327, -377, 18, -3149, -4337, 2074, 135, -4937, 2050, 1114, 3408, -1805, 2721, 1876, -2, 887, 1524, -555, -2285, -445, 3765, 185, -800, -1745, 2827, -3603, 819, -3071, -1394, -1678, 3709, 2656, 3906, 3738, -584, -2331, 1869, 4312, 2088, 2317, -2149, 2285, 117, 316, 1664, -119, 966, 1200, -700, 1935, 5875, 534, -1100, -1169, 2714, 782, -643, 23, -156, -1234, 2122, -464, -3951, 808, -980, -1279, -2559, -3008, 666, 3995, 1194, -1970, 44, -985, -2040, -278, -600, -659, -557, 2038, -1562, 1529, 5271, 1430, 2945, 4307, -2239, 901, 290, -3171, -2081, 896, 105, -2330, -1761, -2988, 2724, -1602, 491, 577, 3471, 3699, -597, 1409, -91, -1386, 4600, -2955, 4, -3115, 1973, -3542, -615, 611, 67, -2678, -1180, 516, 1701, -394, 2055, 307, 736, -1084, 629, -1808, 762, 2846, 3720, -1217, -423, -936, -255, 299, -508, 940, 2487, 3888, 4207, -371, 71, 3646, -706, -652, 2036, 1740, -1071, -3016, 334, -543, 3200, -305, 410, 1480, 333, 278, 2461, -2216, 4526, -4079, -1937, 2128, -1036, 2758, -2307, -3380, 339, 135, 1013, 1991, -1072, -3092, -1151, -896, 2822, 2053, 460, -467, 2229, -1454, 1470, -827, 3534, 928, -2760, 1427, -585, 1903, 125, 1138, -1850, 998, 2696, -273, 1661, -2138, 97, -54, -1078, -2699, 3005, -351, -1841, -738, -929, 4319, 767, 807, 2157, -2534, 380, 833, 612, -1563, 173, -2132, 3692, -494, -967, 1755, -544, 1024, -981, -1064, 410, -725, 2209, -872, 238, -1610, 3213, 1817, 451, 307, -522, 205, -2191, 149, -2924, 1762, -1135, 325, -1595, 2048, -209, -244, 927, 2012, 1745, -939, -1199, -1441, -885, -1299, -1079, 1345, -719, 3495, 1013, 494, 1586, -984, 2354, 1821, 138, 1060, 1580, 3053, -3371, 973, -1043, 3658, 2496, -2061, -2900, 1001, -376, -3850, 3445, 1172, 1685, -340, -542, -1518, -2737, 262, -886, 2005, -3491, 909, 1810, -987, 312, 4322, 965, -341, 746, -2112, 1537, 1598, -1525, 1209, 745, 1543, -2628, -1067, -1006, -813, 2093, 1249, -1375, -1430, 3216, -2169, -2879, -1527, -3711, -959, 855, 1701, 1071, -1643, 498, -1622, 1895, -1117, 1219, 1164, 3105, 278, 563, 1847, 56, 819, -1123, -1807, -1303, -1808, -1407, 1868, -847, -3036, -403, -1767, -1529, -1941, -1158, -1039, 1293, -5241, -1010, 763, -1187, 1397, 2099, 1606, -2669, 3042, -1650, -3732, -2336, 48, -784, -4057, -704, -425, 2360, -62, 404, -3092, 1340, -2843, 1436, -915, -71, 1920, 492, 816, 1347, 1303, -410, -974, 1535, 3374, -1503, 322, -1322, 3105, 1967, -2102, 3429, -286, 4476, -2508, -933, 3518, 396, 645, -2891, -961, 1102, -1966, -593, -885, 266, -687, -2124, -765, 1413, -1459, 1916, 1002, -618, -2532, 3135, -796, 1434, 3263, 4225, 878, 1776, 6425, 613, 1746, 4815, -1416, -77, -3111, -520, -2345, 391, -638, 1035, -865, 68, 418, -1023, 1629, -2975, -4906, 2263, 2838, -1818, -1564, -4302, -4408, -492, 2515, -1650, -2115, 452, -1317, 1284, 2540, -1499, 1617, -459, -1323, 314, -377, 1289, -1032, -187, -3252, -138, -210, 1396, 1141, 528, -1916, -346, -806, -2372, -3655, -1821, 113, -1036, 1265, 1222, -3674, -2041, -655, -1443, -2555, -919, 552, 1801, -2782, -1309, -1750, -1878, -1536, 6440, 976, 1048, -1066, 1072, 1353, 82, 874, -1212, -1851, -3149, 2096, -2918, 2665, 2463, -2808, 678, -6, -645, 548, -1084, -1146, 1135, 778, -301, -2246, 1584, 802, -1131, 4870, -404, -1474, -3621, 1451, -3106, -414, 388, -2312, -515, 1556, 1481, 1981, 2978, -2459, 1446, -244, -1797, 560, 205, 988, 1783, -899, 2363, 269, 1534, -578, 1156, -3556, -1151, -2239, -967, -3746, -1149, -1631, 550, 4571, 1880, 1849, 5138, 3247, 663, 1089, -3258, 1966, 1039, -2483, 2670, 179, 2613, -600, 1260, -542, 422, 1288, -2258, -1667, -268, -902, 2462, -2371, 1415, 355, 356, -1129, 449, -4986, -1443, -1562, 1707, -4, 1899, 1574, -3241, -1372, -1211, -1115, 479, 2800, -1108, -2096, 1015, -384, -781, 97, -570, 2560, -4561, -906, 1379, 100, -1457, 3688, 1199, 3363, 1925, 842, 614, 2278, -1765, 302, 2632, -1147, -1961, 2668, -1722, -1884, 1314, -2071, 1589, 1606, -1528, 2668, -1021, -1557, -1176, -235, 1092, 929, -908, -484, 539, -433, -239, 2516, -726, -454, 1821, -1733, -1416, -2002, -2802, 1003, -1231, -1160, 1561, 491, 1381, 1937, -1144, 645, 2334, 2447, 229, -1178, 1194, 387, -725, 1003, 1197, -401, -3303, -473, -327, -3779, 434, -2971, 1270, 4841, -1948, 444, 4204, 570, 3868, 669, -434, 892, -2129, 613, 1166, 339, 623, -5244, -1044, 1077, 1324, -824, 81, 1957, -2094, -3202, -46, -1559, 1915, -589, 1206, -1340, 1802, 1374, -2374, -2497, -2251, 2844, -1622, -5609, -3301, -288, -3756, -1852, -1866, 1958, -5862, 4746, -584, 2890, 212, 874, 846, -303, -1179, 2554, 1655, -2495, -740, 53, -747, 1505, -774, 4096, 1054, -1997, -1323, 2054, 3703, -971, -1861, 2997, 188, 5547, -87, 2903, 2434, 57, -226, -767, -1284, 3610, -432, 2411, 214, -3311, -3906, -32, -1810, -3373, -2289, 1256, 123, -2759, -1535, -289, 990, -1198, -960, -2448, 1908, -2475, 2042, -1066, -2394, 1676, -40, 1098, -1029, 3164, -2199, -2173, 528, 1901, 3532, -730, -1292, -24, -571, 521, -4494, -1379, 1025, 2327, -1879, -1974, 2847, -1238, -5244, 553, 799, -2203, -405, 1184, 2381, 525, -2572, -4899, 2351, 1932, 1709, -1429, 790, -1163, -52, 1888, 3514, -4217, -3540, 871, 2030, 400, -801, 2917, 1007, 3291, 1224, -80, 2233, 408, 4138, 372, -649, 2041, -391, -1753, 1551, 270, 719, -457, 339, 1416, -1524, -132, 2016, 94, -516, -1910, -279, 1288, 404, -4805, -370, 2044, -839, -1705, -156, 124, -680, -5229, -39, -1590, -178, 1554, -2679, 917, 1691, 663, -131, -226, -1284, 258, 1253, 3732, 263, 2011, -304, -2764, 1733, 843, 1898, -1396, 1166, 1258, -1838, -1703, 4233, 389, 1423, 2670, -878, 115, 3351, -182, -1771, 2824, -2597, 181, -23, 828, 803, 926, -2604, 143, -2773, -2015, 536, 3818, 2748, -248, 1709, 1705, -794, 571, 1001, -1043, -1886, 1563, -1817, -2116, 1298, -1056, 1091, -1247, -1179, -61, 5052, 143, 149, 3319, -1814, 2614, 1605, -1806, -2042, 1895, 1557, -1533, -758, 2773, -1531, -572, -2603, -91, 1431, 1043, 1851, 604, -2084, -2962, 1253, 719, 1046, 2056, 895, 2478, 1784, 440, 1709, -4098, 470, -473, 1013, 1141, 2548, 1594, -977, 237, 451, 2934, 1007, -3308, -791, 520, -1107, 2621, 1382, 2006, -4822, 1249, -3984, 1058, -2424, -2694, 1182, -4068, 545, -1811, 162, 257, -4728, 1339, -1546, -737, 2146, -1547, 2088, -2376, -3945, -1690, 1991, 36, 2784, -1125, 447, -2069, 756, -383, 2919, 1599, -1234, -506, -2998, -2798, 1171, 1968, -1047, 4796, 5342, 539, -447, 318, 1324, -663, 546, 1481, -445, -2497, -541, -1066, 1054, -3176, 1695, 1453, 563, -1392, -1631, 727, -144, -11, -1213, 1274, 3651, -1373, 2543, -1947, 1366, 937, -360, -2416, -1077, -3451, -320, 477, 381, 589, 3867, 312, -568, 1931, 3628, 4560, -4626, 432, 281, 1151, -2909, -845, -2928, -3920, 879, -1697, 1857, 1710, 718, 1745, -376, -38, -1571, -2263, -3065, -694, -2369, -1711, -818, 1216, -2298, 2502, -1266, -1921, -76, -3023, -2548, -1016, -581, 1488, 2291, 2911, 864, 753, 622, 19, -88, 3451, 2554, 2298, 3633, -210, 596, -1520, 2234, -1585, -3632, -2270, -637, 2825, -1403, -763, 1755, 1977, 558, -198, 709, 171, -1129, -2611, -5112, 1893, -2043, -288, -3519, -1625, 109, -109, -2847, -2392, 924, -416, 5, -517, -898, 3699, 664, -2123, -3221, 1630, 113, -1497, 316, 1090, -1098, 665, 208, 1182, -1122, 2244, -1568, 671, 1889, -1361, 1127, 2950, 665, 1430, 2904, -1710, 244, -4640, -1184, -1053, -1411, 1112, -307, 1119, 2323, 760, -302, -1374, 1294, 12, 1629, 1227, -2984, 2082, -1883, 479, -948, -291, 1201, 659, -403, 3821, -2277, 864, -399, -2677, -2883, -969, 1997, 408, -392, -3856, 3111, 419, 344, 261, -61, -186, -1583, -1289, -527, -744, 1808, 663, -1038, -268, 2398, -344, 502, -2823, 4991, 2900, 3460, -11, -1318, 5333, 4522, -2913, -596, -2871, -1291, -1722, -220, -1391, -429, -1906, 1778, 526, 3656, 3647, -643, -937, 829, -1064, 4003, 407, 5074, -863, -2982, -2239, 953, -5211, 718, 147, -1106, -1303, -648, 1264, -2069, -2822, 94, -2735, -1270, 1614, -2688, -1562, -2699, -616, -1197, 3669, -595, -3235, -2536, 1684, 4239, 1892, 6303, 186, -3474, 1391, -862, -1222, -116, 2146, -607, -2310, 1361, 1042, -927, -225, 3996, 71, 1398, 1484, 724, 845, 3404, 150, -2528, -2475, 1054, -4264, 1069, -1965, 39, 1649, 340, -3156, -4749, 1248, -562, -501, 358, 3968, 1257, 1285, 2137, 2698, 1968, -765, 423, -1466, -2204, 3570, -1969, 2534, -2172, 245, -861, -1041, 920, -624, 171, -82, -935, -2176, 2244, -1028, -79, -564, 1151, 396, -1093, 508, 2085, -1871, -362, -3120, -3595, -832, 2708, 1528, -2822, 2119, -227, 4129, -3025, -1185, -190, 5295, 611, 1381, -60, 2481, -3033, -1397, 1285, 1092, -643, -2202, -3608, -3124, -4022, -1847, 954, -840, 2589, 3026, -3292, -1857, 1345, -4198, 2526, 326, 1244, 3922, -1062, 2543, -94, 1978, 976, -688, 4261, -2048, 1051, -3732, -475, 2450, -965, 440, -296, 3149, -1052, -515, 1404, -2202, -750, 2378, -1634, -696, -1834, -22, 1977, -1427, -2735, -337, 270, 2272, -1688, 4450, 1483, 4464, -4270, 838, 2004, 2616, -370, 736, 3102, -2820, -3217, -964, 4096, 897, 235, 4676, -1689, 2079, 617, -1874, -557, 1503, -2177, -441, -553, 1950, -2587, 915, -1911, -1975, -1856, -660, 616, 79, 1612, -2761, 1993, 2580, 265, -1657, -55, -302, -1672, 819, 1103, 1471, -1607, 1888, 2003, 3077, 1281, -1411, -1876, 365, 23, 2182, -3316, -2714, -3970, -2416, -1663, -1612, -5635, 1170, -228, 2773, 1065, 3015, 43, -486, 2398, -2207, 575, -1971, 918, -1071, 2505, -3768, -3524, 3993, -3056, -136, 2386, -426, 366, -1180, -4537, 4488, 4887, 1310, -4184, -2509, -864, -230, -2946, -4891, 894, -5366, 881, 689, -1684, -2812, 818, -1717, -3242, 2216, -1748, 1025, -946, 4916, -1760, 151, 5014, -2246, 1362, -1408, 2922, -1738, 2000, -511, 1936, 497, 961, -2395, -2233, -1540, -1099, 3708, 3307, -263, 2835, 2058, -2047, -949, 201, 621, -1433, 707, 449, 29, -2498, 1635, 3511, 191, 2114, -1762, -889, 2504, -740, -1449, -2347, 944, 944, -3058, 270, -1453, -923, 869, 122, 4478, 2048, -653, -1362, -1223, -1253, 1878, 6387, -574, -1937, 1107, -1089, -3118, 1359, -740, -1285, 3907, -65, 373, -2921, -1353, 1226, 2528, -845, -2261, 1933, -1596, -314, -1756, 602, 2955, -221, -1921, -1531, 3000, 1449, 2560, -4337, 1485, 1213, 503, 709, 3001, -1975, -254, -1017, -1291, 1183, -25, -1840, 1983, -1012, -1889, -2857, -3716, 333, 2226, 966, -446, 700, 2854, 2318, 1156, 1269, 782, 2323, -2379, -550, 1518, 725, 639, -2032, 673, 199, -569, 1595, 1779, -4072, 2023, -1870, 504, 1991, 1302, -187, -3727, -521, 2560, -629, 994, 84, -2935, -991, -1119, 972, 4103, -1720, -443, 4657, 781, -1711, 1664, -1432, 2017, 855, -1124, 1488, -1726, -2397, -3721, 270, -3282, 3386, -1354, 4293, -3072, -4769, 1801, 829, -1325, 636, -625, -1587, 312, 1064, 58, 820, -1157, -555, 3016, -3241, -2338, 1687, -1069, 336, 138, -876, 395, 101, 103, 53, -2066, 1203, -731, -4827, -1794, 2109, -1640, 686, 779, 787, -3608, -3709, 1015, -279, -1242, -2769, 2366, -4623, -460, 694, 2283, -325, 298, 2962, 1044, 1875, -1273, -132, -312, 66, -3144, 4811, 459, 152, 6384, 3908, 1525, 1705, -1364, -701, 1931, -2784, 1362, 4078, -839, 334, 153, -192, 2448, 2420, -853, -1472, 767, -44, 1604, 2520, -1421, 1107, -3362, -2295, -1001, 236, -1307, 4160, -507, 1245, 435, 1853, 1036, -1887, 1261, 736, -2234, -1727, 73, -151, 4495, 1773, -687, 1964, -283, -2087, 99, 4237, 5025, -1782, 2483, 1073, -4624, 1191, 5355, 1816, -532, 2232, 2060, -1090, -207, 76, 1172, -1582, 3700, 428, 1365, 2925, -111, -1036, -4047, 335, 1691, -1888, -1163, 2112, 1707, -1232, -907, 1691, 177, 1644, 2720, 9, -2163, 4445, -563, -1960, 4096, -1122, 187, 2171, -5321, 592, 926, -640, 848, -287, -830, 1937, 1396, -2171, 3671, -2389, -2579, 221, 531, 875, -2370, -1225, -1766, 626, -3258, 3473, -1814, -609, -657, 445, -2980, -171, -209, 740, -1162, -945, -1677, 509, 843, -2560, -4186, 1134, 2002, -3267, 2405, -1826, 1064, -3409, 1204, 3561, -1163, -3618, -1987, 2052, -6778, -2554, 580, -1712, -494, -3406, 808, 936, 63, -937, 1016, -2545, -1035, -375, 1725, 4822, -2304, 551, -3185, -1166, -1586, 1426, 340, 3569, 93, -763, -1337, -3487, 2525, -2489, 1895, 724, 1652, 2151, 478, 909, 1408, -182, 2258, -1815, 1584, 360, 422, 41, 2646, 2088, 2239, -5152, 1100, -787, 338, -2534, -1087, 1313, 74, -241, 476, -3253, 1997, 1393, -959, -1496, -219, -355, 458, 962, 2263, 1682, 2208, -1311, -951, 4858, 1603, 1248, 3878, -48, -4313, 554, -1862, 1707, 3072, 1926, -1890, 4235, -1375, -1491, -2466, -1902, 418, 1803, 3373, -1085, 668, -1482, -1300, 682, -3369, -745, -3563, -3499, 3415, -5240, -1238, -398, 981, -2819, -699, -4484, -627, 931, 2364, -659, 2321, 236, 5054, -3353, -2869, 792, 1278, 3766, 2712, -985, 4595, 2991, 797, -2611, -1881, -3011, 986, -4660, -315, 459, 2825, 3258, 2245, 1180, -391, 2206, -766, 1470, 3226, 1644, -2267, 699, -926, -411, -1658, -1493, 2429, 729, -277, 390, -695, -2797, 2313, -2857, 1617, 1177, -2350, 347, -2865, -2183, -2059, -3568, -179, -5568, -659, 614, 1635, -1593, -1073, 1780, -2004, -1792, -162, -20, 3645, 1256, 938, 823, 1919, -2293, 986, 209, 1377, -2486, -1823, 1966, 1567, -2427, 1579, 266, -4755, -1322, -1454, -600, 4142, 1263, -1067, -211, 335, -2467, 1024, 605, -1574, 5016, -280, -260, 2626, -1332, -1941, -4221, -5638, -1994, -392, 944, 988, 3161, 201, 1288, 529, -531, 545, -2734, -172, 2178, -1537, -2248, -1878, -3581, 1247, 958, -3961, 3998, -1973, -1193, 2899, 3098, -1347, 2051, -3152, 3618, -2121, 78, 3072, 112, 926, 665, -1590, 1369, -2276, -457, 1180, 3995, -510, -1933, -1049, 2443, 1448, 2961, 626, 21, 280, -318, -4311, 1511, -2032, 1737, 550, 508, 1840, -880, 1741, 499, 1991, -1193, -1718, -469, -971, -1743, 1205, -3235, 871, -3516, -2407, -2240, -479, -571, -1156, -1973, 1585, -4629, 1631, -1431, -1215, 2905, -3205, -1155, 631, -1504, -1246, -699, -688, 2652, 233, 441, 982, -767, -685, -143, -1354, -827, 118, 3812, -3500, -3437, 962, 4447, -913, -1419, 3538, -2343, 2880, 3005, 1497, -121, -6069, -2520, 2071, -400, -155, -3335, 3070, -465, -387, 2981, -3443, 1358, -789, -209, -2762, 880, -2823, -637, -529, 517, 3016, 507, 997, 759, 253, -7351, 953, 1322, 2911, 872, -567, 4973, 1720, 3738, 131, -2548, -2064, 111, 1806, 593, 2854, -132, 750, -1648, 798, -3880, -578, 378, -1770, 1329, 176, 2169, -92, -1520, -4484, 474, -1462, 43, -2658, 254, -2366, -5795, -962, 1679, 778, -1546, 1021, -2372, 4043, -3553, 3133, -731, -2256, 1245, 977, -175, -2728, -43, 857, 338, 2641, 1241, -498, 1409, -1559, 1944, -1441, 923, 1428, -1165, -690, -343, 1494, 542, -2054, -4414, 223, 1134, 2767, -320, 1865, -112, -1328, -3720, -1548, 402, 495, -2248, -2375, -3391, -2608, -363, 191, -1623, 1121, 5044, 961, -2290, 529, 4, -1220, 823, -3218, 3442, 480, -2792, -3118, 856, -3032, -1641, 2070, -1910, -819, 22, 1373, 1712, -2950, -3476, -1117, -2157, -2278, 2078, 1730, -1955, -2851, -613, -2565, -1278, -1646, -1517, 1824, 1096, 2379, 682, -1486, -2111, -47, -4085, -1748, -445, -2842, 1983, -410, -1884, -1275, -453, -160, -151, 233, 351, 250, 1274, 1311, 791, 2178, 1033, -736, 4820, -986, -1895, 761, 783, 229, 441, 2167, 944, 3391, -789, -2038, 963, -1181, 1340, 94, 910, -1752, 4177, 566, 231, 2613, -2478, 2014, 3397, -2067, -1275, 3790, 2637, -2203, -187, 175, 1064, -1676, -1887, -140, -425, 141, -973, -755, 2454, -1958, 3184, -21, 1624, 983, 2995, 633, 1527, -551, 2231, -693, -2157, 2680, -261, 1671, 4001, -27, -1686, 2459, -1550, 683, -4642, -415, 2501, 2668, 1584, -61, -908, 3226, 977, 822, 27, 1844, -600, -2837, -254, -371, 1248, -4241, -351, 560, -3934, 377, -1416, -1199, 3249, 889, -457, -1568, 1462, 1977, 3218, -57, 933, 1401, -878, 49, 1879, -514, 2220, -148, 437, -2634, -668, -1773, 2690, -2590, -2369, 1368, -355, 2441, 5177, 854, 2684, -2884, -267, -591, 2157, -1402, -2370, -3075, 867, -2621, 348, -2966, -6207, -2628, 2262, 415, -1282, -5184, 792, 1336, 3010, -914, -1122, -1169, -115, -1913, -1219, -3990, -3148, 1529, 521, 3850, 2925, 1515, -84, 2628, 530, -187, -2324, 1006, -456, -789, -3016, -1397, -13, 5073, 192, 1472, -3513, 1279, 290, 2623, 2876, -97, -3746, 1098, -2196, -2051, -1143, 790, -2324, -300, -155, 503, 2337, 671, 1634, 1424, 1345, 967, -1940, 2806, 1858, 421, 3599, 3024, -3559, -2932, 26, 1390, 508, 300, 2847, 627, 208, 1894, -928, -75, -670, 256, 39, -2543, 961, 2421, 1672, 870, 2003, 378, 935, 1566, 2562, -4608, -1700, -467, -892, -1034, -1104, -764, -2898, 322, 656, 4270, -2774, 379, -1226, 619, 2458, -2156, -1772, 456, -1721, 366, 2074, 315, 1688, -4165, 1720, 1789, 1516, 4094, 231, 2271, -2328, 3174, -2161, 254, 2132, 4881, 199, -2, 5126, -27, -2468, -416, 2025, -3249, -289, -2855, 3076, -464, -526, -4722, 1289, -156, 1478, -415, -230, -1683, 1782, 2552, -2920, 4631, 2252, -1020, 206, -11, 232, -2086, -4440, -745, -319, 5067, -199, 1254, -22, 247, -3026, -510, -1939, -346, 2253, 518, 4573, -3359, 1182, 925, 3926, 1904, 1295, -2025, -774, -3275, 2821, 2454, -1406, 1051, 352, 31, 124, -1638, -2331, 1119, 3462, 162, -2625, 682, -218, -365, 701, -8307, 327, 3725, 988, -400, 3186, -2766, 335, -4911, -2097, 289, -791, 1898, 2951, -1665, -22, -2725, -1331, -1117, 6001, 2494, -1619, -1170, 505, 10, 2683, 2583, -849, -4733, -393, 3738, -1266, 2893, -3104, -380, -3552, 3545, -3855, -569, 2751, -2049, 99, -1420, 3496, 2902, 1074, -4902, -3363, -348, -3311, 1173, 1410, -2565, 637, 19, 1441, -4067, 3547, -458, 1817, 197, -1501, -3199, -2043, 3826, -1112, 349, 2884, 3049, 4379, -1135, 2950, -176, -720, 1707, -19, -281, 3204, -1493, 2233, -498, 384, -2467, -818, -2299, -941, -1420, -3238, 1309, 2732, -23, -3103, -1347, -4385, 780, 667, 2886, 845, -504, -2078, -689, 4411, -821, 1669, -1248, -2437, -958, -1632, -628, 953, -444, -873, -310, -443, -638, -1191, 449, 1588, 2625, -670, 3139, -1015, 1831, 2355, -1288, -102, 3371, 3099, -1398, -3360, 264, -988, -2042, 3096, 1118, -406, 3394, -4019, 491, -2178, -1735, 245, -1092, -831, -1306, -3, 2262, 2021, 2211, -3001, -430, -1467, -217, -361, -1972, 2592, -2280, -875, 37, 1649, 118, -1880, -2725, -345, -2222, -342, 1621, -1454, 776, -1299, 1839, -183, 2035, 2456, -1906, 80, 5351, -40, -4559, 3321, -1185, 994, -202, 2082, -2628, -617, -260, 3607, -2326, 1286, 279, -2202, 499, -44, 462, 3817, -1073, -514, -4312, -159, 639, 2274, -995, 760, -3198, 3710, -128, -1308, -4489, -572, -231, 1906, -185, -1821, 464, 2674, -591, -3189, 938, -1154, -600, 909, -3729, 1193, -3272, 833, 2672, -700, 534, 204, -2758, -3858, -2692, 1024, 355, 1549, 1853, 2386, -1128, 4056, 1348, 1154, 1704, 1351, -915, -301, -173, -328, 949, -74, -3393, 1291, 1623, 1356, -3774, -2758, 784, 674, 849, -370, 391, -1396, 751, -2888, -117, -1644, 1692, 2072, -4998, 1404, 2266, 778, -794, 610, -839, 1399, 4632, 2333, -1507, -342, 2468, 1869, 3405, -699, -600, -771, -877, -345, 210, -314, -260, 972, 776, 3293, 3874, 1318, -1522, 181, 1484, 936, 1604, 3076, 649, 50, -364, 1963, 1731, 842, 3060, -1948, 958, -1892, 1803, 5178, -638, 191, 456, -346, 1175, 2348, -1109, 89, -2405, -34, -1779, -2763, -435, -2835, 895, 769, -1860, 1770, -3380, 2254, 588, -1252, -1810, 3039, 792, 1508, 1506, -2406, -2762, -1054, 4648, 3063, 3973, 596, 1002, 305, -1756, -1772, -1383, 506, 151, -966, 1529, -715, -284, 3131, -1329, 527, -2907, -3259, 2081, -221, -2330, -2285, -1094, 2468, 1217, -270, -1790, 2725, -1738, 885, -1628, -1706, -1714, -3229, 534, -803, 1302, -970, -1193, -3242, -1289, -943, 856, 1029, 1602, 2900, 731, -438, -653, 196, 1376, -212, 663, -965, 601, -880, 1403, -4194, -429, -595, 2477, -600, 1125, 213, 1140, 900, 916, -2398, 1747, -3467, -373, -2085, -1360, 1438, 695, 878, -665, 4279, 1072, 2121, -1341, 2728, -2985, 3355, -2884, -838, -676, 3123, -3405, -1619, -3217, 3840, -1133, -2099, 642, -5380, -1816, 1633, 515, -999, -578, -556, 1101, 360, 2273, -561, -4048, -1218, 1005, 1710, -1694, -3934, 3245, -2942, 2546, 1771, 988, -1473, 1247, -836, 1526, -869, -1718, 2236, -2931, -943, -509, 794, 1037, -2080, 438, 1602, 3741, -1946, 84, -1907, 3222, -532, -3468, 2428, -1707, -488, -3214, -1017, 4639, -1087, -3202, 2978, 2051, -1993, -1571, -35, -287, -1038, -2857, 365, -789, -3383, 491, 1974, -4188, -1983, -4358, -1435, -2341, 67, -731, -2844, 1589, -2216, -3643, -3143, 1619, -1002, -346, -1461, -2178, -1797, 486, -443, -756, 1426, -655, 40, 288, 1712, -996, -1191, -2468, 755, 1853, -1362, 2024, 163, -1588, 1009, -762, 4625, -1011, 1842, 2115, 2860, -3075, 1309, -3213, -2758, -1119, 485, 490, 2461, 4416, -261, 498, 263, -1324, -950, -1335, 249, 347, 208, 1107, -1666, 4109, 1646, -39, -932, -1876, -466, -2296, 1804, -786, -693, -1406, -194, 2157, 3705, 1172, 996, -443, 1971, 3538, 2714, 2484, -5671, -2287, 1003, 2472, -3498, -685, 1536, 1884, -4639, 2378, 475, 66, -1737, -693, 1626, -4023, -1190, 3111, 901, -1570, 1184, 622, -1373, 963, 4681, 293, 3336, -1956, -456, 400, 1381, -1706, 53, 1192, -354, 2989, -906, 1284, -64, 2015, 722, 1275, -1200, 4260, -5207, 14, 270, 1426, 1820, -1382, 1471, 737, 476, -601, 725, -619, -3475, -736, 466, 2335, 3204, -5643, -4554, 1782, -1739, 2020, 52, -527, 905, -736, -357, -2057, -615, -286, -2218, -4817, 5415, -2229, 3019, 1155, -645, 2658, 1175, 1732, -845, 326, 1606, -418, -29, -1779, -1706, 1427, -128, -2486, 283, -1039, 2846, -2531, 591, -741, 1404, -2601, 3138, -823, 1604, 1202, 663, -1944, -1588, -1755, -494, -2112, -1146, -1280, -1054, -128, 2780, 3668, 856, 1285, 1894, -1684, -2436, -2133, 2641, 1604, -2680, -1604, 1218, 182, 217, 2184, -716, -412, 282, 463, -467, -2287, 3197, 3800, 1460, -1437, -4024, -2326, 101, -1684, -670, -1893, -569, 742, 245, -299, -2587, -676, -3283, -93, 635, -277, 351, -2124, 887, -1319, 2216, 2503, -3110, 252, -3929, -1564, 2730, 2480, -1003, -18, 2001, 1389, 1557, -1189, -3098, -7, -3174, -2691, 208, -340, 2017, -4398, 640, -1574, 1177, -3549, 807, -1838, 547, -2222, -2916, 1131, -1959, 1524, -1051, 1862, 3883, 1174, 429, -937, 397, -226, 148, 1564, -3182, 423, -2180, -805, 2083, -1017, -127, 815, 2225, -4260, 1846, 2402, -52, -151, 89, -190, -4111, -1993, -781, 1595, -2087, 1221, 980, 984, -41, -1458, 448, 659, 2661, 34, -1631, 2, 1580, -1629, 1599, -1770, 1039, -1350, 1597, 557, 1454, 3782, -2776, 1669, -2330, -4104, -362, -706, 1223, -762, -1373, -199, -2939, -3680, 166, -1663, -4077, -1718, 4146, -1857, -2221, -153, -1273, -2943, 3775, -1172, 749, 1177, -2685, -5488, 206, -3055, 4451, -3665, -1184, -3838, -2487, 6518, -5304, -783, 2136, -4166, -2630, -1025, -2917, -1720, 517, 1360, -309, 1615, 734, 1, -139, 2750, 1272, -2610, 1405, -5204, -1712, -1154, 790, -555, -1012, 619, 2572, -6237, 940, -178, -1498, 1861, 2256, -2264, -575, -1039, 6456, -1898, -458, 840, -1648, -3514, -552, 2210, -1766, -3053, 1693, 4017, 3730, 982, 7279, -6863, -3377, -1115, -2662, -3510, 3784, -3997, 849, 1014, 1057, 867, -3648, 661, 1251, -1519, 803, 209, -2785, 2608, 1168, 4674, 2382, -4788, -1606, -249, 2563, 665, -2173, 3212, 7508, -2415, -1466, 1563, 2316, -2095, -1489, 1060, -2702, 1217, 1293, -1106, 1245, 3340, 61, 3435, -429, 2299, -1993, -4055, 752, -3285, 2322, 2726, -1380, -2757, -2713, 704, -2304, 297, 351, 622, 1245, 929, -984, 368, -236, -1241, -307, 109, 823, -1160, -3386, 2214, -1659, 953, -145, 857, -3094, -217, 106, -2491, 2995, -1862, -668, -1342, -600, 1383, 608, 114, -695, -4577, -2051, 5, -114, -812, -3035, -2975, -1201, -878, -355, 265, 245, 1695, 1465, -769, 766, -142, 713, 423, 2117, -1760, -45, 580, 1557, -875, 1337, -112, 1723, -1126, 54, -1862, -1536, -451, -478, -1322, 141, -929, -442, 1281, 907, -379, 1423, 613, 2134, -993, 2086, 82, 346, -1113, 1579, -1786, -1524, 657, -246, 419, 1031, -9, 2814, 2173, 449, -34, 1928, 1404, 3748, -1306, -362, 1574, 734, -2290, 331, -268, -321, -2054, -1223, 221, -2121, 1890, -145, -2268, -424, 620, 562, 112, 3231, 383, 1901, 110, -2100, -458, -279, 561, 64, -1937, 1582, 1114, -1519, 641, -2380, 2557, 952, -2793, 2880, -3015, 2246, -1494, 249, 4059, -5430, 2424, 3823, 4858, -2083, -4011, 837, 2692, -4461, 70, 2989, 1963, 198, -4622, 5870, 3273, 2640, 2252, 5408, 1776, 2071, -5159, -481, 3052, -1489, 1513, 5467, 3201, -2470, -1726, 3595, -2204, -308, 2017, -1085, 368, -2244, -5793, -2383, 4297, -67, -3046, -1616, 554, 1329, -718, 1136, 336, -1542, -1150, -4334, -4111, -3583, -48, 5920, 1249, 1373, 2779, 1835, -1427, 1941, 2929, 2050, 1202, -365, 700, -6226, 2173, -3778, 354, -435, -1283, -2301, 367, 308, -629, 679, 2421, -27, 3861, 1545, 1704, 3526, -2389, -971, 4798, 1715, 4827, -860, 563, 2098, 899, -950, -2789, -5617, -2287, -4428, 481, 1154, -616, 853, -484, 1019, 1748, -1970, -1522, -383, -895, 284, -2936, -2640, 35, 1432, -2929, -162, 264, 4860, -988, 431, -1023, 2221, -10, -1923, 1562, -57, -467, -664, -2103, 254, 750, -1796, -2220, 2049, 1493, -1857, 2207, 2347, -563, 2300, 2032, -559, -1487, -2450, 560, 2099, -1320, 1562, -1489, -946, -187, 2779, -2805, -903, -1667, -1228, -2713, -1154, -3650, 434, -564, 90, -1082, 4052, 1196, -2395, -1627, -1431, 1014, 753, -1417, -2157, -3547, -1760, -1423, -2327, 197, -173, -1191, 2739, -3603, -2448, 1948, -1244, 1806, -238, -3135, 5604, 2181, -709, -349, 2703, -827, -603, -605, -546, 835, -1558, -331, 2420, -2011, -491, -2632, 5315, 689, 552, 224, 3048, -2210, -1210, -2162, 619, -3509, 2451, 2462, 2501, -557, -1170, 586, -1734, 1197, 2206, -2713, 2476, 1016, 3681, -1031, 275, 1592, -3224, 749, -577, 2003, -185, 1085, -580, 2258, 4727, 2427, 630, -2063, 3670, -174, -718, 220, 691, 2557, -316, -1793, -3312, 1361, 4375, 1609, 3196, -370, 953, 2165, -433, -2710, -629, -1485, 5879, 559, 1843, 3268, 2251, 67, -2204, 2384, 3519, 3998, 4697, 1614, -1522, -1423, 5853, 4241, 499, -3653, 1623, -1100, 1993, -2605, 4250, 896, -4618, 1644, -3680, -3114, 3768, 2727, 711, 1210, -662, 1784, -446, 200, -663, 668, 1001, -2579, 3355, -879, 1643, -4805, 4030, -1930, -5326, -1147, 1012, 747, -3797, -888, 2611, -6124, 4132, 4062, 2130, -3798, 2130, 1435, 1895, 1055, -3995, 844, 618, -2830, -3014, 3247, 2771, -1984, -1613, -6377, 1024, 774, 333, -2516, 1165, -109, 1424, -1658, 1881, 2132, 4874, 1419, 847, 41, -395, 3163, -1405, -4680, 5219, 3725, -2756, 4633, 3788, 613, -3079, -765, -1011, -5575, -235, -1273, -1622, -2176, -3197, 1805, 4918, 775, 2492, -1790, 3821, -328, -144, 1768, 78, 35, -970, 664, 1648, 326, -17, 1911, -966, 1712, 782, -371, 2740, -342, 1585, 118, -114, -724, -1067, 410, -415, -183, 142, 838, 1692, -363, -186, 49, -878, -1663, 66, -790, 80, 627, -1173, -238, 982, -2058, 1105, -139, 244, 1167, 749, -464, -690, -418, -331, 575, 21, 1374, -259, -59, -571, -378, 2715, -946, -1577, -2205, 20, -887, 701, 82, -1843, -474, -1286, 904, -2033, -1286, 1823, -1143, -301, -1157, 1429, -985, 2557, 1672, 524, -258, 1513, 357, 453, 415, 98, 6, -495, -1290, 771, 1029, 3, 185, 48, -1290, 2299, 2041, 1366, -429, 581, -66, -641, 1269, 1854, -927, 1459, -327, 1647, 77, -1008, 97, 2502, -567, 915, 1248, 534, 967, 725, -998, 1723, 815, -713, 679, -1127, 540, 1099, -2255, 629, -1265, 1069, 490, 2079, 878, 2442, -1253, 871, -4772, -588, -1978, 880, 2007, 2437, -471, 5560, -370, 2875, -3621, -554, 4430, -2571, 2196, -1982, -2818, 5052, 643, 613, 2074, -4113, 234, 532, -2866, -2320, -976, -904, 7421, 35, 1335, 2474, -2443, -2277, -2872, -3285, -3278, -1004, -469, -1600, 2764, -1997, 623, -1562, 2777, 2488, 1047, 427, 236, -325, -2171, -1775, 226, -465, -3483, 1357, 411, -1581, 3298, -1293, -472, 2069, 2426, -646, -10, 2253, -2103, 4215, 462, 1705, 2439, -913, -95, 51, -521, 350, 3272, -942, 2180, -5206, -470, -321, -1073, -2311, -1392, 2373, 4812, 2774, -1923, 451, -159, 173, 4478, 2644, 1852, 3717, -2271, -2324, -2594, 772, -1116, -5298, -1165, 1107, 1354, -1659, -1273, -3934, 91, 3576, -3486, -6696, 493, -2382, -1219, -254, -1129, -4479, -1404, -2555, 2348, -3017, -3021, 1659, 1037, 507, -329, -969, 2326, 1094, -2010, 489, -2114, -723, -1037, 134, -1642, 2049, 128, 811, -1787, 1279, -728, -1269, -353, 2398, 3488, -1274, -1749, -593, -118, -2071, -2619, 755, 913, -705, -3292, 1214, 1266, -2599, 13, 2380, -1098, -52, -3379, -857, 1960, 367, 1302, 2688, -300, -3233, 1239, 1954, 1980, 1959, 415, 539, 2012, 175, 2947, 4470, -1064, 1782, 1259, -2361, 1307, 2017, -1444, 447, 2380, -407, -100, 2405, -2327, 771, -2351, -3013, 1451, 589, -1376, -1265, 2581, -3968, -7715, 2828, -1967, 3682, 427, 5564, -336, 2436, -478, -281, -918, 2392, 1473, 723, 911, 9, 887, -655, 3620, -2192, -2105, -758, 4604, 1032, -832, 644, 817, 1811, -1396, 1005, -506, 1556, 286, 2170, 2692, 537, 4031, 269, -1292, 3516, 834, -1736, -4729, 3247, -1056, -595, 1205, -104, -550, 930, 180, 34, -108, 618, -784, -717, 69, 110, 332, -158, -559, 1288, 1083, -286, 471, 1753, 402, 710, -364, 46, 1014, 426, 526, 1640, -481, 384, 56, 143, -1038, 452, -277, -777, 1110, 1308, 607, -161, -621, -929, -545, 487, -669, -184, -316, -616, -550, 33, 1967, 297, -1629, 419, -196, -29, -86, 978, 1361, 1212, -1323, -154, -172, -28, -216, -749, 447, 1691, 785, -173, 672, -804, -229, -887, -1124, 227, -705, 371, 996, 694, -896, 244, 1264, 347, -34, 152, -212, -518, 427, -669, -192, 293, -1161, 736, 159, 145, 131, 39, 310, -588, 803, -153, -554, 1123, -809, -758, 491, -1619, -371, -470, -1741, -420, -589, -157, -569, 868, 202, 37, 174, 1047, -687, -276, 1688, 255, 724, -693, -473, 1701, 1171, -1271, 1044, 1225, 912, 387, -1439, 774, 297, -69, -242, -1408, 267, 1076, -889, -492, -355, 769, 859, 364, 638, 314, -2668, 591, -343, 1279, -476, -1492, 174, 1137, 421, 2069, 14, 96, -1081, -41, 220, 472, -1380, 804, -261, 671, 83, 342, 1024, 620, 792, -519, 553, 1442, 205, -415, -2565, 70, -1174, 254, -1638, -930, -1576, 2448, -858, 515, -531, 2131, 820, 242, -1652, -1666, 1506, 1194, 74, -1146, 298, -905, -42, 27, -249, 1113, 1205, 717, 780, -2210, 1537, 270, -946, 622, 105, 695, 1483, 608, 1338, 668, 518, 513, 1309, 114, 903, 211, -1896, -402, -570, -560, -244, 529, -56, 594, 742, -338, -1382, -1016, -873, -1325, -361, -68, 551, -637, 76, -318, -1396, -3024, -678, -1121, -769, 814, -1447, -717, 33, -2840, 4067, 1445, -359, -2586, 3400, -1302, 2694, -1901, -1837, 1738, 602, 3592, 1329, 4657, 4245, -4370, 860, 869, 1351, -5801, -2349, -395, 2501, -447, -2132, -2925, -1547, 825, 2523, -647, -1253, -164, -703, 1705, 7406, -162, 294, -2619, 1980, -35, -2173, -4186, 5675, 13, 2508, -1929, 538, -664, -2626, 999, 1049, -718, -82, 4822, 102, 2340, 395, -2166, 2404, 2729, -2692, -3614, -216, -861, -1013, 2501, 2262, 1176, 1898, -1233, -1532, -612, -3857, -5160, -606, -823, -1144, -466, 3822, 3914, -319, -4201, 2854, -2543, -324, -901, -3275, 6136, 496, -4015, 4002, -3275, 4368, -395, 2062, -2643, 4886, -2483, 145, -597, 15, 1267, -2300, 1924, 4543, 1522, 3377, -710, -1480, -213, 3639, -1854, 477, 5013, 1391, 645, 2961, -4621, -5498, -4826, -9406, 2294, 394, 3241, -1928, 3737, 4395, -3630, 4246, -1963, 311, 1338, -368, -3870, 4683, 190, 2659, 1904, 2962, -1175, -587, 4933, -2165, 92, -750, -1326, -1749, 1294, -877, -2562, -537, -433, -1600, -334, 1478, 810, -517, -2318, -2488, -75, -1036, 4182, 463, 1241, 1131, 222, 2215, 1760, -2743, 278, 1691, 2988, -2811, 2109, -4328, 4028, 374, 832, 1788, -1050, -4300, 2034, -2325, -4979, 1354, -1150, -4900, 2001, -1146, -775, 3371, -1043, -5090, -599, 2279, -1929, -1304, -1031, 2696, -364, -2382, 1686, -1506, 2742, 3547, 1081, 220, 1478, -188, -780, -2289, -2075, 2976, -1380, 223, 416, -1640, 2496, 660, -623, 1682, -3631, 574, 2376, 996, -2389, -1021, 874, 2338, 1324, -2209, -14, 1599, 490, 4080, -202, 2717, 763, 5647, -3195, -340, -747, -1921, 2492, -1554, 902, -1054, 896, 823, 3426, -1943, -2072, -3857, 2207, 2493, 2643, 3369, -1067, 2945, 0, 4630, -2690, -2059, -236, -4442, -1698, 5347, -2375, -3010, 3425, -380, 715, -1251, 960, 4293, -1047, -3518, -904, -3496, -4010, 1280, -2248, -525, -924, -1972, 2494, -3366, -2951, 2877, 3343, 802, 4551, 6463, 1053, 2618, 1444, -3953, 1645, 4892, 3799, 1061, 5063, 1774, 1950, 3021, -1194, 4234, 5600, -718, 2102, 553, -2316, 2125, -2708, 3553, -3154, 403, 2278, -2362, 676, -1815, -2547, 29, 2778, 1139, -955, 5511, -686, -3714, 3415, -762, 6337, 1045, -5572, 259, -811, -566, 1750, 2153, 1740, -2216, -3080, -2442, -66, 907, 89, 1251, -823, 3724, -533, 1921, 1494, -3856, -5149, -1388, -1898, 888, -1402, -3543, -1266, 938, 1891, -1417, -429, 2588, 511, -1636, 234, 762, -3192, -370, 5063, 3823, 4102, -3019, -345, 1538, -1016, -1201, 892, 1105, -105, -463, -1896, 1098, -384, 1408, 229, 2356, -1471, -1932, 2706, -2254, -1275, 1788, 226, -183, -238, 1420, -23, -3, -615, 999, 2143, -2100, 209, -3978, 2515, -2307, -1363, 525, -1727, 240, -146, 1634, 360, -248, 1084, 804, 3816, -183, 2636, -757, 1476, -2085, -1014, -349, 729, -75, 375, -1347, -1285, -1494, 1200, 1382, 1114, 2683, 463, 920, 1563, -1986, 206, -1052, 1742, 92, 8, -960, -455, -255, 2916, -136, -293, 1077, 1724, -290, 4084, 1027, 1139, 2010, 866, 1555, -1230, 1094, 1226, -435, 285, 172, -937, -311, -203, 1417, -826, 615, -772, 174, -45, -1902, -147, 549, 1262, -399, 827, -3468, -1353, -2262, -956, -79, -1916, 744, -181, -728, -311, -547, -329, -2663, -635, 1468, -193, 1600, 46, 748, -187, -665, -1169, -1381, -2055, 940, 509, 208, 929, -836, 372, 3826, 370, 681, -1171, 4108, -3502, -767, -222, 1322, -414, 827, -878, 2009, 4163, 664, 3634, 2549, 2698, 2355, -4399, -492, -6248, -621, 1605, -4712, 335, 1525, 497, 3088, 1438, -1536, 49, -3559, 706, -3958, 4862, -2333, 819, 677, 4118, -1868, 1357, -3566, -3829, 4133, 717, -4165, -1155, 2789, 4254, -211, 416, -1596, -1841, 2605, 1482, 4262, 2256, -1141, -1295, 194, -439, 3147, -5562, -755, 581, 2220, -2732, -640, -1195, -4075, 406, 1011, -496, -482, 2046, 864, -2434, 4938, 3589, -534, -1614, 3136, -477, 618, -343, 1931, 489, 1450, -47, -177, 2089, 5598, 1752, -1047, 2177, -4021, 1182, -1946, 2258, 4248, -3106, -162, 3200, 1395, -1121, 5, -3054, -2829, -219, -3245, 3268, -1387, -275, -1834, -86, 1597, -5202, -6115, 1044, 1562, 162, -2241, -517, -2655, -3335, -3638, -2033, -885, 536, 4264, 344, -231, 2197, 1504, 2202, 691, 3610, -1237, 330, -570, 1623, -60, -1614, 1295, -2651, -1293, -1264, 246, 2549, -1859, -1635, 119, -2017, -1641, 1416, -956, 983, -1364, 2120, -2352, 1477, -996, 134, -2696, 3815, 1024, 330, 1917, 526, -813, 4329, -1313, -2014, -2713, -1530, 46, -1576, -1466, -789, -291, -3458, -991, 447, -902, 2291, -2622, 76, -938, 887, 2640, -766, 1443, 1332, -2474, 1009, -935, 15, -1082, 1015, -155, 496, -3006, 2447, 658, 1942, 1443, -2411, -2157, 1363, 353, 1315, 1976, -1236, 750, -1872, -2194, -2463, -1299, 1079, 1202, 87, -3263, -693, 2315, -1172, -33, -940, -857, 2344, -3262, -1954, -1083, -798, 423, 2601, 1256, -371, 2895, -2987, -3414, 2112, -2623, 10, 735, -699, -794, -326, 2953, -998, 2549, 2946, -596, -827, -1835, 2262, -2678, -3384, -4354, 6638, -5770, -8194, -2896, 9489, -3861, -4893, -5499, 6629, 1751, -1577, -1742, -398, 4129, -915, 4214, -2533, -12360, 516, 4608, -5317, 843, 360, 1921, 2661, 6021, -760, -6481, 2477, -4689, -1421, -2650, -3700, 2064, 3022, -3172, -5240, -5260, 1575, 8553, 1728, 985, -7026, 5161, 6541, -9089, -4653, 3360, -1962, -1332, -2391, 659, 3848, 4194, -2398, 4522, 1164, 319, 3708, -2260, -2465, -3041, -1877, -1474, -371, -1780, -1798, -134, 412, -1204, 2186, 3876, 2300, 1292, 4559, 8572, -2599, 368, 1400, 6550, 3303, 2998, 3447, -1939, 6201, -1487, -3013, 5891, -133, -698, -985, -1671, 4545, 744, -376, 4380, 7331, 2165, 3020, -761, -9895, 4326, 491, 1556, -3583, -3783, -1791, 1630, 755, 1240, 7828, 2, 7583, -4560, 4367, -4847, 2695, 3423, -5847, -5231, -7132, -10632, 2784, -2739, -2396, 1492, -509, -209, 479, 336, 2219, -2484, 2123, -1903, 1623, -1395, -734, 1527, 2945, 1162, 1747, 288, -1418, -1935, -1220, -3305, -251, -3007, 1218, -1346, -793, 252, 2259, 3962, 2966, -532, 1340, -2220, 804, 839, -303, -1086, -1675, -248, -598, -3860, 2749, -1838, -889, -3591, -3170, -887, -505, -730, 1683, 596, 2071, 268, -875, 614, -263, 587, -2162, -1363, 6562, -2388, 69, -1699, 783, 489, -563, 2341, -2213, 655, 203, -3647, 201, -2137, -270, -2055, 1811, 735, 2796, -3461, 730, 127, -1252, -2444, 1434, -2483, -1309, -1560, 417, 102, -1259, -1208, -1127, -353, 931, -3057, -3482, -1254, -3830, 2156, 297, 895, -284, 1677, -1336, -145, 4740, 2654, -920, 246, 3436, -3032, 1013, 4383, -387, 1378, 2821, 230, 805, 2428, -3227, -3337, -1989, -1204, -1539, -1499, 703, -353, 2585, -3992, -2056, 3709, -4190, -160, 4082, 5461, -4108, 1514, -1638, 1494, 303, -1377, 35, 2013, 1076, -198, 2081, 4155, -2963, -778, 3214, -4684, 202, 812, -2565, -1318, 6373, 154, 4717, -2999, 3210, -545, 6560, -1834, -1783, 3941, 2481, -1673, 1523, 1495, -3822, -2214, 727, -7104, -7418, 2764, 1892, -1980, -854, -2341, -2719, -2128, -5480, 1477, 2899, 3067, -3583, -4707, 193, -2465, -3159, 2270, 4489, -1772, -1099, 1639, -4370, -36, 2391, -4870, 2160, -647, 3804, 1912, 6141, -4013, -1483, 3866, 894, 1044, 674, -1336, -1659, -2503, -5162, 3526, 66, -1067, 691, 2993, -505, -924, -1611, -46, 2559, -2945, -33, -51, 2053, 4998, -1137, 1690, -2566, -1896, 2331, 4017, -5461, -1355, -1317, -2249, -112, 17, 425, -4700, 2224, 1893, -8760, -354, -860, -3684, -1060, -3832, 1066, -1058, 1238, 2408, -2468, -3103, 634, -3056, 1732, -716, -1336, 3691, -94, -1058, 2622, 1108, -2466, 1823, 2138, 162, -32, -2037, -1245, 3062, -3091, 2162, -1952, -1022, -2226, 1019, -4047, -2248, -1194, -1040, -2099, 4601, 1341, 1158, -155, 1524, 2080, 132, 1763, -3051, -516, -234, -372, 703, -8, -2807, 1574, -3367, 484, -1542, 1061, -542, 3283, 2581, 342, -3601, 2249, 849, -702, -822, -698, 638, 909, 1971, 419, -2870, -664, -601, -587, 3431, -2489, 1737, -1623, -1687, -1227, 1999, 3839, -2579, 1495, -2696, -1175, 2312, 343, -2951, -3293, -1518, -3156, 1028, 276, 654, -191, 276, -2971, 1760, -2885, -448, -1779, -397, 3422, -1122, 3008, -2195, 318, -3684, 1748, 556, -816, 3033, -564, 445, 359, -1685, 75, -2458, -3158, 1432, 2405, -2537, -1862, -678, -2330, -1562, -2580, -24, -677, 1212, 89, -2077, 669, -2574, -3870, -4399, -1284, 961, -4034, -3567, -1765, -2188, -1366, -567, 890, -133, 2775, -4679, -2058, -1271, 2032, 2518, -6173, 992, -2970, -1511, -4559, -1780, 205, 2128, 1569, -4234, 1264, -3907, -905, -2308, 4352, 3457, 3612, -1553, 1076, 890, -4817, 256, -1811, -2724, -2639, -45, -503, 1762, 306, -1045, 1132, 3274, 4986, 4106, 268, 1401, 306, -5653, -1506, -1434, 2497, 1303, -1780, -4444, -2792, -1904, -1913, -2058, -495, 391, 3999, 1087, -5962, 4995, 2162, 729, 926, -6458, 783, -1339, 668, 455, 5114, -2059, 2432, -1748, 4498, 4062, 4685, -3127, -1281, 878, -3324, 1298, 2788, 1473, 4491, -1650, -329, 2100, 2155, -2420, 1972, -1332, 3237, 2129, 987, 5888, -5121, -1962, -4892, 3931, -6553, -447, 3417, -1499, -3858, -6, -2722, 311, -9, -1772, -2884, 1766, -2613, -1262, -90, -1197, -413, -726, 2341, -968, 590, -981, 1038, -2265, -462, 1030, -372, 1147, 922, 809, -3009, 190, -100, -305, 1169, -1918, 111, -2505, 1226, 911, 849, 1805, -593, -989, -103, -790, 199, -109, -645, 91, -81, 2043, 3657, 375, 1083, -600, -2536, -452, 1210, -554, -1383, -1792, -1578, -761, 930, -267, 2532, 2548, -718, -996, 1294, 1189, 166, -2749, 280, -1489, 2019, -1442, -2854, -2036, -1195, -257, 2090, -4224, -1176, 1357, 2500, 1866, -3236, 792, 1423, -1232, 1853, -1391, -494, 2328, 1457, 3874, 669, 34, -184, -2137, -2308, 1938, 2740, 876, -962, 1105, 2025, 2154, 855, -2845, 625, -1993, 777, 2864, -61, 223, -1361, 290, -15, -894, -1103, 2412, -2045, 1079, 984, -284, 766, 3499, -2677, -736, -1399, -38, 473, 428, -1402, 830, -1527, -972, -181, -3220, 428, 659, 96, -1874, 612, -372, -127, -2966, 796, 867, 811, -3628, -2062, 4801, -259, 3916, -1574, -1110, 3263, -93, -1932, -2231, -1681, -7265, -952, -2228, -4945, 373, -2527, -1425, 342, -675, -444, -1984, 1230, -3185, 483, 3017, 1167, -3908, 3027, 2741, -3185, 2983, -4193, 1763, -1778, 1405, -2448, -1115, -221, 1482, -1655, 4248, 1074, -1687, -2963, 2444, -1799, -2337, -3879, 3413, 324, 2288, 5656, 2386, -6777, -1514, -1963, -3185, 6117, 2546, 277, 2914, -1633, -1698, -467, -3768, 3990, -3267, -573, 1775, 2006, -1129, 2391, -1999, 409, -1706, 1501, 395, -203, 2835, 725, 6070, 3386, 1097, 3109, -1230, 376, -549, -728, 341, 461, -2255, 2633, 1894, -1376, -5895, 4759, 4039, 4201, 2206, 687, 1201, -1720, 5197, 1584, 4016, -494, -1257, -2450, -1394, -5938, -828, -2192, -1320, 1143, -917, 766, 222, 353, 394, 1396, -783, 196, -788, -1669, -734, -886, -192, -1253, 2429, 2140, -999, 257, -1157, 1939, 150, -1669, 1515, -2348, 313, 550, 1127, 1820, 530, 265, 977, 290, -714, -1257, -368, 1484, -163, 1394, -2118, -1637, 669, 726, -1691, -3184, 331, -720, -227, -1824, -782, 549, -813, -1375, 30, 2537, 536, -738, -696, -190, -645, -558, 384, -696, -598, -142, -684, -1119, 102, -555, -661, 1424, -1605, -889, -30, -657, -86, 2064, -922, -316, -421, 357, -691, -1317, 1394, 1033, -700, -879, 2, 192, 973, 2682, -679, 509, -963, -902, 642, -1483, 998, -549, -271, -1828, -108, -1352, -1646, 1493, 7, -462, 390, -702, -2092, 253, -1976, -750, 1076, 1307, 201, 1398, -719, -342, 1016, -278, 1119, 629, -493, 469, -406, -276, 1175, -185, 88, -1107, 1412, -382, 2613, 780, 821, -3910, 638, -687, -2932, -1512, 1865, -1815, 763, -799, 1243, -3506, -1834, -836, -1986, 2557, -2354, 1181, -326, 238, -320, -3450, 188, 3390, 1083, 526, 2266, -2907, 1185, -1738, 1394, -1212, 381, -199, 120, -896, -1390, -2288, -2516, 474, 1123, -924, 1387, -1199, -409, -672, 1690, -680, -1003, -2554, 590, 702, 1759, 455, -296, 1988, -27, -89, 287, -304, -2200, 431, 2464, -562, -783, -1373, 605, 534, 757, -1565, -4127, 2287, -2572, -2193, -1335, -613, -111, -245, -3413, -1322, -2554, 1798, 1726, 346, 1127, -1093, -1871, -2673, 1983, -3839, -74, -1837, -1522, -793, -2583, 726, 352, -130, 2416, 1242, -1423, 3477, -5314, -2035, 817, -147, 583, -4332, -1520, -118, -766, 704, 1187, -1443, -6, -1392, -595, -1120, 298, -930, -2450, 765, 3225, 832, -48, 1283, 686, 798, -502, -128, -850, -532, 385, 226, -482, -603, 1424, -1625, 144, -1410, 1652, 416, -305, 274, -567, -1848, -317, -995, 688, -762, -1162, -733, 322, -455, -331, -1081, 5, -229, 237, 555, -1231, -1093, 336, -160, 755, -372, 1059, 982, 612, 548, 1034, 253, -907, -15, -1786, -728, 333, 1243, 483, -322, -903, -441, -351, -2303, -362, 1318, -618, -395, 826, 981, 450, 1751, -2039, 1065, -174, 1398, -1586, -237, -490, -853, -2051, -471, -57, 1341, 695, -590, -919, 560, 1464, -1597, 299, -788, -170, 520, -1372, -823, -111, -740, -1078, 607, 119, 327, -426, -69, -1022, 778, 1417, 217, 1180, -227, -2731, -1059, -951, -1291, 322, 322, 158, -143, -886, 953, 725, -463, 156, -300, 464, 1073, -760, 1208, 4, -971, 410, -1542, -832, 103, 857, 653, -1401, -474, -41, -1052, 1273, 460, 655, 1299, -641, -168, -829, -562, -207, -1117, -388, 766, 441, -2430, -1617, -560, 1161, 898, -492, 828, -636, 1277, -305, 1439, -456, -313, -141, -352, -189, -1336, -142, 593, -304, -43, -340, 819, 115, -245, -1595, 240, -826, -151, 1064, -630, -920, -1351, -74, -175, -145, -492, -1338, 576, 113, 1059, 236, 724, 1590, 306, 730, 1616, 2066, 1307, 592, -601, -40, 821, 1463, 724, 1273, -1188, -911, 583, 620, 1272, -986, -3509, 1560, 153, 120, 1007, 1712, 95, -495, -324, 233, -144, -712, 142, 683, 1000, -638, 385, -677, 1601, -328, -1038, -1053, 484, -1800, -3414, 792, 434, 802, 3135, -239, -640, -283, -1040, 330, -389, 30, 1110, 784, -477, 1731, 173, 686, 516, 1245, -2794, -923, 1801, 637, -1738, -624, -2982, -1709, -604, -1123, -1248, -2009, -990, -496, 4205, -284, 558, 1616, 1319, 2113, -3129, -771, 1780, -1471, -602, 2433, -1161, -81, -733, 1582, 735, 2301, 604, -601, -2338, -1788, 574, -2503, -1119, 2429, 2522, 2585, -1685, -131, 2391, 5348, 669, 567, -4136, -3402, -3184, -297, 736, -1032, -1323, -497, -1287, -588, 1549, -808, -2973, 680, 3387, 1731, -3678, -2665, 1277, 2994, 650, 852, 824, -437, 236, 776, 3819, 3965, -1670, -415, 1970, -3201, -1764, -5278, -527, -3502, -882, -1136, -1070, -492, -1561, 660, 2861, -505, -989, 1023, -867, -924, 2269, -122, -2888, 1043, 3317, -4029, 893, 660, 2445, -1565, 2425, 3864, -425, -4521, 643, 1014, -1226, 1039, -3088, -2232, -716, 245, -1161, 403, -857, -1452, 3083, -2332, 1258, 1592, 2709, 1111, 3331, -1912, -979, 1525, 1150, 1343, -1417, -2294, 2687, -2939, 1298, -2846, 12, -1401, 2560, -4284, 1882, -3663, 228, -483, 2819, -820, -2387, -1529, -5290, -5012, -1211, 4237, 1006, -5023, 2789, 1672, 1842, -2915, -2715, -685, -1668, -1138, -3227, 617, -1112, -333, 3153, 1034, -109, 697, 352, 6354, -3496, -4503, -36, 2264, 576, 812, -1906, 3285, -2197, -3342, -1883, -657, -546, 3581, -1681, -3531, -285, -1471, -2550, 589, -2297, -25, 1486, -4248, -1223, -1758, -2815, 544, -1714, -1053, 4284, 1856, -159, 5411, 1030, 1100, -1459, -946, -1531, 241, 1420, -5571, -5768, 363, 1296, -796, -2798, 1051, 822, -3972, -1127, 240, -552, -1083, 1142, -2108, 1965, -1128, -4460, -3213, -2105, 2278, -1653, 1565, -2616, -3811, -1548, -912, -5073, -3026, -2124, 4798, -1567, -1661, -6802, -3270, -3042, 1731, 1934, 498, -654, -1364, -2172, 354, -1926, -2280, 950, 474, 175, -201, 85, -532, -1970, -1803, 1345, 682, -67, 365, 2220, -481, 504, -1927, -71, 277, -1235, -255, 1419, -362, 147, -484, -1210, 903, 899, -1677, -403, -738, 295, 633, -42, -423, 430, -34, 386, -431, -3660, -69, -1008, -221, 432, 1120, -715, -193, -718, 51, 751, -706, -1153, -849, 464, -3428, -2, 912, 759, -2120, -881, -674, -1294, -99, -120, 1369, -81, -607, -62, 703, -30, -785, 1322, -1627, 923, 3874, -959, -1006, 1680, -7, -286, 95, 1208, -267, -2107, -585, -65, -126, 1623, 1836, 2, -1271, -135, -653, 320, 2030, 916, -197, -1021, 390, -545, 5, 543, 770, -1511, 734, 469, 479, -785, -1303, 714, -2717, 1421, -992, -515, 1696, 235, 46, -2693, -683, 467, -2224, -684, -609, -2089, -1381, 1531, 2086, -2156, -6545, 511, 129, 373, 1094, 2735, -4588, -4758, 1827, 694, -2244, -16, -583, 1803, -3017, 1388, 2141, 2394, -3529, -1511, 1894, -312, -612, 4304, -163, 44, 1545, 4485, -2746, 1570, 959, 492, -400, 622, 853, 233, -3790, 3402, -1098, 2391, -1348, 1801, 689, -2713, -1577, -3896, -1763, -2619, 916, 1740, 1381, 1305, 2107, 802, 1233, 4286, 2472, 1157, 798, -32, -3346, -830, -773, -923, 2720, -1014, -2488, -2515, 5081, -1008, -795, 1299, -1099, -1672, 673, -1723, -3281, 531, 548, 13, 1330, 629, -4823, 301, 2097, 591, -3129, -485, 5118, 791, -390, 2887, -48, -829, 1771, 1537, -1404, 1612, 2923, 1461, 782, 476, -155, -1842, -350, -2362, -2564, 142, 669, 3717, -1643, 4838, 598, -518, 1884, -1767, 5499, -2076, 4337, 2174, 3397, -2871, -3832, -1161, 2846, 1889, 2263, 2795, 2226, -1253, -1092, -1883, 624, -2439, -705, 368, 1695, 2486, -668, 187, -539, 40, -415, -2084, -593, -169, 296, -2042, 250, 1441, 659, -1554, 2021, -3314, -2099, 2539, -895, -1522, -524, -241, -596, -254, 4425, -492, 144, -449, 687, -1373, -3349, -2179, 1403, -1807, 943, -159, -884, 525, -2298, -2334, 2992, 855, -2377, -1356, -3224, 48, 2926, -664, -166, 531, 2002, 2763, 438, 3194, 305, -3934, -3140, -715, -185, 2225, -1609, -1287, 2270, 2076, 2648, 3401, 353, 1607, -1018, -1559, 2116, -543, 753, 1936, -4874, -1195, -1696, -1983, -3225, -2515, 4852, 72, -38, 4571, -1913, 3235, 699, 61, 194, 112, -434, -325, -2166, 240, 4493, -434, 1895, -1097, -4225, 1827, 1347, 880, -1960, -1662, 698, 3500, -3753, 2275, 1796, 445, 2792, -3289, 1441, 3654, -150, 130, -929, -442, -114, -770, 1418, 1330, -1461, 201, -2661, 311, 376, 764, -307, 4353, 3159, -544, 786, 1128, 1232, 1034, -1434, 1057, -412, 396, 2107, -1450, -31, 16, 1681, 158, 372, -1415, -1440, -781, -1167, -1854, 2842, 793, -1309, -1424, 3994, 985, 279, -820, 162, -1, -776, 175, -1109, -342, 1538, 342, 591, 91, 1100, -817, -1296, 536, -1846, 1513, -2102, 621, 1430, -1829, 2600, -1163, 563, -67, 1446, 644, 2051, -3437, -2096, 769, 767, -43, -983, -955, 1465, -1152, -2122, 379, -1483, 1364, 582, -638, 1161, -423, -1337, -169, 1750, 1975, 79, 1187, -806, -2917, 2480, 373, -2350, 463, -390, 903, -375, -205, -661, -820, 1196, 571, -996, -975, -1075, 1063, -675, -783, 762, -492, 314, -378, -196, 2321, -2104, 1495, -2547, 1065, 994, 1475, -2249, 503, 1559, -714, -1695, 926, 167, 2665, -1687, 1779, 664, -2228, -1271, 4296, -2135, -1585, -805, -156, -874, 1439, 477, -728, -973, -335, 832, 205, -3247, -420, -1876, -1113, 707, -1618, -398, 1902, -3457, -822, 2106, -534, 4673, 1343, -1449, 701, -793, -687, 1183, 2750, -3592, 1769, -524, 829, -1322, 1260, -1626, -525, -5063, 767, 207, -1391, -809, 1534, 137, 561, -445, -154, -870, -928, 3327, 267, -642, -1720, -400, -2102, 134, 2328, 2326, -912, -4526, 926, -2712, -2160, -2434, -322, -109, 4554, -547, 1099, 1284, -2950, -1565, 529, -371, -1253, -235, -122, 460, -1585, -879, 1414, -1692, 2400, -1908, 1200, 1393, 814, -10, 1378, 1733, 1334, 1901, -1185, -3453, 1732, -2823, -2888, 905, -952, 1231, -1809, -1286, -637, -430, 2000, -1395, 727, 1358, 2332, -206, 1367, 67, 215, 7494, -3078, -4118, -2677, -3916, -2642, 881, 4208, -4166, -1287, -3219, -1484, -10732, -1835, -3126, -6107, 9428, 5363, -2302, -719, -3432, 983, -3579, 239, -3211, 333, -3909, 7549, -458, -1870, 4290, 4885, -743, -6205, 3260, -1478, 1775, 5242, -2770, 1936, 2097, 418, 2814, -1683, -2310, -4965, 2593, 248, -368, 1076, 6237, 3978, -920, 3158, -2700, 611, -3277, -5762, 973, 495, 3166, 2224, -5547, -2312, 3892, 1318, 402, -4766, 549, -4173, 3621, -5283, -5674, 4891, 513, -3097, 3389, -6548, -3622, -655, 2087, -568, -2253, -1472, -255, -2882, -1003, -4084, -2815, -986, -228, 1174, 4455, 1315, -2568, -2043, 5012, 3358, -3203, 1855, -3439, -5190, 3559, 4807, -1923, 2540, -163, 559, -3285, 2382, -4770, -1713, -1908, 1705, 734, 2214, -3655, -1755, -739, 4043, 1581, -3997, -349, -269, -2767, -3668, 5189, -868, 928, -1665, 498, 1703, -1818, 89, -187, 1780, -675, 2149, 3841, -578, 3527, -2473, -403, -1995, 3510, 3859, -2088, 475, 692, -98, 583, -2, 1054, -1529, -1391, -128, -205, -1910, -317, 524, -708, 2992, -3621, 2913, 1022, 2748, -321, -4341, -686, 1026, -705, -1804, -4109, 140, 3673, 1787, -1683, 196, -183, -2775, -759, -2014, -3032, 731, 2048, 1925, 1917, 444, -2716, -1151, 2967, -1489, -2562, -117, -3000, -2149, -863, -71, -1950, 1769, 990, 1706, -2165, 2167, 3093, -284, -720, -549, 407, 1589, -4935, -1952, -576, 1798, 172, -1713, -3697, 1540, 832, 1921, 2803, -1265, 1069, -218, -1335, -2633, -3544, 1975, 665, 2167, 2538, 1192, -2702, 1394, 1262, -4079, 5885, 1993, -1016, -4022, -652, 1267, 2207, -2031, 1372, 954, -662, 3917, -2141, -827, 603, 1688, -1443, 2618, -584, 2626, -5556, 266, -2740, 2728, -4422, 3944, -5931, 2403, 3225, -669, 2874, -214, -1880, 1646, -5296, 767, 1219, 2734, -2497, -6020, -2152, 5880, 3549, 750, -2462, -573, -976, 166, 178, 3183, 726, 96, -3288, 1941, 807, 1898, -1245, 1742, 1759, 3740, 1912, -1261, 626, -2036, -2325, -1102, 4236, -1562, 1654, -2388, 2777, -140, -3, 2740, 1974, 475, 3257, -589, -1657, -1795, -101, -80, 2391, -5431, 315, -4990, -3716, -112, -2574, 3286, 2732, -809, 1446, -3010, 1446, 403, 1712, 578, 1924, -1854, 661, -186, 2045, -2737, -707, -3135, -8, 199, -4028, -865, -4359, -1774, -2485, -2600, 1966, -841, 3746, 1274, -2231, -3606, 1649, -92, -2319, -1644, -2544, -450, 33, 3112, -2897, -1459, -652, -1181, -4459, -180, 1497, 3394, 2685, -3714, 1439, -5189, -3298, -6188, -2040, -3997, -2420, -2013, 114, -642, -982, 3074, -2547, 902, 1792, 935, -2071, 129, -703, -384, 234, 874, 169, -2462, -66, 927, 1051, -506, -1240, 1322, 1136, -2163, 270, 396, -1360, 1892, 559, -1686, 446, 1143, -732, 1480, -1205, -427, -280, 2265, -750, 42, 1549, 491, 634, 2490, 909, -337, -4041, -493, 524, -316, 252, -3373, -2672, 142, -1348, 796, 133, 119, 444, 608, -2505, 651, -908, -1037, -657, -2522, -5027, -1085, -798, 619, -457, -697, -1037, -4322, -2309, 527, 406, -206, 735, 492, 1748, 427, 558, 3016, 922, 595, -1057, -1849, -2, 397, -751, -262, 2428, 7, -483, -66, -618, -950, -436, 985, 185, -1726, -686, 966, -1062, -835, 1378, -375, 852, -1771, 1897, -29, -758, -27, -1426, -1649, 574, 1078, -306, -311, 770, -226, -1806, -3843, 1448, 958, 645, -1417, 1237, -935, 2926, 2736, -2536, -76, 230, 1261, -1349, -55, -3005, -1782, 4749, -4751, 80, -141, -5943, -1515, -1297, 1718, -4146, 1385, -3977, -1719, 4015, 1660, 5622, -362, 3573, -2717, -2782, 1848, -745, -4392, -4198, -73, 145, 2957, -2466, -1810, -3442, -587, 5202, 1740, 2664, -828, 770, -546, 2372, -2503, -3416, -1739, 2238, 2026, -4154, -3168, 87, 891, 3582, 1698, 340, 4960, -2445, -2412, -2464, -3288, -3214, -646, 4068, 2069, -1885, -2858, -2705, -1504, 824, 5441, -948, 2952, -3670, 4886, -1086, 1239, -1394, 3129, -1019, 3578, -1058, -1295, -4889, -428, -1801, -2913, 906, 1651, 2321, -4470, 4956, -1789, -3114, 908, -2505, 26, 140, -2676, 840, -2895, -554, 1062, 1281, -94, -2572, -17, 1856, 368, 1839, -5513, -1990, -1538, -788, -3029, -425, -3359, -2198, -5335, 28, -3410, 320, 1000, 5002, 1377, -155, 1433, 1021, -568, 835, -823, -2158, 2720, -538, 2048, -1083, 973, -1097, -2547, 1929, 2486, -144, 597, -501, -1701, 231, 1593, -1523, 331, 2302, 937, -982, -653, -911, -29, 1421, -998, 272, 2425, -1304, -2915, -911, -1331, -558, -547, -23, 33, 623, -2973, -706, -129, 121, 80, 1505, -2055, 1471, -1314, 551, -119, -360, -3214, 872, 152, -301, 1863, -2385, 357, 128, 101, -1534, 2227, -6, 419, -98, 30, -608, 1942, 864, 978, 111, 798, 2122, -1910, -1888, -445, -1406, -125, 65, 647, -335, 380, -1121, -1054, -1642, -185, 1416, -421, -1130, 160, 1161, -41, -1044, -774, 1470, -810, -650, 1184, 1057, -139, 2085, 109, 1390, 326, -2061, -1101, 763, 1837, 78, 504, 1860, -659, -1539, 6, -1535, 1008, -284, 729, 565, 63, -604, -914, 952, -310, 2019, 363, -1851, -512, -786, 272, 141, 1548, 1582, 822, 3115, 1353, 1083, -2246, -1793, -2498, -159, -1807, 1894, 1738, 1183, -4570, -3469, 393, 2197, -1282, 1197, 709, -1527, -677, 2236, -129, -565, 2395, -2288, -855, 404, -4308, 2475, 45, -1073, 2687, -187, -880, 1003, 19, 2649, 205, -188, -127, 2409, 107, 635, -712, -412, 907, -404, 223, -2946, -983, 3583, 774, 1361, -3254, 1983, 1020, 572, 802, 1453, 149, -68, 2239, -2149, 754, -3683, 2136, -2489, 741, 2870, 1792, 2238, -2169, -790, -57, 2052, -964, -2314, -156, -258, -4380, -284, -3306, -1023, -828, 583, 374, 604, -1137, 705, 747, -1584, -655, -2157, -1934, 1258, -2247, 633, 523, 1816, 862, 924, 814, -3187, 1536, 613, 598, -764, -2031, 2425, 2211, -2444, 737, -1014, -1686, -981, -1877, -986, -1283, 395, -516, 951, -1462, -1060, -642, 174, 2347, 1489, 622, 559, -1397, -571, -446, -432, 77, -989, -1945, -1419, 357, -554, -2272, -1221, -460, 2385, 752, 675, -446, -1920, 823, 235, -258, -1089, -311, 274, -483, -742, 1250, -663, 873, -1130, 252, 490, -1151, 9, -220, 62, 1954, 961, 1882, 1819, 390, -1496, 71, -460, 450, -1440, 1292, -627, 294, -2150, -109, 1624, 896, -395, -431, -1039, 535, -1875, -2565, 601, 1881, -328, -1007, 1601, 541, -1544, -1059, -1298, -471, -125, -2239, 2586, -477, 723, 1141, 2608, 729, -1178, 1391, 196, 1149, 897, -132, 2411, 6, 241, 1434, 833, -42, 3051, 441, -621, -489, 1585, -361, -757, -2246, 1641, -2269, -832, -2361, 1426, -30, 3572, -2287, 624, 171, 1436, 2222, -1796, 513, -1519, -493, -340, -714, 2063, 0, 994, -956, -610, -1472, 3617, -1375, 427, 847, -940, -1627, -1702, -945, -742, -1633, 1619, -1338, -1641, -1920, -532, -1956, 1270, -1262, -433, -3481, 945, 3174, -1966, -1724, -686, 435, 178, 883, 274, -4260, -1165, 1461, -2806, -321, 727, 1250, -117, 434, 4475, -466, -331, -1460, -893, -1003, 1668, 1445, 878, 1191, -903, 3428, 642, 1358, -1656, -440, -3515, -1297, 2368, -750, 1972, -3200, -5371, -3062, 4364, -3656, -241, 1670, -914, 629, -2202, -1914, -1283, -3464, 1538, 4055, 862, 1098, -17, -916, 981, 1081, -981, 144, 25, 3267, 3599, -1707, 1135, -2442, 53, 3797, -1340, -144, 3654, 419, 774, -2779, -508, -1426, 2629, -1678, 1115, 1315, -3330, -314, -1007, -3032, 1204, -2928, 3117, 1377, 3205, -1205, 1206, -2388, 1699, 564, -216, 138, -1224, -492, -66, 1312, 1776, -1236, 1584, 492, 248, -976, -297, -429, -803, 940, -4330, -146, 226, -240, -85, -1020, -97, -365, 692, -75, -336, 489, 159, 1199, 567, 247, -676, -294, 204, -839, 472, 325, -145, -446, -952, 409, -262, -870, 2726, 1252, -707, 667, 1045, -1425, 432, 1067, -932, 67, -1936, 625, 626, -938, 932, -239, -105, 94, -327, 342, 1289, 1155, -1118, 530, -80, -55, -562, -1685, -651, 546, -760, -371, -1527, -1492, -499, -2672, -110, -1091, -295, 1076, -505, 653, 2034, -191, -794, -466, 2835, 995, 90, -292, 1377, -65, 706, 357, -1322, 664, -1745, 369, 1066, 926, -1546, -1278, 2793, -1251, -1090, 681, 1291, -22, -24, -1184, 33, -183, -1823, -749, -53, -1605, -1904, 487, -1478, -1502, 2, -463, 210, -536, -700, 1646, 867, -747, 79, -709, -111, 147, -597, 957, -328, 157, 735, 45, -1835, -354, -491, -1116, 357, 856, 59, 1506, -405, 87, 22, 771, -778, 1182, 997, -1236, -137, 338, 155, 2048, -3061, -448, -590, 1744, -401, -63, 496, 62, -156, -894, -994, -343, -1178, -769, 485, -530, -205, 210, -1212, -100, -1259, -1126, 30, -705, 615, -583, 1091, 383, 357, 2177, 48, -809, 1819, 815, -1104, 370, 182, -1795, 1267, 408, 48, -1342, -589, 451, -293, -692, -1882, -1451, 572, -70, 438, -1238, 2103, 647, 1287, 331, -57, 631, 2352, -1120, 1150, 719, -246, -290, 473, 1263, -35, -777, 360, 1600, -1285, -431, -854, -1334, 461, -1604, 876, -336, -837, 772, 289, -291, -2075, 328, 744, -1141, 127, -112, -543, -813, 575, 1724, 181, -2187, -823, 2402, 329, 812, -555, 578, -570, -3604, -2913, -57, -459, -408, 2876, 780, -828, 2092, -775, 1912, 1492, 1485, -5599, 1218, -1672, 4423, 2523, 1160, 942, -811, -3, -2856, -1928, 4347, 1588, -1062, -663, -1643, 336, 744, 910, 2516, -1455, -1070, -2232, 2242, 272, 560, 134, -5838, 1741, -1443, 3467, 1081, 1012, -6, -802, -1203, 2385, -3228, 4482, -1029, 354, 1747, 3659, 3838, -1239, 389, 3445, 119, 2041, 904, -2137, -1372, 16, -572, -238, 664, -2271, 485, -3703, 1401, 717, -1627, -1007, -605, -1233, -1147, 1177, -3096, -1398, -1076, -1452, 363, -4147, -1513, 2174, 4807, 4263, -98, -940, 2077, -675, -4427, -748, -413, -1526, -5358, 3047, 1694, 5055, 2954, -3151, 3739, -679, -1848, 3499, 3423, -2451, 242, 3241, 350, -3461, 1347, -1004, 1483, 1477, 295, -220, 1551, -1165, 2123, -2262, 3044, -65, -4887, 5241, 833, 393, -1650, -1997, 2042, 1364, 3077, -1219, 1032, 2449, 1837, 1159, 1116, -4281, 440, -1335, 79, 2256, -1790, -4858, -255, -2350, -2144, 1640, -2016, -1498, -765, 539, -1885, 1517, 330, 2914, -798, -2138, 2773, 3169, -543, -826, 3328, -5377, 278, 986, -2512, 752, 2038, -625, 207, 4691, -1633, 588, -889, 1097, -1183, 59, 3054, 2942, 39, -2558, -307, -1668, -2301, -1616, -359, 2060, -829, 3747, 474, -96, 3358, -3120, -746, 672, -1066, -1503, -381, 2025, -546, 3000, 2178, 368, -29, 3518, -2219, -1678, 1442, -2039, -92, -53, 3215, 3549, 1798, 825, -6478, 1368, 3213, -303, -874, -70, -2012, 2136, -1927, 2088, -84, -5381, 257, -1669, -1095, -3732, -528, -3, 4559, -343, 374, -1612, 913, -2054, -1778, 241, 5971, -1950, 279, -1767, 1775, 1978, 792, 713, -49, -1111, 560, 236, 457, -585, -178, -1005, -1117, 767, 2104, -3066, 1158, 2211, 540, 1319, -2998, 1022, 426, 1347, 332, -319, -1713, -1520, -524, 2133, 2833, 1621, 29, 240, 705, -136, 222, 356, 1267, -374, -55, 708, 1050, 1151, 313, 4, 542, 1294, 547, -867, 1702, -498, 1392, -1300, -185, -444, -1934, 641, -608, -400, -5, 423, 2758, -616, 554, 575, 737, -149, -742, 222, -811, 1349, -4234, 473, -1508, 128, 1401, -120, -1380, 464, -1212, 1614, -448, -2357, -802, 282, 105, 2180, 1365, 372, 715, 143, 593, -1663, -692, 935, -2271, 1640, 83, 162, 68, -966, 553, 776, -2314, -555, -13, 646, 2100, -1483, 750, 922, 589, -1583, -1454, -787, -2066, -799, 809, 530, -1041, 3561, -750, -843, -973, 42, -2353, -354, 629, -385, -787, 460, -2498, 755, -385, -334, 3315, -2388, -574, 312, 513, -772, 1243, 116, 428, -177, 803, 986, -95, 1303, -685, 749, -914, -1097, 636, -600, -878, -843, 202, 2079, 1648, 721, -560, 79, 308, -1163, 1547, 362, -144, -1321, 429, -1073, -2230, 654, -498, 23, -957, 594, 44, -507, -445, -1474, 888, 908, -3150, -3150, 1257, -2552, 795, -1391, 182, -1496, -379, 1417, -1467, 455, -950, -500, -1068, 1279, -1607, -279, -1605, 1873, 1050, 1903, -248, -1152, -752, 208, 625, 1407, -1167, -1592, 281, 1322, 2734, 72, 517, 571, -706, 133, -684, 2481, -801, -1822, 2755, -639, -2329, 1048, -1236, 794, -1774, -1534, 309, 1723, 1038, 1180, -320, -1206, -2520, 997, -1024, -3419, -95, -1384, -1607, 726, -1672, -297, -1221, -960, 543, -547, -317, -659, -1437, 997, -2040, -934, 213, 331, 2718, -3750, -3139, -6336, -1878, 1540, 883, -1453, -6654, -1498, 954, 900, -1261, 1233, 591, 2729, 799, 5602, 1472, -1583, 3279, -624, 2269, -1275, 1908, 3352, -1104, 3374, 1432, 1634, -1534, 53, 3129, -3882, -944, -998, 1331, -4678, -3511, 1359, 492, 463, 1005, -1031, 226, -1247, 415, 848, 1271, -3037, -521, -2255, -2658, 1388, 2033, 1680, 1046, 1784, -1705, 3994, 2155, 2362, -2533, -4026, -1918, -3164, -1026, 612, -92, 1249, 5263, -2055, 19, -1435, 976, 2159, 2689, 408, 645, 3330, 2709, 458, -3576, 5561, 2894, 3207, -976, -445, -3336, 3570, 250, 1285, -287, -4385, -533, 2570, -2878, 408, -712, -4663, 1203, 1468, 2752, -1147, 466, -1576, 5109, 424, 171, -2250, -1630, 2025, -2696, 776, 5675, 1831, -11215, -303, -1185, 2118, -434, 709, -1338, -4785, -2702, -3237, -5554, 3680, 177, 1311, 533, -1808, -716, -295, 39, -1157, -2385, 2206, 1340, 1262, -4100, 1254, 574, 3975, 1821, 181, 609, 1759, 1267, -1588, 231, -1769, 2782, 3271, 1855, 1150, -317, -2774, -795, 995, -2013, -681, 2953, 1830, 1384, 1211, -731, 273, -530, -1211, 2137, 356, -2652, 1288, 1882, -1825, -1355, -1300, -516, -2184, -356, 375, -1702, -431, 1301, 586, -3242, -132, -578, 1343, 1381, 1167, -1471, -1323, -161, -1367, 2038, -2366, -2233, 158, -1099, -3351, -107, 523, -190, -582, -1327, 296, 614, 562, -2419, 1201, -770, 1091, 1003, -593, 1100, -4535, -623, -509, -3388, -3284, -2862, -1522, 491, 609, -617, -2928, 2308, -607, 1931, 2785, 4200, 179, -1494, 2849, 302, -731, -2521, -1353, -2631, 1001, -132, 712, -950, 889, -774, 205, -1416, 2322, -445, -2015, 1303, 829, -398, 2905, 1340, -322, 876, -384, -2545, -1028, 578, -1050, -306, 893, 651, 438, -931, -750, -2580, -545, -339, -361, -578, -517, 669, 255, -826, 1726, -1240, -148, -1021, -1296, -2291, 532, 49, 1044, 893, -1140, 603, 259, 1208, 351, 1286, 1095, 515, -917, 160, -797, -273, -501, -751, 763, -111, 1771, 1018, -309, 888, 297, -802, 504, -875, 142, -28, 708, -1088, -2348, 485, 1225, -343, 577, -227, 1242, -954, 50, 1021, -736, 1285, -143, -402, -354, 335, -99, -364, 2888, 1080, -1207, 23, -577, 786, 828, 922, 1255, -84, -978, -5, -134, -2776, -197, 110, 1482, -780, 1940, -547, 2546, -1286, 433, 1739, 389, -141, -120, -55, 1008, -466, -1451, 2041, -504, -1155, -2245, -20, 6, 563, -75, 1957, -427, 2083, -296, 529, -680, -583, -1045, 107, 1399, -264, -53, -733, -286, 421, -313, -777, 244, 1588, -1046, -43, -1094, -2322, -324, 1398, -52, -1616, -453, 849, 1197, 80, -1082, 35, -44, 1027, -476, -179, 702, -1006, 1212, -605, -1957, -846, -982, -662, 337, -1398, -1568, -2727, 984, -1081, 1125, 583, -561, 419, -541, 1740, -826, 750, -1143, 369, 910, 397, -25, 361, 304, -1772, 218, 4, -1276, -1101, -1247, -310, 1309, 351, -564, 1580, -314, 961, 1034, 1025, -405, 1327, -1718, 1437, 292, 230, -1902, -2219, 1194, 1175, 2259, -853, -192, 278, 407, 1045, 2713, -966, 375, -207, 756, -2053, -91, -600, -625, 1934, 988, -423, -90, -1596, 1841, 1810, -1672, 2623, -965, 1991, 1414, 1103, -118, 106, -1424, 1756, -732, -508, -1935, -729, 1472, -850, -868, -1615, -515, 103, 1388, -15, -802, 342, 1410, -729, 1129, -3178, 583, 0, 1394, -165, 289, 679, -394, -92, 1451, -860, 439, -1895, -1908, -106, -766, 1161, 149, 989, -306, 63, -2559, -994, -98, -549, 1477, 2168, -130, -354, -1, 16, -680, -1797, 528, -1964, 1428, -104, 172, -739, 1454, 2355, -1229, -1357, -874, 295, -1039, -1736, 1147, -1188, -1951, -384, -357, -267, 249, -1307, -769, -3086, -50, -1819, -230, 127, 1017, 218, -2304, -894, -842, 647, 392, 1311, 1450, 2105, -2655, -1333, 105, 1665, 1440, 373, 1750, -1464, -656, -682, -1948, -234, 704, 137, 285, 905, 509, -1808, -529, 404, 524, 68, -183, 596, 2374, -244, -2273, 573, 247, 43, -67, -288, -324, -36, 841, -473, -1827, -268, 49, 362, -843, -779, 445, -1157, -135, 1180, -679, 220, -886, 556, 428, 278, -1956, 183, -16, 0, 1169, -1675, -240, -690, 754, -542, 56, -311, 489, -1880, -804, 113, 1096, -1274, 2149, 343, 321, 211, 487, 161, 685, 367, 282, 890, -1603, -896, 798, -1432, -1598, -812, -121, -1547, -729, -313, -1037, -236, 613, -169, 525, -156, 725, 271, -430, 961, -156, -23, -217, -386, 749, -1355, -518, -269, 672, -72, -285, 346, -72, -1006, -134, 411, -888, 37, 234, 551, 1072, -353, 35, 1057, -986, -572, 31, 157, -698, 559, 182, -718, 1020, -1030, 248, -1008, 75, 1394, -996, 363, -435, 1234, 1357, -167, 334, -2201, -1615, 259, -224, -8, 621, 116, 712, -1040, 254, 276, 568, -1185, -815, -219, -1069, 155, 1058, -586, 221, 673, 1545, -39, 103, -552, 75, -656, 290, -1045, 391, -293, -298, -1162, 4, -430, -1067, -1434, 339, 1181, 410, 1269, 265, -4653, -145, 449, -2597, 2792, 1336, 1062, 2356, -2608, 1262, 565, 605, -806, 2716, -774, -8, -1129, -762, -1105, 928, 149, -707, -3104, 412, 409, -2500, -2287, 566, 972, -609, 239, 1257, 1566, 2586, 1058, -1698, -1887, 2166, 3249, -2155, 878, -2055, 431, -392, -2795, 617, -872, -315, 1693, 194, -2474, 294, -529, 102, 292, -2091, -1403, 1362, -73, -3672, -1434, -1614, -2010, -472, 815, -286, 1417, -1802, 2463, -264, -772, -312, -928, -1034, 528, -537, 62, 1189, -412, -2345, 3297, 1329, -1264, -1267, -1319, 1599, 411, 244, -1613, 513, 3022, -365, 471, 4174, -687, 163, 1536, 3325, -2096, -1582, -1894, -308, -1813, 983, -156, -598, 776, 1847, -1294, 1725, 711, 1548, 2618, 3164, 1140, -832, -1593, -767, 771, 805, -2560, 1305, -2602, -90, -1169, -349, 1497, 3985, 925, 25, 174, -1303, 5236, 2036, -221, 1691, -329, 276, -3968, 1545, 310, 940, 4883, -2299, -185, -1558, 1936, 999, -2859, 350, -1004, -3359, -2020, 896, -738, -1126, -1962, -1778, 1155, -1126, 3010, 582, 1123, -3885, 937, 2999, 4008, -230, 56, 1371, 563, 248, 2427, 3258, -770, 11, 580, 1, 5270, -623, -3784, 496, 1227, 1600, 1543, -5697, -1487, -988, -2595, -906, 301, -1373, 1543, 1157, 2021, 294, -764, 1810, -1893, 425, 2264, 359, -1890, -3663, -2718, -66, 2945, 2407, 4923, -4774, -988, -1068, -614, -719, 582, 941, 3209, 1282, 4491, -1413, -1004, -1539, -1437, -1345, -3749, 4431, 1230, -1902, 255, 1775, -142, 2540, -1347, -495, 1770, -3906, -336, 2203, 1778, -625, 1589, -2463, 1650, 1216, -817, 768, -547, 2006, 1452, 1297, -752, -2582, 1603, -3288, -1343, -1413, 433, 838, 1998, 1076, 5527, -2349, -1210, -3071, -3041, -2602, -738, 2123, 2764, 2405, -2458, -1491, -811, -1175, 527, -918, -1049, -1570, -180, -5534, 2736, 1453, -310, 895, 787, 486, 2735, 4823, 1780, 1076, 258, -343, 741, -1348, 5434, 39, 90, 13, 2602, 3074, -2324, -2912, -1248, 1798, 1555, -874, 440, -508, -3060, -1541, 1440, -4130, -93, -706, 327, 1352, -5416, 658, -5686, 2318, 1210, -1507, -838, -1474, -1645, -3708, 1205, 2949, 3106, -1382, 243, 2107, 298, -1905, -1131, -1139, -1017, -87, 4152, -2569, 2163, 1911, -1364, 2962, 1874, -4976, 1147, -1105, -2882, -3472, 813, -2975, -3015, 3041, 489, 569, 333, 802, -2435, -2638, -3004, -2764, 1351, 2023, 1731, -2494, 158, -1940, -2869, 2924, -2718, -1381, 812, 2362, -3090, 4001, -305, -2056, 239, -994, 2970, -1283, -251, -1180, 2622, 414, -349, 1799, 4078, -1567, -1351, -859, 489, 498, 1178, 3090, -2065, 179, -222, -283, 1382, -2503, 171, -3302, -1799, 2573, -374, -871, 27, 2923, -182, 1227, -444, -1689, -248, -230, 2587, -921, 1639, 1295, -1176, -1337, -1569, 595, -1535, 235, 162, 1270, -1231, -707, 460, -44, -1543, -3763, 246, -709, 2539, 1248, 1315, -2669, 606, -545, 484, -581, -867, -2639, 941, 888, -1069, -570, 191, -328, 326, 596, 2447, 1416, 1230, 1103, -1026, -807, 1325, -1441, 909, -591, -1725, 105, 242, 45, -179, 170, 1250, -166, -176, 1014, 1420, -1784, 260, -297, -2243, -2886, -882, 929, -1380, 459, -616, -1656, 1276, 1092, 416, -1509, 1257, -978, -3149, -1927, -2761, 100, 47, 1658, -1609, 818, -177, -265, 2593, 624, -244, -760, -371, -1681, -148, -2720, 789, 431, -235, -4805, 2573, 490, 4627, -2666, -3316, 1926, -3407, -1436, -45, 2111, -2981, 185, 5162, 432, -1164, -121, -245, -1107, -1391, 180, -2036, 2693, -236, 2346, 1316, 857, -2588, -1742, -2566, -1213, 5787, 967, -4056, 1872, 627, -2100, -320, 5337, 244, -2294, -1589, -2729, 1285, -1078, 4013, -342, -2232, 3051, 3534, 880, -4242, 1256, 3622, 2827, -1354, -1695, -1393, -2597, -3447, -2391, -5195, -231, 873, 5562, -4684, -3899, -1752, 1180, -1149, 4211, 3307, 417, -2506, -1686, 1875, 3842, -290, -632, 4409, -5651, -2275, -3566, 7126, -2370, -1530, -1207, -1815, -5803, 239, -1355, -228, 2489, 1615, -3530, 679, 1856, -592, -2274, -1444, -162, -2752, -1828, 305, -787, 3566, -2921, 2450, -5747, -5000, 1065, 2835, -304, -4263, -4187, 873, -2063, -2723, 734, 1292, -4044, -3814, -2644, -2172, 1731, -1849, 797, -2376, -1286, 503, -1282, -893, 3806, 2427, 2410, -306, -2970, 1283, -1794, -3147, -1869, -2939, -912, 3526, -4698, -105, -1088, 2191, 2311, -1315, -756, 1750, -1899, -7396, 1298, 3461, 185, 3204, -590, -978, 2226, 439, 1251, 784, 26, 383, -1577, -3415, -1517, -2767, -2657, -4500, 1545, 952, 3005, -308, -542, 2477, -1730, -434, -1407, 1186, -316, 528, 1308, 1309, -437, -33, -294, 1810, 2326, 2443, 1880, 371, 936, 1461, 2145, -538, -3490, 345, 840, 1607, 2001, -1537, -1054, 1678, -1921, -426, -1248, 1969, 2335, -2321, -1213, 1184, -2928, 2220, -477, 2703, -3147, -916, -2719, -4067, 301, 1532, -594, 3188, -1605, -3346, 1898, -3358, -4516, -1849, 1565, 2439, 1548, 1357, 256, -1686, 1117, -546, 585, 2612, -1243, -222, -240, -45, -2737, -1161, 298, 172, -4263, 3166, -1602, -1998, -2523, -2518, -4075, 4184, -1809, 1346, 982, -2997, 5141, -1369, -837, 229, -1558, 4389, -1060, -7128, 2480, -3237, 3722, -932, 691, 2504, -2307, 809, 7483, 609, 3451, -572, 2320, 783, 3189, 2239, -3320, -1109, 1223, -3800, 4466, -615, -2023, -5606, -721, -4449, 90, -1396, 3979, -899, -4166, -1184, -2053, 7833, 2121, 1841, -946, 3183, 406, 3094, -2299, 4453, 4723, 175, 1577, -3703, -819, -2219, -412, 229, 3674, 353, 4068, 3883, -3585, 628, 1484, 1251, 517, 2066, 4057, 4217, 6922, 156, -522, 7618, -1728, 2582, 3662, 2742, -429, -4608, -4312, 3511, -531, -5359, -1436, 1957, 259, 4271, -3218, 2960, 1208, -835, 1380, -5286, -2393, 4590, 645, 7292, -6521, 1948, -9667, -597, -1946, -53, 6530, 1051, 2615, 3814, 8381, -613, 2799, 2351, -2985, 1529, 966, 2867, 763, 2584, 675, 2637, -2732, -58, 6475, 2553, -1169, 349, 2589, -4167, 119, -4102, 2385, -854, 2753, -1525, -1384, 3047, 1619, 3171, -5334, -2609, -3351, -2007, -450, -1750, 2201, 1529, -4272, 2271, -911, 372, -93, 4294, 2897, 1546, -1921, 1842, -1799, -496, -508, -5249, -2524, -2339, 1986, 4091, 3782, -782, 5562, 737, -94, 1476, -728, 3830, 2848, 1080, 1778, -2014, -56, -1519, -730, -3348, -2418, -3964, -4439, 1110, -249, -3864, 86, -3257, -1215, -1113, 530, -494, 641, -3723, -2080, 1492, 2918, -1369, 1803, 3456, -2341, -1791, 1318, -1741, 2046, 1554, 3023, 1020, -3016, 1100, -1391, 2393, -2201, 2012, -4129, 2602, -283, 1860, -5411, 1347, -2238, 228, -2992, -1206, 1871, 3490, 844, 3554, -2733, 553, -459, -534, 6, -1693, -1366, -134, -2286, -442, -1056, -229, -5060, -2649, 2567, 1533, 867, 6168, 956, -3543, 4824, -131, 3586, -1226, 1158, -4057, -2900, -4553, 15982, -1233, -5560, -443, 1260, 4415, -3448, -1306, -4098, -6442, -6479, -564, -1763, -1635, -1218, 5506, -3448, 476, -2725, -779, 3793, 5484, 1163, 8756, 281, 4654, -1314, 1639, 5961, -1883, 2816, 