/******************************************************************************
 * @file        str_ww_ref_model_conv_5.c
 * @brief       Autogenerated AOT CONV_2D kernel
 * @details     This file was generated by HeliosAOT v0.2.2 on 2025-08-05.
 *   This kernel represents node #5 in the corresponding graph.
 *
 * @date        2025-08-05
 *
 * @copyright
 *   © 2025 Ambiq. All rights reserved.
 *
 *   This generated C module is licensed for use **only** on Ambiq hardware
 *   incorporating Ambiq’s sub-threshold power optimized technology.
 *   Any other use is strictly prohibited.
 *
 *   See “LICENSE.txt” at the root of this distribution for full terms.
 *
 * @note        Do not edit this file—any changes will be overwritten.
 ******************************************************************************/
#include <stdalign.h>
#include "ns_ambiqsuite_harness.h"
#include "arm_nnfunctions.h"
#include "arm_nnsupportfunctions.h"
#include "str_ww_ref_model_conv_5.h"

#if defined(ARM_MATH_MVEI)
#define SCRATCH_BUFFER_SIZE 0
#define WEIGHT_SUM_BUFFER_SIZE 512
#elif defined(ARM_MATH_DSP)
#define SCRATCH_BUFFER_SIZE 512
#define WEIGHT_SUM_BUFFER_SIZE 0
#else
#define SCRATCH_BUFFER_SIZE 0
#define WEIGHT_SUM_BUFFER_SIZE 0
#endif

// Input dimensions: input shape is [1, H_IN, W_IN, C_IN]
static const cmsis_nn_dims conv_5_input_dims = { .n = 1, .h = 1, .w = 15, .c = 128 };

// Filter dimensions: weights shape is [C_OUT, H_FILT, W_FILT, C_IN].
static const cmsis_nn_dims conv_5_filter_dims = { .n =  128, .h = 1, .w = 1, .c = 128 };

// Bias dimensions: bias shape is [1, 1, 1, C_OUT].
static const cmsis_nn_dims conv_5_bias_dims = { .n = 1, .h = 1, .w = 1, .c = 128 };

// Output dimensions: output shape is [1, H_OUT, W_OUT, C_OUT].
static const cmsis_nn_dims conv_5_output_dims = { .n = 1, .h = 1, .w = 15, .c = 128 };

// Quantization parameters (per-channel quantization)
static const int32_t conv_5_multiplier[128] = {
    1345850368, 1197560960, 1134962816, 2146275840, 1316029056, 1353820160, 2105789824, 1274959488, 1417263616, 1198793088, 1198580352, 1310034688, 1223002368, 1345597824, 1234022016, 1530792064, 2047293824, 1132542464, 1390984832, 1215224448,
    1228111360, 1519078144, 1235906816, 2134285056, 2033017216, 1984227072, 1156386688, 1920417024, 1878247808, 1229521024, 1175745152, 2050278144, 1223118208, 1346534528, 1281013632, 1212410752, 2108016640, 1243612160, 1553314816, 1671697152,
    1260989568, 1181114624, 1159588864, 1464470784, 1991170944, 1184995968, 1937810688, 1116983936, 2053380992, 1583947264, 1880508928, 1311490432, 1264325504, 1449915136, 1222594432, 2076661504, 1102437248, 1376119552, 1218856192, 1458662144,
    1300735488, 1983488128, 1991381376, 2129921664, 1360827136, 2021472896, 1159473664, 1236327936, 1684803456, 1211628416, 2139182976, 1128193024, 1093117696, 1189282176, 1284953984, 1236467712, 1228666240, 1718635520, 1195478272, 1169467904,
    1969086208, 1236631296, 2066221568, 1158358272, 1087880448, 1238886784, 1463194496, 1158705664, 2062686464, 1222405248, 1157585536, 1115926400, 1760600320, 1353389824, 1336585728, 2104126720, 1909263744, 1903927808, 1300292096, 1328403840,
    2117634816, 1235029504, 1408182400, 1512810240, 1269857920, 2034253056, 1964092288, 1295585024, 1709422464, 1447583360, 1637556224, 1167219072, 1128570496, 1481710080, 1439831168, 1118285312, 1152347520, 1892014336, 1858633344, 2105140096,
    1924009472, 1764450048, 1944892672, 1405409664, 1232940544, 1336347776, 1307893376, 1198657152
};
static const int32_t conv_5_shift[128] = {
    -7, -7, -7, -8, -7, -7, -8, -7, -7, -7, -7, -7, -7, -7, -7, -7, -8, -7, -7, -7,
    -7, -7, -7, -8, -8, -8, -7, -7, -8, -7, -7, -8, -7, -7, -7, -7, -8, -7, -7, -7,
    -7, -7, -7, -7, -8, -7, -8, -7, -8, -7, -8, -7, -7, -8, -7, -8, -7, -7, -7, -7,
    -7, -8, -8, -8, -7, -8, -7, -7, -7, -7, -8, -7, -7, -7, -7, -7, -7, -7, -7, -7,
    -8, -7, -8, -7, -7, -7, -7, -7, -8, -7, -7, -7, -8, -7, -7, -8, -8, -8, -7, -7,
    -8, -7, -7, -7, -7, -8, -8, -7, -7, -7, -8, -7, -7, -7, -7, -7, -7, -7, -8, -8,
    -8, -8, -8, -7, -7, -7, -7, -7
};

// Offsets and activation parameters.
static const int32_t conv_5_input_zero_point = 11;
static const int32_t conv_5_output_zero_point = -128;

// Weight and bias data.
alignas(16) static NS_PUT_IN_TCM int8_t conv_5_weights[] = {
    22, -5, 70, -42, -25, 0, -7, -24, -9, -88, 50, 1, -7, 71, -10, 67, -86, -41, 24, 44,
    -11, -31, -68, 12, 14, -23, -53, 19, 35, 7, -48, 29, 4, 79, 63, 56, -50, 10, 13, 17,
    23, -29, 62, -53, 23, -46, -45, -48, -32, 19, 16, -47, -6, -19, -9, -83, -51, 59, -53, -25,
    -49, -5, -42, -29, 97, -21, -75, -12, -67, -19, 7, -13, 14, 14, -8, 33, 16, -29, 28, -9,
    21, 49, 34, -34, 59, 17, -7, 2, -56, 15, -6, 90, -2, -10, 42, 48, -5, -31, 55, -34,
    19, -36, 55, 9, -17, 17, -58, -7, 7, 11, -29, -127, -13, -7, 53, -79, 36, 14, -31, 0,
    -23, 82, 34, -21, -6, -14, -80, -5, -69, -40, 44, 24, -24, 19, 20, 56, 106, 94, -57, 69,
    13, 72, -28, 36, -24, 13, 77, 51, 15, -16, 8, 37, -31, 33, -7, -127, 46, -30, -1, -30,
    58, 19, 123, -101, 6, -95, -84, -2, -99, 117, 32, 45, 35, -10, -47, 114, 2, 14, 35, 55,
    -8, -16, 56, 51, -48, -11, 2, 38, 63, 41, 42, 36, 78, 112, 58, 43, -3, -59, 51, 3,
    -13, -10, -48, 88, -48, -23, -3, 42, -84, 11, -11, 96, -13, 16, -50, -57, -112, 4, -2, -37,
    4, -53, -30, 40, 25, -77, -2, -19, 42, -8, 6, 45, -47, 36, 27, -46, 42, 36, -52, -37,
    -123, 38, 51, 55, -27, 61, -25, 27, -52, 43, 34, -63, 81, -16, -26, 7, 55, -26, -53, -42,
    31, -31, -14, -12, 56, 36, -18, 56, -67, -63, -43, -70, 69, -94, 69, -30, -117, 34, 22, -22,
    -59, 10, -72, -42, -17, 14, 127, -26, 9, -57, 19, 0, -34, -61, 29, -75, 1, -65, 30, 36,
    63, 8, 42, -30, 64, -22, 21, 36, -4, -17, -64, -65, -27, 17, 1, 22, 67, -12, 37, 95,
    59, 38, 50, 84, 31, 24, -117, 0, 7, 39, 70, 92, -76, 38, -2, -61, 3, 41, -5, 8,
    -12, 15, 68, 95, -62, 11, 31, -51, 26, 56, -2, -25, 57, -10, -45, -64, 37, 54, 80, 5,
    -124, 41, 78, 88, 45, 77, 36, 6, -49, -71, -14, 63, -13, -9, 31, -54, -8, 25, -99, -55,
    80, 28, 96, 59, -68, 1, -74, 39, 14, 46, 51, 19, 43, 84, -15, 34, -70, -14, 13, 20,
    -66, -9, 75, -37, 16, -27, -33, -13, -88, -31, -81, 22, -18, 27, 55, 12, 42, 2, 28, -35,
    82, -66, -102, -2, -52, 75, -53, -14, -38, 80, -61, 85, 11, 46, -31, 46, -89, -2, -25, -40,
    5, -59, -31, 18, 37, 32, -6, -17, -19, 50, 68, 28, -24, -13, -54, -3, -20, 13, 33, -25,
    -32, 57, -46, 37, -108, -53, -43, 26, 6, -12, 63, -28, -53, 84, 4, -24, 3, -48, 23, 22,
    33, -53, 22, 11, -35, 11, 28, -16, -65, 96, 26, -27, 9, 89, -4, 64, -127, -55, -71, 47,
    -29, 123, -2, -15, -32, 35, 70, -24, 73, -51, 8, -20, 25, -37, -60, 23, 31, 3, 25, -82,
    -36, 29, -5, -42, 49, 34, 20, -3, -19, -64, 23, 53, 31, 25, 24, 38, 9, 78, -55, -29,
    99, 3, -13, -70, -25, 5, -9, -10, -87, -93, 8, -50, 16, 89, -21, 14, 22, -50, 32, -73,
    -2, 15, 16, -16, -11, -37, 8, 34, -100, -10, -22, 35, 63, 1, -112, 42, -16, -43, -55, 33,
    -48, -5, 31, -65, 17, -14, 51, -45, -14, 75, 6, -9, -42, -36, -35, 44, 47, 11, 86, -12,
    -28, -75, 28, -48, 10, 4, -60, 46, -18, -45, -1, 22, -37, 9, 33, -3, -9, -37, -5, 1,
    -78, 46, 46, 20, -28, -127, 2, 17, 14, 15, -8, -39, 51, -24, 8, 7, 31, 59, 43, 45,
    -54, 27, -55, 13, -62, -37, -56, 13, 23, 39, 33, -15, 24, 29, 2, 119, 68, -19, 33, -44,
    0, -22, -19, -3, 60, -14, 40, -48, -48, -46, -38, 82, -4, -68, 61, -73, -63, -3, 16, -41,
    -23, 23, -49, -4, 47, -48, -11, -54, 9, 28, 75, 45, -16, 51, -7, -7, -123, 5, -33, -69,
    -86, 41, -40, 68, 15, -60, -5, -24, 40, -6, 12, -35, -5, 12, 24, -43, 31, 12, -75, 71,
    6, 75, 1, -47, 2, 80, -11, 41, -14, -29, -127, 18, 35, 34, -23, 19, -3, 5, 84, 38,
    -31, -25, 20, 35, 54, -31, -19, -2, -6, 101, -104, -12, 30, -18, 51, -10, 15, 53, -28, 62,
    25, -4, 55, -12, -20, 15, -8, 46, 61, -71, -15, -85, 28, 10, 7, -21, -46, 125, 9, 19,
    104, -65, -67, -6, -63, -63, -17, -40, 61, -33, -18, 44, -51, -9, -8, -53, -32, 76, 26, 35,
    -62, -1, -52, -31, -10, 13, -63, -1, 14, -63, -52, 87, -33, 72, 4, -23, 26, -104, 66, -51,
    9, -18, -33, 84, -63, 25, 90, 15, -75, -26, 4, -53, 67, 89, 66, 81, -67, -7, -4, -76,
    -88, 56, 82, -66, 28, -54, 85, -127, -16, 34, 47, -39, 33, 46, -111, -96, 4, 76, -39, -13,
    23, -66, -95, -81, 78, 19, -51, -11, -24, 54, -6, 15, 80, -20, -93, 92, -33, 37, -21, 39,
    -62, 45, 3, -4, 94, -30, -39, 6, 88, -43, 110, 93, -20, -66, -46, -21, 28, 34, 58, -46,
    -39, -64, -64, -7, -10, -47, -65, -31, -4, -85, -69, 41, 76, -9, -11, -13, -21, -2, 60, -35,
    29, -24, -26, -61, -90, -52, -60, -44, -75, -23, 50, -58, -17, -69, 10, -72, 62, -54, -48, -33,
    -26, 24, 62, 27, 10, -24, 70, -4, -75, -5, -24, 10, -25, 34, 3, -53, -78, -33, 0, -36,
    17, 48, -63, -57, -97, -36, 30, 90, 3, -7, -21, 56, -26, -72, -41, 28, -22, -4, 95, -18,
    -88, -28, 4, 44, 93, 70, -3, -1, 52, 51, -87, 32, -23, -91, 85, 38, -18, -63, 45, 61,
    -30, 82, 59, -55, 42, 16, 51, 6, -20, -59, -44, -23, 58, -35, 10, 40, -66, -60, 35, -44,
    127, 51, -37, 11, -59, -37, -24, 35, 17, 31, -4, 14, 42, 61, -83, -26, -20, -24, -48, -61,
    -34, 19, 34, 22, -62, 55, -44, -18, -37, 2, 5, -2, -26, -1, 102, -19, -16, 11, 60, -4,
    17, -40, -55, 52, -66, 24, -18, -3, -17, -10, 8, 50, -6, -11, -85, 127, -26, -15, -18, 24,
    -53, -52, -48, -39, 8, -10, -1, -64, -39, 75, -56, 32, 16, -6, -10, -38, -61, -20, 0, -37,
    -14, -29, 75, 36, -37, -46, -25, 46, 2, -10, -21, -28, -87, 69, 82, 18, -11, -34, 21, -39,
    -32, -10, 44, -1, 28, 19, 22, 47, -16, 25, 10, -27, 82, 68, -24, 55, -58, -26, -4, 24,
    -63, 19, -49, 59, -17, 16, 26, -48, 63, -58, -23, 28, -62, -45, 65, -58, 5, 62, 3, -36,
    -51, 63, 87, -9, -27, -43, -41, 4, -9, -43, 54, -19, 31, -52, 50, 75, -58, -71, 74, 19,
    28, 41, 21, 18, 22, 24, -2, 59, -5, -100, 21, 4, 15, 39, -59, 53, -11, -22, 45, 42,
    44, -16, -2, -18, 24, 89, 54, 127, -76, 50, -9, 8, -36, 19, 61, 12, -12, 33, 30, 67,
    67, 30, -53, -65, -5, 65, 52, 1, -31, -60, 16, -15, -2, 98, 7, -73, 49, 23, -92, 12,
    -35, 67, 44, -8, 49, -82, -52, -12, -21, 11, 36, 25, 16, 58, 62, -87, 33, 15, -30, -40,
    43, -44, 23, -37, -98, -10, 97, -41, -3, 12, 61, -53, 18, -26, -19, 44, 27, 6, -39, -30,
    29, -5, -3, 58, -29, 78, -1, 49, -49, 82, 55, -40, -55, 7, -77, 127, -40, 10, 32, 85,
    -7, -66, 19, 12, 13, -77, -60, -33, -26, -49, 18, 22, -24, -4, 22, -4, 9, 50, -10, -6,
    -36, 92, 1, -69, 20, -24, 40, 32, 81, 15, 7, -65, -52, -27, 2, 13, -75, -26, -38, 40,
    26, 104, -49, -14, -55, -83, 27, -26, -6, 77, 15, 24, 75, -72, 41, 45, -54, 18, 71, -13,
    -52, -5, 67, -72, 30, -63, 13, -45, 9, 23, 21, 60, 0, -90, 22, 40, -93, -10, 45, -12,
    68, -58, -27, 10, 2, -47, 38, -60, 29, 0, -10, 7, -38, 53, -67, 53, 95, 40, 8, -61,
    -13, 52, -44, -42, -6, -37, -16, -26, 11, 55, 1, 106, 75, 43, -85, 59, 77, 51, -58, -2,
    71, 30, -26, 12, 17, 53, -72, 67, -27, 17, -30, -23, -27, -45, 42, 16, 7, 35, 16, 16,
    48, 3, -48, 24, 21, 9, -65, -75, -94, 26, -47, 40, 94, 39, 63, 14, 31, 39, -6, 1,
    -115, -90, -63, 10, 43, -14, 52, -13, -24, 95, 11, -31, -64, 27, -7, 39, -23, -18, -9, -28,
    -55, 18, -42, 7, 22, -27, 92, -35, 22, -76, 6, 2, 25, 103, 70, -52, -59, 125, -68, -91,
    -26, -56, -38, 39, -113, 15, 87, -1, -20, 21, 28, 50, 48, -55, 46, 4, 25, 73, -30, 53,
    -11, -60, -23, 37, -62, 45, -31, 65, -127, 70, 36, -122, -14, -10, 4, 18, 11, 25, -81, 8,
    29, 25, -72, -6, 90, 58, -22, -21, 69, -68, -24, -22, 52, -38, 56, 13, -48, -55, -14, 25,
    -2, -30, 24, -13, -7, 50, 46, -24, 20, -38, 51, -64, 15, -39, -127, -42, -65, -13, -41, 38,
    72, 72, -1, -14, 77, 13, -47, 86, 10, -7, 11, 55, -50, -41, 38, 15, 55, -8, 122, 74,
    24, 37, 13, 32, 86, 48, -70, -1, -37, 31, 60, 25, -1, 23, -6, -8, -77, 9, -66, 25,
    70, -28, 49, 95, 10, 1, -25, -12, -17, -49, -43, -67, 2, -27, 71, -14, 40, 28, 69, -3,
    -76, 5, 43, 5, 36, 71, -5, 39, -4, -5, 53, 42, 28, 10, 36, -17, -68, -21, -28, -53,
    7, -48, 65, 96, 14, 5, -23, 42, -51, 29, 61, 38, 93, -54, -43, 26, -28, 9, -28, 62,
    19, 39, 49, -25, -32, -7, -16, 58, -59, -92, -86, 13, -8, -30, -1, 70, 26, -84, 79, -28,
    -42, -70, -25, -31, 71, 73, -61, 43, 20, -25, 13, -26, -80, -115, 11, -27, 3, -62, -55, -13,
    127, -82, 21, -58, -58, -18, -5, -25, 31, 60, -8, -39, -8, 84, -62, -53, -14, -18, -15, -16,
    -64, 68, 16, -20, 45, -37, 0, -29, 17, 21, 7, 58, -69, 7, 11, -59, -32, 43, -67, 19,
    -59, 36, 35, 19, -2, -17, -55, -1, 2, 28, -23, -19, -14, 52, -19, 6, -29, -91, -6, -27,
    -42, -53, 8, -1, 108, -2, 43, -1, -75, 9, 9, 23, 48, 56, -13, 83, 53, -67, -51, 6,
    -25, -80, 37, 45, -20, 5, -47, 74, 27, 45, -45, -28, 60, -123, -33, -3, -7, 18, 98, 43,
    44, 63, 66, 56, -4, -46, 20, -24, -36, -57, 22, -56, -76, -21, 8, 22, 2, 83, 28, -17,
    112, 74, 39, -9, -56, -34, -13, 7, -69, 18, -5, 10, -9, 26, 43, 25, 42, -127, 0, -24,
    9, -62, 31, -93, -57, 84, -16, -64, -97, 53, -87, -59, 75, 8, 62, -34, 8, 56, -111, 20,
    30, -60, 20, 39, 59, 31, 28, 6, -61, -3, -29, 60, 62, 99, -76, -2, 1, 50, 25, 12,
    104, 73, -40, 76, 30, 26, 49, 53, -67, 85, 36, 31, 52, 74, -16, -72, 65, -33, 4, 21,
    46, -54, -50, -55, 27, 41, -40, -87, -51, -5, 4, 29, 67, 19, -39, -56, -60, -61, -58, -49,
    35, 2, 77, -5, -60, -1, 0, -53, 76, 65, -30, 9, -52, 26, -64, 50, 3, 38, 13, -33,
    39, 60, -67, 37, 31, 31, 14, -38, -28, -84, -14, -31, 45, -1, 23, 21, -21, 21, 46, 15,
    -78, -24, -21, -13, -32, 49, 42, -6, -12, -26, -15, -92, 31, 28, 79, -50, 19, -43, 3, -127,
    -33, 23, 84, -29, 20, 22, 5, -20, 74, 70, -47, -13, -32, -73, -63, -12, -6, -21, 52, 35,
    -1, 56, -7, 27, -3, 48, -60, -25, 35, -16, -31, 80, 1, -36, 12, 33, 45, 3, -78, 28,
    8, -2, 86, 40, -27, -40, -4, 45, -20, -10, 60, -30, 8, 70, -54, 105, 41, 32, 78, 99,
    41, -3, 2, -42, -31, 24, -28, -14, 50, -96, -80, 29, 59, -56, 29, 41, 103, 55, 71, -68,
    -25, 65, 43, 27, -23, -82, 16, 68, -12, 7, -62, -127, 6, 37, -86, 43, 28, 64, -3, -21,
    -86, 44, 43, -97, -112, -12, 54, 9, -4, 104, -61, -123, 19, -3, 1, 48, -42, -97, 42, -24,
    32, -57, 91, -23, -38, 11, -42, -56, -19, 39, 16, -33, 19, -7, -2, 36, 63, -10, 7, 121,
    -42, -95, 27, -66, 13, -86, 20, -61, 0, -80, -48, -44, 12, 70, 11, -57, 4, -1, 1, -113,
    78, 60, 87, -7, -6, -46, -30, -24, -62, 27, 100, 71, 63, -42, 18, 32, -47, 120, 42, 100,
    124, 13, -30, -29, 42, -17, 23, -57, -6, 41, 77, 15, -101, 3, -75, -25, 24, 81, 49, 9,
    28, 45, 29, -14, 14, -1, -14, 31, -55, 51, -60, -50, 18, -38, -33, 29, -46, -31, 3, -72,
    -35, -31, -10, -95, -63, 100, -112, 44, 52, 19, 68, 2, -47, 51, -46, -90, 53, 107, -43, -41,
    -71, -36, 67, 100, 91, 93, 1, -55, -17, 41, -49, 53, -63, 6, 11, 67, -127, -74, 66, 19,
    -7, 71, -68, -113, 14, -34, -71, 113, -87, -126, 65, -10, -38, 36, -46, 13, 51, -24, 121, 43,
    75, 14, -123, -40, -7, 92, 32, 8, 92, -19, -58, -80, 13, 54, 40, 65, -48, -60, 88, -51,
    -119, -103, -13, 4, -40, -17, 0, 26, -49, -127, 20, -47, 22, 20, 42, 20, -2, -34, 28, 3,
    -40, -15, -8, -52, -1, 16, 39, -15, -66, 2, -41, -9, -38, -30, -39, -76, 86, -5, -38, -60,
    -50, -2, 42, 39, 37, 37, -6, -25, 15, 31, 10, -46, -34, 37, -2, -7, -49, 28, -12, -24,
    49, 27, 27, -28, 47, -34, 55, 60, -36, -58, 70, 55, 18, 84, 4, 24, 5, 95, 17, 13,
    -37, 40, 34, 16, -106, 5, -31, -25, -30, 20, 6, -29, -54, -16, -26, -73, -40, -32, -44, 14,
    -26, 22, -5, -15, 2, 13, 61, 39, -24, -45, 22, -50, 44, -57, 9, 87, 76, -16, -64, 24,
    84, 14, 33, -52, -17, -36, 25, 37, 4, 17, 40, 28, -6, 92, -46, 59, 53, 123, 75, 74,
    59, 60, -35, -42, -31, -69, -74, -34, -10, 11, 29, -29, -5, 25, -41, 127, -40, -37, -24, 14,
    63, 65, -32, 86, -5, 11, 45, 45, 31, 4, -16, 38, -12, 115, 48, 100, 25, -23, 23, 87,
    71, -77, 74, 121, 74, 77, 74, 48, -50, -10, 27, -5, 21, 28, -10, -74, -79, 41, -76, -3,
    -20, 59, 3, 27, 8, 22, -57, -50, -10, -6, -26, 19, 56, -23, 22, 33, 27, -27, 65, 43,
    -29, 35, 38, -28, 75, -24, 68, -48, -1, -55, -10, -83, -70, -58, -33, 74, 109, 30, 22, -71,
    57, 53, 40, -90, -32, 16, -71, -119, 11, -5, -26, -97, -37, -35, 113, 62, 127, 25, 13, -16,
    -120, -47, -66, -34, -127, -31, 88, -75, 6, -23, 45, -114, -15, -83, 18, -80, 91, 0, -20, -23,
    7, 28, 51, 6, 42, 1, 34, 55, -22, 122, 30, -35, 0, 54, 8, -73, -47, -44, -22, -11,
    8, 92, -51, -23, 72, 73, 12, 66, 38, 2, 0, 43, 4, 61, -51, -5, 29, -8, 23, -47,
    -6, -41, 45, 28, -36, 23, -2, 72, -3, 35, 31, 10, -79, 55, 23, -64, -10, -59, -17, 5,
    -16, -4, -9, 90, 33, -74, -56, 44, -29, -25, 15, 21, -49, 36, 55, -15, 11, 44, -45, -66,
    -54, -34, 51, 10, -4, 26, -20, -11, 23, -75, -16, 84, 64, -61, 36, -31, -75, 63, 47, -42,
    0, -35, 36, -67, 47, 19, -2, -8, -32, 72, -82, -60, -18, -33, 40, -72, -78, -6, -53, -37,
    -20, -55, 65, -25, -26, -70, -109, -15, -36, -7, 34, 45, -17, -10, -61, 45, 102, -8, -19, 45,
    -17, 44, 88, 27, 41, -30, -19, -3, -28, 115, -101, 36, -36, 89, 84, -22, 18, -127, -29, -20,
    92, -8, 26, 12, -16, 14, 15, 13, 72, 46, -57, -42, 1, -8, -9, 32, 28, -57, -37, -34,
    -46, -89, 28, -21, -58, 13, -5, -72, -33, -26, 2, -41, -33, -23, -27, -4, -8, 11, -15, 32,
    43, -23, 88, -14, 59, 7, -7, 2, -4, 65, -20, 2, -34, 39, -11, 9, -41, 33, 37, 29,
    37, -99, 39, 31, 33, -46, 21, 63, -23, -15, -42, 5, -44, -45, 27, -7, 56, -42, -7, 4,
    75, -38, 62, 38, 37, 22, -53, -48, -56, 4, -3, -31, -44, -46, 50, 127, -1, 35, 39, -9,
    -53, -87, -12, -15, 68, -1, 63, -4, 14, 29, 5, -17, 82, -64, -24, 6, -38, -6, 49, -52,
    37, 20, 21, 0, 51, 18, -17, 42, -47, -11, -27, -50, -26, -50, 39, -44, 82, 65, 34, 67,
    -67, 53, 9, 15, -23, -20, 27, -27, -71, -46, 64, 11, -17, -33, 9, -11, 22, -63, -11, -13,
    -46, -26, 87, 30, -84, 42, 18, -22, -29, -18, 50, -30, 36, -22, -27, -4, 28, 4, 30, 78,
    -21, 62, 32, 42, 14, 63, -30, 59, -32, -39, -97, 56, 40, -15, -33, 30, -47, -18, -42, -44,
    51, -70, -22, 32, -7, 35, 46, -9, 68, -18, -102, 15, -15, -4, -75, -77, -28, 24, -70, -111,
    -90, 13, -77, -13, 48, 12, -51, 35, -102, -83, 29, -3, 7, 34, -25, 43, -1, 86, 55, -87,
    11, 125, 14, -55, -34, -29, 47, 25, -9, -4, 55, 95, 30, 108, -92, 77, -120, -32, -49, 28,
    62, 30, -23, 53, -118, 86, 8, -58, -84, -13, 82, -9, -127, 36, 41, -31, -72, 18, 95, -69,
    62, 3, -8, -12, 59, 49, -6, -6, -76, -1, -58, -4, -19, -17, 72, -25, -43, 30, -111, -42,
    67, -48, -58, 59, 8, 58, -50, 16, 1, 34, 24, 21, 33, 45, 82, 27, -47, -6, 2, 1,
    -67, -106, 56, 7, 37, -34, 29, -58, 31, -29, -41, 56, -7, -2, 14, -49, 9, 53, 81, 62,
    113, -21, -114, -20, -53, 42, -53, -51, -36, -8, 6, 127, -38, -21, 33, -16, -105, -8, -77, -100,
    -41, -5, 116, 29, -20, -11, -13, 35, -32, -47, -18, 13, -37, -17, -27, 20, -5, 15, 90, 58,
    13, -21, 24, 73, -97, 2, -45, 36, 71, -23, 52, -17, -5, -5, 40, 65, -68, 101, -14, 0,
    -23, 0, -14, -93, -78, -36, 19, 4, -61, 41, -45, 55, -28, -84, -58, 90, 11, 39, 53, 6,
    -122, 91, -18, -79, 80, 3, 19, -38, -30, 50, 2, 27, -67, -38, 33, 21, -56, -11, 79, -22,
    74, 75, -64, 10, 36, -23, -18, 63, -72, 17, 21, -61, 64, -5, 6, 4, 53, 27, -31, 21,
    -49, 77, -9, -5, 74, -48, 127, 26, -58, 18, 72, 40, -59, -15, 35, 10, 62, 17, -13, -69,
    -55, -67, -30, 119, -96, -1, -39, -24, -57, 90, 52, -61, 107, 85, 73, 43, 94, 51, -22, -8,
    11, -10, 9, 23, -67, 19, -3, 11, 5, 58, -39, 20, -39, 63, 40, 28, 30, 52, 17, -38,
    -43, 23, 34, -1, 54, -16, 41, -42, 91, 60, -40, 24, -53, 1, 20, 72, -14, -14, -49, -37,
    35, -6, -35, -87, 46, -55, -3, 107, -35, -65, -9, 40, -56, -11, 2, -19, -15, -54, -71, -69,
    -51, 28, -66, -83, 24, -52, 5, 50, -22, -17, 32, 17, 54, 66, 55, -95, -47, 43, -10, 50,
    -15, 46, -17, 24, 25, 34, 92, 44, -45, -92, -32, -1, -79, 0, -30, -51, 79, 31, -35, -97,
    53, 78, 27, 14, 38, -30, 5, 41, 18, -6, 74, -79, -80, 40, -23, 4, 3, 12, -56, 27,
    29, 7, -2, -23, -13, -27, 75, -23, 43, 119, -1, 3, 70, -72, -32, -126, -30, -64, -6, -17,
    -5, -127, -123, -79, -6, -11, 77, -54, -2, -63, 39, 54, 45, 7, 22, 40, -97, -46, 42, 1,
    -6, 45, 57, 47, 13, -64, 12, 25, -49, -93, -27, 18, -38, -52, -19, 9, -10, 3, -20, -11,
    -6, -56, -3, 16, 25, 4, 80, -10, 95, 59, 20, 41, 3, -17, 24, -51, 51, 3, -39, 45,
    -38, 1, 11, 43, -6, 7, -73, -48, -70, -51, 34, -47, -42, -35, 58, -26, 26, -18, 29, -1,
    -88, 16, -60, -44, 1, -47, -10, 19, 24, 57, -13, 10, -25, -33, -61, 43, 5, 70, -25, -1,
    18, 10, 21, 31, 58, -20, -45, 29, 31, -19, 11, -30, -34, -40, -24, -127, 32, 2, 59, 16,
    2, -9, 11, -62, -18, -59, -12, 28, -9, -67, -5, -61, 1, 1, 30, 22, 53, -28, -25, -14,
    13, -4, -19, 67, -61, -23, -1, 48, 3, -10, 17, -8, 0, 15, 27, -25, -37, -16, 33, 48,
    20, 38, 37, -19, -66, 31, -51, 45, -50, 28, 44, 43, -5, -25, 14, -24, 11, 13, 15, 23,
    24, -22, 30, 6, -42, 13, -39, -18, -10, 13, 7, 32, 84, 47, 39, 31, -44, 19, 37, 24,
    78, 9, 9, -16, -11, 39, -4, 0, 107, 71, 4, 99, 34, -89, -9, 65, -98, 22, 8, -127,
    37, 29, 70, -53, 0, -45, -84, 17, 7, 28, 1, 86, -5, 53, 79, -76, 65, 80, -21, 32,
    -13, 36, -32, 21, 26, 12, 30, 48, 40, -16, 124, 103, 23, 5, 11, 40, -38, 74, 71, -4,
    -5, 0, 13, -36, -30, 4, 78, -37, -55, -22, 7, -105, 16, 34, 40, 70, 60, 44, -81, 38,
    46, -17, -67, 32, 57, -28, -99, -59, -46, -62, -65, 27, -6, -62, 35, 51, 115, 99, 26, -79,
    83, -31, -127, -118, 21, 37, -79, -12, 49, -23, 11, 42, 16, -26, 67, -37, 12, 55, -17, 38,
    -55, -42, -8, -18, 31, 80, -25, -17, 47, -27, -53, -47, -18, -81, -43, 9, -102, -42, -67, -117,
    -58, -40, -7, -109, 86, 27, -12, -1, -79, -26, -79, -8, -16, -2, 28, -1, 4, -9, -30, 20,
    74, -57, -4, -64, -33, -28, -75, -39, 20, -58, -2, -116, -11, 34, 4, 1, 32, -13, 13, -103,
    17, -107, -18, 1, 13, -127, -46, -86, 19, -80, 7, 55, 43, -4, -72, 62, -52, 41, 42, 45,
    -91, -59, 12, -95, -30, -45, 44, -37, -47, -25, 69, -6, -42, -25, 20, 27, -49, 99, 60, -94,
    27, -31, 2, -15, 40, -29, 14, -28, 5, -58, 40, 8, 38, 23, 15, 43, 3, 44, -98, 35,
    -58, 37, -33, -18, 71, -57, 35, -21, 70, 12, 16, -10, -58, -7, 0, 35, -46, 26, 28, 21,
    -51, -55, -15, 90, -66, 65, 0, 7, 52, 16, -15, -89, 33, 17, 4, 61, -13, -11, 88, 62,
    -25, -13, 22, 36, 19, -35, -15, 14, 10, -60, 60, 20, -8, 3, -54, -96, 43, -80, 53, -25,
    -61, -25, 17, -37, 11, -28, 42, -5, -47, -23, -2, 82, -68, -7, -72, -97, 79, 8, 61, 11,
    103, 70, 28, 31, -21, 31, 126, -85, 26, 39, 52, -62, 31, 41, -24, -106, -71, 32, 74, -17,
    -34, -44, -51, 36, 55, -31, 47, 0, -17, -15, 25, -82, 20, 23, -16, 22, 18, -100, 107, -29,
    71, 114, -15, 48, 9, 10, 41, -21, -71, -17, -127, 16, -55, 47, 11, 52, 69, -14, 7, 32,
    67, 55, -63, -113, 77, -38, -11, 79, -1, 30, -73, -32, 64, 3, -25, -69, 28, 10, -8, 39,
    79, -41, 123, -126, 114, 2, -35, 88, -82, 48, 10, -33, 54, 40, 30, 32, 19, 7, 75, -69,
    -28, -111, -58, -9, -127, -109, -79, -124, -121, -124, -35, -52, -32, 70, -56, -79, 106, 45, -14, -80,
    76, 8, -36, 23, -96, -111, 22, 122, 104, 51, 109, 70, -42, 8, 46, 35, -122, -31, 93, -62,
    102, 82, -7, 98, 54, 9, 16, -119, -19, 66, -80, -59, 42, -20, -48, 107, -82, -126, -88, -92,
    -98, -70, 1, 15, 2, 77, -21, -52, -33, 0, 54, -50, -52, -7, 37, 11, -10, -6, 89, 77,
    61, 71, 59, 0, 66, 53, 22, 20, 4, 45, -67, -19, 22, 11, 87, 25, 39, 17, -9, -22,
    -16, -16, -7, -17, 29, 7, 60, -42, 12, -13, -64, 32, 75, -71, 51, 14, -7, -32, 68, 13,
    57, -23, -36, 4, -24, -13, 15, -14, 66, -37, -72, -9, -1, -20, -114, -127, -21, 35, -57, 9,
    77, 24, -16, 14, 15, 23, -45, -2, -54, 37, 7, -36, 39, -34, 7, -5, 41, -1, 82, 38,
    -4, -107, 100, 4, 118, 42, -56, 66, -27, 23, 15, -7, -31, -31, -22, 20, -20, 16, -91, 18,
    58, -28, 33, -17, -53, -39, -76, -28, 22, -13, -24, -32, -9, 24, 10, -23, 31, 78, 92, -19,
    -34, 24, -3, 26, 6, 51, -42, -9, -21, 32, 27, -2, -10, 65, 21, 22, -8, -50, -6, 40,
    -15, -42, 30, 37, -17, 22, 1, -48, 2, 25, 65, -10, 20, 11, 16, 29, -26, 1, 54, -45,
    26, 27, 38, -28, -43, -35, -63, 8, -67, -65, -43, 56, -32, 36, -10, -12, 127, 55, 19, -1,
    -6, 34, 1, 30, -7, -10, -2, 35, -17, 44, 15, -11, -4, 61, -28, -16, 7, 48, 42, -13,
    38, -3, -26, -41, -16, -55, 13, 22, -54, -13, 28, -43, 59, 23, -8, 59, -61, -30, -14, 9,
    -39, -50, -48, -32, -3, 57, 38, -16, 46, -37, 64, 40, -37, -14, -48, 43, 34, -23, 101, -17,
    23, -23, -19, -77, -47, 35, -13, -26, -12, 37, -30, 6, 10, -43, 10, 23, 55, -30, 84, -47,
    -88, 3, 22, 70, 25, 35, -83, 8, 26, 38, 15, -2, 41, -8, -75, 62, -84, 46, -75, -44,
    18, 49, -38, -11, -46, 17, 17, 60, -37, -1, 9, 60, 33, -7, 51, -53, 30, 7, 21, -9,
    -77, 12, 11, 124, -12, 6, 40, 27, 13, -17, -26, 30, 63, 81, -22, -13, 80, -9, -40, 13,
    95, -59, -48, 100, -74, 99, -86, 16, 82, -24, -110, -66, 80, 20, 42, 3, 8, -35, 77, -6,
    127, -23, 1, -104, 24, 8, -36, -74, -52, -13, 99, 26, -4, -23, -24, -58, -3, 28, -13, -35,
    29, -95, -32, 10, 23, -102, -45, -3, 28, 0, -31, -55, -11, 57, 7, -39, 2, 88, -93, 50,
    -47, 98, -25, -30, -75, 34, -15, -1, -69, -1, 65, -66, -29, 86, -3, 26, 48, -9, 6, 55,
    74, 10, 48, -46, -3, 32, -37, -41, -88, 114, 89, 12, -6, -70, -33, 91, -6, 78, 16, -40,
    91, -54, 20, -63, 18, 80, -27, 49, 79, -12, -8, -46, 48, 41, -17, -107, 7, -21, -73, -29,
    -41, -26, 18, 22, -89, -36, 81, 80, 39, 18, 26, -85, 46, -7, -127, -47, -120, 73, -18, -53,
    -64, -90, 5, 16, 54, -36, -29, -85, -37, 49, 121, 15, -58, 21, -6, -58, -15, 43, -47, -12,
    28, 18, 27, -2, -18, 57, 11, -105, 52, 20, 38, 7, 53, 43, 12, 22, 43, -3, 14, -31,
    -80, -51, 115, -67, -94, -68, -44, 57, -70, -19, -62, -123, -112, -40, -30, 110, -42, -13, 55, 12,
    25, 62, 37, 70, -58, -36, -16, -55, 47, -5, -10, -39, 24, -15, -26, 4, -60, -7, 23, 39,
    38, -30, 5, 24, -16, 41, 84, -103, -62, -65, -16, 42, -74, 2, 95, 108, 21, -53, 4, 3,
    -61, -62, -18, 4, 1, 78, -49, -9, -51, -71, -96, 27, -17, 16, -74, 19, 36, -26, -35, 15,
    10, 120, -10, -30, -58, 32, -68, 73, 50, -94, 54, -16, 0, 47, 80, -60, -16, -52, -10, -16,
    -27, 48, 94, 29, 1, 19, -75, -5, -83, 48, -62, -50, 40, 28, -14, 8, -24, 81, 1, -10,
    69, 11, -2, -60, -36, -74, 82, -45, 50, -36, 15, -127, 47, -30, -36, -22, 44, 3, 10, -56,
    23, -3, -44, 9, 45, 113, -65, -14, 24, 58, 15, -21, -63, 105, 45, -76, -44, -47, 60, -61,
    -41, 9, 62, -31, 29, 48, 46, 57, 14, -33, 13, 79, 21, -21, 85, -50, -12, 14, 75, 37,
    30, -8, 23, 82, 80, 75, 0, -14, -55, 80, -10, 52, -53, -125, 4, -16, -19, -21, -20, 31,
    1, -111, 45, 5, -26, 1, 125, -15, -18, 41, 55, 55, -66, -1, 1, -13, -24, -11, 15, -3,
    94, 26, 55, -18, 80, 28, -91, 33, 9, -10, -19, 38, -65, 9, -6, 20, 127, 51, -25, 44,
    76, 6, -55, -6, -50, -31, -15, 25, 3, -92, -8, -23, 124, -12, 27, -85, -27, 5, 48, -99,
    -17, 56, -4, 61, -67, -63, 7, -76, -34, -32, -37, -5, -18, 56, 35, 30, 15, 22, -3, 14,
    41, 24, 19, -26, 3, 18, 64, 22, 8, 47, 33, 12, -17, 77, -34, 19, -24, 43, -24, 60,
    -91, -2, -3, 27, 29, -65, -19, -26, -20, 51, 3, -6, -105, 13, -31, -55, -9, 78, -58, 52,
    12, 40, 16, -45, 34, 32, 38, 55, -36, -42, 2, 31, 1, 25, -77, 77, -43, -40, 8, 34,
    33, -25, -51, -15, 41, 84, 65, -35, -33, -56, -22, -29, -13, -3, -29, 127, 0, 15, -9, -45,
    -41, 22, 46, -5, -51, -85, 23, -4, -40, -12, 6, -38, 67, -1, 21, -46, -24, -26, -20, -38,
    -19, -40, -28, -2, 42, -19, 31, -8, -21, -16, 21, 5, 89, -1, -47, -48, 31, 28, -63, 34,
    -22, -23, 33, -31, -45, 20, 42, -14, -23, -21, -63, 38, 41, -74, 10, 2, 56, -54, -47, 52,
    -16, 6, -11, 20, -24, 21, -26, -47, -28, 38, -10, -127, -20, 70, -32, -19, 20, 34, -20, 22,
    2, 16, 36, 9, -4, -6, 22, -22, 4, 70, 32, 42, -49, -25, -21, 57, -3, 53, 92, 15,
    -68, -72, -2, -1, -20, 23, 63, -1, 36, -55, 35, 44, -34, -44, -55, 43, 21, -4, 14, -66,
    -12, 34, -14, -9, -65, 3, -14, -35, 11, 9, 5, -49, -10, 43, -8, -20, -37, -11, -63, -10,
    13, 18, 15, -11, 25, 41, 11, -52, -20, 36, 29, -3, -42, 15, -31, -70, 46, -33, 30, 39,
    -47, -4, 39, -17, -57, -12, -34, 15, -66, 0, 40, 68, -29, 41, -46, -31, 10, -23, -64, -23,
    -31, 54, 9, -39, -31, -2, 17, 8, -45, -51, -18, 127, 77, -22, 57, -20, 40, -1, 39, -4,
    -57, 3, 2, 28, 55, 77, 16, -29, -1, -46, -25, 19, -23, -62, -44, -42, -95, 6, 36, -1,
    9, -9, 0, -9, -48, -34, -22, -56, -26, -16, 17, -60, 44, 32, -23, -26, -4, 91, -16, 30,
    -53, -13, 4, 10, 78, -4, 7, 106, 74, -13, -4, -76, -9, 38, 11, -12, -26, -1, -3, 78,
    -72, 22, -3, -18, 35, -8, -48, -3, 22, -42, -29, 54, -10, -67, -18, -36, 3, -48, 2, -16,
    41, -35, -5, -35, 60, -47, -36, -3, -85, -47, 79, -18, 44, 75, 66, -23, 65, 17, -29, 13,
    -23, 25, 14, 42, 27, 109, 50, -25, -3, -62, -11, -49, 11, -14, -89, 35, 17, 25, -127, 1,
    -14, -27, -91, -85, -82, 46, -79, 5, -25, 52, -52, 27, 10, 76, -45, -25, -11, -5, -44, 43,
    -13, -43, -22, -70, -19, -47, -68, -20, 46, -81, -71, 110, 5, 16, 57, 5, -82, 30, -12, 26,
    23, -63, -96, 26, -37, -1, 2, 13, -85, 34, 88, -69, -52, -3, -20, -10, 13, 21, -65, 25,
    -63, 12, 27, 40, -15, 0, -97, 54, -32, 7, 27, -32, -108, 0, -32, -44, 68, 45, 67, -39,
    34, 99, -63, -38, 58, 59, -61, -50, 52, -15, -48, -13, 1, 20, 48, 10, -20, -70, 79, -44,
    -52, -17, -17, 12, -40, -23, -35, 15, 1, 35, 6, -37, -7, -2, -29, -42, -77, -51, -78, 60,
    -27, 60, 46, -13, 14, -99, -68, -54, 7, 75, -18, -29, 42, 56, 11, 19, -68, 42, 17, -32,
    -28, -26, -95, 33, 116, -11, -15, -71, 21, 20, 75, 91, -26, 55, -55, -2, -44, 103, -20, 91,
    -12, -24, -7, 50, 7, 1, 15, 69, 16, 33, 104, -41, 66, -48, -43, -33, 118, -31, -25, 14,
    -91, 18, -13, -24, 15, 127, -16, 32, -43, -83, 64, 28, -63, 79, 10, 0, -46, 11, 55, -35,
    -31, -65, 80, 41, 27, -71, 3, -19, 74, 105, 20, -8, 11, -24, 15, -18, 6, -28, 28, -14,
    -46, 56, -35, 18, -49, 1, 15, -13, 67, -71, -57, -60, -45, 58, 66, 35, -38, 65, -8, 31,
    -16, 62, 88, -61, 1, 2, -116, -23, 10, 53, 71, -22, -9, 18, -3, -13, -20, 12, 65, 6,
    -29, 17, 8, 22, -47, -43, 20, 68, -5, -127, -17, 13, -13, 35, 10, -58, -17, 17, -9, 45,
    -21, 1, 26, 25, 33, 93, 4, -39, -95, -52, -14, -18, -15, -73, 4, -3, -17, 80, -39, 20,
    8, 35, 25, 17, 1, -7, -34, -17, 3, -11, -76, 16, -13, 64, 53, -17, -31, 21, 25, 36,
    -20, -59, 7, 28, 48, -57, 118, -36, 49, -8, -9, 21, 34, -68, 32, 80, -6, 1, 7, 38,
    -27, -29, 6, -5, 60, 9, -29, 56, 26, -21, -90, -29, 33, -74, -27, -21, 60, -5, 1, -32,
    -12, 4, -66, -26, -35, -46, 47, 59, -68, 93, 14, -27, -3, 1, 26, -86, -123, -13, -13, -29,
    -91, -17, -41, 23, -11, -71, 18, -44, -9, 6, 72, 28, -1, 65, -5, -25, 11, -10, -61, -20,
    12, 8, -70, 35, 25, 88, -36, -16, -56, 15, -37, 85, 96, 6, 46, -65, -17, -52, 26, 15,
    -50, -66, 66, -50, -99, 6, -24, -58, 79, 40, 19, 7, -87, 71, -76, -26, 101, 72, 11, 19,
    -41, 82, -40, -75, -3, -12, 9, 2, 27, -1, 31, -54, 16, -51, -127, 48, 58, 25, -13, 50,
    -118, 75, 38, -5, -7, 23, -69, -93, 95, -78, -20, -13, -41, -58, 19, 18, 94, -18, -11, 0,
    -67, -13, -28, -12, 55, 48, -13, 34, 63, -79, 87, -36, -35, 73, -29, 15, 8, 112, 34, -7,
    12, -3, 93, -62, 11, -55, 50, -69, 4, -14, -40, 7, 66, -54, 127, 36, -14, -71, 3, -26,
    -28, -22, 46, 13, -3, 7, -63, 61, -13, 70, 22, 59, 51, -28, -4, -7, -29, -13, -32, -22,
    56, 15, 85, 7, 5, -39, 75, -25, -50, 21, 32, 38, 7, -67, -13, -12, 85, 1, -32, -56,
    57, -23, -25, 73, 72, -34, 90, 37, 67, 61, -20, -71, 26, 4, 53, 61, -80, 40, -42, 39,
    6, 20, -13, 8, 73, 23, -33, 11, -38, -30, -64, -49, -14, 0, 25, -25, -15, -85, -33, -9,
    40, -13, 44, 5, 24, 31, -70, -13, 12, 4, -26, 37, 39, 75, 7, -23, 40, 81, 51, 39,
    -48, -90, 43, -2, -48, 37, 22, 53, -81, 82, -9, 82, 75, 2, 104, 90, 18, 14, 58, 48,
    -21, -73, 32, -51, 36, 72, 33, 34, 43, -49, -46, 21, 21, 17, -53, 41, -27, 111, 127, -62,
    25, 72, -36, 108, 72, 23, -30, 14, 6, -98, 44, -13, -47, 51, 100, 83, 83, 75, -59, -13,
    -18, 91, 59, 16, -10, 19, 46, -25, 74, 79, -30, 38, 9, -76, 58, -6, 64, -2, 8, -13,
    -35, -47, -21, 66, -27, -60, -29, 27, 31, 14, -90, -78, 11, -80, 35, 50, 12, -20, 17, 93,
    8, 97, -3, -106, -7, 13, -26, -83, -58, -88, -25, 24, -32, -6, 53, 46, -39, 15, 88, -90,
    21, 33, -41, 11, -99, -20, 54, 32, 17, 86, -36, -6, 109, 36, -1, 0, 65, -21, -40, 38,
    106, 46, 61, 82, -4, -86, 17, -20, -51, -36, -49, 57, -64, 86, -20, 90, 9, -22, -60, 71,
    -11, -62, -77, 11, 37, 3, -11, 54, 21, 44, -39, -5, 8, -46, -28, 83, -7, -11, -3, -33,
    -67, 5, -30, 34, -19, -4, -26, -6, -86, -44, -56, 15, -98, -6, 34, 30, -9, 68, -10, -111,
    -2, 8, 16, -79, -26, -38, 10, -47, -10, -77, -3, -10, 27, -54, 10, 24, 43, -127, -25, -51,
    24, 11, 35, -23, 58, 34, -91, 79, -48, 13, 11, -77, -24, -28, 11, -21, -38, -8, -37, 69,
    0, 36, -66, -59, -79, -82, 46, 4, -2, 87, 26, -23, 18, -30, 83, 96, -17, 101, 43, 70,
    38, -36, -29, -45, -11, -69, -93, 40, -38, 13, -91, -31, -15, -15, -74, 7, -21, 35, -3, -27,
    1, 5, 11, -4, -55, 105, -38, -51, -31, 15, -107, 66, 83, -3, -74, 125, 65, -8, -35, 31,
    4, 28, -124, -16, -22, -4, 43, -4, -68, 96, 82, -102, -32, 42, 67, 23, 44, -6, 65, -86,
    46, 28, 3, -127, 32, 34, -38, -78, -98, 28, 5, 37, 36, 37, 67, -11, 9, -64, 98, -30,
    -65, 59, 70, -48, -66, 1, 79, -18, 46, -37, 89, -44, -73, 17, -62, -45, -21, 55, 6, -24,
    17, -36, -37, -15, -23, -17, 36, 23, -29, -27, -123, -2, -26, 14, 12, 13, 76, -96, 62, 15,
    85, 82, 55, 1, -77, 52, -24, 88, -11, 61, 41, -8, 0, -5, -11, -47, 40, 1, 99, -23,
    27, 18, -10, -52, 31, -3, 4, 17, -24, -6, -2, 45, 10, -16, -3, -28, 27, -47, -63, 2,
    29, 15, 50, -17, 3, 47, -18, 36, -24, 19, -27, -3, 12, 21, -2, 59, 66, -48, -10, -6,
    28, 26, -22, 10, -20, 8, -67, -14, 4, 32, -46, -69, 75, 37, 38, 25, -9, -14, 15, 4,
    74, 52, -20, 32, 14, -27, -19, 29, -66, 23, -1, 35, -5, -7, -7, 62, 67, -44, -14, 10,
    -127, 27, -4, -38, -37, -5, 10, -47, 48, -11, -9, -43, 28, -20, 22, 90, -45, 49, 19, -2,
    10, 48, -56, 34, 30, 25, 3, -42, 16, 67, 1, 26, 9, -56, 43, -2, 2, -55, 13, 69,
    12, 100, 41, -10, 96, 1, 116, 30, 13, 6, 79, 30, -76, -99, 40, -25, 80, 6, 27, -86,
    -8, -127, -74, 42, -43, 33, -64, 1, 49, 88, 41, -33, 52, 105, 37, 52, 52, 11, 35, 42,
    -34, -92, -15, 19, 0, 94, 95, 52, 73, 92, 12, -48, 8, 59, 12, -27, 11, -3, 24, 48,
    -27, 14, 41, -1, 30, -79, 40, -36, 7, -8, -8, 32, -41, -29, 25, 32, -71, -67, -60, 42,
    -8, 13, -64, -82, 76, -99, -63, 39, -31, -83, 52, 39, -15, 90, 25, -49, -26, -27, -93, -12,
    -98, -5, -43, -8, 107, -11, 66, 120, 9, -57, 114, -32, -19, 119, 12, -39, -72, -52, 14, 63,
    74, 1, 25, 50, 122, -28, -38, -62, -104, 53, 68, 127, 0, -11, 55, 65, 63, -8, 86, -54,
    16, -1, -58, 23, 40, 93, 55, 71, -12, -11, -33, 23, 71, 26, -50, 61, -1, 43, 71, -5,
    44, 26, 38, 57, 20, 17, -70, -59, 12, -7, -17, -59, 0, 15, 0, 58, 89, 74, -26, 38,
    -79, 56, -7, -37, 67, -72, -17, -23, 99, -2, -32, 8, 10, -34, -13, 27, 80, 81, 7, -16,
    -5, -23, 19, 57, 10, -1, -33, 33, 70, 19, -64, -22, 49, -26, 71, 48, -26, -73, -8, -16,
    -2, 72, -42, -23, 29, 12, -30, 41, 25, -40, 2, -47, -17, 20, 52, 23, 4, -17, 27, 39,
    28, 24, -16, 5, -40, 1, 89, 44, -6, 89, -6, -2, 53, 59, 63, -3, 14, -81, -71, -48,
    14, 55, 35, 104, -8, 16, -75, 55, -4, 10, -14, 24, -127, 53, -23, 20, -26, -14, -76, -1,
    -37, -57, -60, -72, 23, 41, 20, -20, -55, -52, -30, 3, -13, -22, 31, 3, -19, 86, 26, -12,
    -46, -20, 28, 84, -30, -55, 37, -25, -76, 1, 42, -2, -56, -120, -29, 25, -101, 14, -40, -86,
    10, 58, -98, 67, -70, -2, 6, -9, -7, -16, 61, -61, -19, -30, -6, -22, -45, -52, -85, -54,
    27, -2, 33, -63, 14, 46, 16, 20, -37, 38, 84, -10, 9, -13, -17, 37, 5, 48, -83, 70,
    24, 11, 46, 11, 51, 50, 33, -33, -7, -15, -36, 26, -50, -63, -15, -31, -73, 50, -50, 49,
    55, -21, 12, -14, 23, -70, 12, -62, 18, -73, 46, 42, -44, -42, 72, 100, 5, 46, 113, -12,
    -40, -76, 36, 16, -58, 107, 92, 31, -9, 26, -52, -18, 84, 4, 42, 66, -30, -30, 44, 127,
    36, -10, -1, 34, -29, -50, -98, 44, -7, 77, -9, 28, 17, 67, 59, -64, -7, 8, -54, -40,
    -18, -67, -63, 22, -91, -76, 5, -26, 89, 0, 71, -61, 2, 71, 46, -33, -63, 104, 33, 23,
    -52, -44, -67, -1, -22, 101, -50, 53, 108, 10, -32, 54, -97, 25, 3, 95, -29, -63, 96, -58,
    35, -91, -12, -66, -103, -53, -15, -42, 22, 66, -4, -20, -78, 37, -14, 61, -22, 62, 55, -41,
    -73, 90, -41, 32, 61, 5, -36, 94, -31, 103, 55, -52, -44, 4, 43, 18, 63, 22, -1, 115,
    41, 43, -14, 33, 44, 60, -11, 43, -17, 19, -73, -38, 41, 29, -112, 57, -79, 35, 52, 0,
    -7, -60, 80, 16, 24, -29, -17, -78, 89, -45, -30, -16, -78, 82, -69, -5, 107, -48, 42, 86,
    -23, 69, 21, 87, -107, -4, -48, 0, -15, -76, -61, 7, -107, 62, -24, -41, -27, 90, 7, -8,
    -84, -40, 49, -12, -52, 3, 36, -41, -29, 64, -16, 15, -56, -26, -56, 15, -2, 10, -7, -79,
    -18, 35, 28, -76, 85, -53, 0, -65, -31, 20, 75, 22, 32, 19, 20, 78, -60, -8, 15, -13,
    111, 58, -127, 60, -60, -21, 5, 64, -56, -36, 43, 46, -40, 57, -5, -14, 110, -35, -13, 104,
    -110, 62, 93, 18, -42, 39, -57, 26, 104, 23, 62, 23, 42, -26, 53, 6, 52, -22, 72, -67,
    61, 48, 25, 16, 3, 104, -24, 84, -60, -31, 56, 127, -14, -48, -53, -60, -6, -111, 50, -59,
    -63, 30, 3, -57, -4, -97, -39, -38, -40, 18, -63, -37, 39, 1, -22, -40, -64, -65, -4, -31,
    37, -2, -43, 103, -55, -75, -7, 20, -38, 2, 0, -44, 32, -20, 33, -11, -45, 38, -68, 5,
    -109, 60, 55, -81, -59, 51, -54, 37, 93, 0, -61, 59, -17, -47, -7, -34, -59, -106, 18, -83,
    -1, -52, 27, 4, -59, -22, 70, 12, 8, 92, 15, 74, 18, -60, -110, 73, 49, -3, 19, 51,
    -88, -99, 62, 119, 95, -27, -63, -3, -71, -21, 19, 14, 13, -4, -10, 37, -2, -35, 39, 72,
    -82, -66, 73, -38, -28, -89, 73, 19, 50, 51, 42, 109, 42, 48, -25, 53, 70, -36, -41, 17,
    -104, -7, -13, -41, -95, 14, -59, 15, -19, 15, 32, 43, -24, -81, -126, -104, -24, -69, -16, 3,
    -8, -15, -86, -34, -16, 3, -7, 28, 77, -78, 32, -47, 58, -32, 110, -4, 74, -4, 28, -24,
    21, -83, -32, -45, 29, -56, 26, -74, 30, 31, 75, 25, -3, 17, -5, 22, -19, -44, 86, 33,
    -122, -41, -10, -60, 74, -127, -19, -66, 90, -14, -53, -107, 32, -9, -29, -53, -61, -85, 43, -89,
    -38, 59, 21, -72, 14, 35, 64, 17, 86, -19, 13, 32, 3, 69, 64, -80, 67, 6, -32, 15,
    47, 17, 6, 26, 53, 35, -9, 12, -11, 4, -26, -65, -9, 55, -61, 127, 62, 63, 5, -23,
    -31, -47, -61, 24, 6, 40, 6, 29, 36, 72, -38, -17, 76, 81, -63, -5, -44, -7, -20, -24,
    75, 56, 3, 11, 11, 36, -43, 29, -108, -22, -74, 20, 42, -48, 13, -58, 25, 78, 38, 50,
    -50, -34, 43, -26, 39, 71, 21, -24, -14, -44, -2, 10, -46, 38, 15, -28, -18, -75, 4, -7,
    48, -36, 48, -30, -57, 29, -36, -63, -17, -19, 13, -56, -53, 36, -49, -30, -19, -17, 4, 2,
    1, 55, -12, -13, -10, 108, -41, 50, -42, 17, -10, -46, -7, 52, 88, 56, -55, -36, 59, -24,
    -24, -64, -39, -4, 2, -40, 9, -53, 78, -103, 49, -72, -35, -2, -40, 44, -59, -22, 40, -2,
    109, -87, 27, 20, 21, 92, 61, -47, -16, -65, -5, -53, -31, 97, -37, -37, 8, 5, -30, 52,
    23, 2, 42, 121, -79, 30, -32, 114, 76, 28, -3, 17, 40, -96, -86, -58, -65, 39, -56, -42,
    -25, 8, 16, 72, -39, -52, 10, 127, 33, 10, -43, -62, -26, 48, 40, -9, -32, -26, -62, 8,
    28, -53, 120, -47, 45, 23, -78, 1, -19, -95, -6, -44, -60, -104, 68, 37, -60, -14, 63, -10,
    -23, 97, 34, 47, -31, 77, -29, -20, 43, -33, -29, -90, 64, -25, 66, 68, -16, -94, 45, -32,
    -73, 31, 38, 64, 40, 8, -80, -32, -48, -70, -66, -68, -67, 27, -27, 56, -57, 1, 12, -19,
    -15, 13, -11, -63, -35, 3, 34, 83, 68, -33, 43, 56, 15, -52, 25, 19, 41, 50, -12, 16,
    36, -44, 29, 18, 57, -18, 76, -2, 16, -66, -46, -38, -50, 127, -66, -34, 4, -33, 28, 18,
    -27, 24, 23, 15, -1, -52, 45, -23, 90, -42, 30, -70, 71, 20, 0, 12, -37, -58, -7, 0,
    -21, 65, 61, -25, 25, -47, 55, 40, -56, 31, 29, 25, 3, -40, -20, -26, -12, -8, 60, -43,
    -79, -5, 18, -46, -45, -25, -67, 38, -71, 26, 29, 19, 47, -32, 48, 15, -63, 19, 73, -38,
    9, -57, -48, 42, 75, 14, -38, 16, 30, 40, 71, -27, -23, 12, -36, 27, 48, -16, -1, 56,
    -41, -21, 58, 43, -32, -36, 22, 3, -21, -16, 18, -33, 15, -31, -66, 90, 98, 38, 0, -2,
    57, -18, 48, -54, -82, -81, 18, -25, -71, 47, -65, 31, -5, 34, 44, -113, 62, 53, 54, 11,
    -72, -14, -16, 28, 14, -40, 20, -8, -76, -17, -33, -18, -46, -13, 15, -16, -20, -2, 70, -46,
    -80, 58, 8, -3, 65, -8, -77, 7, 18, -49, 38, -16, -42, -34, 52, -17, 56, 19, 13, 38,
    11, -37, 20, -22, 29, -52, -56, 58, -3, -31, 19, 77, 52, -77, -76, 81, -12, -68, 64, 20,
    -29, 60, 69, -49, -22, 17, 79, 8, -6, 62, 9, 31, 80, 106, 10, 86, 89, 57, 43, -55,
    -29, 127, 8, -46, 56, 32, 40, 59, 26, -79, 7, -44, -5, -10, 14, 10, -52, 14, 0, 52,
    11, -31, 31, -100, -59, 1, -28, -72, 0, -70, 17, 92, -49, -47, -38, -46, -37, 50, 10, -25,
    13, 28, 49, 8, 47, 39, 3, 23, 24, -95, 78, 47, -32, 102, 114, -13, -51, -18, -2, 18,
    34, 52, -62, -33, -34, 20, -19, 55, -67, -41, -24, -8, 36, 45, 67, 38, 20, -29, 55, -6,
    -119, 54, -40, 0, -39, -69, 10, -54, 45, 26, 33, -35, -13, 70, -15, -18, 57, 18, -80, 8,
    101, -35, 51, -109, 63, -61, -11, 19, -125, 102, -56, -84, 9, 14, -14, 127, -9, -37, 80, -49,
    -56, 1, 35, -15, 43, -1, -17, 115, 61, -36, -37, 95, -37, -15, -37, -8, -37, 13, -28, 46,
    -58, -25, 51, -41, 38, 57, -41, 7, -46, 52, 30, 5, -61, 83, 62, -13, 3, 21, 63, -15,
    14, 19, -44, -2, 59, 10, 60, -70, 39, -83, -22, 4, 28, 28, 118, 22, 78, 66, 106, -74,
    18, 46, 46, -30, -21, -24, -23, -43, -22, -54, 45, -25, -55, -24, -45, 56, -74, 25, -127, -45,
    -40, 100, 18, 35, -36, 8, 122, -98, -67, -51, 25, 27, -28, -28, 92, 9, 66, -7, 37, -34,
    -22, -8, 28, -39, -57, 23, 4, 88, 30, 28, -14, -42, 8, -25, -47, -43, 125, 24, -8, -57,
    36, -1, 85, -73, -28, 85, 46, -51, -56, -17, 95, 19, -9, -46, -11, -21, 37, -76, -95, 66,
    9, 97, 10, -76, -20, 81, -4, 43, 21, 5, 4, 60, 104, -9, 41, -9, -31, 4, -65, -17,
    5, 20, 58, 14, -30, -56, -86, 28, 15, 40, -83, 46, -11, -11, 75, -19, 84, 24, 87, -8,
    14, 46, -53, 41, -32, -9, 2, -42, -34, 14, 84, 52, -8, 111, -44, -8, -11, 92, 39, -17,
    40, -11, -30, -22, 24, -16, 44, -36, 17, -28, 11, 10, 48, 68, -7, 75, -63, -48, -27, 27,
    -18, -8, -62, 50, 72, 53, -41, -63, 4, -31, 65, 57, 3, -48, -11, 79, 85, 48, 29, -24,
    61, -39, -127, -57, -52, -24, -43, -41, 9, 20, 7, 75, 22, -24, 7, -33, 15, 73, 1, -20,
    -57, -17, 59, 72, 18, 29, -2, 24, 108, -20, -24, -59, 63, -44, 20, 73, 29, -51, 37, -3,
    -2, -3, -44, 18, -67, -18, 35, 46, 29, -13, 14, 54, 75, 34, -23, 0, 52, -3, 17, -114,
    -40, -50, -57, 29, 64, 29, -1, -98, 62, -48, -98, 53, -81, 71, -6, 59, -9, -4, -15, 41,
    26, -77, -85, 12, 36, 19, 31, 76, 0, -10, -51, -46, -10, 48, -81, -98, 10, 127, -15, 24,
    34, 55, 85, 69, -43, -59, 33, -77, 14, -53, 24, -41, -28, -32, 2, 54, -45, -5, 36, -49,
    -17, 32, 30, 20, 17, -28, -87, 95, -38, 8, 8, 53, -33, -62, -52, -43, 107, -65, 25, 6,
    105, -23, -67, -105, 1, -43, -30, 10, 5, -76, 44, 5, 31, 34, 15, -22, 82, 1, 21, 19,
    16, -35, 9, -17, 17, -8, -66, 3, -37, -67, -55, 38, -14, 37, -3, 24, -18, -63, -101, -1,
    56, 36, 32, -16, 13, -44, 21, 12, 62, 45, -57, 104, -70, 85, -70, -63, 43, 76, 10, 24,
    90, -81, -63, -23, 12, 53, 35, -22, -65, 6, 18, -27, 72, -54, -64, -82, -68, 127, 5, 62,
    -103, -13, 52, 43, -23, 0, 4, 74, -100, -58, -12, -22, -14, -18, -70, 13, 57, 10, -22, -118,
    81, 0, 83, -6, -36, 41, 37, 10, 62, 83, -9, -8, 43, 45, 29, -9, 20, 15, 31, 68,
    -30, -13, -26, -5, 47, -54, -38, 95, -68, 55, -40, 18, -21, 63, -2, -17, 77, -13, 10, 32,
    -6, 11, 75, 28, 1, -4, -80, -5, 93, 29, 34, -34, 108, 0, -37, -7, 9, -81, -110, 76,
    -17, -33, 41, -74, 93, -66, -80, 34, -34, -29, -47, 49, 31, -32, -45, 102, -76, -67, -20, -50,
    15, 57, 13, 90, 13, 38, -33, 37, 51, -104, -25, 72, -27, -29, -19, 35, -31, -70, 41, -61,
    -21, -29, 33, -23, 18, 12, -39, 11, 22, -58, 43, 35, -8, 29, 39, 13, 12, 70, 12, 54,
    -37, 60, -127, -8, -15, 25, -85, -8, -17, 3, 2, -114, -78, 24, 76, 76, 15, -36, -65, 19,
    2, 117, -18, -56, 9, -2, 12, -62, 7, -20, -83, -36, 72, -11, 48, 11, -101, 55, 116, -20,
    30, 91, -49, 78, 39, -71, -88, 101, -17, 98, 39, -57, -4, -9, 5, -87, -30, 27, 1, 18,
    -12, -57, 18, 97, 12, -70, -28, 53, 35, 90, -28, 120, 64, 85, 67, 2, 31, -32, 5, 47,
    -6, -63, -26, 42, 59, -80, 35, 37, 5, -85, 48, -13, 12, -11, -33, 0, -22, 72, 2, -8,
    37, 3, -16, 22, 10, -1, 33, -23, 18, 1, 58, -18, -17, 48, 37, 26, -80, 47, -49, 29,
    48, 3, 74, -24, -22, -81, -17, -24, 26, 45, 52, -72, 18, 48, -43, -26, -94, 46, -95, 14,
    -44, 44, -28, -44, -26, -24, -80, -40, -10, 43, 36, 52, 11, -52, 31, 41, 114, -9, 26, 28,
    19, -67, 81, 6, 127, -22, -92, -73, 45, -44, 42, 85, 43, -49, -9, -35, 13, 104, 124, 35,
    28, -24, -56, -21, -33, -7, -6, 42, -52, -15, 5, 4, 26, -10, -25, -15, 4, 14, -13, 31,
    -10, 14, 26, 84, 21, 35, -15, -16, 40, 53, -56, 11, 14, 23, 25, -14, 33, 26, 5, -20,
    4, -57, -27, 13, -5, 127, -12, -27, 55, -10, 12, 1, 27, -32, 4, 56, -56, -11, -30, -3,
    10, -21, 2, 27, 79, 44, -59, -4, -19, -26, -27, 9, 20, 15, 30, 14, -18, -34, 26, 16,
    -12, 30, 52, 58, -22, -88, -45, 26, 6, -57, 52, -19, -32, -13, 1, -7, -29, -5, -36, 15,
    -8, 14, 50, -1, 10, 6, 15, 40, -21, 52, 40, -14, -17, 18, -56, -11, 13, -55, -76, 12,
    42, 52, 38, 0, 2, 6, 32, 1, 38, -31, -5, 62, -85, 10, 12, -89, -99, -42, 75, -70,
    -50, -1, 21, -38, 39, 9, 20, -20, 2, -12, 55, -65, 38, -19, 85, -11, -14, -30, -25, 5,
    34, 79, -2, 78, 70, 27, -48, -61, -1, -45, -13, -39, -12, -21, 0, 5, 19, -15, -43, -72,
    52, 3, 56, -52, 66, -40, -77, -90, 59, 26, 47, -49, 2, -22, -7, 7, 45, 44, 5, 11,
    -69, -58, -101, 37, 0, 18, 48, 16, 20, 62, -22, 4, 45, -23, -39, 127, 10, -1, -46, 85,
    -81, -10, -63, -9, 54, 47, 3, 16, -6, -71, 15, -39, -93, 15, 38, 31, -9, 4, -15, 33,
    -75, -26, -49, 52, 78, 54, 47, 3, -14, 76, 12, 20, 70, -40, -10, -24, 60, 43, 45, -57,
    87, -11, 62, -37, 99, -23, 22, 23, 0, -33, -21, -11, -25, 10, 52, -1, -27, -21, -24, -48,
    36, -56, -29, 113, -22, -50, 22, -48, -105, 87, -14, -72, 13, 29, -39, -10, 10, 63, -4, 2,
    -45, -45, 4, 105, -33, 110, 106, -41, -13, 40, -10, 13, -12, 17, -33, 6, -27, 38, 22, 5,
    -45, -29, 10, 9, 35, 58, 112, 2, -19, -8, -29, 47, -55, 42, -51, -4, -9, -127, 36, 2,
    -62, -62, 25, -32, -86, -6, -5, 40, 72, 63, 4, -33, 82, 27, 18, -72, 62, -51, -25, 22,
    -45, 11, -80, -10, 89, -84, -25, 116, -60, 124, 10, -1, -43, 84, 21, -25, -3, -15, 25, 20,
    39, -47, 24, 24, -5, -39, -51, -26, -19, -26, 26, 21, 17, -88, 25, -2, 49, -86, 84, -9,
    29, -106, -3, 68, -9, 1, -65, 47, 70, 23, 85, -46, 18, -78, 40, -57, 30, 8, -36, 71,
    82, 83, -12, -32, -6, 8, -91, 14, -1, 56, 29, -76, -31, -76, 27, 27, -47, -33, 32, 39,
    -116, -54, -47, -28, 92, 28, -20, -61, 69, -38, 44, 16, 104, 26, -43, -38, -92, -32, -89, -19,
    -52, -93, -30, -17, -28, -66, 71, 39, -24, -3, 58, -30, 88, -46, -28, -31, -4, -51, 63, 109,
    -77, 3, 9, 127, -10, -8, 48, 45, -43, 38, 64, 2, -64, 38, -63, 27, -18, -66, -50, 30,
    62, 26, 22, 14, 44, 42, 2, -32, -41, -73, 88, -14, -46, 47, 12, -15, 15, -9, 46, -28,
    47, 19, -22, 41, -46, 19, -69, 36, -8, 37, 57, 36, 75, -75, -116, -39, 58, -42, -8, -100,
    24, -8, -35, -23, -39, 12, -13, 89, -15, 68, 23, 83, -24, -8, 85, -83, 58, -65, -75, 39,
    -11, 52, 78, 1, 67, 93, -2, -3, 71, -9, -9, -58, -115, -7, 127, 10, 27, -33, 30, 31,
    -77, -72, 31, -51, 7, -1, -9, -38, 86, -38, -87, 6, -4, 33, -18, -5, 21, -120, -14, 68,
    -17, 0, 58, 31, 11, 26, 56, -63, 74, 14, -31, -17, -28, 61, -39, 4, 38, -29, -31, 44,
    105, -25, 71, 19, 43, 60, -2, 48, -74, 77, -46, -50, -2, -20, -12, -32, -14, -51, 59, -6,
    -64, -14, -15, -1, -44, -31, -75, -23, 19, -33, -45, 30, -6, -88, 48, -34, -74, -5, -7, 43,
    86, 42, 1, 21, -45, -61, 8, -56, 48, 10, -49, 38, 27, 32, 62, -36, 104, 102, 20, 22,
    62, 8, -36, -48, 29, 84, -33, 64, 37, -53, 112, 52, -17, -3, -101, 53, -22, -21, 31, -110,
    80, -30, 110, -75, 107, -63, -57, -1, 31, -32, -29, 10, 77, 11, 74, 28, 16, -48, 30, 127,
    -21, 44, -29, 32, -8, -10, 11, -21, 53, -42, 121, 99, -21, -44, -20, -36, 14, 54, 31, -18,
    -30, -39, -10, 15, -46, 49, 47, -6, -24, 91, -3, 14, 31, -41, 15, 25, 58, -87, -49, -95,
    -50, 61, 70, -5, 14, 72, -42, 15, 15, 68, 81, 45, 60, -29, -14, 17, 56, 101, 13, 19,
    84, 85, -73, -121, 40, 16, -19, 1, -64, -32, 28, 73, 16, 0, -43, -37, -58, -69, -17, 6,
    -11, -4, 100, -69, 17, 52, 21, 25, 43, -4, 44, 44, -33, 48, 0, -62, 111, 23, 80, 45,
    -69, 39, 55, 0, -9, -15, -21, 41, 56, -17, -51, 23, 68, 86, -122, -52, -13, 37, 60, 51,
    49, -12, -5, -57, 24, -23, 94, -35, -81, 52, -60, -55, 58, -23, -4, 68, 51, -41, 16, -65,
    -97, 118, 24, 54, 19, -127, 104, -44, -7, -69, -7, -25, 11, -64, -61, 69, 103, 33, 15, 5,
    63, 61, -100, -45, -40, 43, -82, -37, 87, -23, 29, 32, 4, -47, 61, -62, 27, 7, -80, 76,
    117, 10, 72, -42, 48, 22, -32, 74, -69, -75, -55, 4, 8, -7, -7, 48, 55, 19, -62, -62,
    -19, 43, -24, -18, 22, -40, -37, -49, 1, 2, -51, 44, -33, 46, 25, 37, 33, 18, -1, 28,
    -18, 71, 8, -22, -3, -35, 60, 0, -49, -4, -34, 18, 11, 84, 34, -4, 56, -57, -80, -25,
    -26, -19, 110, -127, -17, 49, -12, 15, -20, 68, -40, 12, -7, -18, -21, -30, 41, 79, -21, -1,
    -37, 2, 53, -29, -126, 55, -29, 46, -44, 33, -46, -115, 70, 10, -6, -40, -36, 85, 32, -77,
    15, 8, 21, -20, 20, -12, 75, 23, -2, -51, 38, 38, -53, 66, -19, 13, -58, -6, -5, -35,
    -16, 94, 91, 23, 53, -41, -11, 18, -107, -44, 42, 73, -18, -13, 19, 41, 52, 40, 43, 5,
    59, 25, 9, 20, 40, 75, 29, 35, 35, 24, -18, -28, -11, -71, 41, 5, 58, -7, 22, 58,
    -53, 14, -23, -11, -9, -66, 87, -29, -62, 29, -20, -30, -8, -86, -67, 7, 35, -34, 81, 10,
    -32, 5, -18, -13, 9, -1, -30, -21, -10, -48, -57, -53, 43, 27, -5, 50, -7, 23, 16, -11,
    24, -52, -55, -7, -17, 19, -53, -21, 50, -52, 18, 3, -61, 1, -57, 64, -61, 24, 49, 16,
    -11, -44, 4, 65, 33, -17, -20, 25, 39, -49, -10, 69, -14, -127, 93, -2, 17, 30, -19, -9,
    -43, 21, 27, 70, -29, -46, 27, 39, 65, -4, 65, -42, -32, 17, -26, 10, 32, -24, 17, -21,
    46, -20, 8, -8, -48, 84, 39, 26, 6, 7, -57, -17, -22, 11, 6, -51, 49, 19, -39, 48,
    -9, 57, -29, 28, -39, 9, -12, -19, -68, 36, 36, 38, -43, -24, -38, 28, -3, -51, 0, 29,
    -45, 6, 2, -2, 63, -46, 8, -49, 1, -12, -51, 34, -59, 31, 62, 2, -75, 13, 51, 31,
    55, 29, 6, 6, -42, -64, 46, -24, -78, 33, 22, -10, 63, -31, -1, 2, 10, 29, -54, -18,
    -48, 70, -127, -28, 8, 5, -31, -14, 24, -40, -68, -14, -10, 31, -28, 7, -10, 57, -62, -72,
    -61, -29, 2, 14, 17, -8, 49, 4, -77, 8, 26, -14, 35, -52, -52, -30, 29, -24, 42, 12,
    0, 3, -20, -38, 27, -9, 14, -7, 47, 51, -65, 2, -22, 77, 29, 123, 7, 16, -26, -27,
    46, 37, 22, 34, -37, 78, -102, 78, -13, -23, -57, -16, -26, 53, -55, 13, -86, 19, 20, 9,
    5, -1, 76, 43, -46, 76, 46, 127, -67, -24, -70, -49, 46, -81, -51, 21, -21, 20, 14, 62,
    -16, 79, 0, 28, -69, -3, -82, 28, 28, 62, 1, 37, -69, -46, -21, -25, -41, 45, 54, -51,
    32, 55, -9, 47, 13, 6, 96, -49, 68, 46, -8, 50, -94, -13, -46, 8, -60, 32, 33, -22,
    53, -78, -18, 6, 22, 23, -11, -27, 5, -113, 3, 23, -11, -31, 69, 18, 39, -62, -16, -56,
    -36, 6, -41, -36, -20, -35, 45, -4, -16, 24, 37, 91, -96, -4, 31, -9, -46, 25, 22, -92,
    -4, 31, 67, -32, 23, -49, -7, 11, -49, -127, 62, -45, 14, 34, -13, 58, -8, 32, -42, 6,
    9, 38, -10, 36, 10, 17, -21, 4, 72, 25, -38, -100, 96, 67, -34, -18, 66, -75, 24, 37,
    30, 33, 39, 86, -53, 103, -20, -10, 64, -6, -5, 6, 115, -77, 6, -14, 14, -19, 119, -53,
    85, 29, -81, -22, -32, 26, 22, -56, -45, 44, -9, 79, 15, 69, -75, 15, 45, -25, 15, -70,
    -112, -88, 52, 51, 28, -44, -55, -22, -10, -89, -32, -24, -15, 40, 58, 23, -1, -29, -34, 4,
    -12, 31, -7, 20, -12, 10, -78, 22, -23, -8, -21, 17, 56, 5, 49, -7, 56, -25, -36, 105,
    64, -13, 19, 57, -49, -57, -24, 41, 6, 60, 26, -27, -11, 16, -57, -14, -78, -3, -39, 52,
    -20, 38, -127, -36, -78, 9, 104, 26, 52, -42, 23, 14, 27, -5, -45, 44, -33, 59, 40, 24,
    0, 40, 22, -37, 61, -13, 71, -28, -70, -29, -7, 1, -69, 36, -21, 86, 14, -42, -15, 21,
    -6, 95, -26, -2, 35, 43, 38, 13, 11, 43, -24, 47, -28, -35, -77, 23, 48, 63, -42, 2,
    3, -6, 54, -28, 1, -74, -11, 52, -27, 15, -27, -5, 28, -19, -4, 96, -108, -29, -1, 62,
    -27, -38, -8, 30, 9, -3, 63, -7, 31, -22, 13, 34, 53, -18, -74, -29, -21, -3, -10, 70,
    50, 57, 22, -17, 50, 0, 7, -8, -1, -38, -98, 67, -47, 0, -25, -125, 12, -57, -46, -35,
    -4, -17, 52, -87, 7, -108, -34, -25, -107, 54, 14, 36, -82, -9, -62, -21, -23, 44, -16, -30,
    -56, 47, -9, 4, 46, -25, 58, -17, 3, 18, -61, 118, -31, 59, 31, -79, -50, -47, 55, 23,
    92, -67, -2, -62, -49, -40, 17, -31, 11, -77, -63, 69, -28, -24, -5, -2, -36, -26, 62, -24,
    -21, -17, -25, 45, -13, -22, 21, -68, 44, -62, -2, 64, -4, -39, 10, 35, 11, 29, -78, -19,
    -27, -25, -11, -55, -28, -81, 34, -33, -15, -11, 21, 33, -58, 127, 0, 27, -58, -60, 55, 48,
    6, -55, 32, -41, 47, -2, -44, 12, -23, -12, -37, 14, -50, 8, 21, -48, 33, -26, 69, -85,
    36, 21, 49, -9, -32, 59, 31, 32, 23, -33, -5, -43, -55, 16, 20, -34, -35, -56, -5, 104,
    -69, -98, -51, -15, -73, 83, 22, 42, 29, 43, 11, -66, -9, 54, -19, 37, -24, -42, 23, 71,
    -55, 56, 13, -29, -1, -16, -18, -49, 46, 38, 9, 6, 0, 11, 17, 66, -61, -4, 18, -17,
    23, 59, 110, -33, 4, 15, -24, -29, -127, 79, 20, -80, 50, -88, 50, -91, 66, 65, 23, -30,
    -5, 56, -37, -5, -32, 54, -74, 31, 78, -6, 25, -70, 79, -34, -95, -58, -47, 103, -54, -53,
    57, -65, -25, 41, 7, 25, 50, 5, -41, 45, 95, -29, -11, -21, 46, 72, 66, 1, -18, 29,
    41, -25, -67, -47, 56, 31, 40, 18, 53, 18, 87, 9, 15, -81, -35, 75, -59, 59, 41, -24,
    82, 34, 83, -36, -29, -26, -79, 41, -70, -76, -7, 20, -75, 66, 49, -57, 112, 101, 1, 19,
    20, 47, -15, 3, 3, 38, -31, 38, 23, -6, 48, 16, 58, 46, 26, -21, -15, 25, 82, -68,
    12, 8, 59, -19, -99, -29, 80, -56, 17, -13, 12, -42, 61, 22, 66, 127, 15, 50, 18, 24,
    -10, -15, -91, 21, 15, 46, 41, -35, 56, -38, 12, 66, -87, -40, -18, 58, -18, -18, 118, 7,
    9, 36, -56, -84, 25, 13, 40, 9, 10, -19, 15, 7, 31, -9, 28, 86, -28, 48, 38, 10,
    -108, -8, -25, 5, 69, 30, -45, -14, 76, -29, -44, -12, -9, 16, -22, 32, 23, 20, -13, 36,
    12, -90, -59, -15, -51, 57, -62, 41, 29, 51, 51, 80, -22, 67, -21, -37, 30, 67, -75, 45,
    -45, -4, 25, 39, 49, -21, 7, 48, 49, 1, -111, -46, -4, 16, 41, -27, -66, 33, 12, 54,
    -16, -12, -2, -3, -55, -5, 59, -13, 75, -47, -6, -8, 55, 34, 31, -67, 31, -74, -42, 4,
    35, -4, -35, -47, 12, -3, 50, 46, -24, 30, -12, 36, 57, 8, -85, 38, -5, -108, 51, -37,
    23, 0, -60, -3, 27, 50, -27, -108, 127, 15, 17, -11, -44, -3, -4, -26, 8, 18, -39, -3,
    13, 3, 57, -2, 15, 2, -1, -49, -14, 4, 9, -32, 47, 45, -15, 3, 38, 55, -17, -107,
    -61, 0, 70, 21, 22, -97, -28, -11, -11, -24, 55, -2, 53, 81, -67, 100, 11, -32, 33, -54,
    44, 9, -32, -34, 2, -5, 61, -29, -64, 12, -38, 104, -9, 38, 0, 18, -50, 13, -61, -44,
    24, -6, -31, -63, -3, -4, -62, -59, 33, 54, -40, -62, 2, 9, 22, 36, -31, 81, -24, 63,
    -86, -67, 53, 64, 32, -52, -62, -13, -20, 21, -79, 57, -31, 66, -29, -60, 8, 55, -69, -17,
    -21, 55, -20, -71, 75, -31, -8, 41, -32, 13, -41, 127, 20, -13, -8, 15, -53, -80, 45, 36,
    -44, -17, 82, 30, 37, -9, -73, 6, -60, -38, -94, 54, -7, 16, -34, -40, 61, 59, 58, -10,
    -22, 22, -19, 1, 19, 41, -31, -4, -69, -35, 5, 54, 55, 70, 47, -12, -54, 26, 66, -51,
    11, 2, 32, -56, 5, -30, 29, 127, 44, 14, -4, 47, -5, -6, 51, -13, 68, 29, -16, -10,
    57, -72, -80, 25, -4, 80, 11, 79, 23, 4, -16, -49, -47, 60, -64, -45, 43, -35, 51, -96,
    65, 12, -19, 35, 49, -19, -10, 70, 92, -44, 74, 25, -56, 29, -58, 50, -17, 103, 45, -11,
    -50, 18, 42, 73, 11, 27, 52, 86, -24, 16, 2, -58, 73, -19, -10, 53, -74, -40, -53, -30,
    24, -48, -20, 67, -32, 13, -50, 42, 50, -97, -57, 34, -18, -43, -10, -13, 66, 46, -93, -32,
    35, 2, -51, 11, 5, 25, -15, -4, 4, 51, -3, 37, 7, 5, -54, -69, 17, -54, 100, -5,
    -27, -28, 79, -25, 14, 10, 66, 38, -57, 41, 80, -2, -69, 43, -15, -47, 14, 76, -4, 40,
    1, -72, -9, -17, 67, 35, -74, 61, -3, 97, -85, 56, 37, -77, 37, -26, 12, 84, -35, 56,
    18, -42, -21, 35, 29, -25, -5, 33, 15, -31, 96, -50, -98, 127, 29, 76, 105, -83, 16, -4,
    4, 15, 117, 64, 27, 43, -89, -92, -35, -8, 23, -79, -39, -57, 76, -91, 24, 37, 27, -17,
    17, 54, -39, -9, -13, 24, -61, 34, -3, -58, 64, 11, 57, -59, -14, -1, -31, 16, -13, 56,
    3, 57, 14, 26, 34, -10, -64, 59, 45, 65, 21, -56, 23, 36, -29, 31, 46, 16, 33, 26,
    2, 34, -46, -16, -20, -119, -116, -42, -70, 38, -10, -120, -68, -1, -48, -67, 71, -23, 92, -17,
    -25, -47, -28, -19, -34, -9, 42, -16, -43, 12, 40, -26, 71, 14, -24, 58, -81, 13, 6, -1,
    52, 6, -6, -6, 73, 13, -119, 112, 34, 70, 51, -11, 74, -100, -18, -50, 123, -9, -47, -6,
    -39, -62, 3, 22, 48, -18, -82, 6, -43, -34, -52, 50, -17, -23, 10, -40, -97, -72, 27, 3,
    -96, -63, -41, -97, 9, -45, 92, 26, 27, 67, -53, -38, 86, 19, -17, -41, 58, -69, 20, -97,
    -61, -41, 61, 14, -11, 94, 2, 29, -79, 127, -39, -11, -54, -36, 58, 57, 11, -116, 57, -86,
    97, -18, -1, 37, -21, -37, -19, 37, -96, -43, 112, -63, -55, -1, -13, 12, 57, -40, 38, 9,
    72, -60, -40, 7, 5, -36, -5, 12, 63, 23, -13, 44, -19, 20, -32, 36, 3, -1, -44, 17,
    -36, -12, 77, -122, 14, 40, -30, 2, -1, 21, -11, 38, -6, -62, -16, -8, -60, -10, 7, 56,
    -7, 6, 16, -3, -62, -1, 35, -49, 53, -3, 1, -53, 89, -36, -33, 55, -60, 13, -28, 16,
    22, 48, 3, 31, 4, 43, 33, 69, -66, 15, 15, 54, 34, -21, -3, -82, -69, -94, 87, 28,
    8, -50, -33, -9, 20, 38, 4, -85, 127, 4, -7, 29, 0, -52, -38, -45, -25, 33, -45, 18,
    -52, -18, 50, -4, 12, 9, -34, -28, 11, 39, 26, 15, 43, 29, -47, 38, 34, 119, 30, -102,
    -43, 4, 58, -15, 22, -14, 18, 4, 0, -86, 39, 4, 60, 101, 46, 92, -127, -25, -9, -24,
    6, -35, -33, -33, 53, 30, 26, -30, 29, 40, -7, 16, 28, -2, -42, 25, 17, 12, 96, -23,
    30, 25, 25, -53, -20, -46, -25, -6, -80, -22, -48, -73, 11, 25, -25, -6, 57, 9, 16, -2,
    -63, 44, -47, 24, 70, 1, -3, -16, -61, 46, 26, 32, 37, 7, -49, 103, -53, -52, -35, -10,
    -13, 19, 4, 8, 70, -26, -5, -57, -16, -74, -58, 69, -72, 16, 28, 61, 3, -7, 36, -31,
    25, -54, -21, -10, 43, -31, -94, -15, 31, -57, -80, 15, 72, 56, 34, -8, 58, -25, 23, -31,
    -41, -34, 85, 13, 61, 60, -16, 43, 7, -64, -58, 90, 57, 49, 30, 1, 43, -41, -51, -36,
    10, -18, -44, -54, -28, 1, 35, 71, 63, 86, -42, -33, -21, -127, -97, 3, -4, 74, 86, 17,
    19, 58, 51, 70, 17, 65, 15, 23, 8, 55, -29, -23, -29, 18, 24, 13, 43, 54, -11, 24,
    -71, 20, -13, 0, -6, -40, -74, -45, 60, 110, -52, -61, -53, 70, -13, -93, 78, 32, 8, -13,
    -43, 14, 32, -72, 1, -55, 68, 28, 69, -63, 28, 7, 31, -29, -18, -84, -113, 58, 45, -20,
    11, 25, 39, -58, 49, 48, 75, -39, -33, 19, -66, 86, 7, 78, -4, 25, 44, 17, -86, 22,
    -11, 6, -40, -92, 28, -18, -10, 77, 29, -57, 57, 64, -1, -25, -27, 30, 50, 92, -50, -58,
    -89, 87, -16, 73, -32, 115, 88, -48, 84, 23, -66, 11, -7, -32, 1, -48, 20, -13, -16, -2,
    0, 49, -17, 10, -47, 23, -42, -27, 52, -47, -44, 79, -48, -70, -113, -40, 9, -92, -33, -28,
    67, 9, -1, 47, 85, 59, 1, -39, 93, -35, 100, 0, -54, 16, 53, 33, -76, -35, 81, -92,
    -6, -39, -18, -46, 45, -11, -9, -19, 53, 21, 127, 118, 32, 3, -16, 52, -72, -16, -77, -110,
    62, 4, 61, -47, 33, 45, 39, 38, -28, -76, 93, -29, 49, 96, 24, 30, 14, -24, 34, 34,
    -54, -80, 5, -77, 79, 42, -22, 32, 48, 101, -14, -21, 60, 12, -17, -7, 17, 1, 38, 32,
    -12, -22, 35, -100, -15, 10, -50, 41, 27, 85, -36, 38, 34, -3, -40, 13, 30, 26, -10, -11,
    -21, 94, -2, 20, -13, -12, 8, 2, 26, 8, -10, -11, 25, -16, 13, 14, 3, 55, -2, -63,
    70, 4, -42, 90, -80, 28, -37, 46, -2, -26, -14, 10, -14, 11, -13, 45, -84, -38, 11, 10,
    -7, -103, -54, 6, -34, 22, -34, -59, 10, 78, 33, 4, -8, -17, 61, -57, 23, -13, 58, -91,
    -48, 6, -36, -12, -40, -127, 22, 19, -55, 21, -20, -28, -44, 14, 24, 8, 9, -5, 0, -55,
    -7, -5, 2, 29, -5, 32, 26, 75, 83, -54, -49, -28, 61, -9, -15, 58, -6, 34, 33, -12,
    18, 51, -3, 58, -3, 8, 53, 22, 50, -27, -56, -27, 49, -41, 19, 49, -126, -54, -94, -31,
    18, -14, -19, -44, 67, 40, -32, 19, -75, -15, -27, 12, 43, 38, 53, 36, -13, 4, -75, -46,
    -15, 55, 30, -2, -24, -93, -7, -27, 13, -17, -3, -65, 49, 49, -12, 10, -13, -27, 3, -31,
    -70, -25, -40, 48, -127, -69, -90, -68, -30, -33, 28, 43, -6, 18, -20, 57, -9, 42, -4, 87,
    -67, -71, 18, -39, -48, 76, 9, 1, 24, 58, 87, 2, 17, -58, 71, 60, -36, -2, -25, -92,
    7, -3, 44, -63, -27, -43, 9, -20, 77, -20, 29, 97, 33, -21, 25, 33, -4, -39, -11, 2,
    1, 31, -18, -2, -64, -16, -75, 51, -20, 2, -7, -3, 5, 7, -9, 14, 11, -9, 60, -1,
    -20, 59, 76, -83, -34, -97, -34, 23, -4, -102, 57, 100, -80, 0, -1, -10, -57, -8, -12, -80,
    91, 105, -34, -71, 0, 81, -88, 54, 2, -3, 11, -46, -13, -42, -12, 32, -51, -33, -4, -74,
    123, -67, 60, -11, -39, -13, -21, -41, -50, 49, 53, -105, 5, -40, -9, -7, 77, 101, -39, -8,
    -83, 48, -40, -1, 39, -56, 24, -68, 45, 49, -39, 7, 2, -54, 81, -29, -15, -35, -37, 65,
    7, 69, 48, 10, -13, -65, 4, 1, 28, -63, 42, -3, 9, 66, -56, -46, 104, -35, -32, -58,
    -32, 22, -57, -42, 24, -9, -107, 43, -77, -47, -25, -42, -42, 21, -19, -59, -44, -16, 52, -20,
    27, 37, 2, 38, -49, 127, 50, -73, 44, 3, -9, -3, -35, -84, 26, -18, -74, 56, 71, -40,
    -15, -46, 13, 98, -25, -8, 63, -44, -55, -27, 8, 58, 8, 10, 57, -43, -60, 10, 48, 79,
    67, -1, 6, -61, 8, -7, 49, 55, 22, 20, 26, -55, -6, 34, -29, -31, 15, -49, 0, -13,
    24, 35, -61, -15, -43, 28, 15, 17, -28, -16, -68, -59, -6, -7, -17, -32, 27, 35, -46, 62,
    -14, -13, -93, 62, -3, 44, -23, 9, -68, -16, 6, 42, -23, -90, 32, 11, -22, -18, -21, 52,
    -44, 19, 7, 127, -35, -30, -13, 54, 44, 5, 31, 72, -33, 44, 41, 67, -17, -9, -55, -86,
    5, -47, -107, 14, -5, 9, 15, -74, 12, 15, 5, -75, 38, 44, 24, 58, 45, 30, 17, -45,
    81, -16, 98, 44, -95, -17, 22, 45, -28, -79, -21, -74, 11, 14, 25, -57, 1, -75, -48, 81,
    -47, -8, -3, 9, -105, 101, 71, -34, -11, 76, 7, 51, 17, 22, 48, 40, -34, -42, 29, 52,
    -38, 53, 39, 66, 39, 5, -53, -66, -5, 54, 15, 2, -20, 29, 52, -21, -49, 6, 68, 0,
    89, 29, 74, -22, 63, 20, -12, -17, -69, 42, -35, -27, 19, -101, 18, -50, 13, 3, -31, -31,
    -16, -38, -23, 22, 27, 18, 4, -28, 106, 8, -1, -83, 127, 2, -98, -74, -83, 40, -56, -49,
    85, -53, 52, 73, 68, 1, 66, 27, -80, 57, 11, -17, -28, -36, 37, 33, 98, -12, 3, 46,
    26, -63, -51, 4, 14, 51, 8, -66, 95, 14, 77, -11, 11, 39, -6, 109, -5, 46, -2, 25,
    52, 4, 48, -5, 0, -13, -53, 23, 19, 72, -34, -10, 7, 42, -32, -73, -35, -36, 43, 118,
    8, -117, -20, 48, 6, -71, 5, 87, -73, 15, 8, 9, 26, 43, -20, -94, -47, 14, 127, 45,
    54, 49, 62, -25, 2, -39, -34, 24, -4, 15, 52, 34, -7, 44, -9, -52, 36, 32, 12, 76,
    -39, -47, 2, 10, -30, 77, -4, -38, 36, 30, -26, 65, 74, -38, 2, 18, -50, -16, 9, 45,
    25, 11, -6, -11, -31, 29, 39, -31, -6, 35, -40, 3, -40, 16, 82, -105, 37, 3, -25, -114,
    -45, -1, 40, -63, 42, 53, -19, -23, 38, 19, -13, 4, 28, 80, 84, -39, 66, 15, 11, 108,
    -58, 16, -80, 73, 52, 12, -102, -34, 74, -4, -5, -58, 20, 99, -50, 1, 17, -19, -23, 127,
    -78, 106, 13, -30, -48, -36, -9, 22, 39, 96, -53, -20, -57, -95, 7, -12, -75, 101, 22, 49,
    -104, 98, -69, 87, -33, 61, -95, -50, -32, -25, 107, -67, -25, 32, 4, -81, -3, -38, 21, 7,
    -3, -34, -111, 40, -71, 75, 63, -30, -57, 73, 86, -6, -33, -48, 62, -84, -28, -9, -12, -15,
    120, 33, -54, -32, 38, 53, -1, 19, -78, 53, 68, 23, -48, -33, 40, 59, -52, -6, -31, 91,
    -68, 68, 97, 95, -43, 47, -62, 41, -22, 60, 43, 29, -2, 47, -72, -18, -44, -12, -31, -16,
    -89, 35, -8, -68, -18, -62, 19, -69, -23, 6, 16, 48, 72, -95, 34, 61, 34, -75, 93, -3,
    3, 7, 104, 38, 3, 36, -59, 26, -59, -21, 16, -45, -51, -26, -33, -69, -77, 42, 15, -42,
    71, 23, 54, -31, 69, -75, -2, -48, -7, 11, -27, 3, 1, 71, 2, 0, -24, 61, -77, 2,
    9, 22, -4, 30, 49, -20, 103, 33, 111, 51, -102, -45, 23, 47, 57, -46, -127, -14, -1, 54,
    -44, 79, -37, -28, 79, -24, -33, 54, -37, -34, -52, 48, 22, -58, -50, -12, -26, -64, 74, -21,
    -23, 0, -8, 37, 67, 0, -80, 0, -31, -30, -7, -47, 98, 66, -5, -95, 20, 34, -97, -10,
    -1, -75, -11, -32, 58, 22, 91, 91, 77, -20, 47, 85, -35, 57, -28, 75, 47, -33, -15, -38,
    11, 45, 61, -69, -9, -58, -22, 53, -51, -35, -45, 71, -109, -10, -40, 56, 30, -26, 49, 73,
    8, 23, -52, -17, -24, 8, -16, -12, 56, -13, 77, 5, -39, -17, 119, -72, -40, 53, 70, -36,
    80, 31, -47, 0, -28, 13, 0, -96, -98, 47, 14, -108, -29, -48, -1, 1, 8, 38, -8, 120,
    -23, 21, 63, -65, 4, -44, -62, -5, -38, 54, -69, 60, 30, 76, -37, 35, -127, 26, -6, 18,
    3, 46, 59, -42, 90, 3, -114, -64, 78, 27, -34, 32, 31, 74, -1, 44, 44, 40, -92, -28,
    39, 89, 50, -16, -106, 2, -14, 14, 20, 51, 79, 37, 5, -37, -67, 47, 81, 85, -74, -7,
    33, 33, -49, -17, 74, -19, -29, -36, 21, 8, 76, -10, -54, 61, -70, 33, -4, 14, -14, -3,
    -77, 0, 11, -3, -52, -18, -4, -49, -3, -60, -13, -60, -56, 56, 60, 41, -38, -56, -28, -13,
    2, -85, -32, 62, 103, 125, 23, 74, -59, 69, -40, 84, -57, 1, -67, 27, 48, 127, 82, -91,
    78, 81, 5, 67, -79, 21, 85, -22, -54, 98, 10, 9, -3, 17, -47, 43, -45, -11, -66, 44,
    -5, 46, 8, 65, -27, -70, -103, 69, 1, -10, -47, -55, -45, -2, -16, 29, 14, 34, -24, 25,
    -59, 7, 27, -66, -41, 32, 5, 104, -72, -42, -42, 16, 13, 11, -51, 19, 28, 112, 51, 24,
    -79, 45, -12, 46, 43, 52, 86, -33, 27, -44, -51, -48, -17, -36, 38, 46, -37, 10, 35, 22,
    20, -97, -46, 50, 43, -30, 34, -10, 65, -75, -51, 79, -76, 7, 17, -11, 43, 41, -44, -40,
    -90, 21, -73, 53, 39, -17, 20, -26, 38, -17, -77, -32, -18, 11, 43, -8, -29, -62, 4, -5,
    107, 28, -22, -35, 77, 1, -48, 9, 21, -51, 4, 11, -14, 127, -33, -27, -16, 15, 10, -39,
    -52, 12, -51, -6, -20, 26, 26, 17, 28, 5, -43, -1, 11, -13, -64, -45, 10, -14, -92, -24,
    54, -15, -20, -12, -31, 5, 1, -18, -4, -43, -18, -96, -43, -6, -38, 11, 76, 20, 28, -52,
    1, 10, 34, -26, -12, -31, -36, 7, -27, 2, 29, 41, -64, 59, 54, 0, -2, -54, 37, -18,
    -38, -8, 40, 127, 43, -35, 28, 15, -30, -77, 92, -85, 94, 37, 39, 21, -92, 58, 20, 64,
    -1, -49, 24, -33, -17, 7, -19, 73, -81, 3, -25, -39, 126, -22, -23, -55, -22, 37, 6, -45,
    -1, 9, 104, -69, 49, 3, 53, 14, 30, 80, -19, -68, 23, 3, -61, -49, 97, -23, 20, -29,
    17, 47, -48, -54, 36, 66, 17, 12, -68, -11, -11, -26, -16, 57, 33, 22, 49, -30, 7, -34,
    3, -23, -59, 43, 54, 16, -39, -1, -8, -101, -29, -1, 79, -17, -28, -46, 2, -29, -8, -19,
    -32, -19, 48, -80, -33, 20, 22, -25, 8, 13, -52, -15, -45, -10, 12, 24, -17, 70, 16, -48,
    -73, -12, 32, -20, -46, 3, 24, -59, 4, 4, 79, 28, 33, -44, -1, -36, 51, -53, -52, -9,
    -34, 34, -14, -32, 18, 66, 13, -18, 79, -4, 13, -11, 28, 68, 44, -54, -23, -120, 24, 49,
    80, 36, 29, -10, -31, -71, 38, -42, -41, 6, 73, 10, -6, 19, -59, -15, -51, 39, 22, -74,
    -107, -29, -30, 14, 45, -43, 17, 55, -15, -17, 26, -88, -71, 11, -31, 7, -81, -19, -49, 3,
    -27, 28, -22, -77, 109, 103, 9, 45, -29, -37, -30, 1, 15, 1, 63, -17, -67, 6, 54, 85,
    -96, -39, 12, 64, 33, -127, -28, 6, -75, 32, -15, -41, 118, -19, -1, -84, -19, 25, -9, -46,
    47, 5, 49, 43, -61, 2, 110, 94, -22, 25, -8, -8, -15, 2, -14, -118, -13, -61, 74, 45,
    -45, -36, -46, -13, 38, -35, -7, -62, -38, 7, 25, -42, 50, -34, -3, 28, 89, 30, -38, -79,
    -54, 22, -1, 14, -75, -95, -24, 25, 110, -33, 81, 9, -22, -83, 29, -9, 60, 16, 0, -121,
    102, 114, 34, 115, -30, 64, -23, 1, -51, -29, 46, -47, 79, 29, 21, 48, 63, 20, 51, -110,
    -33, 21, -36, -35, -62, -69, -12, -10, -16, 48, 17, -115, -18, 13, -58, 34, 110, -105, -73, 36,
    38, -14, -54, 64, -48, -127, -20, -42, 4, 47, 37, 2, -38, -28, -56, -33, -116, -16, 120, -46,
    -12, 12, 51, -34, -37, 0, -79, 26, 37, 12, 22, 46, 20, 54, -14, -33, 37, 35, -44, -60,
    6, 15, -79, -19, 57, -52, -29, 51, 46, 9, -35, 13, 48, 3, 5, -32, 36, 98, 13, 23,
    -17, 38, 6, 14, -16, -55, -18, 19, 36, -22, 46, 4, 22, -79, 2, -52, -29, -37, -96, -3,
    3, -39, -69, -17, -57, 5, 37, -29, 38, -31, 53, -127, 8, -80, 52, -49, -55, -11, -68, -35,
    -32, 32, -21, 12, -41, -19, -5, -108, 10, -88, 54, -6, -68, 75, 53, -9, -95, -21, -54, 28,
    17, 4, 47, 11, 3, -30, -79, 65, -66, 12, -48, 32, -88, -107, 19, -87, 37, 59, 56, 65,
    -88, 38, -21, 59, -59, -63, -83, 60, 36, -17, -23, -28, 46, 30, 73, -14, -58, 56, 5, 16,
    21, 81, 1, -44, 25, -13, -98, -78, -12, -50, -45, -27, -74, 55, 17, -6, -3, 36, -16, -35,
    18, -26, -27, 58, -35, 50, -13, 23, -50, 69, 9, 53, 48, 63, -9, 56, -40, -24, -28, -49,
    -8, 43, -64, -6, 8, 67, -127, 27, -7, 85, 15, -2, -48, 36, -42, 51, 66, -9, -1, 32,
    -72, 15, -33, 20, 25, 0, -47, -38, -42, -76, -37, -7, -52, -45, 18, -26, -30, -69, 4, -23,
    33, -4, -95, -47, 52, -50, -31, 22, 30, 32, 7, 30, -2, -32, -7, 0, -9, -27, 43, 11,
    41, 62, 34, 42, -8, 69, 14, 63, -75, 42, 17, -11, -18, -7, 27, 54, 71, -101, 20, -6,
    53, 11, -77, 21, -12, -49, -46, -7, -98, -44, 81, -86, 43, -11, 67, 37, -41, 27, 4, 34,
    -15, 45, -6, -1, 47, -59, -28, 18, -52, -50, -1, 8, 81, -28, 102, -24, 64, -8, -6, -10,
    16, -31, 9, 62, -87, -47, -3, -64, -30, -17, -18, 6, -22, 28, 12, -2, -18, -6, 11, -27,
    47, -68, 4, -21, -36, -50, -35, -18, 10, 14, -11, 45, -51, -12, 14, -55, 46, 88, 18, 14,
    -24, -37, -41, -7, -46, -3, 0, -65, 20, -12, 55, -5, -1, -27, 0, 13, -7, 56, -74, -49,
    -24, 97, 41, -58, 26, -39, -51, -23, -42, -3, 8, 5, 19, 56, -59, 4, 31, -46, 2, -35,
    -15, 92, -83, 10, -13, 66, -76, 48, 127, -13, -7, 48, -57, 2, 79, 10, 31, -40, -36, 5,
    1, 127, 35, 8, 104, -47, 2, 11, 59, -31, 123, -25, 84, 25, 36, -46, 1, 48, -2, -34,
    -36, 119, 7, 83, 79, -16, -81, -70, 54, 20, 42, -23, 41, 39, 7, -15, 2, -94, -84, 53,
    16, 24, 2, 28, -49, -93, 39, -7, -5, -27, -66, -55, 48, -45, -59, -19, 18, -17, -74, -1,
    5, -86, -45, -22, 36, 71, 33, 72, 104, 36, 30, -76, 41, -20, 78, 33, -5, 54, -16, -64,
    -59, 84, 47, -85, 20, -47, -5, -29, -28, 55, -18, -103, -95, -81, -9, 37, -81, 75, -3, -11,
    85, -8, 18, 9, 80, -41, 20, -84, -12, -87, -60, -57, -71, -40, -20, -18, -43, -5, -49, -33,
    45, 20, -26, 52, 16, 46, 64, 9, -8, 22, 55, 1, 48, -1, -13, -11, -29, -32, 48, -6,
    -35, -51, 63, 29, -5, -52, 40, -68, -19, 5, 11, -22, -58, 46, 3, -53, 24, 2, -9, -10,
    -2, 0, 0, 33, 36, 3, -75, 13, 71, -28, 14, -52, -16, -3, 25, -64, 28, -13, -19, -51,
    -17, 109, 37, -10, -34, 127, -45, 9, -9, -8, 8, 11, 33, -34, 35, 16, 27, 43, -11, -5,
    23, 40, -4, -41, -37, 15, -27, -16, -54, -6, 3, -45, 68, -60, 19, 5, 6, -56, 17, 33,
    -28, -9, -11, 28, -63, -51, 58, 6, 4, -5, 85, 11, -7, -34, 13, 6, -4, 39, 6, -17,
    14, -7, -47, -27, -7, 64, -14, -27, -19, 36, -48, 45, 39, 7, -51, -39, -12, -73, -7, 80,
    -22, 49, 55, 50, 34, -63, 87, 51, 27, -37, -88, 18, 21, -35, 51, 89, -47, -60, 2, 87,
    76, 56, -28, -33, -27, 64, -36, 88, 64, -21, 68, -14, 22, -18, -5, 1, 81, 127, -11, -66,
    61, 10, 22, -50, 115, 41, 7, -55, -18, 19, 11, 45, 61, -88, 59, -58, 46, 25, -76, -83,
    6, 53, -32, 18, 5, -5, -81, 21, -37, 12, 7, 108, -72, -41, 56, 32, 32, 30, 50, -49,
    -10, 14, 24, 119, -81, 36, -26, -12, -59, 93, -42, 31, 19, 30, -91, -30, -43, 41, 12, 10,
    54, -64, -67, -8, -53, -37, -25, -100, 48, -15, 75, -47, 24, 65, 112, 50, 39, 48, -86, -31,
    -30, 104, 40, -41, 64, -18, -30, 10, 12, 20, 115, 103, 34, 50, -38, 20, -37, 28, -2, 12,
    -2, 18, 75, -55, 65, 14, 56, 80, -69, 31, -11, 51, 55, -38, 6, -68, -39, -11, -16, 47,
    0, -52, -38, -29, 14, -41, 71, 44, -39, 5, -40, 34, -82, 3, 63, 42, 53, 60, 31, 46,
    54, -35, -35, -50, -48, -7, -29, -62, 8, 59, 8, -18, 28, -22, 60, -7, -19, -39, -6, 67,
    -45, 0, 10, 127, 51, 52, 29, -44, -68, 69, -6, -5, -29, 30, -78, 0, -83, 51, 54, 28,
    -15, 6, 33, 4, 29, -56, 77, 121, -3, 27, 77, -87, -51, -23, -39, -80, 5, -43, 2, -17,
    -54, 41, -20, 8, 69, 23, 73, -9, 13, 2, -55, -40, -7, -11, -38, -53, 27, 124, -18, 39,
    21, 101, -26, 92, 13, 20, 38, 52, -81, 75, 33, 22, -53, 26, 3, 127, 28, -14, -24, 38,
    -21, 24, 3, 3, -49, 45, 52, -48, 12, -6, 10, 10, 36, -27, 38, -39, -100, -51, -6, 74,
    55, 15, -19, 24, -54, -94, 11, 9, 36, -51, 5, -30, -46, -7, -56, -48, 67, 36, 43, -13,
    -82, 27, 45, -15, 69, -9, 67, -18, -98, -8, 7, -31, -73, -28, 44, -40, -20, 18, -15, -54,
    -11, -81, -36, -46, 45, 71, 69, 14, -7, -49, 50, -17, 64, 32, -97, 22, -29, -2, 11, 10,
    -14, -2, 77, -14, 7, 14, 25, -51, -16, -88, -12, 13, 30, -30, -5, 31, -68, 31, 30, -66,
    12, -38, 5, 7, -35, 7, -5, -7, 86, 38, 16, 14, -54, -59, -38, 26, -29, -14, 71, 21,
    -27, 11, -13, 48, -17, 17, -50, -74, -53, -62, -28, 9, 42, -20, -17, -8, 27, -13, -76, 62,
    3, -3, -5, 14, -25, 28, -12, 15, -64, -9, 102, 53, -24, -23, -76, -68, 15, -35, -21, -44,
    14, -42, 30, -55, -85, 13, 40, 88, 0, 22, -3, -71, -48, 31, 107, -69, 16, 4, -5, 3,
    -96, -35, -50, 23, 47, 15, -17, 16, 11, 30, -9, -42, 31, 95, 7, -51, 127, -97, -26, -56,
    -30, -53, 8, -30, -76, 101, -74, -34, -7, -8, -18, -18, -39, 37, 19, 88, 46, 44, 72, -33,
    20, 97, -53, 68, 24, 61, 11, -35, 26, -46, -50, -57, -70, 82, 8, 15, 61, 6, 12, 10,
    -12, -2, -90, -37, 30, -4, 10, 39, 55, -24, -14, 42, -113, 54, -85, -50, -54, -70, -76, 44,
    -49, -21, 38, -80, -16, 64, -45, 63, 13, -52, -17, 105, 21, 53, 24, 44, -55, 68, 34, -75,
    90, 0, -54, 13, 66, -41, -20, -40, -76, 35, 75, -90, 26, 5, -78, -73, -60, 58, 84, -45,
    37, 83, 58, -43, -5, 98, 14, 6, 38, -48, 16, -49, -80, -72, -97, 68, 96, -16, 9, 34,
    -46, 1, 11, -85, -64, -19, -4, 53, -60, -31, -20, -66, -127, -81, -95, -62, -26, -17, 6, -69,
    -50, 93, -54, -4, 36, -25, 61, -77, 0, -26, 25, 51, -91, 2, 31, 61, -8, 13, -34, -32,
    8, -20, -19, -76, -49, 48, 0, -42, -48, -49, -3, 32, 4, -5, -24, 36, -11, 70, -65, -12,
    9, 16, -2, -31, 66, 12, -15, -55, -51, -21, 55, 63, 53, -20, -59, -18, 32, 10, -17, -5,
    -74, -39, 1, 16, 23, -57, 63, -25, 127, -40, 22, 28, -66, -28, 9, 46, 21, 37, -83, -16,
    11, 4, -8, -54, -13, 47, 64, -60, -55, -30, -7, 44, -51, 10, 36, -69, 47, 38, 0, 3,
    39, 76, 50, -8, -6, 19, -55, 60, 10, 36, 0, -5, -48, 26, -28, 49, 17, 24, 22, 6,
    30, -6, 0, -4, -56, -14, 21, 7, 14, -76, -10, -21, 1, 13, -1, -71, 26, -27, 38, 7,
    -30, 6, 7, 8, -5, -3, 81, -58, 35, -65, -46, -56, -46, -42, -13, 51, 28, 31, 107, -14,
    19, -60, 99, -7, -9, 44, 49, -31, 35, 98, 37, -39, 13, 59, 28, 18, -4, -9, -43, -8,
    -127, 40, -62, -51, 100, -26, 16, -48, -20, -52, -31, -101, -6, 31, 27, -116, 29, 28, 18, -73,
    -21, 113, 9, -8, -63, -32, -60, 78, 42, -52, -35, 32, 4, 66, 0, -57, -21, 51, -11, 70,
    -18, -25, 14, 40, 26, 112, 10, -11, 81, 43, 9, 33, -4, -63, 38, 64, 29, -78, -26, -49,
    58, -20, -53, -17, -25, -21, 91, -96, 53, 2, -62, -5, -97, 22, 13, -96, 36, 83, 8, -93,
    57, -57, -114, 40, -10, 3, -24, 60, 59, 125, 29, -54, -34, -2, 0, -42, 6, 80, 105, -32,
    96, 78, -110, -16, -54, -14, 42, 45, -5, -52, 70, 14, 19, -27, -83, 49, -20, -28, -38, -82,
    -32, -25, 33, -48, -93, 62, 56, -65, -71, -62, -92, -48, 12, 50, -30, 113, -73, -34, 16, -70,
    -11, -16, -70, 93, -7, -78, 10, -80, -23, 61, 80, -65, 72, -50, -18, 6, 1, -46, -59, 41,
    -45, 27, -55, -10, -59, 39, 79, 23, -98, 9, -31, 1, 57, 71, 40, -11, -107, 24, -58, 29,
    64, 27, 48, 18, 42, -35, -66, 103, 68, 80, 48, -80, -52, -63, 91, -37, -5, 4, -25, -19,
    -2, 118, -122, -12, -85, 59, -3, -19, -67, -84, 50, -36, 37, -20, 29, -31, 127, -11, -61, 4,
    34, -56, 58, -127, 66, -71, 11, 61, -30, 9, 82, 13, 25, -81, 36, -51, -4, 0, 15, -79,
    19, -63, 20, 89, -28, -57, 42, -79, -122, 84, -30, -9, -4, 83, -17, -53, -21, 38, -33, 36,
    -31, -16, 47, 43, 24, 49, 52, -17, -26, 48, -89, -32, -5, 61, -47, 89, 1, 25, -15, 38,
    -52, 13, 77, 16, 96, 37, 118, 13, 20, -72, -83, -29, -73, 100, -3, -113, -29, -127, 56, -79,
    -11, 30, -24, -55, -20, 88, -63, 38, 47, 73, -75, -77, 69, -78, 31, -104, -3, 56, 15, -56,
    -26, 108, -112, -84, 38, -59, 15, 85, 30, 49, 4, 88, -45, 92, 74, -3, 30, -85, 21, 98,
    34, -25, 20, 44, 8, -80, -50, -26, 32, 91, 87, -53, 9, -101, 21, -70, -63, -25, -12, 15,
    -3, -70, 68, -2, 45, -34, 68, 38, 21, 20, 38, -70, 98, 36, 26, -18, -24, 39, -11, 11,
    61, 22, 22, -43, -65, 87, 10, 23, 16, -22, 8, -41, -30, 36, 49, -43, 22, 29, 78, 56,
    -54, 23, -4, -61, 47, 3, -3, -14, 58, -24, 27, 97, 22, -24, 45, 18, 83, 126, -25, -29,
    -63, 36, 75, -93, -29, 86, -73, 38, -70, 62, -19, 10, 31, -42, -54, 51, -6, -63, -33, -17,
    -13, -74, -45, -58, -2, -126, -33, -79, -49, 86, 44, 23, -42, -18, 7, -42, -127, -44, -70, 85,
    27, 53, 48, 1, 13, 49, 33, -29, -16, -80, 26, -16, -87, 34, 42, 5, 44, 67, -33, -62,
    55, 41, 74, 51, -2, -56, -5, 68, -39, 59, 49, -89, 18, 25, 27, -69, -82, 3, -66, 20,
    -55, -54, -56, 83, -45, 44, 46, 60, 115, 86, -37, 38, 66, 83, -24, 15, 12, -59, 94, 36,
    -85, 101, 76, 0, 29, 85, -1, -36, 37, 63, 58, -24, 29, 5, -28, 32, -59, -42, 9, -4,
    42, 5, 49, -66, 55, 27, -28, 63, -73, 1, 91, -69, 13, -4, -60, -34, -41, 49, -21, -6,
    75, -47, 22, 36, -27, 19, 43, 51, 76, 11, 88, -40, 44, 40, -21, -96, -62, 34, -24, -48,
    -18, 10, -29, 55, 11, -8, 21, 10, 35, 25, 88, -32, -62, -31, 41, 56, 4, 35, -15, 87,
    127, 27, -63, 5, 8, 83, 40, -43, 47, -36, 56, 25, -46, -15, 8, 19, -15, 75, 33, 43,
    -127, 35, 32, 1, -17, -11, -69, 5, -22, 10, -43, -13, 23, 22, -43, 4, -64, 23, -28, 17,
    4, 44, 14, 20, 27, 1, 21, -3, -21, -43, -6, 1, 36, 39, -50, -53, 6, 42, -39, -5,
    1, 53, 14, 29, -34, 77, -77, -90, 67, -9, -51, -30, -86, -35, 8, 66, -6, -47, 43, -10,
    -44, -49, 6, -13, -39, -34, 2, 63, 17, -27, 27, -64, 14, 8, -4, 34, -36, 35, 54, -34,
    45, -54, 42, 20, 36, 28, -67, -38, 7, 1, 6, -22, 53, 8, -3, -39, -6, 59, -30, 28,
    16, -47, 56, -9, -8, 37, -36, 68, -31, 16, -47, 1, 60, -1, 28, 42, -72, 6, 49, -82,
    0, -42, 7, -99, -72, -21, 9, 17, 72, -37, 3, 95, 41, -3, 80, -57, 28, 33, -25, 29,
    66, -7, 49, 114, 17, -76, 25, -24, -44, 4, -12, -23, -2, 16, -48, -52, 67, -14, 27, -54,
    37, 75, 12, 65, -43, -57, -14, 65, -28, -5, 6, -8, 95, 80, 115, 113, 66, 110, 31, 5,
    25, 82, -83, 21, 16, -21, 10, 8, -127, 51, -53, 36, -90, 33, -98, 113, 6, -23, -4, 68,
    -111, -49, -34, -84, -41, 12, -76, 18, -41, -63, 36, -45, 16, -51, 22, 6, 53, 40, -39, 20,
    54, -21, -99, 29, 43, 33, 42, -14, 1, 70, -52, 13, 61, -61, -39, -117, 56, 55, 36, 119,
    42, -85, -20, -6, 32, 69, 38, 15, 105, -39, 52, -17, -6, 20, 8, -104, 3, -39, 36, 64,
    40, 21, -21, 44, 23, 24, 19, -22, 24, -6, 14, -94, 25, -14, -31, -7, -95, -22, -70, -14,
    -12, -9, -13, -7, 0, 26, 10, -36, 62, 80, 58, 58, -30, 30, -83, 33, -17, -68, 10, 47,
    10, 14, 23, -33, -39, -3, -73, 12, -33, 111, 49, 24, -4, -52, 68, -27, 15, 13, 26, -8,
    -24, -49, 2, -5, 121, -6, -48, 127, -66, 30, 51, -11, -16, -86, 11, -2, -17, 1, 22, -49,
    18, -54, 34, -31, 12, 56, 3, 17, -59, 38, -56, 8, 39, -41, -6, -44, -41, 88, 39, -72,
    -11, -16, 22, 11, 25, -80, 45, -57, 41, -48, -25, -68, 8, -73, -62, 22, 46, -40, 28, 42,
    77, 44, -48, 31, -12, 9, 37, -30, -21, 47, -26, -26, -57, 2, 27, 53, -24, 2, 22, 40,
    -3, 14, 1, 36, 75, 39, -49, 75, 15, -44, -21, -49, -13, 49, 14, -34, 16, 41, -39, 46,
    -25, -44, -26, -7, 29, -73, 41, -14, 127, 0, 86, 30, 19, 27, -21, 2, -6, -15, 21, 13,
    -42, -32, 55, 2, 9, 58, -39, 6, -26, -62, -89, 11, 3, 19, -78, -15, 11, 46, -78, -1,
    43, 51, 34, -60, 76, -37, -16, -49, -58, -41, -34, 73, 5, -32, 29, 15, 47, 7, 37, 12,
    -11, 104, 66, 14, 37, -28, -6, 1, 27, 31, 21, 50, 40, 57, -7, -44, -35, -73, 102, -24,
    -87, 43, -44, -22, -30, -62, -17, -20, -8, -8, -44, 62, 15, 13, 70, 0, 42, 34, 106, 110,
    -62, 48, -21, 88, 61, 100, -27, -36, -36, -28, -40, 81, 51, -79, -114, -127, 70, 76, -23, -20,
    -73, -4, -6, 27, -45, -33, 39, 34, 61, -15, 43, -5, -16, -9, 5, 56, 8, -38, 65, -8,
    -20, -110, 24, -46, -49, -25, -103, -93, -75, -11, 6, 42, -60, 2, -49, -34, -35, 53, 20, 8,
    71, -26, -17, 53, -53, -10, 88, 21, 90, 23, 78, 6, -27, 17, -19, -100, -26, 47, -40, 50,
    -47, 51, -28, 35, -20, 3, -44, 97, 28, 13, 11, -37, -22, -14, -79, 10, 0, -4, -102, -38,
    104, 44, -43, -14
};

alignas(16) static NS_PUT_IN_TCM int32_t conv_5_bias[] = {
    911, 3725, -300, -5984, -4345, -970, -6426, 4352, -3996, -5736, -8004, 2609, -6582, 4834, 6197, -5431, -9556, -9375, -6295, 3959,
    6805, 2239, -1222, 4533, 4080, 1285, -98, 5871, 1376, -2698, 6096, -12979, -4434, 409, -203, -9544, -15620, 6609, -1358, 56,
    -5422, -228, 1079, -1213, 2398, 3606, -7835, -2791, -11950, 4106, -3266, -2853, -1828, -3110, -158, -11709, -2366, -3763, -5491, -1612,
    5089, -1086, -2234, 62, 157, 5999, 7940, -1663, -1432, 7677, 6846, 4611, 2759, -356, 8323, 4953, 9336, -9518, -7296, 2144,
    5152, -2550, 2227, 1467, -8015, -1712, -5619, 6174, -7482, -803, 1845, 2609, -22109, -2554, -1563, -7450, 5936, -192, -5917, -7019,
    -2294, 7778, -675, 1897, -3127, -1821, -4159, -4865, -6251, -1078, -14999, -11082, 5970, -892, -1728, -5405, -12106, -5494, -4537, 5564,
    -1972, -1045, -2289, -4802, 6206, -6561, -3704, 3492
};

alignas(16) static NS_PUT_IN_TCM int8_t conv_5_scratch_buffer[SCRATCH_BUFFER_SIZE];
alignas(16) static NS_PUT_IN_TCM int8_t conv_5_weight_sum_buffer[WEIGHT_SUM_BUFFER_SIZE];

static cmsis_nn_context conv_5_ctx = {
    .buf = conv_5_scratch_buffer,
    .size = sizeof(conv_5_scratch_buffer),
};

static cmsis_nn_context conv_5_weight_sum_ctx = {
    .buf = conv_5_weight_sum_buffer,
    .size = sizeof(conv_5_weight_sum_buffer),
};

const cmsis_nn_per_channel_quant_params conv_5_quant_params = {
    .multiplier = (int32_t*)conv_5_multiplier,
    .shift = (int32_t*)conv_5_shift,
};

const cmsis_nn_conv_params conv_5_conv_params = {
    .input_offset = -conv_5_input_zero_point,
    .output_offset = conv_5_output_zero_point,
    .stride.w = 1,
    .stride.h = 1,
    .padding.w = 0,
    .padding.h = 0,
    .dilation.w = 1,
    .dilation.h = 1,
    .activation.min = -128,
    .activation.max = 127,
};

int32_t
str_ww_ref_model_conv_5_init(void) {

    return arm_convolve_weight_sum(
        (int32_t *)conv_5_weight_sum_buffer,
        conv_5_weights,
        &conv_5_input_dims,
        &conv_5_filter_dims,
        &conv_5_output_dims,
        conv_5_conv_params.input_offset,
        conv_5_bias
    );

}

int32_t
str_ww_ref_model_conv_5_run(
    const int8_t* __restrict input,
    int8_t* __restrict output
) {

    return arm_convolve_wrapper_s8(
        &conv_5_ctx,
        &conv_5_weight_sum_ctx,
        &conv_5_conv_params,
        &conv_5_quant_params,
        &conv_5_input_dims,
        input,
        &conv_5_filter_dims,
        conv_5_weights,
        &conv_5_bias_dims,
        conv_5_bias,
        &conv_5_output_dims,
        output
    );

}