/******************************************************************************
 * @file        str_ww_ref_model_conv_1.c
 * @brief       Autogenerated AOT CONV_2D kernel
 * @details     This file was generated by HeliosAOT v0.2.2 on 2025-08-05.
 *   This kernel represents node #1 in the corresponding graph.
 *
 * @date        2025-08-05
 *
 * @copyright
 *   © 2025 Ambiq. All rights reserved.
 *
 *   This generated C module is licensed for use **only** on Ambiq hardware
 *   incorporating Ambiq’s sub-threshold power optimized technology.
 *   Any other use is strictly prohibited.
 *
 *   See “LICENSE.txt” at the root of this distribution for full terms.
 *
 * @note        Do not edit this file—any changes will be overwritten.
 ******************************************************************************/
#include <stdalign.h>
#include "ns_ambiqsuite_harness.h"
#include "arm_nnfunctions.h"
#include "arm_nnsupportfunctions.h"
#include "str_ww_ref_model_conv_1.h"

#if defined(ARM_MATH_MVEI)
#define SCRATCH_BUFFER_SIZE 0
#define WEIGHT_SUM_BUFFER_SIZE 512
#elif defined(ARM_MATH_DSP)
#define SCRATCH_BUFFER_SIZE 160
#define WEIGHT_SUM_BUFFER_SIZE 0
#else
#define SCRATCH_BUFFER_SIZE 0
#define WEIGHT_SUM_BUFFER_SIZE 0
#endif

// Input dimensions: input shape is [1, H_IN, W_IN, C_IN]
static const cmsis_nn_dims conv_1_input_dims = { .n = 1, .h = 1, .w = 28, .c = 40 };

// Filter dimensions: weights shape is [C_OUT, H_FILT, W_FILT, C_IN].
static const cmsis_nn_dims conv_1_filter_dims = { .n =  128, .h = 1, .w = 1, .c = 40 };

// Bias dimensions: bias shape is [1, 1, 1, C_OUT].
static const cmsis_nn_dims conv_1_bias_dims = { .n = 1, .h = 1, .w = 1, .c = 128 };

// Output dimensions: output shape is [1, H_OUT, W_OUT, C_OUT].
static const cmsis_nn_dims conv_1_output_dims = { .n = 1, .h = 1, .w = 28, .c = 128 };

// Quantization parameters (per-channel quantization)
static const int32_t conv_1_multiplier[128] = {
    1967826944, 1237313536, 1290934400, 1327364224, 1199409920, 1484834816, 1985502208, 1833373056, 1207834624, 1095191424, 1428228352, 1482020864, 1939764352, 1490823040, 1645316096, 1743376256, 1166593792, 1099550848, 1413677824, 1351442688,
    1753549440, 1507645312, 1179281152, 2146430336, 2131011328, 1750459392, 2139125760, 1880892288, 1340854912, 1278602752, 1184975872, 1561752704, 1900747008, 1103818368, 1333572096, 1478110848, 1269736704, 1399904384, 1115011584, 1259959808,
    1200969984, 1250488576, 1073798656, 1714449152, 1282628224, 1994825856, 1077557632, 1163431808, 1833830144, 1300211968, 1226861184, 1313675648, 1460437632, 1899174912, 1824951168, 1595107840, 1200560384, 1274916864, 2089965440, 1573500672,
    1468758784, 2022239872, 1892778240, 1924601344, 1944908928, 2130634368, 1340499840, 1880157952, 1353278464, 1143916160, 1406537216, 1159017216, 2029692288, 1969530368, 1714473344, 1091582976, 1983676672, 1206641664, 1409146752, 1810443648,
    1173169024, 2086743936, 1341212544, 1569272064, 1689016832, 2100193536, 1172675840, 1218114048, 2015808768, 2054753792, 2055183616, 2110663168, 1380098176, 1768213120, 1248780032, 1895687936, 1082243584, 1439325184, 1471781376, 1892581504,
    1241196800, 1083862144, 1592331136, 1261793920, 2031840384, 2097768704, 2058922752, 1333010176, 1117835264, 1140596096, 1082394624, 1968809856, 1387932672, 1147851520, 1154785920, 1852487040, 1804063872, 1127655168, 1503745664, 1722188928,
    2058043392, 1504163456, 2107450112, 1267446784, 1243669632, 1219303040, 1431254272, 1987307520
};
static const int32_t conv_1_shift[128] = {
    -7, -6, -6, -6, -6, -7, -7, -7, -6, -6, -6, -6, -7, -6, -7, -6, -6, -6, -7, -6,
    -7, -6, -6, -7, -7, -6, -7, -7, -7, -7, -6, -7, -7, -6, -6, -6, -6, -6, -6, -6,
    -6, -6, -6, -7, -6, -7, -6, -6, -7, -6, -6, -6, -6, -7, -7, -7, -6, -6, -8, -7,
    -6, -7, -7, -7, -7, -7, -6, -7, -6, -6, -6, -6, -7, -7, -7, -6, -7, -6, -6, -7,
    -6, -7, -6, -7, -7, -7, -7, -6, -7, -7, -7, -7, -6, -7, -6, -7, -6, -7, -6, -7,
    -6, -6, -7, -6, -7, -7, -7, -6, -6, -6, -6, -7, -6, -6, -6, -7, -7, -6, -7, -7,
    -7, -6, -7, -6, -6, -6, -6, -7
};

// Offsets and activation parameters.
static const int32_t conv_1_input_zero_point = -3;
static const int32_t conv_1_output_zero_point = -128;

// Weight and bias data.
alignas(16) static NS_PUT_IN_TCM int8_t conv_1_weights[] = {
    126, 118, 111, 16, 24, -6, -77, -41, -58, 44, 19, -27, -61, -7, 1, 33, 58, 67, 5, -15,
    -107, -69, 44, -111, -55, 90, -71, 62, 16, -66, -127, 42, 0, 51, -51, 2, 52, -87, -39, 122,
    127, 51, 82, 59, -87, 45, 18, -33, -70, -95, -58, 3, 64, -44, -40, 40, -15, -25, -70, 10,
    39, 24, -54, -8, 45, -35, -41, -62, 7, 48, -10, 42, 98, 81, -59, 14, -5, -44, 20, 13,
    38, 0, 41, 36, -45, 25, -24, 19, 50, 18, 95, 48, -60, -127, 31, -19, -1, 59, -7, -83,
    54, -121, 10, 41, 86, -29, -9, 57, 8, 40, 65, -73, -13, 19, -57, 11, 48, 6, -28, -55,
    54, -2, 14, 68, -47, 72, -30, -30, 16, 32, -7, -18, 12, -7, -61, -67, 28, -10, 32, 8,
    -95, 12, -54, -77, 18, -8, -59, 39, 25, -52, -9, -37, -67, -85, 51, -21, -127, 43, -91, -78,
    -31, 21, -8, -92, 57, -26, -94, -38, 64, 47, 49, -21, -35, -50, 46, -36, -22, -44, -48, -1,
    83, -75, 13, -56, 47, -48, -127, 38, -28, 44, 8, -40, 32, -73, 55, 75, -31, 22, 0, -26,
    -35, -46, 120, 66, -127, 10, 41, 34, -66, -46, -122, 17, 16, 100, 104, 72, -19, -28, -7, 8,
    -26, -69, 98, -56, 42, 127, -10, -58, 77, -40, 5, -124, 25, -39, -11, 49, 35, -51, -33, 21,
    -49, 11, -41, -68, 69, -19, -51, -51, -32, 42, -32, -12, 56, 47, 13, 3, -16, -98, -22, 0,
    -68, 17, 39, -55, -75, 0, 21, 8, 26, 3, 118, -101, 60, 39, 68, -14, 127, -93, 29, -26,
    60, -15, -35, 27, 116, -37, 32, -81, 71, -4, -51, 22, 52, 53, -127, 30, -79, -17, 58, -44,
    4, -9, -103, -44, -7, 25, 31, -43, -17, -60, 5, 49, -4, -7, 14, 33, -60, -60, 100, 53,
    -16, -52, 8, 70, -19, 27, 31, -55, 18, -33, -85, 52, -65, -5, 17, 10, -108, 127, -77, -53,
    -38, -32, -54, 81, 77, 11, 85, -38, 35, -19, -50, 21, 28, -39, -66, -19, -55, 60, -39, -15,
    33, -67, 60, 80, -127, -45, -79, -44, 28, 4, -56, 23, -62, -124, -76, 15, -51, -11, -24, -45,
    -14, -3, 45, 5, 32, -10, -12, -27, 7, 38, 14, -27, -18, 20, 45, 12, -45, 69, 76, 14,
    67, 7, 127, 27, -43, 14, -28, -17, 81, 22, 22, 8, -26, -10, -14, 3, -38, 5, 25, 26,
    -63, -13, 12, 0, 13, -32, -27, 28, -42, -21, 10, -18, 48, 51, -12, -11, 39, -1, 4, 31,
    -8, -30, -81, -31, 63, -11, -24, 7, 127, 29, -10, -13, 2, -101, -22, 34, 28, -42, 29, 25,
    -8, 23, 67, -12, -2, 50, -51, 6, 53, 54, -22, -9, -26, 14, -54, -87, 4, 32, -13, -46,
    -14, 7, -62, 27, -44, 59, 4, 16, 60, 87, -40, -6, -127, -33, 1, 17, -19, 72, 24, -111,
    70, -111, 8, 119, 39, -25, 6, -20, -65, -51, -93, -63, 96, -58, 55, -85, -47, 82, -8, -70,
    -3, 30, 46, -33, 25, -3, -21, -1, 27, -7, 66, 1, 38, -19, 24, -47, 49, 38, 12, -2,
    -31, -7, 3, -32, 16, -7, -35, -13, 57, 12, -49, -48, -47, -127, -5, 33, -63, 10, 53, -17,
    65, 61, -38, 74, 14, 32, -27, -3, 62, -55, -20, -63, -79, -15, 13, 102, 33, -123, 39, 115,
    -37, -9, -54, -96, -109, 127, 34, -15, 97, -101, -111, 13, -109, -29, 2, -73, -94, -91, -33, 43,
    -41, 7, 59, 26, 2, 53, -35, -21, 28, -17, 31, -4, 27, -14, -69, 3, -39, -18, 43, -39,
    -34, 16, -8, 26, -11, 16, 8, 46, -13, -75, 41, -32, 29, -9, 50, -48, -3, 20, -127, -26,
    21, -12, 12, -2, -41, -64, 78, 126, -1, -39, -14, 0, 23, 89, -33, -45, 25, 21, 42, -1,
    8, 31, -16, 4, -25, -100, -37, -41, -3, 83, -65, 101, 42, -12, 127, -10, -111, 56, -32, -55,
    17, -60, -15, -40, 73, -4, -127, -26, -53, -81, -21, 57, 0, -27, 5, 74, 10, -4, 112, 75,
    15, 33, -32, -22, 118, -14, 21, -4, 35, 73, -37, -8, 114, -40, -19, 3, 9, -24, 70, -33,
    -88, -17, 53, 86, -69, -31, -19, -49, 125, -45, -54, -54, -57, -127, 83, -5, 106, -4, -55, 74,
    -66, 69, -28, -42, -111, 60, -54, -8, 7, 21, -46, -62, 60, -23, 68, -6, 24, 51, -47, 44,
    37, 26, -29, 85, -1, 68, 23, 8, -49, -20, -8, -39, 41, 99, -67, -127, 32, -36, -25, 10,
    54, 18, -11, -20, -56, 7, -20, -71, -60, -79, -38, 25, -39, -60, 66, 29, -2, -47, 70, 23,
    -65, -55, 13, 54, 63, 74, 46, 26, -62, 13, -10, 20, 78, 127, -121, -55, -57, 74, -22, 24,
    -44, 91, -47, -41, -38, -21, 6, -34, -80, 31, 5, 71, 15, 55, 10, -74, 91, 24, 1, 94,
    -19, -67, -23, -33, -30, -29, 17, -49, 49, -24, -53, 15, -49, -127, 23, 41, 47, 29, -65, -28,
    82, -22, -46, 30, -25, 27, -36, 52, -5, 14, 7, -25, 30, 6, -15, 22, -6, -48, 19, -19,
    -48, -28, 68, 69, -7, -17, -54, 56, 89, 37, -51, -67, -31, -9, -127, 62, -28, -82, 45, -64,
    -59, 18, 32, 10, -5, 2, -14, -81, -5, 11, 3, -49, -54, -82, -34, 27, -88, -20, 62, -1,
    -4, -26, 10, 44, -41, -120, -115, -84, -45, -91, -40, -49, -40, 1, 3, 21, -32, -23, 37, -54,
    30, 52, -4, 74, 127, -51, -42, 13, 6, -18, -13, -25, 15, 18, -19, -102, -19, -18, 24, 87,
    50, 48, 35, 61, 81, -64, 116, 8, -67, -44, -17, 46, 40, -55, 19, 80, -125, 76, -56, -56,
    55, 12, -26, -42, -52, 34, -33, 62, -69, -127, -86, -51, 66, -27, 28, -59, 34, 72, -60, 32,
    13, -19, -2, -6, 14, 1, -8, -19, 1, 18, -28, -19, -17, -17, -20, 20, 65, -38, -3, -22,
    47, -6, 38, 52, -16, 43, 21, -20, -26, -47, 127, -84, -21, 64, -82, 25, 71, 43, 10, -35,
    49, 11, -88, 49, -41, -66, -1, -9, 10, -47, 24, -64, -44, -53, 42, -70, 8, -23, 13, 50,
    -110, 127, 60, 40, 25, -82, 59, -31, 71, 55, 15, 63, -32, -66, -25, 26, -19, 42, 10, 12,
    -107, 31, 61, -29, -33, -22, 28, -35, 72, -41, -26, -26, -3, -1, 127, -48, -58, 35, -19, -25,
    50, 80, -17, -34, 23, 5, -75, -100, -17, -19, 8, 83, -27, 46, -10, 82, 25, 65, -19, 121,
    -54, 97, -49, 18, 116, 126, 93, 81, -10, -56, 78, -1, 14, -16, 16, 4, -32, 54, -121, 65,
    -122, 61, -2, 2, 48, 1, 10, -16, 16, -46, -40, 64, -21, -22, -127, -117, 99, -37, -51, -57,
    12, -73, -31, -36, -46, 65, -12, 68, -18, 32, 11, -9, -94, -104, 52, 36, 127, -34, 87, 58,
    -38, 86, 30, 68, 71, -74, 88, 41, -76, 74, -55, 85, 40, 3, 40, -10, 25, -73, 34, -55,
    -13, -18, -29, -15, 5, -63, -49, -127, -40, -16, -40, 23, -31, -109, 26, 13, -11, -110, 35, -36,
    7, 20, -30, 8, 6, -28, 54, 49, 10, 42, -16, 51, 57, -13, -7, 59, -3, 2, 4, -30,
    127, -37, 105, -44, 31, -58, 109, 91, -4, -56, -87, 81, 43, -15, -126, 11, 24, 40, -89, -33,
    55, 25, -79, -19, 54, 5, 19, 84, 30, 12, -68, 98, -15, 57, -91, 99, 57, 41, -55, 87,
    -113, 58, 91, 10, -103, 79, -74, -39, -15, 51, 21, 127, 34, 24, 22, -87, -81, -4, -48, 21,
    -9, 49, -9, -11, 2, 69, 65, -6, -65, -7, 84, 41, 124, -6, 28, -38, -45, 34, 83, -65,
    8, -3, -94, -23, -29, 11, -26, 127, -67, -43, 48, 12, 30, 72, -83, 16, -18, 48, 80, -101,
    71, -38, 80, 99, 54, 24, 4, -38, -8, 19, -2, 9, 20, 43, -40, 4, -3, -50, -91, -16,
    74, 68, 18, -108, 43, 23, -29, -51, 127, 46, 26, -67, 56, -69, 1, -38, -26, 4, -8, -32,
    -24, 15, -47, 25, -37, -31, 13, -46, 51, -19, -43, 31, -49, -8, 46, -40, 37, 39, 40, 39,
    59, -1, -18, -7, -46, -20, 0, 22, 42, -29, -22, -35, 38, 24, -127, 67, -82, -35, 102, -41,
    -39, 30, -24, -18, 29, 41, 38, 66, -14, 40, 9, 14, 12, 12, 61, 25, 34, 11, 11, -26,
    1, 0, -81, 51, 17, -39, 99, -30, -119, -81, 21, 31, -8, 91, -16, -105, 10, -26, -38, 75,
    9, 78, 127, -16, 58, -15, -18, -37, 11, 29, -3, 24, -32, -15, -54, -27, 67, 39, -56, 37,
    12, -43, 37, 25, -46, -9, 11, -37, -50, -2, 83, -63, 61, -6, 36, -36, 127, 9, 14, -60,
    -26, -52, 15, 38, -3, -117, 56, 41, 36, 29, 22, -59, -15, 24, 40, -21, -21, -16, -120, -35,
    -21, 7, 50, 0, 49, -64, -38, 18, -42, 85, -58, 24, 28, -50, -4, -24, -39, 5, -35, -116,
    87, 41, -127, 62, -24, 40, -77, 114, -26, 45, -22, 44, 34, -31, -17, 48, -50, -8, 4, 92,
    7, 24, 12, 28, -24, -42, 39, -3, -49, -52, -20, -29, -12, 2, -55, 23, 56, -25, -14, -17,
    59, 28, 18, -11, 73, 11, 94, 53, -64, 114, 127, -73, -55, 65, 4, -30, 30, 56, -87, -69,
    5, 21, 78, 58, 25, -62, -9, -25, 118, -24, 76, -34, -47, -55, 23, -34, -35, -77, 5, -127,
    101, -124, -99, 72, -24, -57, -76, 66, -21, -45, 46, -24, -12, -3, -74, 63, 21, 67, 47, 38,
    24, -21, 68, 30, -15, -85, -64, -25, -29, -125, -99, 1, 125, -4, -68, -4, -55, -127, 94, 53,
    -47, 53, 65, 18, 71, -36, 70, 14, 19, 66, -26, -13, 59, 2, -5, 19, 3, -31, -42, -19,
    31, -82, -20, -105, -1, -7, -19, -23, -41, 76, 127, 3, 64, -59, 17, 33, 73, -24, -14, 24,
    -21, -65, -64, -35, -28, -90, 1, 1, -7, -43, 91, 67, -27, 3, -109, -49, -9, -16, 27, 39,
    23, 12, -127, -56, -30, -36, -41, -80, 92, 33, -80, 32, -39, -66, -5, 48, -9, -70, -7, 87,
    -120, 39, -13, -61, -9, 60, -66, 76, -18, 5, 62, -114, 66, 21, -1, -97, 31, 57, 32, -21,
    17, 31, 35, -57, -26, 7, 30, 8, 7, 8, -55, 127, 4, 19, 49, 50, -56, -20, 62, -6,
    -37, 10, 10, -15, 15, 12, 6, -70, 57, -1, -71, 14, -73, -18, 1, -46, 1, -4, 80, 62,
    -97, -31, -26, -26, 13, -110, 52, -81, -113, -10, 36, 127, 6, -69, 0, -28, -29, 14, 103, 78,
    -49, 88, -54, 12, 96, -56, 62, -62, 102, 110, 3, 99, -8, 67, -21, 23, 16, 18, 35, 3,
    -20, 39, 54, -35, 8, -78, 99, -83, -42, 120, -53, 107, 53, 127, 95, -54, -6, -16, 38, 77,
    26, -34, -83, 46, 11, 23, 6, 6, 54, -32, -30, 18, -20, 54, 59, 12, 81, 48, -81, 39,
    -13, -40, 7, -127, 3, -50, -85, 42, 34, -82, -28, -50, -40, 15, 21, 25, -74, 53, -96, 63,
    -1, -36, -66, 20, 37, -61, -27, 14, 1, 65, -8, 2, 68, 18, 67, -20, -7, -63, 122, -37,
    9, 58, 13, -77, 1, -73, -56, 41, -24, -42, -51, 127, -14, -46, 55, -31, 41, -35, 57, 109,
    -42, -13, 11, 63, 66, -96, 23, 14, -61, 29, -5, 2, 69, 57, -4, -53, 12, 41, 1, -18,
    11, -49, 31, -56, 5, 63, -39, -8, -42, 61, -21, 50, 94, -37, 10, 4, -53, -27, -25, 23,
    -4, -45, -32, -36, 63, -57, -93, 38, 7, 40, 70, -16, -29, -15, 45, 86, 127, -54, 15, 29,
    21, -7, 62, -26, -29, 23, 29, 13, -21, -52, 7, 83, 71, -32, 46, -9, -83, 35, 56, -61,
    37, -19, -55, 127, 60, -47, -36, 48, 25, -53, 35, 5, -3, 75, 71, 31, -46, -12, 1, 0,
    43, -25, 11, 127, -110, -99, -30, 3, -18, -25, 13, -11, -39, -68, -51, 9, -28, -18, -11, 17,
    26, -48, -3, -3, 35, 40, 5, 34, -43, 51, 56, 41, -34, 29, -22, -26, 13, 34, -66, -29,
    32, -19, -47, -109, 57, -61, -33, 40, 127, 2, -12, 4, 61, -20, -21, -28, -21, 22, -10, 0,
    -37, -59, -14, 11, 34, 33, -72, 31, 12, -16, 31, -6, 27, -15, -5, -57, 22, -42, 47, 5,
    -65, 94, 59, 9, 21, 39, 35, -9, 29, -25, -89, -66, -42, 127, -27, 42, -7, -60, 44, 32,
    -66, 74, -24, 100, -93, 28, 23, 22, -4, -103, 48, -84, 49, -92, 125, 8, -113, 49, 32, -16,
    -18, 61, -48, 88, 102, 5, -2, -116, 47, 6, 12, 7, 57, -57, 58, 17, -86, -24, 55, -60,
    55, -53, -50, -16, 17, 34, -26, 26, -118, 127, -5, 32, -10, 21, -16, 48, -67, -48, -52, -16,
    -46, 48, 59, -39, 10, 26, -31, 2, 28, -20, -54, -51, 37, -29, -21, -8, 26, 7, -52, 35,
    5, 15, 23, -35, 18, 97, 34, -39, -9, -9, -86, -1, 64, 80, -25, 17, 37, -46, 127, -111,
    -11, 15, -20, 26, -25, -10, 21, -53, 21, 52, -6, -46, -29, 10, 4, -62, 3, 24, -13, 67,
    -39, 1, -18, -26, -22, -3, -34, -19, 43, 39, -6, 95, -6, 74, -36, -1, 127, -45, -86, -11,
    15, -17, 127, -77, 8, -33, -51, -14, 53, -6, 63, -53, -15, -28, -80, -25, -65, 42, -12, 93,
    -44, -9, -40, 17, 21, 84, -9, -63, 22, -10, -43, -20, -9, -44, -60, 11, -36, 114, 63, 34,
    115, 24, -57, -30, 6, 42, -30, 67, 48, 48, -11, 13, -54, 24, -35, 48, -53, 56, -40, -29,
    52, 7, 17, 37, -21, 57, -33, -35, 58, -43, -118, 114, -50, 48, -123, 29, 94, -127, 56, -121,
    53, -27, 35, 24, -21, -34, -29, 127, 43, -3, 51, -18, -87, -39, 84, 24, 52, -79, 43, 18,
    -21, -59, 48, 13, 33, 60, -54, 51, -78, 55, -36, 54, 11, 89, -4, 1, 3, 30, 0, -12,
    105, 0, 127, 54, -26, 12, 17, 27, -31, -47, 48, -24, 59, 2, -86, -20, -41, -18, -4, 11,
    41, -33, -51, -44, 79, 13, -8, 31, -23, 4, 9, 33, -24, 4, -47, -38, 63, -42, 2, -9,
    127, 72, 81, 8, 39, 65, 85, 85, -77, 57, 68, 75, -6, 20, -54, 99, -106, 6, 53, -23,
    94, 23, 17, -10, 58, 26, -19, -50, 12, -89, -57, 16, -11, 24, 26, 1, -26, -62, 41, 99,
    100, 66, -39, 33, 20, 3, 103, -60, -52, -23, -37, 58, 23, -10, 11, 14, -23, 44, -47, -28,
    5, 38, -30, -2, -25, -9, -15, -127, 26, -20, -97, 116, -76, 11, -92, 19, 84, -78, 61, 49,
    71, -36, 127, 28, -32, -94, -96, -105, -80, -31, -2, 74, 5, -32, -22, -56, 7, -47, 67, 1,
    2, 50, 100, 64, 84, -14, -6, -81, 80, 22, -1, 32, -33, 68, -22, 43, -10, -86, -54, 38,
    1, 82, -56, -10, -12, -71, 6, 36, 106, -110, -96, -70, -33, -4, -65, 59, -29, 40, -94, 97,
    -92, -41, -43, -62, 23, 26, 18, 41, 48, 81, 95, -66, 18, 12, 26, 96, 12, -48, -127, -73,
    -32, -110, -11, -15, -37, 69, 127, -11, -59, 9, 125, 52, -12, 22, 2, 60, -14, -72, 39, -42,
    -36, 22, 62, -10, 67, 58, 12, 82, 24, -46, 58, 101, -66, 35, -55, 56, -20, -48, -115, 62,
    -28, -27, -19, -3, 2, -9, -80, -25, 6, -45, -39, 19, 23, 26, 64, -1, 34, -66, -22, 26,
    -15, 59, -1, -32, -46, -5, -59, 17, 10, -50, -18, -54, -4, -7, 69, -64, -127, 65, -25, 31,
    45, -37, -120, 54, -82, 43, 61, 122, -121, -127, 93, 24, 104, 110, -8, -97, -53, -76, 32, 124,
    0, -23, 48, -32, 22, -19, -11, 32, 6, 25, -26, 7, -66, 40, 5, 24, 43, 33, -35, 5,
    56, 6, -18, 4, 46, -25, -21, -53, -87, 8, 26, -11, 9, 36, 127, -45, -7, 60, -43, -54,
    1, 47, -37, 10, 75, 25, 30, 55, 60, 30, 64, -72, -55, -31, 54, 2, 45, -105, -45, -27,
    19, 37, 76, 38, -32, -82, -48, -10, -40, 11, -49, 26, -4, 17, 16, -23, -56, -2, 86, -99,
    85, 35, 29, 26, 61, -35, -127, 91, -64, 65, 18, -40, -15, 8, -4, 19, -40, -5, 7, 67,
    1, -57, 96, -50, 24, -67, 4, 15, 60, 70, 4, -2, -37, 45, -49, 11, -127, 76, 27, 39,
    -59, -27, -4, -58, -13, 21, -74, -10, 16, 35, 40, 55, 23, 50, 20, -20, -31, 31, 45, -53,
    18, -57, 60, 13, -103, -32, 64, -15, -44, -124, 36, 23, -49, 98, -18, -56, -83, 14, -31, 40,
    -16, 58, -85, 64, 76, -62, -7, -105, 7, 6, 33, -12, 30, 127, -89, 3, -61, -14, -21, -3,
    127, -71, -54, 24, -25, 5, 1, 0, 85, 9, 19, -5, -76, -3, 27, 47, 8, -8, 48, -2,
    105, -17, 34, -40, -16, 10, -8, -5, -99, -57, -98, -41, -32, 0, -12, 18, 43, 6, 76, -69,
    93, 92, -57, -22, 17, -25, -21, 51, -21, 32, -46, 88, 30, -73, 20, -43, -38, 9, 65, -127,
    88, -70, 14, 44, 8, 29, -111, 112, -108, -67, -61, -15, 41, -6, -7, -8, -74, 8, 41, 34,
    16, -101, 126, 57, -9, -2, -47, 19, -127, -112, 7, -24, -87, -18, 70, 22, 22, 84, -66, -38,
    64, 37, 81, -61, 54, -15, 1, -14, -11, 63, -45, 28, -111, -75, -37, 75, 21, 35, -53, 74,
    72, -42, -28, -30, -1, -3, -39, 25, 39, -41, -67, -1, 77, -12, -122, 53, 7, -63, -15, 13,
    -38, -28, 24, -11, 69, 4, -3, -31, 25, 78, -14, 127, -19, 24, -41, 12, -3, 84, 12, -47,
    -15, -14, -51, -10, 44, -33, 29, 22, 34, 118, -1, -107, -77, -46, 18, -16, 20, -47, -18, 91,
    -1, -82, 11, 29, -51, 127, -15, -57, -43, 28, 68, 32, -42, -14, -26, -37, -21, 14, -55, -103,
    95, 11, -21, -18, -58, 29, -39, 16, 84, 64, -15, -97, 5, -30, -23, 52, 25, 120, 39, -87,
    -9, -25, -57, -14, -4, 22, -9, 51, -35, -127, 51, -50, 36, 64, 106, 14, -24, 6, -73, -5,
    -42, -4, -16, -76, -41, -65, -40, 14, 13, -59, -26, -35, 55, 8, -65, -10, 61, 13, 26, -22,
    -17, -21, -16, 45, -42, -19, -12, -51, -1, -10, -57, -10, 75, 86, -13, -93, -127, 51, -5, -89,
    -28, -88, -63, 43, -79, -33, 79, 116, 35, -53, -35, 97, 65, 40, 116, -109, 111, 76, 30, 32,
    -33, -29, 127, -24, 1, -19, 73, -7, -42, 32, -3, 86, -29, 76, 28, 20, 40, 58, -35, 27,
    127, 35, -6, -8, 62, 43, 42, 51, -12, 27, 102, 50, 6, -47, -9, 17, -33, 41, -54, -32,
    69, -76, 45, 70, -11, -27, -27, 23, 71, -60, 56, 21, 20, -19, -12, -35, -13, 63, 39, 8,
    -32, 2, -9, 46, -27, 29, -26, -5, -8, -61, -46, -37, 61, 45, 8, -11, 127, -91, -55, 43,
    -20, 80, -121, -84, -63, -15, -26, 31, 5, -63, 118, -120, 42, 43, -54, 17, 21, 8, -45, -48,
    25, -107, -26, -81, -13, -54, 6, 127, -22, -10, 14, 27, 33, -26, -56, 75, -34, -7, -26, -6,
    19, -25, 63, -5, -54, -28, -15, 26, -45, 18, 4, 39, 44, -6, -18, 31, -17, 14, 83, 20,
    95, -4, -111, -66, 84, -24, 88, -118, 84, 113, 62, 108, 23, -55, 45, 73, -30, 55, -69, -40,
    -81, -91, -38, -12, -34, 8, 18, -43, -40, 11, 10, 29, 127, 54, -44, 7, 9, -71, -12, -33,
    64, 45, -68, -58, -18, -41, 108, 93, -70, -15, 47, -127, 76, 2, 24, 21, -13, -65, -28, 29,
    -122, 126, 41, -121, -121, -116, 30, 12, 105, -13, 85, 3, -54, -116, 48, 19, -95, -85, 6, -34,
    2, -65, -22, -11, -44, 29, 18, -13, 127, 81, 89, -98, -99, -15, 64, -37, 101, -21, 29, -10,
    65, -89, -35, -26, -83, -108, 14, 74, -39, -10, -14, -31, -11, -29, 57, 49, -23, 38, -27, -82,
    -71, -75, -127, 84, -89, -51, 8, -70, 45, -54, -6, 48, 9, -27, -31, -49, -106, -26, 47, -88,
    88, -126, -108, -61, 93, -37, 25, 10, 40, 67, 30, -114, -106, -71, -41, 74, 38, -95, 14, 117,
    -56, -70, 107, 6, -34, -70, -98, -24, -54, -65, -92, -66, -41, 52, -63, 95, -32, 14, -39, -6,
    -46, -70, -45, -19, -49, -25, -21, 27, 74, -36, -60, 44, 66, -32, 69, -127, 27, 50, 80, -55,
    33, 43, -16, 21, -15, -33, -50, 33, -31, 97, -42, -38, 8, -2, 18, 20, 64, 25, 27, 63,
    -30, -6, -21, 23, 28, -52, -112, 31, -15, 51, 22, -74, 64, 76, 113, -52, -127, -20, -31, 50,
    -26, 38, -60, 25, 127, 1, 29, -61, 37, 50, -51, -17, -29, -100, -23, 3, -63, -17, -58, -21,
    -45, 13, -72, 6, 75, -33, -42, 24, -8, -98, -47, -7, 62, -1, -125, -32, 63, 9, 40, -18,
    -22, -7, 52, -127, 63, -12, -39, 17, -71, 19, -33, -76, 39, -2, -19, 64, 94, 22, 37, -126,
    -23, -31, -49, 48, -12, -97, -92, 22, 54, 20, -39, -58, -49, -5, -37, -36, 9, 53, -9, -8,
    -16, -35, 75, 72, 6, 9, 121, 12, -20, 63, 30, 22, -115, -22, 34, 46, -127, 77, -76, 36,
    36, 44, -31, 76, 39, -44, 75, -33, 59, 23, 123, 17, -24, -8, -54, 15, -32, 13, 36, -46,
    30, 63, 29, -7, 19, -51, 46, -8, 20, 27, 40, -2, -14, 22, 23, -11, 70, -13, 61, -26,
    56, -83, -32, 21, 46, -91, -127, 25, 73, 66, 0, -45, 47, -13, -50, -10, 18, -46, 12, 35,
    -23, -6, 127, -27, 6, 103, 115, 78, 8, 17, -23, 74, 88, -25, -107, -20, 40, -91, -96, 23,
    -50, 42, 65, 42, 13, -16, 60, -22, 40, 57, 18, -32, 20, -51, 18, -34, -75, 83, -6, 63,
    30, -18, -92, 12, -43, -93, -13, -127, 13, 14, -44, -79, -25, -13, -7, -50, 3, -28, -1, 23,
    -35, 16, -19, -4, -35, 60, 16, -54, -12, -14, -17, 20, -41, 37, -51, 49, -18, -75, 17, 66,
    19, -12, 15, 11, -58, -127, -11, 126, -89, -30, -43, 83, -67, -40, 32, 15, 42, 40, 21, 109,
    -9, 15, -6, -75, 55, 35, 33, -5, -49, -18, -12, 1, -9, 43, 39, 29, -28, -46, 30, 65,
    37, 49, 23, -10, -30, 9, -3, 19, 66, -127, -87, -84, 77, 30, -46, 113, -21, 14, 51, 7,
    46, -118, -43, 32, 103, 64, 19, 53, 36, -1, 74, -21, -59, 50, 16, -48, 0, 18, -111, -63,
    35, 9, 47, -80, -1, -61, 34, 16, -53, 24, 126, 121, 12, 63, 32, -2, -55, 83, 43, -116,
    -24, -18, 43, -7, 15, 92, 68, 76, 7, 24, 40, -87, -80, -106, -78, 93, -31, -34, 127, -95,
    -34, -36, 46, 17, 0, 28, -7, -29, 16, -18, -31, 38, 2, -46, 52, -11, 12, 85, -17, -22,
    20, 15, -4, 27, -1, 17, -59, -38, 70, -39, -3, -52, -30, -114, 7, -13, -127, 22, 65, 11,
    -43, -88, 70, 44, -112, -38, -28, -49, 50, -36, 39, -26, -62, -72, -46, -72, -26, -127, -16, 8,
    -3, 90, 92, 102, 53, -39, -48, -77, 121, 33, 83, 35, 60, 62, 46, 24, -16, -28, -11, -6,
    127, 44, -88, 1, 36, 2, 42, -48, -11, -48, -52, -1, 23, 30, 79, 18, 59, 103, -31, 14,
    17, -3, -25, -88, -9, 30, 40, 50, -19, 44, -42, 71, -18, -46, -7, 31, 82, 52, 94, 58,
    86, -27, -60, -12, -34, -10, 47, -5, -127, -58, 49, 73, 84, 59, -17, 49, 37, -22, 21, 17,
    55, 64, 4, -22, -12, 17, 39, 38, 95, -20, 125, -90, 34, -37, -8, -33, 40, -25, 15, -43,
    41, 31, 74, 28, -19, 13, 23, 3, -31, -13, 33, -84, -50, -48, -101, 2, 40, 76, -73, 23,
    62, -53, 42, -101, -88, 112, -9, 0, -54, 95, -84, 127, 78, 116, -8, 52, 104, -53, -53, -34,
    -54, 40, -51, -27, -40, 37, 1, 33, -21, -57, -51, -64, 32, 74, -9, 50, 53, 21, -21, 24,
    30, -47, 4, -16, 71, 18, 46, 3, 17, -1, 36, -72, 27, -3, -65, -48, 127, 24, -36, -14,
    3, -24, -127, 82, 10, 62, 20, 20, -97, -64, -66, -16, 116, -3, -8, -112, 10, 21, -83, -1,
    -61, 121, 87, 73, -95, -62, 42, -56, 68, -16, 16, -47, -105, -13, -4, -41, 16, -62, -97, 51,
    -39, -49, 67, -105, 99, -55, -52, -58, 61, 89, 46, -92, -126, 17, -37, -1, 87, -99, -33, 26,
    63, -78, -19, 55, -10, 4, 1, -27, 4, -2, -98, 42, 30, -20, 3, -41, 58, 88, 127, -1,
    73, -59, 63, 57, -24, -21, 43, 5, 25, -5, 45, 57, 66, -38, 98, -38, 127, -19, -67, -78,
    -12, -12, 68, -46, 28, -15, 13, 5, 31, -46, 10, -102, -61, -88, 17, -47, -60, -17, -72, 47,
    -23, -65, -46, -2, -18, 19, -64, 8, -23, -93, 25, -57, 62, 1, -34, 93, 102, -101, 67, 42,
    83, -2, -3, 1, 63, 15, 21, 16, -54, 2, 127, -40, -49, 76, -86, 13, -7, -70, 47, -6,
    -9, -59, -51, -54, -29, 26, 81, 34, 127, 102, 5, -20, 25, -101, 106, 8, -63, -50, -23, -92,
    78, -39, 9, 37, -43, -41, 3, 50, -44, -46, -51, -5, 92, -47, 73, -74, 2, 58, 21, -101,
    55, 43, -58, -55, -26, 80, 6, -59, -1, -34, -52, 91, -86, -15, -19, 127, 26, 76, -43, 76,
    -34, 120, 14, -23, -65, -23, 43, -31, 22, 55, -3, -52, 22, -37, 22, -28, -92, 31, 34, -10,
    77, -17, -127, 102, -1, -25, 2, -13, 20, -104, -62, -64, 73, -28, -3, -30, -70, 100, -48, -102,
    8, 104, -32, 44, 55, 38, -35, -9, -13, -53, 4, -28, 44, 9, 41, -49, -45, 42, 35, -11,
    28, 42, -58, 71, -125, -10, -69, 64, -14, -28, 31, -127, 23, -29, 5, 87, -55, 77, 98, -46,
    15, -3, 48, 25, 69, -32, -17, -32, -91, 40, 31, -33, 81, -75, -3, 16, -43, -62, -50, -36,
    -29, 81, 18, -31, 64, 13, 30, 16, 52, 56, 50, 77, -25, -21, -12, -60, -43, -26, 29, 32,
    -31, 10, 75, -78, 17, -48, -5, -8, -59, 104, 34, 46, 62, -61, -87, 127, -49, -28, -4, 33,
    11, -16, 39, -34, 28, 45, 34, 28, 66, 25, -20, 90, 23, 18, 12, -68, 23, -4, -34, 24,
    -23, -5, 73, 15, 55, -27, -79, 5, 127, -74, 24, -73, -2, -64, 29, -78, 49, 110, -5, -10,
    20, 77, 62, -48, 33, 21, 121, 13, -38, 124, 45, 24, -44, -17, -28, -71, -115, 25, -127, 66,
    -80, 26, -54, 50, 47, -54, 39, -50, -14, 8, -9, 14, 58, -32, 47, 13, 28, -55, -6, 44,
    45, -2, -82, -38, 30, -47, -13, -65, -42, 55, 37, -36, 28, -18, 99, 47, -54, 11, -69, -30,
    18, 61, 72, 28, 94, 11, 6, 22, -55, 40, 30, -8, 58, 72, 36, -32, 127, -71, -116, 83,
    97, 43, -3, -56, -48, -22, -95, 48, 14, -29, -12, 127, -17, 61, 41, 22, 16, 35, -60, -14,
    -38, 59, -36, 55, -17, -66, -70, -15, 35, -42, 89, -115, 47, -7, 60, -64, -71, 67, 60, 62,
    -49, -42, -41, -53, -48, -31, -10, 121, 22, 64, -10, 50, -3, -76, -94, 75, -33, 30, 106, -96,
    41, -39, 24, 104, 23, -88, -8, -106, -23, -28, 4, 34, -39, 12, -47, 1, 48, -49, -4, 127,
    -48, -58, -64, 89, -74, -38, -71, 78, 1, 36, -86, 51, -63, 14, -17, -76, 126, -65, 29, 89,
    -33, 6, -44, -57, -43, 127, 61, 7, -93, -20, 23, 68, -95, 5, 112, 53, 2, 86, 71, 30,
    34, 19, 14, -70, 81, -36, 43, 16, -36, -34, 117, -90, 59, 47, -49, 21, 14, -17, -55, 35,
    52, -3, -51, 45, 72, -79, 108, 58, 91, 30, 125, 105, 45, 115, 45, -75, 38, 99, -127, -21,
    27, -12, 8, -31, -11, 36, -1, 50, -48, 47, 111, -80, 53, 19, -80, 78, -114, 35, 88, 21,
    -17, 0, -15, 5, -63, -41, -127, 73, 0, -26, -17, -51, 0, 15, 15, -54, -38, 87, -34, 6,
    -14, -127, -5, -65, 19, 1, -80, -53, 42, 18, -20, -50, -1, -23, -29, 65, 87, -69, 20, 59,
    16, -21, -27, 8, -5, -3, 21, -17, 11, 16, -5, 22, -16, 0, 11, -16, 4, 9, 68, 2,
    -26, -5, 20, -37, 14, -54, 68, 0, -63, 55, -13, -98, -68, -64, -63, 2, -14, 50, -42, 96,
    -56, 127, -51, 88, 17, 13, 28, 13, 31, 30, 95, 47, -15, -99, -55, 53, -3, 10, 24, 40,
    52, -43, 127, 84, -85, 25, -14, 18, 34, 55, -23, -15, 5, -74, -80, -9, -43, 2, 3, -12,
    -73, -6, 21, 47, 38, 5, 36, -84, 25, 27, -6, 22, 6, -80, -4, 32, -45, 4, 37, -10,
    58, -19, 8, 39, -81, 29, 55, 72, 18, -19, -14, 86, 68, 0, 42, -91, 29, 6, 43, 26,
    1, -99, 127, -59, 56, 13, -43, -51, -55, -32, -61, 34, -47, -51, 15, -47, -35, 44, -7, 50,
    -3, -66, -97, 52, -4, -32, 127, 46, 25, 0, 2, -10, -25, -105, 64, 45, -42, -4, 10, -32,
    59, -21, 43, 14, -12, -57, 45, 54, -23, 34, 24, -10, -58, 12, 14, 2, 29, -10, 26, -34,
    16, 46, -70, 6, 90, 34, 34, -48, -8, 38, 47, 12, -18, -47, 37, 18, 28, -3, 20, 83,
    -16, 127, -11, 33, 54, 20, 39, -58, -16, 39, -2, -28, 43, -44, -17, 19, -20, 39, 31, 38,
    -12, -8, 43, -46, -30, -16, -47, -78, -37, -79, 8, 47, -127, 19, -87, 17, 45, 23, -4, -102,
    10, -86, 41, -90, -27, 27, -13, 27, -44, -39, -53, -8, -5, -1, 24, 8, 2, 39, 17, 19
};

alignas(16) static NS_PUT_IN_TCM int32_t conv_1_bias[] = {
    2031, 435, 535, 2766, 999, -7105, -5677, -4141, -2596, 4436, 5116, 619, -3051, 2873, -5223, -1222, -5811, -6536, -6057, -1483,
    -7342, -1811, 2415, 2989, -5197, -3000, 1247, -9308, 829, -1849, -5528, 999, 3819, -2810, -2277, -1354, -989, 1363, -4984, -6163,
    -3648, -720, 1037, 1542, -3287, -4820, 2470, -2369, -1022, 375, -2072, 3598, -83, -3520, -6980, 2862, -388, -1563, 16302, -2846,
    -1639, -790, 2485, 5728, -1801, 930, 459, -3592, -2449, -617, -2366, -3459, 5863, -4297, -11296, 5239, -12503, -367, -1241, -6547,
    2859, -2841, -417, 6586, -5788, -2281, -11828, -1382, 2266, 3439, -7175, -957, -3048, -4758, -1648, -5650, -5778, 5667, -1789, 3507,
    -4918, -865, -6108, -5229, -2621, -41, 2903, 128, -4622, 1487, -879, -309, -3334, 3862, -436, 5835, 7676, -1949, -6520, -1336,
    2041, -124, -4726, 1817, -4742, -6441, -1887, -8129
};

alignas(16) static NS_PUT_IN_TCM int8_t conv_1_scratch_buffer[SCRATCH_BUFFER_SIZE];
alignas(16) static NS_PUT_IN_TCM int8_t conv_1_weight_sum_buffer[WEIGHT_SUM_BUFFER_SIZE];

static cmsis_nn_context conv_1_ctx = {
    .buf = conv_1_scratch_buffer,
    .size = sizeof(conv_1_scratch_buffer),
};

static cmsis_nn_context conv_1_weight_sum_ctx = {
    .buf = conv_1_weight_sum_buffer,
    .size = sizeof(conv_1_weight_sum_buffer),
};

const cmsis_nn_per_channel_quant_params conv_1_quant_params = {
    .multiplier = (int32_t*)conv_1_multiplier,
    .shift = (int32_t*)conv_1_shift,
};

const cmsis_nn_conv_params conv_1_conv_params = {
    .input_offset = -conv_1_input_zero_point,
    .output_offset = conv_1_output_zero_point,
    .stride.w = 1,
    .stride.h = 1,
    .padding.w = 0,
    .padding.h = 0,
    .dilation.w = 1,
    .dilation.h = 1,
    .activation.min = -128,
    .activation.max = 127,
};

int32_t
str_ww_ref_model_conv_1_init(void) {

    return arm_convolve_weight_sum(
        (int32_t *)conv_1_weight_sum_buffer,
        conv_1_weights,
        &conv_1_input_dims,
        &conv_1_filter_dims,
        &conv_1_output_dims,
        conv_1_conv_params.input_offset,
        conv_1_bias
    );

}

int32_t
str_ww_ref_model_conv_1_run(
    const int8_t* __restrict input,
    int8_t* __restrict output
) {

    return arm_convolve_wrapper_s8(
        &conv_1_ctx,
        &conv_1_weight_sum_ctx,
        &conv_1_conv_params,
        &conv_1_quant_params,
        &conv_1_input_dims,
        input,
        &conv_1_filter_dims,
        conv_1_weights,
        &conv_1_bias_dims,
        conv_1_bias,
        &conv_1_output_dims,
        output
    );

}