/******************************************************************************
 * @file        str_ww_ref_model_conv_3.c
 * @brief       Autogenerated AOT CONV_2D kernel
 * @details     This file was generated by HeliosAOT v0.2.2 on 2025-08-05.
 *   This kernel represents node #3 in the corresponding graph.
 *
 * @date        2025-08-05
 *
 * @copyright
 *   © 2025 Ambiq. All rights reserved.
 *
 *   This generated C module is licensed for use **only** on Ambiq hardware
 *   incorporating Ambiq’s sub-threshold power optimized technology.
 *   Any other use is strictly prohibited.
 *
 *   See “LICENSE.txt” at the root of this distribution for full terms.
 *
 * @note        Do not edit this file—any changes will be overwritten.
 ******************************************************************************/
#include <stdalign.h>
#include "ns_ambiqsuite_harness.h"
#include "arm_nnfunctions.h"
#include "arm_nnsupportfunctions.h"
#include "str_ww_ref_model_conv_3.h"

#if defined(ARM_MATH_MVEI)
#define SCRATCH_BUFFER_SIZE 0
#define WEIGHT_SUM_BUFFER_SIZE 512
#elif defined(ARM_MATH_DSP)
#define SCRATCH_BUFFER_SIZE 512
#define WEIGHT_SUM_BUFFER_SIZE 0
#else
#define SCRATCH_BUFFER_SIZE 0
#define WEIGHT_SUM_BUFFER_SIZE 0
#endif

// Input dimensions: input shape is [1, H_IN, W_IN, C_IN]
static const cmsis_nn_dims conv_3_input_dims = { .n = 1, .h = 24, .w = 1, .c = 128 };

// Filter dimensions: weights shape is [C_OUT, H_FILT, W_FILT, C_IN].
static const cmsis_nn_dims conv_3_filter_dims = { .n =  128, .h = 1, .w = 1, .c = 128 };

// Bias dimensions: bias shape is [1, 1, 1, C_OUT].
static const cmsis_nn_dims conv_3_bias_dims = { .n = 1, .h = 1, .w = 1, .c = 128 };

// Output dimensions: output shape is [1, H_OUT, W_OUT, C_OUT].
static const cmsis_nn_dims conv_3_output_dims = { .n = 1, .h = 24, .w = 1, .c = 128 };

// Quantization parameters (per-channel quantization)
static const int32_t conv_3_multiplier[128] = {
    1320651392, 1344373888, 1333443328, 1395943680, 1191280000, 1135679488, 1235166336, 1380886784, 1193022720, 1280654592, 1380676096, 1617604480, 1275427584, 1204482176, 1196071808, 1276823040, 1228861184, 2092272256, 1192692608, 1327127552,
    1377289344, 1395301632, 1364032384, 1449692800, 1666642560, 1311192064, 1148288384, 1486258944, 1465061760, 1179203840, 1762456576, 1417655040, 1599584896, 1168508288, 1307373056, 1175570944, 1201322368, 1144617728, 1381344000, 1208486016,
    1269297792, 1299533440, 1107150336, 1207258880, 1270693120, 1115034368, 1449349632, 1564203520, 1103118464, 1508912896, 1180601856, 1412364032, 1548146944, 1297582336, 1564329984, 1302128128, 1600834048, 1382608384, 1541218432, 1254810240,
    1278784768, 1318680832, 1679955968, 1450196352, 1895041280, 1262566144, 1123492096, 1281394304, 1470934272, 1515710080, 1431641088, 1306114048, 1384798336, 1391843840, 1193242624, 1316868864, 1126763136, 1532711424, 2139151232, 1195674368,
    1492899328, 1181389312, 1181407104, 1327634816, 1319099904, 1812314880, 1632914688, 1373183744, 1257412736, 1087881344, 2015146880, 1229069440, 1225057408, 1160712064, 1447821568, 1429577088, 1165682048, 1658457344, 1083456768, 1146257920,
    1237659264, 1289967872, 1507401600, 1546632832, 1395338112, 1704397696, 1410335232, 1283530880, 2039609216, 1099919104, 1443758080, 1651130624, 1606528896, 1275637760, 1651925888, 1640782336, 1385827456, 1759035008, 1165276800, 1148965760,
    1183340928, 1893246976, 1656496896, 1262388864, 1672224640, 1211644032, 1148287104, 1479210240
};
static const int32_t conv_3_shift[128] = {
    -7, -7, -7, -7, -7, -7, -7, -7, -7, -7, -7, -7, -7, -7, -7, -7, -7, -8, -7, -7,
    -7, -7, -7, -7, -7, -7, -7, -7, -7, -7, -7, -7, -7, -7, -7, -7, -7, -7, -7, -7,
    -7, -7, -7, -7, -7, -7, -7, -7, -7, -7, -7, -7, -7, -7, -7, -7, -7, -7, -7, -7,
    -7, -7, -7, -7, -7, -7, -7, -7, -7, -7, -7, -7, -7, -7, -7, -7, -7, -7, -8, -7,
    -7, -7, -7, -7, -7, -7, -7, -7, -7, -7, -8, -7, -7, -7, -7, -7, -7, -7, -7, -7,
    -7, -7, -7, -7, -7, -7, -7, -7, -8, -7, -7, -7, -7, -7, -7, -7, -7, -7, -7, -7,
    -7, -7, -7, -7, -7, -7, -7, -7
};

// Offsets and activation parameters.
static const int32_t conv_3_input_zero_point = -2;
static const int32_t conv_3_output_zero_point = -128;

// Weight and bias data.
alignas(16) static NS_PUT_IN_TCM int8_t conv_3_weights[] = {
    -43, 16, -44, -16, 46, 14, -79, -53, -12, 19, 52, 46, 3, 11, 39, -1, 39, 55, 3, 14,
    -21, -17, -27, 35, -11, 40, 3, 44, -29, -32, -2, 66, 17, 76, 16, 1, -27, 42, -1, -12,
    -60, 5, -14, -84, 46, 27, 33, 14, 36, -73, 21, -116, 71, 82, 80, -21, -88, 55, -27, 40,
    42, -8, 73, 28, 67, -55, -66, 71, -3, 89, 0, 40, 27, 4, 19, 3, 7, -18, 50, -52,
    -27, 14, -21, 127, 1, 57, 11, 35, 35, -7, 30, 76, 9, -31, 11, -2, -14, 47, 25, 8,
    41, -37, 53, 29, 10, -114, -4, 60, 2, 51, -47, -2, -72, 8, 80, -22, -39, 47, -42, 18,
    113, -53, -46, 41, -44, -14, -102, 20, 75, 113, 66, 21, 50, -2, -37, -4, 18, -41, -4, -54,
    0, -30, 11, -45, 17, 67, -13, -36, 25, 43, -7, 8, 11, -104, 4, 10, -24, 32, 10, -20,
    29, -11, 33, 56, 12, -58, 127, 32, 83, 65, -8, -14, -29, -58, 11, 61, 86, -9, 22, -24,
    -28, -51, -15, 29, 28, -29, -39, -69, 9, -40, 58, -38, 8, -9, 67, -7, 72, -68, 33, 65,
    12, -73, 5, 34, 9, 17, 0, 86, 2, 52, 20, 48, -39, 51, -31, -22, -10, -28, -10, -24,
    -10, 2, 52, -30, -28, 42, 29, -21, 26, 6, -52, -54, 0, -83, -7, 6, 47, 47, 4, 26,
    43, -27, -39, 5, -34, -6, -7, 0, -55, -75, 37, -38, -89, 4, -14, -30, -20, -53, -41, 22,
    64, -74, 42, 3, -1, -40, -53, 58, 23, 27, -52, 20, 26, 5, -3, -14, -2, 19, -60, 59,
    60, 37, -7, -51, -44, -46, -75, -44, 51, 93, -102, -109, 49, 3, -14, -59, -15, -15, 37, 39,
    38, 34, 29, -36, -31, 24, 9, 18, -2, -21, 50, -24, 52, 30, 40, 16, -69, 15, 21, -15,
    -51, -51, 6, 99, 1, 21, -16, -27, 19, -54, -57, -33, -33, 50, 84, 16, 4, 100, 13, 3,
    26, 3, -5, -83, -7, -23, -64, -19, 5, 20, 32, 59, -1, 23, -31, 28, -71, -127, -40, 67,
    34, 7, -6, 66, -27, -21, 4, 21, -15, 21, 35, -13, -33, 47, -2, -21, 5, -14, 17, -48,
    62, 66, -43, -40, 27, -47, 22, 22, 57, -41, -17, -2, 21, 43, 85, 12, 15, 50, -26, 2,
    57, 17, -27, -31, 15, 48, -27, 0, 0, 46, 19, 47, -23, -19, -50, 0, -61, 60, -3, -39,
    2, -41, 19, 119, -13, -43, -15, -8, -91, 33, -84, 24, -9, -60, -5, -55, -34, 0, 1, 16,
    -39, 44, 14, 28, 33, 29, 6, -15, -5, -79, -15, 127, 14, 64, -6, 57, -60, -2, 33, 1,
    51, 0, 27, -31, 24, 77, 64, 64, 24, 37, 52, -56, 53, -51, 10, 5, 66, 4, 69, 75,
    -2, 13, -41, 6, -62, 14, 49, 15, 6, -74, -61, 72, 19, 5, 3, -22, 1, -6, 15, 26,
    17, 52, -51, 61, 34, 29, 17, 0, 5, 27, 15, 9, 14, 33, -29, -3, 31, 28, -59, -74,
    19, -10, 35, -3, 41, 20, -62, -25, -26, -34, -102, 26, -104, -13, -27, -64, -45, 13, 80, 14,
    -56, 2, -4, 1, 30, 81, 32, -49, 21, -82, 52, 43, -5, 19, -21, -103, -8, -5, 10, 28,
    18, 22, 4, -6, 127, 39, 40, -49, -16, 70, 49, 12, 2, 38, 90, -38, -50, 38, 100, 9,
    -30, -11, -59, 27, 54, 4, 10, -4, 31, 8, -29, -4, -72, 30, -33, 119, -10, -34, -26, 18,
    -34, -28, -59, 86, -97, -65, 83, -20, -19, 75, -9, -34, 54, -71, 6, 2, 41, -22, 89, 30,
    92, 86, -55, -108, -46, 9, 30, 64, 76, -13, -8, -10, 120, -6, -38, 81, 8, -30, -6, 45,
    49, -15, -13, 34, -21, -25, 27, 23, 64, -22, 7, -23, 66, -24, -33, -10, -53, 39, 117, 15,
    -71, -41, -48, -23, -35, -60, -53, 7, 50, 13, 52, -16, -90, 16, 34, 39, -11, 22, -34, -28,
    -25, 38, -31, 97, -18, 5, 123, 87, -56, -90, -78, -10, 32, 72, -22, -19, -75, -16, -67, 23,
    -56, -37, 84, -73, 48, -5, -2, -40, 11, 40, -22, -28, -127, -35, 8, 89, -99, -104, -71, 69,
    6, -77, -96, 25, 4, -23, 17, 10, -33, -74, -53, -1, -26, 16, -54, -48, -44, 17, 77, -41,
    67, -27, 30, -28, 12, 63, 35, -13, 0, -55, 55, 48, -32, 47, 4, 88, 70, -65, -15, 33,
    57, 78, -91, -25, -74, -45, 102, 14, 2, 24, -33, -69, -22, -81, 14, 68, -4, -12, 24, -26,
    -19, -19, -26, 23, 95, 7, -108, 24, 25, 48, -20, 60, -17, 36, -20, 65, -29, 12, -38, -40,
    -26, 32, -9, -23, -24, 55, -5, 25, -42, -29, -22, 20, -51, 67, -15, 17, -28, -5, 46, -74,
    -6, 53, 60, -7, -2, -4, -26, -3, -43, 5, -65, -26, -38, -42, 32, 127, -8, 48, -65, 31,
    -49, 15, -41, 16, 59, 0, 30, 0, -21, 99, 60, -30, -24, 12, -19, -36, 1, 6, -14, -16,
    58, 12, 48, 122, 20, -77, 56, -42, -70, -73, -20, 59, 47, 14, -22, 97, 21, -7, -24, -2,
    -37, -16, 16, -45, -90, 31, -64, 2, 31, -2, -36, 28, 19, 11, -1, 47, 8, -6, 25, -32,
    55, 74, 32, -52, 7, 16, -36, -69, -19, -3, -84, 26, -48, 19, -35, -5, -38, -11, -44, 2,
    -12, 6, 58, -21, -72, -16, 8, 7, 66, 22, 30, -15, 26, -33, 65, -53, -21, -4, -13, -78,
    16, -9, -43, -4, 2, -10, 25, -63, 81, 5, 27, 64, -11, -6, -15, 22, -34, 126, 86, -56,
    -2, -1, 17, -34, 10, 16, -12, -24, 34, -26, -26, 0, -66, 50, 47, 11, -94, 26, 20, 73,
    -30, -34, 25, 39, -91, -44, -40, -6, -56, -17, 118, 1, -29, 12, 20, -46, -9, -14, 9, 24,
    -68, -34, 127, 77, 54, 28, -11, 1, -61, 13, 16, 45, 58, -36, 63, -31, 37, 12, -26, -14,
    30, -53, -11, 17, -77, -20, 85, 27, 26, -19, -82, 41, 78, 59, -1, 1, -42, 40, -22, 58,
    89, 91, -116, 23, -43, 46, 43, 7, 1, 54, -34, 71, -76, -65, -54, -33, -26, -45, 69, 33,
    -23, 101, -36, 61, 13, -46, -99, 47, 22, -20, -86, 30, 108, -17, 2, -38, -30, 68, 20, -65,
    -62, -15, -3, -49, -22, 23, -17, 26, -28, -83, 79, 70, 29, 53, 3, -30, -35, -26, 30, 47,
    -4, -20, 43, 33, 36, 103, 59, -38, 53, -66, 14, -86, 110, 16, -24, -34, -3, 12, 5, 78,
    35, 12, 33, 13, -105, -61, 67, 53, -10, 50, 68, -58, 105, 29, -34, -62, 27, 127, -4, 54,
    -5, 105, -69, 21, 82, -63, 9, -51, -73, 1, -21, 12, 10, 10, 5, 13, -9, 9, 31, 23,
    -87, -38, -32, 4, -36, -53, -94, 77, 44, -23, -71, 3, 6, -61, 62, 6, 73, -36, 41, 108,
    5, 65, -53, 53, 6, -41, 19, 41, -49, 62, -71, -35, -33, 28, -6, 28, 30, -42, -11, -19,
    48, 112, 12, -54, -44, 82, -31, 7, 8, -45, -38, 25, 16, 62, 52, -11, 49, 112, -32, -44,
    25, 33, -39, 64, -127, -18, 6, -25, 72, -30, 48, 78, 27, -83, 15, 28, -17, 3, 17, -9,
    -126, -44, -28, 41, -68, 24, 12, 11, -50, -2, 42, -3, -25, 29, -35, -17, 71, 30, 54, -33,
    -13, -39, -24, 15, -25, -8, 9, 46, -30, -31, 8, 34, 65, 27, -5, -120, -40, -45, 6, 2,
    60, -35, -43, -15, 42, -23, 9, -41, -65, -7, 5, -7, 4, 14, -24, -101, -16, -3, -41, 70,
    8, -14, -17, 3, 23, -91, -16, 65, -39, -16, 36, 21, 3, -36, 25, -35, 26, 56, -8, 127,
    -84, -108, 4, -35, -30, -15, 70, -81, 1, -28, -15, -25, 63, -9, -58, -12, 17, -18, 25, -11,
    -28, 62, -11, -22, 15, -7, -12, 43, -32, -24, 30, -38, 25, 44, 57, -38, 11, 23, -42, -15,
    20, 22, -26, 12, 13, -83, -12, -116, -24, -59, -20, -20, -5, -54, -4, 27, -86, 27, -18, -58,
    -21, 37, -7, -38, -42, -38, -50, -93, 5, 60, 3, -62, -59, 62, -87, 13, -25, 44, -60, -5,
    -23, -12, 4, 9, 7, -1, 26, -49, -2, 127, 16, -4, -2, 2, 30, -55, -32, 39, -23, -7,
    -43, 44, 40, 3, -3, 44, 10, -57, 13, 31, 4, -21, 25, -67, 9, 1, -10, -32, 24, -76,
    -16, 49, 6, -5, 55, -10, 58, 0, 38, 7, 1, 44, -38, -32, 13, -6, 64, -50, 5, -30,
    -22, -20, 34, 71, -6, -16, 41, -55, -7, 1, -31, 81, -3, 32, -22, -66, 25, -9, 53, 47,
    -1, 3, -6, 27, -16, 44, 55, 20, -8, 48, 12, -7, -12, 62, 23, -9, -4, -74, 39, -19,
    -11, -25, -30, -24, -24, -24, 39, -37, 1, -13, 1, -45, -33, -3, -7, -60, -4, 43, 57, -20,
    0, 20, -19, -48, -17, 22, -6, 28, 35, -2, 30, -32, -50, -6, -3, 20, 25, 27, -17, 13,
    -127, -38, 50, 92, 68, -1, -5, -25, 72, -28, 62, 51, -72, 36, -42, 3, -15, -18, -31, -5,
    -29, -71, -36, -2, 33, -57, 7, 4, 106, -48, 19, 21, -79, 22, 52, 38, -68, -21, 16, -44,
    -7, -46, 44, 40, -80, -12, -42, -8, 110, -94, -22, -99, 2, -52, -10, 68, 30, -41, -30, 27,
    90, -17, -59, -22, -2, -55, 61, 116, 15, 14, 48, -75, -83, -63, -3, 58, -20, -64, -45, 33,
    -26, 42, 4, 53, 88, 109, -41, 58, 54, -39, 7, 32, -32, -41, -71, 83, -41, -28, -75, 11,
    -17, 44, 0, -77, -115, 6, -26, 15, 103, 71, 14, 24, -44, -34, -11, 25, 4, 65, -26, -16,
    55, -6, 3, -112, 48, 0, -64, -6, 6, -23, -11, 23, 2, 20, -42, 58, 29, -68, -29, 39,
    14, 75, 27, 27, 6, -29, 44, -13, 71, 28, -51, 70, 1, 36, 19, -27, -8, -53, -25, 127,
    -55, 2, -37, -67, -86, 15, 2, -70, -46, -7, -17, -5, -25, -36, 95, 6, 14, 91, 44, 10,
    19, 25, -28, 6, -8, 96, -1, 36, -21, 20, 43, 3, 5, 68, 48, 25, 52, 19, -10, -45,
    -20, 25, -25, -52, -91, 98, -9, 41, 35, 13, 58, 24, -62, 53, 75, -2, 27, -2, -18, 41,
    -15, -11, 79, 8, 78, -88, -88, -29, 35, 30, -47, 52, 33, -23, -39, 61, 65, 59, -17, 81,
    40, -54, -54, 8, 62, -48, -26, -14, 14, -60, -12, -27, -51, 38, 31, 46, -52, -36, -107, -27,
    46, 22, 4, -46, 44, 0, 59, -51, 64, -3, -48, -45, -68, 7, 74, 54, 19, 14, 41, 62,
    29, 50, -10, -17, 41, -33, -18, 45, -1, 21, -12, -30, -104, 22, 78, -3, 1, 32, 10, 113,
    -8, -10, 42, 64, 0, 21, 64, -87, -58, -10, 3, -28, -18, 41, -42, -62, -28, -12, 67, -14,
    -53, 14, -34, -1, 72, 49, 24, -55, 127, 71, 8, -25, -21, -23, 33, 27, 17, -38, 48, 118,
    -53, -2, 85, -27, 40, -114, 60, 67, 25, -10, -33, -18, 49, -27, 8, -26, 34, -25, 60, -9,
    24, 102, 0, -53, 66, -31, -60, 9, 26, -3, -54, 42, 11, 24, -23, 31, -47, -9, -55, 6,
    -12, -41, -43, 51, -9, 42, -33, -32, 51, 16, -30, 18, 35, 22, 1, -4, 60, -65, -32, 25,
    26, -29, -69, 47, -51, 20, 53, -36, 42, 59, -40, 60, -49, 70, -35, -53, 44, -10, 50, -65,
    -39, -37, -36, -20, 60, 46, -59, 24, 14, 24, 53, -24, 90, 31, 42, 17, 16, 35, -46, -53,
    -11, 30, 35, -49, -40, -46, -17, 31, 9, 67, -19, -36, 44, 36, -1, 14, -35, 60, 10, 32,
    -81, 66, -50, 25, 8, -17, 11, 48, -13, 29, 3, 48, -6, 57, 26, -32, 1, 31, -8, -14,
    -25, -51, 18, 5, -70, -80, 27, 70, -31, -46, -104, -36, -31, -29, 49, -40, 54, -27, -40, 47,
    127, -125, -32, 63, -11, 21, 16, 22, 23, 90, 27, 58, 54, 17, 58, -61, -21, 59, -33, -83,
    -110, -37, 58, -14, -70, 1, 4, -83, 14, 27, 29, -39, -33, -55, 30, 6, -47, -40, 2, -98,
    -40, 76, 87, -11, 102, -44, 53, 13, 36, 42, 22, -13, 31, -53, -31, 10, 4, -41, 11, -19,
    58, -44, -39, 63, 14, 34, 10, -56, 9, 37, 21, 30, -68, -42, -56, -41, 67, -17, 1, 60,
    -3, -69, -9, 72, 0, 28, -3, 64, -17, 9, 56, -34, 28, 85, -96, 27, 127, -1, -25, 10,
    -18, -73, -2, -47, 59, 37, -62, -1, 38, 11, 21, -6, 33, -53, -7, 43, 48, 30, 72, 14,
    17, 62, -84, -79, 104, 1, 111, -72, 5, -63, -3, 25, -121, 41, 45, -43, 35, 3, 1, 25,
    -61, -35, -1, -28, -62, -57, -19, 23, 12, -24, -27, 38, -47, -21, -2, -5, -68, -2, 33, 23,
    47, -32, -6, 18, -30, -2, 77, 77, 35, 34, 96, -54, -29, -76, 34, -40, -36, 37, -35, -7,
    46, 9, -13, 22, 4, -24, -26, -38, 70, 42, -10, 12, 3, -125, -57, 57, -40, 116, 109, -53,
    48, 87, 13, -38, 40, -30, -12, -55, -39, 48, -32, -52, -74, 86, -18, 36, -39, 47, 5, 114,
    -55, -57, 21, 36, -59, 3, -2, 1, -85, 42, 15, -16, 14, -83, 64, -49, 68, -82, -6, 99,
    -44, -4, 127, 17, 87, 1, -8, 29, -53, 51, -26, 43, -14, -92, -20, -92, 63, 34, -33, -4,
    27, -36, 33, 14, 58, -21, -43, -95, -20, 3, 64, -37, -90, -97, -14, -95, -38, 15, -16, 15,
    -2, 25, 1, -18, 75, 26, -20, -70, 58, -31, -19, -43, 33, 35, -32, 18, 17, 28, 12, -18,
    -10, -3, 3, -16, -45, -36, -84, -49, -33, -36, -47, -37, 62, 87, 14, 8, 46, 18, 16, -39,
    2, -10, -127, -27, 78, 38, 76, -9, 57, 37, 1, -28, -73, -10, 21, -51, -103, -105, -37, -25,
    42, -61, -69, 43, -86, -47, -65, 15, -21, 78, 51, -13, 33, 62, -38, 49, -1, 18, 34, -13,
    -20, 11, 11, 48, 5, -80, 40, -15, 38, -26, -33, 27, -2, -101, -29, -4, -67, 28, -23, 12,
    -76, -78, -6, 26, 18, -7, 60, -73, 51, 7, -28, -46, 26, -52, -119, -64, -124, 11, -38, -72,
    18, -50, -99, -89, -8, 67, -3, 91, -5, -2, 5, 70, -16, 28, 44, 23, 92, -40, -4, -10,
    -12, -11, -41, 6, 22, -5, 61, 46, 15, 67, -7, 73, -98, -84, 2, 10, -44, -20, 55, -32,
    -26, 44, -12, -22, 34, -43, -44, -29, 8, 56, 0, 27, -7, 34, 8, 23, -14, 59, -54, 42,
    -97, -37, -20, -3, -18, -7, 87, -45, -48, -127, -47, -77, 12, -4, -101, -18, 17, -39, -6, -73,
    16, -33, -1, -12, -14, 22, -2, 110, -18, 10, 8, 95, -47, -9, -65, -2, -40, -1, -44, -54,
    -60, -45, 6, -12, 37, 62, -48, 127, 0, -1, -31, -8, 14, -26, -17, 18, 71, 24, -76, -43,
    45, 28, 1, 82, 0, 24, -47, -13, -96, 73, -18, -9, -45, 3, 83, -73, -28, 20, -32, -18,
    -60, 39, -21, 41, -29, 29, 87, -21, -100, 21, 32, -61, 23, -12, -13, 48, 40, -2, -79, -37,
    12, -21, 86, 29, -11, 4, -57, 46, -16, 5, 20, 29, 8, -31, 12, 0, -7, -110, -18, -32,
    -20, -35, 46, 28, -70, -32, 24, -12, 24, -5, -7, 1, 9, -38, 78, 52, 11, 18, 32, 21,
    -7, -9, -2, 28, 13, -9, 23, 9, 26, 23, 5, 11, -127, 17, -6, -28, 94, -75, 9, -57,
    25, -41, -41, 35, -56, -26, 26, 29, 61, 4, 61, 8, 26, -2, -79, -17, -8, -24, 46, -45,
    27, -30, -19, 16, -15, 21, 34, 43, 33, -15, 12, -32, -97, 31, -38, -22, 6, -77, -29, -14,
    15, -3, -48, 14, -28, -52, -66, 8, 21, 39, 27, 29, -15, -33, -11, -28, 37, 8, -50, 4,
    -22, -58, -12, -11, -44, -20, 31, 6, -9, -3, 26, -9, 2, -66, 68, -113, 17, -90, 66, 72,
    85, 15, -24, 61, -56, 11, -13, 9, -4, -27, -25, -41, -34, 47, 3, -66, -66, -14, 83, -29,
    -53, -5, -127, -20, 44, 56, 73, 53, 34, 25, -38, 33, -12, 38, 21, -103, 48, -21, 25, -31,
    -59, 34, -56, 63, 59, -15, 35, 23, 58, -40, -73, -50, -15, 9, 25, -53, 5, -19, -110, -75,
    -32, 18, 82, 1, -65, -100, 51, 9, -19, 19, -33, 33, -51, -35, 42, -52, 15, 8, 34, 31,
    -3, 11, -42, 17, -110, -82, -20, -26, -33, -69, 12, -73, 7, -7, -59, -56, -12, -17, 10, -83,
    17, 53, -17, 25, 11, 21, 6, -39, 17, 35, 9, -127, 54, -53, 17, 6, 5, 38, 62, -79,
    -16, -18, -67, -12, -13, 46, 23, 44, 34, 28, -52, -9, -57, -25, 34, 10, -42, 47, 22, 10,
    -8, -13, 77, -44, -34, -81, 44, -18, 21, 63, -42, 54, 24, 21, 53, 44, -60, -28, 4, -6,
    21, -61, -79, 43, 21, 23, -50, 21, -74, -9, 34, 3, 6, -73, 21, -4, -2, -55, 9, 24,
    42, 35, 82, -37, 78, 29, 21, -2, -57, 12, -47, -1, 10, -4, 17, -64, 41, -27, -55, 19,
    -10, 1, 16, 58, 6, 29, 45, -25, 23, -19, -47, 4, 18, 54, 43, -9, -6, -56, -28, 4,
    101, 5, 2, -50, -13, 3, -1, -35, 14, -11, 2, -6, -19, -24, -18, 14, -48, 70, -39, -15,
    25, 10, -34, 9, 33, 2, 10, -24, -9, 7, 11, 47, 8, 41, -85, -10, -33, 42, 18, -1,
    -35, -25, 15, -36, -4, -7, 33, 10, 12, 14, 55, 127, 24, 6, -13, -5, 10, -90, 67, -34,
    -28, -56, -23, -46, -49, 47, -37, -43, 63, -52, -6, 34, 3, 16, 14, -22, 53, -8, -8, 26,
    38, -37, 42, -44, -80, -35, -8, -20, -45, 8, 20, -31, 20, 20, 54, 39, -44, 17, -60, 39,
    21, 20, 4, -19, 34, 78, 18, 32, 22, -1, -25, -2, -12, 47, 10, 63, -42, -21, -63, -27,
    -44, -37, -19, -64, -38, -48, -32, -20, 6, -6, 4, -38, -41, -17, -57, 19, 78, -59, -26, 27,
    -10, -14, 1, -45, 64, -1, -8, 56, -6, 6, 39, -17, 47, 2, 32, -62, -35, -28, -50, 56,
    79, -3, -48, -17, 9, 21, -15, 46, 72, -69, -21, -127, 60, -1, -3, 0, -5, -40, 45, 7,
    72, -30, 18, 29, -38, -26, 31, 84, -11, -11, 31, -10, -32, 31, 54, 47, -26, -10, 4, 13,
    -26, 3, 61, -29, 22, 32, -9, -97, 0, -45, -24, 16, 90, 9, 30, -9, -43, -23, -27, 12,
    -30, -15, -65, -42, -49, -56, -35, 23, -45, -5, -50, -44, -46, -41, 1, -15, 33, -4, -32, -75,
    10, 33, 65, 49, 20, -34, -9, -33, -90, 38, -15, 33, -38, -5, -106, -73, 6, 52, 98, -51,
    -45, 2, -36, -23, 16, 35, -1, 11, -20, -18, 77, -54, 45, -6, -18, -96, -35, -73, 31, 20,
    26, 28, -44, -22, -24, -24, -4, 40, 110, -64, 12, -27, -68, 23, 52, 7, 13, 22, -61, -113,
    -24, -62, 105, -33, -118, 8, 35, 48, 50, -36, 42, 13, -48, -36, 71, 93, 3, 8, 51, -6,
    -1, 127, 36, 78, 41, -34, 16, 17, -55, 58, -2, -32, -21, -4, 50, -70, -34, -2, -50, -9,
    51, 2, 100, -47, -80, -28, -8, 20, 12, -28, -8, 55, -8, -26, -3, -45, 24, -49, 30, 24,
    8, 14, -15, -25, 1, 77, -78, -27, 19, -33, -20, -67, -55, 81, -3, -13, 5, 36, 60, -3,
    12, 10, -54, 10, 5, 3, 92, 47, 127, -44, -57, 48, -22, -14, -37, -126, 72, 48, -66, 55,
    13, 52, -2, -91, 67, 27, 69, -4, -8, -29, -8, 20, -8, 64, -40, -13, 22, 44, -11, -7,
    28, -11, 80, -29, -88, 38, 15, -15, 42, 16, -104, -51, 50, -17, -89, -83, -18, 53, 57, -22,
    109, 0, -30, 3, 58, -2, -58, 64, -48, 15, -32, -33, 28, -22, 99, -2, 41, 66, -21, -31,
    -46, -49, -91, -44, -39, -29, 105, -52, -12, 40, -73, -48, -14, 24, -125, 24, 32, -34, 20, -13,
    -27, 83, 56, -52, 25, -86, 40, -4, 26, 20, 80, 52, 29, 12, 25, 58, 30, -75, 68, -68,
    -36, -7, -14, 46, -20, 63, 13, 45, -30, 32, 16, -11, -87, 22, 35, -22, -2, 30, -21, 31,
    31, 38, 4, 45, -33, -44, -17, -26, -56, 3, 31, 102, 56, -55, -85, -26, 99, 62, -12, 49,
    -71, 49, -49, 83, -9, -34, -6, -55, -41, 70, -46, -23, -37, 26, 61, 25, -35, -5, 52, 67,
    -3, -62, 16, 56, 11, 45, -33, -13, 31, 41, -5, 51, 14, -24, 7, -66, 29, -5, 45, -55,
    47, -54, -24, -57, 3, 40, 0, -111, 71, -33, 19, -44, 54, 12, 74, -20, -59, -10, -5, -43,
    -44, 72, 67, 127, 81, -54, -73, -20, -51, 79, -5, 24, 17, 111, -88, 30, 9, 3, -23, -39,
    -58, -39, 2, 49, 61, 51, 10, 2, -13, -15, 80, 10, -53, -46, -46, -57, -6, -68, 2, -1,
    46, -46, 7, -3, 52, 25, -23, -103, 75, 5, -26, -12, -17, 1, 54, -68, -18, -15, -33, -35,
    29, -4, 27, -56, 65, 57, 31, 56, 8, -19, -20, -70, -8, 49, -19, 73, -48, -6, -94, -2,
    -12, -64, 32, -2, -90, -7, 16, 56, 18, 25, -56, -21, -23, -15, 40, -57, 37, -42, -24, 2,
    -12, 38, -57, 8, 44, -47, -1, -18, 9, 26, -39, -84, -9, -16, -31, -23, -86, 53, 14, -3,
    31, 42, 61, -31, 12, 27, -24, 41, -15, 39, 4, -11, 21, -62, 31, -25, 23, -42, 7, -27,
    -47, 17, 1, -58, -60, 127, 78, -11, 5, 112, 20, 1, -43, -55, -34, 40, -77, -18, -42, 72,
    -100, 67, 13, -5, -18, -16, 72, -40, 28, 105, 24, -87, 21, 90, 46, 19, 4, 33, -15, 8,
    -4, -86, 40, 13, -80, 37, -63, 0, 83, -17, -36, -13, -17, 35, -40, 10, 1, -29, -95, 58,
    -27, -13, 5, -84, 8, 35, 55, -3, 22, 58, 41, -25, 36, -73, 50, -55, -4, -12, -39, -68,
    127, 29, -97, -54, -44, 6, 57, -52, 71, 15, 96, -108, 3, -72, 126, -20, 6, 72, -30, 20,
    -17, 28, 3, -47, 3, -41, 63, -28, 93, -11, 47, -45, -45, -35, -27, 117, -99, 0, 70, 68,
    42, -16, -28, 40, 20, -16, 32, 23, 70, 27, 1, 14, -23, -51, 10, 64, 25, 99, -9, 17,
    23, 15, -52, -28, -15, -13, 59, 6, 15, -31, 29, 10, -3, 9, 30, 9, -15, -37, -40, 56,
    -10, 28, -44, -42, -2, -7, 1, -8, 37, -67, 4, -25, 24, -14, -69, 34, 5, -41, -45, 0,
    -59, -29, 66, 14, 67, -6, 27, 25, -43, -40, 33, 127, -33, 27, -4, 2, -7, -21, 56, 35,
    24, -56, -55, 3, -43, -55, -29, -15, 6, -10, 13, 9, 20, 34, -34, 53, 41, 18, -19, 32,
    -3, -70, 6, -30, -54, -9, -15, -43, 65, -5, 34, 6, 32, 5, -81, -10, -18, -19, 49, 40,
    40, 33, -43, 28, 8, -14, 39, -8, -41, -28, 29, 72, 20, -25, 47, -10, -54, 8, 18, -89,
    -20, 50, 17, 2, -33, 23, 30, 45, 29, 16, -48, -30, -63, 35, 21, -52, 26, -23, -51, -10,
    76, -45, -8, -41, -47, -42, -23, -8, 51, -65, -13, -70, -22, 29, -8, -38, -6, -78, -25, -10,
    25, 14, -47, -95, 95, -45, -11, -27, 36, -8, 25, 57, 41, 1, -34, 77, -58, 35, 85, 21,
    59, -9, -83, -6, 37, -19, -5, 0, 47, 29, 19, -66, -37, -24, 26, 16, -17, -58, -58, 23,
    -4, 50, 19, 7, 5, 108, -59, 82, -127, 56, -51, 6, -20, -2, 12, 36, 37, 12, -37, 58,
    -5, -46, 91, 20, 47, -44, -74, 41, -70, -62, 38, 36, -51, -27, 35, 91, 86, 46, -31, -7,
    30, -39, -59, -45, -12, 28, 23, -3, 24, 3, 0, 27, -15, 10, -17, 15, 71, 85, 10, 7,
    -15, 31, -35, -49, -33, 8, -127, -78, -24, 19, -13, 9, 15, 29, 14, -9, -6, 31, -99, -7,
    32, -45, -69, -13, -54, -24, -12, -78, 8, -35, 23, 14, -30, -9, -12, 48, 39, 11, 74, -28,
    -10, -15, 52, -38, 40, -17, 6, -3, -28, 0, -26, 44, -16, -20, 23, -105, 2, -4, -15, 53,
    3, 43, -13, -5, 53, -69, 19, 0, 24, -6, -9, 71, -8, -17, 22, -19, 5, 8, -3, -10,
    -25, 7, -21, -18, -71, -20, 17, 7, -11, 70, 33, 15, -29, 18, 9, 58, -18, 7, -69, 11,
    26, 2, -9, -20, -31, -50, -10, 35, -19, 4, -3, 3, -57, -9, 1, -46, 36, 11, -15, 59,
    -44, -1, -31, -52, -16, -34, 15, -25, -73, 43, -59, 15, -119, -67, 5, -59, -44, -10, -7, -11,
    -20, 100, 18, -106, 6, 91, -110, 40, -6, 104, 81, 111, 30, 6, -60, 59, 0, 24, 24, 60,
    44, -21, 37, -52, -37, 49, 62, 7, -12, -29, -93, -44, -38, 35, -24, 41, 16, -46, -67, -34,
    -11, 91, -31, -34, 62, -36, 103, 49, -5, 33, 67, -15, -27, -8, -126, 1, -60, -93, -7, -1,
    87, -35, -84, -11, -84, -34, 47, -7, 26, 30, 38, 9, -22, 12, -59, 54, 14, 29, 32, 14,
    98, 37, 69, -8, -1, -47, -16, 55, -92, -18, -8, 13, -66, 30, -80, 44, -5, 32, 44, -10,
    50, -45, 34, -18, -33, -22, -7, 4, 22, 127, -22, 0, 87, 127, -85, 61, 5, 42, 26, 16,
    -50, 26, -1, 2, -90, 16, 17, -17, -3, -36, 15, -28, 11, -35, 13, 41, 27, 113, -28, 5,
    -7, 22, -29, 25, -25, 30, -1, -78, 90, 15, -1, 19, 21, -64, -30, 24, -66, -40, -40, 28,
    19, -10, -56, -9, 21, -61, 5, 19, -1, 17, 37, 3, -3, 13, 86, 20, -40, -53, -53, -25,
    71, -13, -44, 8, 63, -25, 26, -14, 1, -31, -27, 38, 92, -40, -67, -27, 54, 73, -12, -18,
    -4, -71, 28, 65, -22, -27, -30, -12, 68, 41, -3, 7, -2, 50, -8, -60, -18, 29, -23, 127,
    -14, 53, -4, 63, -11, 20, -68, 35, 33, 43, 40, 32, -67, -33, -44, 20, -3, 89, -25, -20,
    -15, -9, -112, 56, 43, 21, -42, 91, -5, 52, -27, 47, 37, -123, -39, 60, -66, -51, 113, 70,
    -16, -81, 68, -52, -26, 84, 83, 70, 63, 58, -1, 53, -66, -33, 2, -26, -63, 54, -22, -28,
    62, -26, -18, 107, 75, -27, 54, -75, 54, 45, -127, -35, -42, 15, -78, -26, 27, -14, -33, -101,
    -89, -51, 52, -4, 12, 56, 21, 62, 57, 19, -84, 74, -99, -64, 120, -73, -57, -9, 7, -7,
    -57, -37, 20, 44, -38, 65, -39, 22, -3, -78, 46, 48, 86, 15, 92, -110, 55, 73, -59, -22,
    -56, 79, 33, -44, 25, 36, -77, 7, -70, 43, 25, 61, 59, -35, -103, 29, -14, -47, 20, -34,
    -40, 84, 40, 22, -39, -9, 74, 35, 78, -11, 49, 13, 9, -13, -11, 37, -62, -35, 39, -13,
    -96, -88, -78, -26, -10, 29, -30, 7, 19, -50, -2, -104, -73, 66, -30, -10, 6, -44, -14, 8,
    26, 35, -33, 24, -15, -15, 35, -48, 27, 58, 59, -6, 29, 36, 53, 42, -8, 75, 21, 94,
    9, 66, -46, -8, 47, -102, -2, 7, 66, -10, -58, 118, -37, -101, -6, -4, 44, -80, 71, 91,
    2, -44, 4, -62, 2, 77, -75, 67, -70, 39, -28, 29, -30, 48, -40, 40, -23, 41, 10, 72,
    -38, 34, -60, 6, 9, -3, 40, -3, -20, -59, 21, 81, 95, -33, -37, 59, 77, 44, 22, 43,
    3, -49, -27, -50, 65, 5, 50, -108, -31, -54, -25, 43, -55, 127, -84, -61, 39, -40, -22, -39,
    -24, 51, -8, -54, -28, -96, 90, -10, 66, -36, -3, 16, -15, -14, -32, 35, 41, -71, 66, -14,
    -26, 84, 77, -26, 28, 81, 3, -7, 65, -32, 94, 36, -79, 5, 42, 9, -107, 35, 35, -1,
    61, -22, 30, -99, -12, -67, -26, 77, 98, 46, 3, 23, 101, -44, -28, 33, -29, 41, 1, -22,
    -66, -46, 25, 23, -48, -28, 109, -21, -44, -42, -79, 55, 9, -8, 19, 102, 56, -17, -60, -11,
    -11, 1, 7, -88, 53, -16, 14, -28, -51, 92, -16, 36, -72, -15, 19, 52, 85, 53, 34, -127,
    69, -9, -62, -51, -67, -57, 59, 15, 50, 62, -38, 67, -48, 11, 18, 70, -1, -2, 88, -5,
    -37, -89, -55, -33, 94, 46, -79, -6, -59, -57, -22, 17, 64, -1, -13, 9, -29, 66, -91, 1,
    -40, -7, 21, 57, 85, -68, -7, 49, -85, -30, 30, -37, 38, 15, 34, -17, -1, -73, 24, 28,
    -35, 78, 46, -63, -87, 48, 14, 17, -55, -11, 52, 72, -28, -46, -9, 20, 4, -16, -36, -53,
    -35, 25, 2, -19, -24, 86, -20, -66, -72, -46, -115, 14, -54, 89, -32, -9, 11, 19, -41, 14,
    77, -29, -79, 127, 10, 80, 7, -6, 72, -57, -44, 86, 25, -54, -4, 40, -50, 11, -38, -1,
    -16, -7, 42, -5, 4, 45, 26, -83, 64, 41, 25, -69, -64, 41, 27, -77, 49, 32, 11, -9,
    -69, -94, -16, 50, 17, -24, -125, 31, 10, 75, 36, -11, 33, -41, -22, -29, 41, -35, -44, 39,
    80, -6, 5, 18, 41, 24, 11, -32, -40, -2, -56, 103, -95, -25, -18, 26, -25, 39, 20, 48,
    -41, -70, 25, 19, 27, 44, 24, -79, 44, -5, -4, -25, 31, -20, -45, -95, 81, -5, -33, -19,
    9, 43, -10, 1, 127, 49, -1, -29, 88, -6, -15, -23, -53, 65, 26, -49, 43, 19, 69, -28,
    79, -101, -3, -9, -14, -9, -49, -29, -46, 4, 26, -6, -32, -65, -5, -27, -29, -72, -35, 38,
    -7, -49, -65, 44, -4, -19, 43, -39, -71, 10, -10, 12, -1, -65, 66, 12, -75, -5, 44, 63,
    21, 36, -57, 31, -17, -46, -15, 49, 47, 9, 51, -66, 78, -72, -36, 56, 45, -15, -28, 124,
    4, -82, -8, 74, -4, 11, 65, 63, -5, 41, 25, 53, 44, -105, -100, 6, -77, 42, 40, -5,
    -10, -32, 42, 14, 20, -43, -103, 32, -99, -79, 57, 49, -1, -45, -12, 86, 14, -55, -23, -41,
    14, 93, -22, 7, -26, 21, 47, 51, -12, 4, -11, -81, -32, -18, -44, 7, -64, 31, -61, 20,
    53, -6, 98, 9, 73, -16, 52, -2, 3, 18, -23, 52, -60, -15, -31, 72, 5, 25, -76, 36,
    -4, -46, 127, 56, 56, 22, 25, 37, -35, -93, -3, 62, -82, -25, 32, -3, 15, 1, 7, -3,
    42, -57, 71, 41, -14, 37, 80, 23, 33, 44, 37, 9, -26, -50, 92, 63, 61, -67, 29, 11,
    6, 63, -92, -49, -35, 7, 7, -54, -78, 46, -41, 30, 9, -33, -43, -8, 11, -9, 33, 49,
    63, 40, 1, 51, 60, -52, 14, 33, 29, -19, 36, 78, -39, -9, 54, 15, 27, 55, -127, 45,
    -14, 71, -37, -78, 74, -20, 17, 3, -60, -109, -62, -41, -8, 103, -20, -35, 8, 23, 14, -36,
    8, 101, 50, 20, -20, 40, 18, -66, -20, 20, -11, -49, -51, -2, 2, 89, 8, 56, -36, 43,
    -19, 36, -21, 4, 7, 25, 33, -84, 7, 37, -9, 42, -32, -48, 61, 52, 16, 13, 23, 6,
    -25, 36, 27, 34, -23, -6, -1, -34, 48, -65, -16, 113, -91, -11, 3, 38, -36, 15, -59, -17,
    -29, 40, 37, 80, 57, 0, -23, 63, 82, -77, -34, -10, 23, 17, -44, -5, 27, 32, -35, 59,
    -53, -27, -6, 34, -30, 89, 44, -14, 15, -18, 60, -127, 12, -29, 32, -39, 27, -49, -5, 30,
    -34, -39, -49, -26, -45, -24, -29, -98, -6, 4, 31, 42, -29, -21, -47, -66, -76, -78, -31, 107,
    -74, -2, -20, -55, 26, -46, -97, -73, -48, -14, 109, 7, -68, -58, 12, -45, 4, 17, 30, 12,
    -38, 6, 80, -28, -66, 6, 43, 42, 13, -51, -24, 12, 16, 41, -6, -55, -22, 66, 24, -61,
    -1, -51, 24, -68, -16, 22, -18, -74, 24, -70, 74, -6, -37, -77, -63, -22, 55, -5, -1, -11,
    53, -38, -7, 23, 39, 60, -55, -106, -32, 5, -5, -56, 25, 28, 36, -82, 6, -20, -30, -40,
    -72, -1, -20, -27, -17, 37, 27, 35, 44, -23, 8, -15, -70, -10, 59, -8, 11, 11, 31, -77,
    33, 52, -10, -14, -32, 44, 14, 109, 26, -23, 57, 103, -55, -41, -40, -13, -19, -21, -12, -35,
    122, -85, -19, -45, 16, -1, -18, -16, -2, 23, -47, -50, -16, -55, -27, -78, -11, -33, 12, 50,
    0, -8, 12, -35, 5, -17, 40, -14, 9, -52, 28, 35, 10, -41, -6, -21, 39, 41, 66, 20,
    22, 63, -10, -20, -22, 54, 127, -54, 35, 19, -28, 58, -26, -25, 5, 90, 49, -54, 81, 33,
    50, 36, -22, -52, -39, 27, -3, 35, -69, -34, -30, 42, 33, 4, 9, -36, -2, 73, -49, -39,
    45, -34, -13, -60, -23, -31, -103, 48, 7, 55, -2, 88, 21, 44, 53, 9, -29, -9, 49, 34,
    -48, 17, 59, -64, -106, 8, -6, -36, -74, 122, -36, -52, 37, 40, -11, -46, 19, -35, -41, -12,
    -9, -66, 32, -71, 20, 24, 10, 14, -57, -3, 50, 10, 87, 64, 96, -3, -77, -75, -22, 76,
    124, -64, -3, 13, -41, -23, 16, -4, -25, -31, -52, -24, 5, -48, 7, 127, -65, 0, 15, 7,
    8, -79, 78, -8, -60, -32, -9, -38, 42, -33, -27, 27, -15, 6, 15, -82, -28, -3, 2, -52,
    61, -2, 7, -62, 24, -2, -22, -32, -1, -55, 63, 2, 42, -32, -36, 0, 43, -36, -49, 51,
    -20, -21, 8, -5, 2, 2, 29, -53, -43, 22, 107, 6, -74, 34, -7, 49, -69, 5, 19, -11,
    -7, -23, -84, 15, -1, -8, 2, -96, 90, 35, -58, 64, 29, 74, -7, 13, 22, -30, -74, -2,
    -34, -7, -26, 67, -119, 15, 50, 9, -14, 20, -78, 24, -26, 92, 90, -24, 29, 72, -29, -12,
    -116, -43, -108, -5, 58, 109, -10, -33, 5, -7, 38, -52, 64, 27, 9, -52, -63, 32, -29, -86,
    -120, 74, 80, -19, 18, -25, 5, 64, 15, 9, -59, -33, 37, -13, 32, 4, 39, -73, -12, -7,
    -47, 11, 25, -27, -22, -81, 33, 9, 71, 44, 9, 3, -73, 40, 46, 96, -80, 57, 30, -67,
    -83, -28, -86, -52, -100, 17, 92, 45, -43, 41, -49, 26, -54, -48, 0, 8, -19, 54, -84, 1,
    127, -117, 26, -34, 10, -14, -25, 24, -33, 19, -95, -31, -13, -58, -61, -7, 35, 6, 25, 40,
    49, 50, -22, 43, 2, -109, -38, 52, 35, -26, 25, -47, -60, -34, -42, -37, 37, -17, 31, 15,
    -11, 42, 3, -12, 25, 31, -72, -20, -54, 11, -11, 9, -20, 1, -38, -36, -25, 9, -24, 37,
    71, -9, 53, -12, 63, 16, 30, 24, 30, -4, -24, 42, -13, 30, -21, -55, -33, -16, 47, -65,
    10, 11, -74, -58, 70, 38, 11, 53, -17, -83, 2, -6, -101, -43, -32, -83, -99, 35, 70, -3,
    127, 10, -28, -20, -27, -10, 5, 50, 64, -16, -4, -13, -74, -27, -24, -37, -35, 44, -29, -64,
    -18, -25, 76, 0, -14, 1, -34, 15, -43, 16, 91, 42, -21, -22, 92, -91, 78, 34, 11, 50,
    -25, -14, -5, -27, -20, -54, -17, 6, 1, -85, -26, 43, -54, 9, -66, 9, 18, 37, -43, -84,
    -6, -16, -35, -31, -33, -41, 22, 5, -13, 5, 25, 3, 8, -29, 39, -60, -13, -10, -48, -46,
    -29, -30, 21, 12, 16, 51, -15, 32, 56, 4, 24, -9, 9, 0, -52, 6, 21, 119, 59, 33,
    19, 40, 15, -25, 41, -11, 8, 11, 24, -14, -29, 36, -12, 20, -72, 39, -27, 4, 38, 44,
    -25, 22, 34, 0, -24, -44, -69, 23, -127, 16, 48, 24, -6, -64, -15, -3, 38, -55, 18, 9,
    -21, -25, 46, 45, 1, -66, -26, -24, -62, 14, -63, -17, -8, 5, 7, -19, 53, -1, -72, -15,
    -28, -60, 24, 34, 64, 72, 23, -65, -30, -33, 50, -16, 22, -4, 14, 85, -42, -45, -55, -8,
    30, 1, -40, 30, 58, -17, 92, -10, -25, -26, -47, 30, -113, -23, 42, 3, 28, -39, -60, -6,
    65, 120, 23, 26, 49, 46, -65, 71, 23, -1, -110, 31, 66, -13, 1, -36, 46, -2, -43, -80,
    -12, -76, 7, 30, 58, -7, 25, 52, 64, -34, -55, -38, 8, 49, 16, 47, -37, -10, -22, -6,
    54, 26, 33, 30, 84, -13, 13, 69, -21, 88, 74, 114, -26, 80, -62, -47, -20, -92, -5, 59,
    -37, -15, -121, 26, -127, 39, 86, -22, -24, -39, -4, 27, 29, 66, -67, -57, 111, -84, -45, -34,
    4, -18, -12, 45, -101, -43, -2, 20, -51, 44, 20, -59, 34, 35, -99, -61, 27, 61, 23, 13,
    25, 45, -40, 17, 43, 23, -91, 36, 13, -37, -30, 13, 17, -59, -44, 41, 84, 32, 80, -44,
    -65, 54, 23, 75, 19, 74, 12, -13, -21, -4, -17, -40, -60, -68, 92, -2, 53, 127, -28, 4,
    -35, 61, -6, 20, 20, -14, -100, 61, -10, -11, 29, -34, -8, 61, -18, -29, -67, 65, 46, 15,
    -67, 53, -53, -93, 53, 16, -22, -60, 0, 9, 13, 7, 35, 74, -31, -58, 43, -51, -47, 54,
    44, -32, -16, -1, -2, -32, 25, -3, -17, -2, 32, -7, -9, -11, -40, 35, -67, 55, -17, 12,
    -10, -10, -70, 34, -74, 21, 21, 20, 28, -50, 13, -47, 59, 68, -31, 70, 108, -6, 7, 4,
    -65, -1, 11, 3, -13, -12, -104, -76, -57, -33, -37, -26, -37, -83, 31, -92, -49, -8, -42, -25,
    -55, 14, -9, -76, -67, 126, -40, 40, -16, 63, 30, -21, 11, -14, 31, -55, -5, -1, 75, -45,
    -43, 56, 16, 19, 69, 26, 24, -39, -61, 5, 27, 69, -26, 8, 51, -48, 3, -127, -42, -4,
    -65, 46, -13, 30, 14, 30, 40, 1, 42, 1, 36, 49, 39, -44, 33, -18, 53, 121, 0, 9,
    -21, 25, -27, -18, 38, -34, -59, 30, 24, -14, 9, 56, 3, 30, 35, 25, -36, -37, -6, -13,
    52, -77, -23, 72, -12, 52, -24, 30, 89, 117, 9, -27, 20, -32, -25, 24, 94, 16, 4, -25,
    -1, 34, -84, 20, -61, 21, 17, -64, 41, 83, 63, -88, 37, 105, 51, -1, 22, -54, -35, -53,
    0, -72, -15, 61, -74, -9, -59, -51, 60, -62, -76, 24, 21, -53, -3, -13, -127, -11, -2, -32,
    79, -27, 31, 65, 27, 69, -3, 12, -53, 69, 39, 15, -47, 36, 69, 9, -46, 88, -75, 9,
    61, -49, -62, 51, 5, 12, -16, 43, 93, 70, -10, 31, 22, 11, 42, 7, -63, 1, 27, 17,
    -67, -11, -26, 49, -65, -34, 53, 12, -35, 2, -33, -41, 43, -2, -1, 55, 5, -7, -69, -52,
    -74, 2, 16, -40, 2, -121, -15, 33, 25, 18, -53, -71, 88, 34, -50, 73, -5, -37, -14, 3,
    11, 1, 23, 45, 0, -77, -32, 8, 21, -65, 20, 68, 70, -22, 59, -25, 70, -4, -38, -41,
    69, -50, 63, -4, 50, -21, -56, -2, -24, 11, -49, 51, -5, 5, -71, -3, -27, -17, -68, 37,
    55, -49, -1, -33, -87, -11, 1, -12, 68, -11, -53, 56, -48, -21, 17, 54, -4, -31, 16, -20,
    -30, -8, 29, -5, -2, 63, -30, 34, -4, -58, -55, 72, -79, -11, 60, -18, -15, 37, 13, 98,
    -14, -17, 27, 3, -5, -65, 16, -20, 35, -44, 12, 22, -18, -32, 20, -21, -6, -25, 5, 2,
    -39, -1, 1, 26, -58, -40, -15, -53, 45, 26, 40, -7, -28, -19, -3, 86, 11, 5, -127, -22,
    28, 25, 28, -17, 3, -52, -15, -14, 45, 68, 17, 71, -40, 56, -69, 32, -22, 9, 94, -28,
    28, 2, -51, 28, -4, -61, -54, -32, -29, -72, 34, -32, 46, -20, -25, -14, 12, -3, -20, 53,
    -27, -43, -54, 24, 43, -70, 31, -81, -8, -43, -18, 88, -32, 35, -76, 56, 100, -57, 11, -13,
    -56, 39, -33, -41, -7, 53, -30, 3, 54, 33, 18, -79, -55, 49, -15, 36, 0, -8, -22, -61,
    -21, -10, -72, 26, 25, 26, 90, 49, 12, 40, -36, 21, -52, -8, 25, -10, -64, -22, 6, -28,
    0, -64, -63, -29, -15, -41, -35, -33, 90, 30, -50, -13, 113, 34, -34, -10, 114, -79, 52, -33,
    -30, -20, 15, 64, -50, -70, 28, -78, 12, 8, -36, -29, -49, 32, 20, 23, 127, -19, -37, 1,
    68, -52, -43, 89, -1, 28, -17, -42, 84, 67, -9, -61, -3, -10, -55, -12, -6, -7, -32, 44,
    -55, 17, 15, -42, -15, 21, -16, -29, -29, -34, 11, 64, 20, -27, -18, -49, 63, -33, 55, 88,
    -5, 127, -94, 50, 1, -73, 31, 15, -13, -1, 2, -41, -10, 55, -16, -11, 29, 37, 54, -61,
    -27, 7, -32, 59, 29, 46, 5, -13, -52, -36, -38, -3, -7, 52, 67, 62, -20, -28, 41, -6,
    -36, -64, -19, 31, 13, -77, -34, -51, 14, 47, -3, 63, -6, -34, -10, -22, 26, 63, 22, -19,
    7, -30, -4, 5, 38, -7, 64, 9, -2, 48, 4, 38, 18, 25, 32, -3, 17, 12, 0, -52,
    -10, -7, -4, 40, 80, 39, -42, -49, -7, -11, 17, -63, 9, 43, -27, -45, 12, 28, -2, -4,
    -17, -60, -14, 63, -8, 53, -43, -78, -37, 63, 19, -69, -14, -32, 18, -5, 21, -67, 52, -54,
    11, 22, 37, -44, 6, 14, -38, 37, -30, 52, -33, 24, 35, 19, 82, -75, 43, 15, 24, 22,
    -27, -59, 20, 16, 64, 87, 52, -54, -105, 15, 22, 25, -22, -11, 37, -19, -23, -13, -68, 68,
    -21, 23, -59, -73, 48, -37, -65, 16, 29, 5, 8, -15, -51, -15, -7, -10, -14, -65, 77, -36,
    -64, 20, 27, -58, 36, -1, 22, -1, 56, -2, 19, 4, 3, -86, -33, 69, 53, -24, 127, -27,
    1, -1, -37, -2, -24, -38, -53, -28, 8, -43, 26, 2, -13, 26, 4, 28, -7, -65, -35, -24,
    26, -20, -57, 20, 54, 21, -57, -34, -44, 39, 92, 3, 77, -13, -48, -84, -50, -12, -89, -14,
    13, 1, -5, 17, -24, 41, 1, -6, 22, 40, -14, -33, 40, -73, -43, 11, 16, 45, 9, -8,
    66, -65, 36, -72, -56, -118, 28, 76, 41, -16, 41, -17, -23, -25, 32, -14, 106, 40, 1, -9,
    47, 20, -9, 7, 87, 9, -5, -100, 24, -5, 30, -17, -127, 7, 37, -19, 83, -22, 36, -45,
    9, -15, -24, 65, 26, 11, 48, 61, 64, -13, -24, -5, -3, 71, -38, -41, -1, -76, 4, 6,
    -5, 24, 15, -14, -48, 47, -44, 35, -14, 50, 11, -23, -37, 14, 14, -67, -21, 2, -5, -15,
    -14, 1, 14, 8, -16, 39, -30, -6, 34, -31, -30, 9, -66, 12, -14, -36, 62, -37, 14, -83,
    17, -6, 59, -40, -55, -64, -17, -53, -42, -27, -13, 4, -52, -18, -40, 57, 37, 32, -10, -91,
    -55, 115, 16, 13, -21, -13, -15, 83, 56, -23, 95, -94, 70, 20, 81, -4, -17, 16, 15, -40,
    -51, 23, 2, -98, -6, 15, 21, 70, 61, 0, 32, 65, 15, 27, 47, 40, 65, 20, 46, 28,
    55, 11, -5, -56, -18, -48, 109, 10, -12, 12, -43, -24, -6, 80, 5, 46, 60, -36, -79, 53,
    -127, 43, -31, -102, -51, -81, 23, -7, -64, 4, 78, -3, 7, -63, -58, 94, -3, 16, -60, 14,
    -55, -67, -72, -2, -34, 27, 3, 28, -5, 40, 10, 12, 15, 13, 6, 12, 53, -10, 62, 109,
    62, 17, -17, 46, -37, -35, -34, 81, 4, 13, -36, -12, -74, -2, 52, 34, -47, -2, 36, -27,
    26, -68, 6, 9, 4, 25, -56, -25, 9, -30, 10, -22, 21, 24, -14, 21, -30, 40, -27, -58,
    93, -34, -48, -29, 43, 23, -108, 49, -15, 47, -32, -34, -56, -51, 50, -11, 14, -34, -5, 24,
    36, 39, 13, -7, 15, -42, -33, -24, -76, -34, 25, -71, 0, 0, 57, -3, 20, -24, -45, -3,
    -46, -62, -1, 96, -31, -10, 57, -41, 5, 20, -127, 31, 1, 29, -74, 76, -27, -41, -49, -13,
    13, -2, -33, -9, -7, -38, -36, -22, -34, -11, -65, 36, 38, -77, -2, 31, 92, 15, 13, -51,
    35, -43, 3, -19, 38, -4, 38, -29, -25, 40, -20, -36, 58, -40, -67, -48, 20, -4, -107, -75,
    37, 15, -17, 74, 113, 42, 15, 52, 14, 41, 4, -33, -93, -6, 88, -16, 1, 11, 100, 91,
    28, -90, -96, -35, -40, 0, -17, 112, 7, 9, -73, -24, -122, 22, -26, -17, 37, 88, -65, 57,
    41, 29, 50, -31, -50, 105, 14, -90, -12, 12, 2, -31, 60, -1, -10, -23, -28, 1, -12, 16,
    27, 38, 1, 67, 90, 7, -38, -52, -35, -13, 35, 85, -102, 4, 7, 19, -40, -10, 80, 100,
    16, 49, 32, -71, 28, -46, 61, -67, -11, 33, 73, 0, -35, 21, -3, 63, -127, 53, 45, -45,
    46, -31, -85, -12, -61, 13, -6, -27, 60, -41, -46, 54, 64, -77, -42, -68, 39, 15, -64, -39,
    64, 3, -123, -77, -34, 39, 71, -49, -19, -127, -35, -107, -20, 37, -67, 26, -43, 32, -1, 17,
    40, 25, -31, -76, 4, -58, -11, -4, -6, -9, -21, 49, 92, 39, 123, -42, 22, 77, 9, 87,
    -82, -35, -15, -46, -57, -10, 91, -9, -9, 19, 8, -11, 94, 39, -18, -18, 52, 44, -30, 11,
    5, 31, -3, 48, -25, 32, -45, -27, -67, -36, 61, -12, -24, -61, 62, -86, -3, -20, -27, 1,
    -39, -18, -64, 78, -24, 7, 28, -109, -25, -42, 7, -9, 36, -42, -6, 66, -72, -34, 16, 125,
    -61, 6, -32, 14, -19, -69, -86, -94, -15, -90, -59, 11, -33, 51, -9, 79, -9, 32, -42, 11,
    10, -6, -11, 49, 82, -38, 0, -73, 65, 6, 6, 89, 7, -23, -28, -7, 67, 69, 15, -26,
    55, 11, 5, -127, -83, 24, -15, -8, 31, -6, 65, 69, -15, -51, 43, -52, -41, 10, -63, 9,
    -50, 9, 77, 19, 56, -14, 38, -74, 8, -53, -46, 21, 23, -30, 64, 31, 19, -58, 35, -49,
    52, 15, -36, -33, 19, -21, 20, 12, 17, -30, -10, -55, 60, -11, -57, -33, -7, -8, 7, 54,
    45, 27, 77, -14, -41, 33, -3, 24, 1, -38, 82, 32, -14, 3, -59, 97, 73, -73, -18, 25,
    -1, 23, 85, -21, 19, 43, -56, -6, 56, 31, -3, -22, -20, -9, 10, -34, -18, 75, -14, -28,
    1, -6, 8, 13, 75, -31, 11, 15, -68, -38, -96, 5, -20, 10, 91, -15, 19, 18, -35, -66,
    -12, 53, 21, -127, 18, -2, 20, 7, -36, -21, -12, -43, -26, 37, -2, 10, 78, -1, 50, 24,
    -45, 25, 0, -19, -15, 30, -53, -35, -49, 7, 11, 19, 16, 12, -10, 7, -31, -17, -80, -59,
    -20, 4, -21, -5, 15, -26, 23, -71, 80, -21, 51, 11, 44, 36, 9, -6, 21, 96, 44, -33,
    -13, -5, -95, 36, -22, 64, -60, 53, -9, 15, -15, 16, -17, -22, 16, 31, -47, 15, 25, 12,
    27, 114, 22, 49, -3, -54, -24, 44, 39, -40, -23, 4, 26, 25, -23, -43, 16, 11, 18, -39,
    -23, -1, 14, 65, -47, 9, 8, -22, 10, -8, 13, -15, -29, -6, -9, 83, 52, -65, 9, 14,
    -10, 2, 42, 17, 43, -49, 16, -65, 9, -17, -20, -30, -56, -49, -18, -22, -50, -109, -26, 14,
    22, 5, 34, -31, 8, -59, -48, -42, 12, 23, -14, -26, -9, 42, 26, -24, -32, -41, 12, -1,
    26, 5, -42, -33, -12, 21, -30, -32, 2, -42, 11, 35, 25, -10, 8, 5, 43, 127, 34, -29,
    -62, -86, 5, 4, -123, 5, 64, 15, 1, 35, 21, -18, -16, -18, 1, -5, -52, -22, -21, 42,
    -13, -32, -38, 44, -54, -5, -52, -21, 21, -57, -11, 17, -49, 3, 0, 1, 3, 47, 39, -30,
    -5, -80, 73, 31, 22, -20, -17, -28, -36, 16, 82, -58, 15, 21, -5, 42, -77, 64, -21, 61,
    21, -1, 2, 17, 5, 0, -20, -51, -21, -36, 29, -45, 12, -9, 8, -19, 5, 19, 19, 23,
    -1, -16, -1, 10, -10, -32, -8, -6, 29, 5, 8, 0, 26, 2, -62, 1, -57, 35, 8, -3,
    -49, -30, 26, -3, 57, -13, -21, 20, 28, -3, -52, -4, 13, 62, 8, 23, -16, -23, 66, -15,
    -14, 7, 16, 24, 11, 55, 11, 19, -50, 4, -13, -5, 3, -14, 13, -31, -6, -1, 10, 15,
    19, -39, 16, -34, -6, -4, 6, -10, 31, 7, 0, -32, 37, 10, 20, 3, 12, -17, -36, -19,
    14, 28, -16, -10, -13, -17, 23, 20, 63, -40, 127, 36, -51, -51, 15, -16, -34, 42, 0, 40,
    5, -4, -4, 87, 13, 10, -8, 3, -25, 22, -6, -18, -12, -44, 19, -10, 31, 41, 18, 12,
    0, 24, -21, -31, 68, -39, 2, 43, -19, -113, 82, -68, -60, -11, -31, -35, 42, -47, 5, -10,
    -93, 74, 65, 35, 41, 22, -64, -20, 12, 4, -121, 56, 24, -109, -33, 11, -1, 101, 47, -54,
    -24, -55, -30, 95, 31, 8, 87, -66, -59, 8, 22, -45, -24, 19, -6, -81, 51, -22, -110, 44,
    50, 6, 56, -30, -21, -58, -3, -32, -86, -28, 30, -73, -34, -66, 50, -84, 43, -127, -53, -36,
    16, 26, -95, 17, 21, -25, -59, -30, 45, -31, -14, 118, 46, -29, 24, 74, 24, 56, 49, 56,
    -75, -3, 37, 11, 26, 51, -38, -22, 9, 21, -86, 13, 35, 29, -104, -37, 31, -7, -71, -18,
    5, 39, -39, -51, 18, 6, -63, -31, 99, 64, 31, 16, 49, -31, -2, -55, -13, -26, -54, 64,
    -46, 58, -10, 4, 50, -123, -26, 35, 0, 28, -1, -4, -12, -66, 23, 51, -86, 83, -63, -26,
    -30, 0, 13, 11, 1, 17, -98, 127, 52, -10, -16, -2, -1, 102, 70, -11, 84, -96, -22, 23,
    12, 32, -27, 57, -117, 32, 69, -29, -33, -24, -23, 29, -62, -65, 2, 63, 23, -37, -1, -84,
    33, -64, -76, -7, 1, -38, 28, 90, 14, 102, -30, 26, -7, 1, 54, -24, 42, -56, 1, -44,
    112, 41, -40, -9, -2, 73, -56, -69, -5, 10, -2, 19, -2, -31, 22, -33, -39, -38, 73, -56,
    -5, 73, 10, -6, -82, 26, 2, 11, -18, 0, -8, -60, -27, -24, 23, 35, -33, 127, -28, 73,
    21, -23, -102, 68, 60, 14, 30, 49, 60, -18, 26, 6, -4, 19, 20, 73, -37, -30, -43, 11,
    17, -29, 58, -77, -18, -1, 39, -29, 27, -22, -3, 33, -34, -45, 29, -116, 44, 23, 20, -6,
    54, 18, 74, 105, 33, 77, -73, -50, -46, -1, 18, -11, 73, -22, 0, 9, 18, -12, -37, 53,
    41, -31, -36, -7, 76, 13, 81, 28, 16, 33, 35, -28, -51, -75, -8, 63, 54, -52, -22, -20,
    82, 14, -73, 74, 24, 3, -77, -26, 13, 33, -25, -72, 94, 28, -98, -51, -25, -107, -1, -31,
    2, -6, -25, 49, -10, -35, -31, 61, -10, -19, -7, -51, 12, -8, 48, -31, -84, 20, -7, -114,
    -102, -17, 67, -42, -14, 29, 19, 26, -94, 11, -18, 2, -18, -48, 10, 43, 28, -127, -17, 10,
    -21, -27, 21, -16, 48, 22, -2, -52, -52, 12, 32, 65, 15, -25, -2, -3, 30, -7, -12, 12,
    -35, 6, -117, -34, -10, 7, -26, 41, 46, -17, -32, 30, -36, -16, -1, 47, -8, 67, -45, -36,
    -26, -32, -57, 6, -18, -6, 35, 19, -24, -24, 29, -7, 33, -32, 30, 42, 4, -31, 39, 5,
    -40, 52, -59, -43, -53, -33, -12, 2, 72, -15, -2, 27, -6, 77, -16, -20, 71, 3, 35, -3,
    47, -29, 106, 43, -69, -77, 26, -7, -3, 22, 56, -29, 27, -28, -28, 33, 72, -15, 28, -2,
    13, 0, -27, 27, -46, 8, -10, -66, -15, 59, -12, -35, -73, 6, 21, -26, 21, -23, 54, 1,
    -9, -39, 59, 0, -100, 57, -23, 37, 32, 8, -1, -3, -55, 112, -14, -37, 29, -33, 4, -18,
    55, 35, 34, 44, -23, 78, 16, -40, 35, -14, 82, 1, 11, 23, 86, 24, -42, -47, -18, 39,
    68, -11, -33, -69, -5, -52, 6, -56, 25, 37, 13, 40, 25, 6, -58, -9, -55, -9, 12, -66,
    -12, 5, 6, -1, -63, 16, -9, -15, -15, -37, 10, 71, 34, 44, -29, -36, -14, 127, -42, -55,
    25, -49, -63, -20, -37, 36, 30, -3, 34, 5, -68, 31, 75, -16, 7, 62, 59, -10, -49, 10,
    -84, 14, 60, -10, -43, -23, -87, -51, -63, 34, 33, -63, 45, 62, -29, 90, -120, 53, 3, 38,
    -43, 37, 33, 58, -14, -4, 7, -21, 45, 28, -33, -49, -38, -8, -9, -58, -38, 36, 90, -36,
    -19, 9, -5, 35, 73, 12, 3, -42, 56, -59, 1, 48, -98, -9, 78, -40, -18, 48, 7, 15,
    18, -58, 25, -18, 32, -48, -89, 127, -93, 5, 22, 36, 50, -45, 20, -6, 65, 95, -69, 64,
    60, 25, 46, 42, -38, -62, 1, 15, -25, -34, -28, -15, -66, -13, -32, -23, 30, 71, 45, 45,
    -36, 36, 85, -25, 33, -74, -46, 14, -5, -30, -43, -6, -12, -45, -55, 6, -5, -32, -100, 97,
    10, 4, -13, 58, -18, -88, 2, -82, 33, 21, -43, -27, -5, 46, 9, 51, 81, -22, 13, -47,
    -48, -26, -86, 40, -13, 15, -10, -12, -51, -105, 70, -29, 56, -17, 31, -30, -73, -24, 111, -15,
    18, 33, -91, 46, 67, -22, 2, 13, 85, -63, 15, -35, 1, 32, -86, -67, 29, 101, -14, 44,
    8, 64, -65, -2, 43, -79, -42, -3, 15, -14, 7, 81, 54, 79, -38, -34, -26, 68, 105, -35,
    -85, -52, -93, -52, 12, -15, -25, 33, 81, -10, 71, -51, -15, -7, -37, 23, -78, -22, -23, -81,
    -30, -38, -39, -19, 104, -69, 33, 122, 4, 2, 69, -11, -94, -33, -25, -13, -16, -9, 31, -45,
    12, -51, -95, -127, -28, 21, 57, 60, -30, -32, 10, 44, 14, -27, 9, -77, -61, -32, -3, 48,
    30, 21, 21, 49, -26, 3, -21, 96, -39, -11, 45, -60, 6, 24, -8, -93, -67, -15, -34, -16,
    -50, 22, 19, 60, 6, 57, 33, 11, -31, 51, -33, 7, 24, 76, 64, 0, 28, 5, 30, 17,
    11, 38, -38, -28, 40, -42, 38, -2, 10, 81, -34, 10, 48, -23, -5, 47, 5, 52, -3, 46,
    -2, 12, -28, 21, 40, 10, -78, -26, 37, -22, 48, -36, 26, 87, -42, -55, 51, -70, 42, -37,
    24, 37, -31, 4, 38, -44, -127, -2, -1, -69, 37, -64, 84, -16, 75, -63, -45, -27, 21, -31,
    5, 6, -55, 91, 6, 26, -3, -49, 22, -41, 1, -26, 79, 51, 15, 42, -30, -34, 14, 45,
    -96, 54, 52, 59, -5, 37, 14, 106, -9, -3, -20, -12, 63, 57, -72, -28, 21, -4, 33, 74,
    36, 16, -21, 66, 10, 48, -48, -24, 72, 65, 44, -53, -53, -31, 6, 21, -49, 85, 39, -94,
    -62, -3, -27, -62, -14, 70, 27, -96, 18, 26, -18, 4, -35, -43, 24, -7, 35, 9, -1, 42,
    1, 20, -21, 39, 25, 106, 24, 76, -25, -16, -70, -3, 28, -22, 3, 55, -51, -72, -25, 58,
    -95, 65, 22, 38, -35, -76, 0, 38, -83, -45, -80, 14, -11, 59, -28, -118, 13, -32, -32, 54,
    4, 8, 40, -50, 44, -21, 51, -34, 40, -43, -97, -53, 82, 7, -25, -112, -38, 14, 30, 22,
    15, 12, -7, -13, -37, -59, 20, 73, -50, 127, 5, 14, 46, -89, 52, 49, 14, -85, 27, -79,
    -63, 5, -30, -38, -49, 18, 73, -79, 59, 10, 113, 39, 4, -36, 27, -28, -8, 50, 63, -13,
    -17, 14, 38, -40, -23, 76, 13, 26, -5, 49, 67, 96, 127, 29, -37, 46, 37, 29, -55, 16,
    54, 50, -22, -48, -64, 23, 42, 0, 50, 1, 29, -2, -24, 31, -24, 41, -44, -39, -48, -40,
    -25, -15, -41, -42, -14, -5, -13, -43, -17, 44, 19, -37, 16, 2, -64, 16, 49, 7, -113, -51,
    -50, 56, -72, 27, -69, -68, -51, 39, 69, -39, -47, 44, -49, -75, -2, -50, -2, 29, -12, 30,
    41, 16, -13, 39, -69, -90, -23, 19, 66, 73, -9, -14, 24, 57, -26, 13, 56, 9, -17, 52,
    -13, -53, -3, 32, -101, 28, 15, -78, -64, -49, 39, 60, -37, 8, -63, 19, 38, 71, 44, 41,
    -96, -20, 10, -74, 35, -93, -47, 80, -78, 55, -22, 30, -58, 54, -13, 90, -66, -71, 22, 0,
    -30, -12, 19, -44, -55, -4, 63, 42, -76, 68, -100, -74, 53, 19, -61, 21, 49, -87, 93, -59,
    101, -5, -15, 127, 99, 23, 21, 7, 30, 14, -97, 42, -53, 6, -31, 73, 51, 0, 5, 22,
    -66, -19, 55, -16, 48, -70, 5, 55, 33, -79, 5, -37, -31, -30, -14, -58, -14, -4, -58, 22,
    22, 35, 17, 36, 28, 25, -22, 38, -16, 85, 9, -1, 67, 54, 82, -90, 71, 17, 85, -64,
    -77, -2, -16, -40, -30, -19, 52, 48, 24, 50, -63, 28, 59, 43, -81, -45, -4, 28, -45, 36,
    24, 9, 61, -79, -86, 123, 41, -14, 58, 75, -46, 14, 6, 5, -11, 21, 4, 20, 22, 64,
    -9, 127, -45, -53, 62, 20, 29, -15, 35, -33, 8, 72, -20, -92, -59, -1, -20, -44, 30, -48,
    12, -13, 102, -75, -75, 65, -52, 91, -8, -62, -64, -31, -47, -21, -28, 51, 93, 42, -1, -17,
    -53, 111, 1, 35, 77, 43, 26, -11, 19, -53, -63, -31, -81, 81, 6, -15, 57, -11, 17, 13,
    -10, 40, 64, 27, 71, 12, 48, -81, 14, -35, -47, -43, -7, 93, 72, -69, 29, -101, 33, -49,
    25, -105, -13, -14, -24, 18, 42, 14, 23, -12, -5, -4, -51, -61, -44, -32, -71, -77, -89, 9,
    37, -65, -22, 7, -5, -9, -88, -23, -11, -40, 3, 53, 19, 20, 18, 1, -3, 64, -4, 12,
    -12, -6, -3, 30, -22, 7, 16, 0, -2, 4, -69, -45, 3, -16, -83, -23, 26, 127, 34, 58,
    -16, 54, 30, 49, -41, 8, 6, 63, 2, 22, 4, -30, 38, -20, 41, -30, -16, -3, -67, -64,
    77, -36, 43, -62, -7, -3, 48, 35, 29, 23, 50, 27, -50, -13, -30, -26, -17, 12, 3, -6,
    -6, 26, -21, -52, 46, 10, -25, 38, -8, 17, 57, -13, 105, 79, 10, -45, 6, 22, -16, -17,
    32, 49, 24, 10, -69, -9, -89, 53, 4, 27, 14, 42, -61, 26, -4, -11, -42, -27, 58, -35,
    -62, -11, -17, -15, -15, -59, -5, -61, -20, 49, 25, -18, 12, -81, -4, -1, 13, -63, -37, 12,
    56, 49, -34, 32, -23, -55, -93, -5, -13, -18, 30, 106, -107, -72, 94, -21, 61, -28, -45, 27,
    3, 50, -27, -45, 50, 68, 36, -53, -1, 88, 29, -9, 59, -7, -18, 0, -1, -48, 8, -13,
    89, 14, 7, -34, -52, -81, -63, 89, 77, 58, -52, -24, -76, 50, 23, -17, 84, -53, -1, 15,
    0, -38, -30, 64, -5, -51, 36, -65, -18, -10, -68, -32, -27, 100, 9, -35, 55, -33, 63, -117,
    8, -46, -82, 61, 65, 38, 84, -12, 38, -75, -82, -81, 118, 101, 21, 120, -36, -127, -74, -32,
    -18, 55, -10, -39, -2, 15, 2, -76, -24, -17, 32, -53, 11, 18, -71, -34, -32, 14, 37, -22,
    50, -93, 47, 41, -58, 35, 31, -19, -66, -3, 58, -17, -12, -26, 20, 6, -127, -58, -103, 5,
    -85, 64, -11, 18, 3, -42, -39, 29, 4, 107, 10, -7, -28, 42, 102, 108, -22, -19, 29, 35,
    -20, -24, 2, 24, -45, -21, -69, 0, -15, -39, -86, -42, 9, 16, -5, -60, 22, -21, -34, -34,
    -31, 34, 52, -48, -64, 49, 62, -45, -43, -26, -80, 48, 7, -17, 62, -60, 38, 61, -50, -4,
    77, 57, -56, 16, 1, -56, 26, 38, 15, -72, 0, -22, 66, 58, 27, 42, 7, 67, -112, -12,
    -41, -10, -28, -68, -19, -50, 1, 7, 120, -33, 115, -79, -48, -84, -69, 48, 7, 48, 70, -10,
    20, -5, 11, -44, 60, 2, 63, -2, 32, -53, -15, 10, 9, -21, 45, -14, 49, 17, -53, -68,
    -8, -57, -28, -86, -3, -60, 2, 40, -90, 2, 35, 55, -9, -28, 1, 81, -76, 5, -40, 19,
    -1, 11, 56, -55, 39, 29, -3, -66, -10, -18, -41, 4, 83, -78, -31, -31, -75, -37, -50, -1,
    -85, 68, -31, -35, 10, -48, 0, -21, -24, -58, 12, -32, -64, -34, 33, 12, -3, -27, -82, -1,
    -46, -28, 22, -84, 35, 4, 31, -6, -66, 19, 35, 24, -51, 45, -25, 55, -1, -15, 38, 14,
    4, 38, -14, -40, -32, -45, 76, -94, 6, -4, 49, 77, -75, -6, 7, -31, 41, 32, 103, -23,
    3, -49, -29, -27, 28, 5, -10, 1, 5, -71, 33, -45, 7, -19, 61, 42, -127, -28, -5, 91,
    9, 28, -31, -19, 16, -6, -90, 45, 108, -29, -108, -40, -75, 43, 58, -67, -28, -32, -64, -35,
    24, 63, -74, 87, -8, -33, -22, 29, 26, -17, -64, -20, 42, -127, -39, 32, -118, -29, 14, 36,
    77, 47, 56, 7, -33, 39, -32, 79, -33, 33, -13, 3, -80, 2, 61, -68, 0, 53, -44, -8,
    89, 7, 10, -7, 9, 48, 64, 25, 1, -1, 25, 57, 45, 84, 31, 13, -66, -76, 60, -52,
    14, -79, -3, 47, -8, -10, -25, 19, -20, -88, -71, 56, -39, -30, -5, -36, -35, -81, 42, 9,
    60, -18, 24, 78, 3, -7, -28, 76, 18, 31, -99, -28, 0, -68, -73, -77, -11, -40, -74, 1,
    -15, 87, -77, 108, -48, -5, 48, -13, -34, 6, 2, -9, 10, -26, -65, 0, 14, -8, 49, -27,
    -23, -55, -100, 47, -6, 41, -22, 6, -71, -4, -8, 49, 70, -23, 27, 12, -46, 5, 74, -16,
    52, 6, 76, -11, 60, -11, -42, -10, 35, 7, -99, 80, -22, -70, -104, 53, 39, -33, 63, -2,
    45, -22, 30, -24, -37, 30, -21, -17, -4, 81, 62, -112, 71, 16, -27, 27, 1, 61, 38, 47,
    20, 38, 27, -45, -31, -23, 32, -4, -76, -1, -55, 30, -32, 8, 33, 43, -29, -15, 24, -7,
    58, -2, -41, -106, -109, 29, 48, -33, 62, 35, -26, 13, 79, -24, 127, -65, -41, -62, 28, -31,
    28, 98, -10, -52, 7, -38, -71, -20, -6, -61, 17, -64, 31, 23, 3, -38, 62, 42, 95, -1,
    -5, -52, -55, -92, 24, -13, 12, -27, 8, -90, 18, -38, -30, -49, 41, -7, -70, 22, 20, 20,
    -86, 15, -58, -101, -3, 127, -50, -119, 71, -21, 25, -25, 23, 36, -5, -36, 9, 7, -12, -93,
    41, 34, 46, -18, 99, 12, 12, 56, -81, -46, -30, 29, -4, -20, 2, 45, -34, -47, -72, 5,
    -5, -86, -14, 0, -37, 66, -15, 85, -15, 8, 1, -9, 6, -112, -53, 76, -25, -65, 54, 63,
    67, 12, 0, -4, 19, 3, -7, 5, -6, 9, -103, -62, 54, -24, -69, 82, 6, 17, 49, 13,
    25, -44, -33, -35, 5, 45, 55, -34, 35, 25, -55, -31, 22, -7, 67, -67, 25, -76, 17, 1,
    -74, 31, 55, -27, -27, 52, -15, 2, -32, 37, -49, -9, 46, 47, 6, -45, 20, -15, 51, -5,
    55, 43, 37, -5, 101, 30, -38, -90, -34, -49, 28, 47, 44, -82, -65, 127, -7, -14, 38, 34,
    -76, 41, 11, -37, -6, -14, 7, 45, 40, 70, 31, 21, -29, 67, 1, 9, -42, 34, 5, -5,
    -4, -9, -39, 34, 46, -35, -11, 42, 5, 1, 55, -22, 14, 35, -47, 41, 6, -61, 33, -39,
    37, 49, -36, -19, 6, -3, 30, 27, 17, 111, -59, -6, 19, 65, 57, 21, 47, -8, 21, 71,
    18, -57, 106, 10, 39, -39, 25, 8, 16, -17, -50, -5, -3, 13, 3, -58, 44, 6, -79, -38,
    -91, 92, -35, -26, 21, -6, -35, -33, 61, 5, -53, -37, -25, -100, 17, 53, -32, 55, 66, -29,
    46, 29, 7, -35, 13, 1, 1, -18, -2, -15, -127, -52, 23, 32, -28, -34, -12, -20, 42, -15,
    17, -27, -36, 26, 108, -72, -60, 16, -54, -8, -19, -19, 39, 6, -18, 16, -72, -58, -42, -5,
    12, -54, 75, -13, -53, 30, -44, 8, -11, 9, -57, -19, 39, -45, -4, 47, -33, -31, -16, -23,
    18, 43, -16, 61, -2, 48, -16, 13, 0, -19, 56, 14, -19, 12, 15, 35, -28, -40, 55, 9,
    20, 10, 43, 42, 10, 5, 16, -1, -55, -8, 7, -64, 32, 50, -30, -60, 1, -84, 22, 93,
    9, 15, -15, 24, -11, -19, 2, -46, -49, -82, 34, 33, 5, -26, -86, 40, -34, 44, 17, -49,
    -28, -2, 45, -41, 39, -30, -50, -50, 18, 27, -20, -38, 3, -60, -8, 37, 59, 2, -40, 93,
    15, 47, -51, -32, -3, 54, 3, -36, -17, 29, -11, 25, -14, 75, -6, -36, 7, -3, 34, -12,
    -65, 72, -58, -57, 58, -6, -25, -19, -3, -35, -33, 25, 32, -48, -43, -1, -49, -66, -30, 10,
    12, -48, -18, -60, 22, 61, 45, -19, -99, 20, 19, -2, -82, -64, -25, 46, -26, 52, 15, 5,
    -1, 18, -67, 78, 31, -20, 67, -50, -34, 5, 8, 27, -27, 12, 0, 34, 7, 21, -4, -17,
    22, -43, 18, 71, 26, -1, 2, 18, -15, -39, 13, 28, -62, -22, -35, 32, -54, 49, -68, 40,
    -20, 26, -39, -17, 2, 88, -127, 37, 25, -23, 7, 8, -3, 30, 76, 49, -32, 17, 64, 38,
    24, -64, 45, -96, -106, 26, -45, -77, -79, -16, 19, -32, -32, 26, -10, -34, -13, 66, -46, -98,
    8, -33, -9, -4, 19, -21, 20, -13, 13, 16, 53, -20, 40, 0, 73, 16, 125, 80, 44, 61,
    12, -36, -108, 28, 11, 31, -7, 22, 65, -24, -57, 7, -48, -29, -4, 51, 33, -5, -26, 0,
    -2, -43, -31, 31, 38, -70, 64, 56, -17, -32, -29, 19, 29, 27, 56, -1, -31, -58, -20, 6,
    10, 46, -53, 27, 59, 3, -32, 50, -64, -90, -55, -4, 26, -11, -36, 47, 59, 62, 34, 17,
    29, -6, -33, 28, 52, 36, 24, -39, 12, -68, -55, -91, 7, 34, 54, -127, -47, -27, -10, 65,
    -26, 6, 79, 6, 39, 32, 18, -14, -23, -2, 2, 21, 11, -49, 72, 20, -7, -27, -36, 3,
    -27, 33, -17, 54, -50, 1, -18, -50, 34, -42, 1, 5, -80, -83, 51, -101, 36, 6, -48, 8,
    -48, -29, 39, 35, 46, 26, 58, 1, -85, -24, 57, 1, 127, 44, -21, 37, -23, -6, -37, 39,
    -24, -70, -31, -109, 3, 34, -18, 27, -12, -21, 3, -9, 11, -38, 39, -29, -4, -47, -20, -23,
    1, -2, -31, 40, 38, -24, 52, -15, -28, 43, -9, -23, 58, -21, -52, -18, -30, 112, -7, -86,
    45, -55, 10, -33, -8, 11, -33, 37, 56, -20, 14, 8, 2, -60, -16, 68, 24, -19, -39, 17,
    -42, 98, -20, -38, -3, 42, 9, 20, -2, 22, -56, -14, 24, 62, 72, 51, 18, -41, -61, -63,
    24, 14, -1, 15, -62, 42, -8, -67, 7, 33, 28, -7, -27, -24, -42, -25, 49, -46, -1, 3,
    -75, 6, 45, -94, 35, 34, 51, -71, 3, -68, -1, 74, 97, -12, 40, 38, -55, 16, -12, 45,
    86, -35, -1, -18, -33, -4, -19, 57, -11, -8, 16, -127, -32, 30, -7, 22, -81, -3, 19, 7,
    127, -3, 67, 65, 48, 2, 13, 94, 52, 5, 49, 83, 26, 77, -21, 8, -45, 69, -49, -25,
    -30, 18, -27, -49, -38, 62, -5, -70, -11, -61, -25, -8, 62, 0, 33, 17, -81, -56, 17, 10,
    0, 82, 65, 40, -4, -40, -63, -73, -59, 23, 55, -78, -16, -40, 7, -43, -67, 35, -29, -16,
    -57, 10, -2, 1, -60, 22, -78, -16, 59, -65, 2, 14, 7, -86, 12, -12, -9, 16, -40, -69,
    40, 3, 79, -27, -73, -52, 25, 76, 70, -29, 15, 27, 80, -81, -32, 32, 65, -71, 24, -48,
    10, -127, -58, -25, 78, -44, -44, 86, -67, -79, 40, 30, 12, -7, 31, -7, 79, 0, -7, -2,
    60, -28, -54, -20, 52, -39, 49, -96, -12, 43, -105, 58, 15, 58, -58, 3, 28, 59, -89, 54,
    57, -39, 86, 11, -43, -32, -17, 94, -51, 92, 39, 30, 53, 29, 87, -62, -31, 36, 19, 37,
    -53, 50, 82, -8, 24, -103, 96, -93, -14, -119, -94, -68, 42, -36, 63, -115, -14, -124, 66, -53,
    -68, 12, 6, -10, -28, -37, 7, -10, -31, 32, -58, -55, -51, 29, 40, -83, 56, 95, 4, -6,
    -46, -4, 42, 51, -6, 70, 31, 93, -1, -49, 38, 43, 51, -18, 27, -45, -54, -32, -64, -25,
    30, 38, 23, 18, -67, 6, 22, 38, 38, 17, -82, -50, -32, -43, -29, 6, -12, -57, 56, -127,
    2, -9, 56, 17, -11, 45, -42, 7, -38, -10, -7, -27, 36, -4, 7, -1, -37, 83, -33, 54,
    -115, 22, 11, 27, -45, -43, -24, -5, -33, -34, -86, 95, 20, 124, -13, 2, -53, -11, 56, 14,
    -58, 91, 3, 29, 49, 92, 25, -57, 11, -32, 8, 51, 19, -18, 14, -20, -48, 21, -70, -11,
    7, 17, -9, 53, 38, -49, -54, -11, 65, 25, -25, 15, -35, -12, -56, -18, -38, 45, 2, -62,
    12, -31, 4, 49, 42, -93, 15, -22, 66, 40, -26, -61, -103, 1, -31, 49, 55, 6, -28, 53,
    -29, -18, -59, -19, 7, -8, 41, 42, -26, -9, -54, -3, 56, 2, 26, -26, -13, 40, -8, 12,
    -13, 8, -14, -78, -42, -61, 64, 98, 34, -72, -9, 60, 38, 65, 38, 17, 51, -29, -18, 21,
    12, -5, -58, -22, -88, 48, 29, 10, 4, 53, -66, 54, 69, 12, 78, 6, 52, -31, -14, -55,
    -62, 2, -13, -45, 52, 50, 1, -34, 64, -22, -68, 37, -10, 23, -31, 36, 96, 14, -3, -5,
    21, -4, -6, -10, -40, 23, -26, -69, 86, 5, 63, -62, 13, -69, -78, 17, -22, 2, 84, 67,
    22, -26, 127, 11, 29, 13, 5, -30, -3, -19, -37, -28, 54, -99, -24, 11, 67, 79, 20, -36,
    -15, -43, 55, 106, -6, -63, -26, -71, -86, 38, -13, 91, -92, 54, -55, -107, -84, -23, -24, 9,
    -40, -74, -32, 40, 5, -26, 37, 63, -24, 72, 43, 22, 8, -47, -114, 13, -66, -46, -44, 38,
    56, -48, 22, -13, -35, -45, -34, 31, 2, -119, -52, -43, 29, 33, 10, -1, 20, 61, -9, -1,
    48, 10, 10, -13, 73, 18, 5, -45, 8, 0, -74, -49, 84, -90, -25, 76, 62, 16, 66, 51,
    43, -1, -127, 73, 13, 25, -110, 48, 80, 16, -51, -30, -5, -17, 98, 101, 12, 20, -34, -80,
    -26, 76, -42, -106, 25, 68, 44, -30, -50, 81, 35, -67, 44, -46, -35, 8, -6, -11, -3, -77,
    26, 47, -84, -10, -75, 22, -18, 43, 45, -12, -39, -25, -15, 88, 8, 0, 41, -39, -62, 58,
    13, 14, 23, -38, 17, 1, 70, -14, 34, -17, -75, 96, -2, -75, -11, -76, -89, -16, -20, -34,
    0, 4, -49, -101, 80, 7, -30, 1, -12, -3, -86, 103, -18, -30, 52, 50, -22, -40, -18, 33,
    2, -37, 2, -12, -30, -75, 46, -23, 24, -116, 0, -88, -38, -21, -22, 51, -57, 8, -17, -52,
    12, -17, 59, -37, 16, -26, 30, 127, 20, -27, 11, 47, -26, 32, -69, 10, 31, -26, -33, -83,
    -22, -71, 10, -14, 37, 82, -3, 60, 79, 52, -89, 43, 53, -16, 74, 3, 102, -25, -12, -114,
    11, 21, -34, 11, 22, 15, 23, 8, 40, -5, 15, -22, -4, 3, -40, -8, 0, -45, 25, 20,
    46, 57, 26, -15, -13, 48, 122, -81, -5, -7, 25, -3, -12, 83, -45, -86, 70, -61, 70, -14,
    -30, 34, -42, 30, 63, 42, -62, 8, 67, -27, 13, 38, 36, -10, 22, -13, -61, -10, -6, -20,
    19, 90, 30, -5, -67, 44, -14, -24, -63, 33, 35, 43, 21, 3, -64, -79, 36, 50, -33, 71,
    -120, 72, 14, -21, -54, 0, 24, 98, 72, -60, -20, 31, -69, -55, -62, 23, 37, 16, 45, -11,
    16, -18, 15, -51, -17, -127, 7, 2, 120, 1, -87, 4, -48, -63, -33, -4, -31, -71, 85, 19,
    49, -3, -27, 29, 0, 23, 16, 19, -92, 0, -35, -1, 13, -36, -11, 32, -48, -61, 71, 23,
    87, -21, 76, -17, -127, 0, -59, 16, 54, 47, 10, 22, -64, 42, -6, 79, -85, -24, -39, 45,
    -38, -35, -91, 15, 8, -51, 33, 17, -41, -84, 19, 26, 76, 44, -38, 26, -73, -5, 7, 35,
    -30, -34, 23, -21, 27, -3, 34, 38, 39, 8, 1, -44, -72, 25, -53, 21, -60, 19, -40, 33,
    34, 32, 61, 60, 92, 34, 48, 55, 61, 29, 69, -22, -12, 83, 1, -14, 102, 27, -86, 78,
    -32, 23, 111, 78, -52, -18, 18, 18, -36, 48, -15, 2, 24, -40, -50, -80, 38, -4, -93, -74,
    96, -77, 29, -20, -14, -20, 56, -4, -61, -74, -96, 60, -11, 27, 44, 55, -19, 20, 42, 4,
    -28, -6, -38, 8, 16, -27, 4, 67, -38, -47, 23, 6, -14, 11, -30, -56, 7, 17, 34, -28,
    14, 15, -8, 34, -16, -6, 15, 9, -42, -3, -32, -41, -32, 29, 50, -5, 15, 18, 58, 5,
    35, -55, 38, -17, -15, 25, 14, -18, -46, -5, 16, -16, -3, 37, 44, 0, 52, -6, -15, -6,
    -127, 8, 22, -61, -28, 4, -45, -18, -39, -26, 65, -57, 10, 36, -60, -18, -78, 41, -50, -3,
    68, -23, -51, -43, 26, 12, 0, 34, -43, -28, 21, 46, 10, 22, 52, 10, 23, -35, 28, 72,
    21, 43, -44, -14, 22, -4, -99, 13, -39, -20, -12, 1, 71, -4, 35, -21, 13, 63, -65, 36,
    70, 2, 17, 3, 50, -10, -21, -48, -10, -56, 6, 20, -98, -62, -35, 4, -8, -69, -36, 59,
    113, -40, 11, -58, 38, -19, -127, -80, -17, 33, 28, 41, 37, 57, 42, 7, -4, -13, -75, 10,
    27, -50, -3, -29, 13, -109, 7, 110, -27, 10, 66, -80, 7, 29, -55, 64, 31, 111, 18, 70,
    15, -62, 53, 0, 81, -10, 3, -19, 25, -3, 51, -14, -64, -98, -5, -49, -38, -95, -49, 67,
    -50, -27, 30, 14, 2, -6, -14, -62, -24, 37, 30, -71, -105, -45, 40, -69, -20, 76, 24, 28,
    -4, -39, 38, 30, -28, -19, 14, -40, -15, -5, 27, 50, 33, -49, -22, 83, -77, -1, -35, 3,
    -81, 80, -2, 15, 26, 43, 34, -60, -12, 15, -100, -36, -22, 17, 23, -36, -42, -74, -111, 8,
    -32, -7, 33, 4, 54, 9, 28, -42, 18, 10, -127, 10, 11, 13, -113, 11, -6, 92, -19, 69,
    -26, 13, -98, -72, -34, 60, -48, 7, 42, -23, -40, 54, -61, -97, -36, -104, 14, 95, -27, 28,
    5, 3, 17, -50, 28, 28, -13, -3, 9, 53, 27, -18, -4, -53, 5, 37, -7, 9, -27, 72,
    -7, 48, -41, 6, 26, -33, -80, -20, 21, 13, 72, -80, -25, 28, 90, 12, 30, 44, 38, 5,
    53, 40, -31, 41, 65, 11, 0, 112, 30, 63, -49, -37, -53, -54, 95, 121, -8, -98, 34, 41,
    7, 80, -20, -8, 29, -20, 10, -39, -54, 3, -32, -62, 54, -58, -3, 33, -70, 47, 52, -16,
    -20, 21, -42, -27, -24, -16, 65, 22, 48, 56, 55, 35, 37, -7, 69, -17, 24, 19, 75, 25,
    28, 0, 27, -28, -52, 26, -61, 3, -3, -25, 76, -18, -97, 65, 62, -97, -17, 52, -79, 13,
    20, 64, -54, 54, -52, -83, -23, -30, -38, -39, -40, -58, 6, 41, 44, -22, -14, 27, -29, -23,
    -9, -22, -7, -1, 50, 8, 27, -65, -3, -65, 22, 55, 12, -26, -45, -13, -10, -3, 48, -110,
    -64, -31, 0, -62, -45, -62, -80, 72, 42, -22, 56, -112, 2, -82, -127, -60, 121, -11, 26, -62,
    -31, 47, 58, -19, -11, -14, -38, 114, 44, 28, 17, 55, -43, 23, 16, 23, -14, 103, -7, -20,
    112, -11, 127, 9, 78, 43, 44, 78, -41, -61, 21, 6, 63, 19, 34, 13, -39, 17, 28, 20,
    -38, 70, 0, -20, -61, -42, -9, 22, 58, 37, -2, -5, 67, 12, 44, 47, 43, 100, -53, 11,
    -71, 17, 73, -5, 64, -16, -109, 26, -2, -77, -48, -33, 25, 41, -4, 26, 19, -95, -31, 89,
    -19, -36, 40, 28, 17, -5, 7, 57, 37, 30, -5, 33, -52, -17, 9, 8, -100, -80, 38, -91,
    69, -18, -77, -31, 29, 46, 21, 127, -16, 46, -2, 14, -93, 51, -4, 34, -11, -69, -47, 23,
    8, 10, -52, -118, 6, 41, -24, -27, 14, 93, 68, -47, -20, -7, -18, 40, -90, -1, -3, -17,
    45, -8, -41, 60, -21, -57, 17, -31, -30, -62, -9, 37, -13, -8, 57, 81, 0, 42, 17, 54,
    21, 37, 54, 33, 26, 56, 29, 35, 56, -62, 32, 1, 71, -43, 12, 66, -35, -9, 90, -12,
    -39, -69, -47, -28, 8, 13, -9, -5, -24, -32, -14, 10, -29, 0, 54, 16, 31, 35, 15, 3,
    28, 21, -44, 22, 21, 28, -72, -6, -46, -11, 28, 30, -23, -50, 9, -7, -25, 2, -22, -55,
    -61, -42, -78, 70, -19, 4, 87, 81, -16, 15, 99, -4, 19, 7, -12, 7, -10, 49, 6, -1,
    116, -35, 59, 9, 26, -3, -71, 26, -23, -15, 58, 13, -84, 19, 19, -16, 8, 6, 2, -78,
    41, 4, -20, -11, 3, -35, 98, 25, 127, -6, -45, -12, -74, 28, 40, 29, -25, 72, -74, -76,
    47, 15, -61, 65, 18, -14, -88, 19, -7, 39, -2, -71, 25, 23, -69, -22, 51, 11, -7, 3,
    14, 0, -13, 60, -31, -18, 40, 65, 37, -56, 20, 16, -10, -14, -47, -37, -34, -9, 47, -1,
    33, 42, -42, 53, -101, -127, -46, -23, 21, 98, 47, -53, -48, 54, 56, -28, 29, 6, -62, 32,
    5, 18, -2, -10, -36, -10, -29, -59, 20, -27, -63, 59, 9, -15, -15, -66, 21, 24, 6, -23,
    12, -33, -30, -94, -11, -16, -35, 6, -3, -65, -11, -18, 51, 14, 24, -71, -12, 16, 13, 43,
    -28, 62, 11, 7, -76, -4, -73, -34, -104, 73, -4, -41, -13, -30, 12, 55, -34, 52, -37, 54,
    -17, -27, -36, -14, -1, -46, -26, -4, 123, 38, -10, 28, -12, 6, -18, 35, -50, -10, 81, -17,
    -56, -32, 81, -23, -79, -33, -42, 127, -22, 32, -40, -23, 30, 69, -11, -2, -12, 20, 17, -2,
    5, 57, 30, -43, -5, 2, 27, 26, -29, 20, -3, -5, 27, -5, -51, -22, 25, 19, 4, -67,
    -1, 40, -54, 18, 56, 27, -105, -83, 27, 92, -110, -25, 96, 0, 84, -23, -43, 12, -35, -40,
    -42, -74, -67, -4, -69, -13, -46, -1, 9, -3, -109, 41, -7, 30, 22, -32, 38, -7, 16, -40,
    21, 7, -18, 76, -59, -41, -6, 2, 5, 47, 26, -43, 24, -33, 18, 10, 55, 40, -91, -29,
    39, -7, 17, 88, -8, 53, -38, -20, 0, -55, -34, 17, 30, -3, -50, 49, 27, 61, -18, -35,
    22, 47, 21, -68, -58, 5, 35, 28, -56, -37, -4, -29, -7, 31, 4, 18, -26, -26, -49, -21,
    46, 39, -55, -21, 127, 30, -59, 16, 18, 18, -99, -14, 51, 42, 59, 23, 20, 3, -30, 10,
    -39, 33, -15, 25, 9, 8, 16, -47, -14, 1, 13, 25, 19, 36, -100, -5, 23, 51, 23, 2,
    30, -18, 6, 38, -63, 40, -56, -47, 6, -14, -64, -5, -20, -33, 4, -28, 34, -77, -12, 43,
    -48, 8, 15, -26, 43, -2, -2, 25, 1, -26, 30, 28, -59, -73, 49, 4, 33, 11, 22, 7,
    -9, -19, -14, -39, 17, 34, -41, -36, 16, -1, -18, 78, 13, 34, -15, 47, 0, 35, -27, 11,
    41, 25, -36, 56, -23, 44, -1, -39, 69, 51, -27, -4, 0, -6, 38, -2, 2, -4, 13, 30,
    44, 52, 7, 29, 0, -44, 13, 54, 50, 26, 1, 35, -47, -61, -100, -34, 9, 20, -3, -64,
    -9, 22, -40, -41, -27, -14, -41, 38, -17, -34, 0, 31, -15, 51, -22, 52, 15, -80, -9, 59,
    -62, 23, -48, 56, -42, -18, 127, -84, -41, -42, -21, 83, -38, -73, -33, -42, 11, 49, -25, -49,
    92, 44, 1, -52, -2, 40, 3, -5, -47, 99, -40, 12, -22, -12, -41, -77, 16, -103, 30, -11,
    -14, -8, -53, 81, -26, 7, -22, -47, 8, -3, -47, 43, 32, 11, -53, -50, 81, 47, 5, 9,
    -29, -5, 14, 13, 28, -39, -28, -15, -12, 33, 27, 27, -33, 63, 32, -37, -42, -23, 37, -114,
    24, 41, 37, -7, 13, 52, 8, -9, -2, -26, 8, 112, 64, 8, 36, 32, -21, -44, 17, -37,
    33, 8, -38, -47, -18, 0, 11, 50, -31, 15, -25, 32, -8, 44, -11, -7, -18, 23, 26, 32,
    -29, -37, -23, 6, 8, 11, -103, 18, 25, -24, -6, -44, 28, 21, -52, -29, 15, -36, 23, 8,
    5, 4, 38, 60, 12, -50, -61, -8, 3, -54, -51, -23, -19, -117, 78, -30, -48, -32, -105, -89,
    -37, -34, -48, 15, -32, 37, 109, -38, 5, -68, -12, 4, 127, 4, 47, -4, -30, 9, -1, -15,
    -64, 2, -40, 55, -22, 12, 9, 80, -23, 16, -39, 4, 0, 67, 30, -26, 70, 45, 99, -7,
    42, 7, 22, 7, -20, -29, 27, -88, 22, -1, 4, 27, -52, -43, -82, 66, 16, -96, -32, 83,
    35, 43, -52, 32, 36, 7, 19, 55, 39, 18, -21, 36, 8, -7, 32, -11, -30, -33, 35, 36,
    -26, -83, -63, -68, -23, 10, 20, -64, 18, -32, 3, 46, 6, -11, 41, -34, -29, 60, -36, -31,
    34, -125, -100, 29, 9, 99, 127, -89, -22, 57, 62, 9, -3, 57, 15, -14, -96, 0, 10, 3,
    -56, 19, -5, 46, -68, -3, 10, 15, 115, -25, -27, 39, -31, -41, 16, 2, -73, 32, 75, 54,
    -28, -4, 95, -48, -11, -91, 24, 38, -5, 9, 103, -51, 24, -10, 13, 61, -80, 43, -17, 98,
    47, -43, 43, -11, 35, 35, -19, -17, -26, 30, 50, 5, 7, 97, 15, 112, -27, 34, -57, 96,
    91, 21, -10, -40, -1, 38, 51, 48, -23, -18, 18, 58, 60, -31, 58, -59, -24, -33, 15, -32,
    -20, 43, 90, -48, -70, 65, -38, -24, -90, -4, -5, -20, -11, 30, 54, 63, -84, -15, 90, -51,
    116, -19, 74, 55, -49, -53, 12, 107, 32, -127, 71, -110, 4, 4, -76, 85, -62, 1, 50, -46,
    14, -16, 67, -34, 118, 21, -4, 30, -5, 2, -40, 39, 21, -27, 75, -64, 64, -34, -55, -95,
    -8, -40, -1, -36, -101, 17, -50, -101, 46, -84, -87, 38, -60, -30, 10, 105, 6, -15, 4, -114,
    -43, -89, 36, 79, 14, -9, 30, -84, 9, -3, 35, -100, -33, -33, 54, -37, -44, -42, -71, -31,
    0, 99, 31, 16, 27, -15, 37, -13, 4, 6, 27, -64, -88, -2, 19, -3, -28, 23, -2, -107,
    60, 94, -26, -53, 22, -1, 13, -17, 26, -34, 2, -49, -10, -10, -68, -56, 34, -35, 70, -7,
    127, 51, 50, -6, -7, -46, 19, 27, 64, 39, -38, 0, -12, 13, -33, -36, -11, -72, 12, -6,
    -2, 3, -13, 89, -78, -34, 27, -80, 16, -44, 48, 55, 13, -79, 8, 0, 19, 13, 2, 102,
    21, 6, -3, -22, -5, 62, 3, 2, 28, -22, -15, 20, 14, 6, 45, 20, 26, -11, 13, 9,
    51, -16, 75, 13, 45, -20, 6, 6, 31, -32, 52, 38, 46, -24, -92, -15, -59, 33, 68, -41,
    -6, 13, 6, 10, -64, -12, 18, 20, -25, -16, 12, 57, -44, 10, 16, -7, 15, -34, 55, 5,
    -8, -52, -7, -67, -66, 7, 41, -34, 49, 46, 12, 14, -22, 25, -2, -30, 54, 58, -11, 46,
    -59, 25, 15, -24, 41, -14, -50, -6, 35, -36, -33, 15, 7, 12, -17, 31, -46, -26, 29, 21,
    -49, -36, 16, 32, 23, -33, 28, 9, 33, 32, -18, 21, 21, -28, -37, -60, -43, -59, 64, -127,
    -13, -41, -76, -27, -24, 45, 65, 21, 59, -15, -1, -75, 15, 45, -25, -3, 14, -86, 15, -78,
    84, -58, -58, 20, 46, -19, 23, -59, -14, 42, -23, 2, -2, -7, -5, 33, -8, -31, -34, -56,
    -4, -22, 23, -39, -47, 8, -94, -15, -31, -19, 74, 34, -8, 2, 28, 56, 106, 30, -37, -47,
    19, -72, -7, -26, -35, -53, -23, 31, -36, -20, -127, 52, -63, -8, -18, 42, 53, -23, -41, -44,
    34, -26, 20, -4, -60, 71, -19, 15, 49, -27, -41, 16, -24, 23, -7, 78, -29, 6, -7, 10,
    -29, 6, 46, -60, -13, 6, 52, 2, -8, 87, 18, 21, 10, -30, 35, 28, -42, 44, 46, -1,
    42, 63, -10, 17, -26, 39, -53, -48, -3, -4, -29, 18, -9, -72, 19, 69, 13, -10, 11, 22,
    22, 36, -36, -84, -59, -53, -43, 6, -4, 70, 1, -58, -54, 26, 70, 2, -52, -21, -50, -2,
    13, 15, 6, -51, -52, -64, 18, -34, 45, 53, 40, 29, -45, 3, 16, -7, -31, 56, 25, -55,
    -28, -9, -15, -1, -14, -40, -59, -34, 2, 53, -28, -57, 32, 41, 16, 76, 12, 41, -35, 34,
    13, -51, -2, -48, -46, 6, 5, 44, -70, 77, 16, -19, -50, 21, -17, 41, -6, 97, 34, -64,
    55, 1, 21, 72, -63, -115, -30, -65, -7, 113, -39, 12, -34, -15, -43, -44, 63, -29, 56, 51,
    -6, 25, 26, 22, -63, 71, 43, 36, -52, -71, 50, 98, -13, 69, -12, 11, 82, -21, -27, -1,
    -1, -29, 127, -8, -64, 67, 52, 62, 15, -43, 40, -16, 31, -24, -47, 22, 39, 104, 104, 24,
    -32, 8, -50, 31, -21, 9, 36, 86, -73, -11, 4, 0, -14, 34, 72, -13, -31, 75, 22, 48,
    6, -7, -34, 58, 41, -59, 6, 43, 9, -4, 36, 15, -17, 52, 6, 23, -39, -45, -62, -20,
    -15, -61, 24, -2, 6, -20, -11, 15, -35, -28, -17, -65, 35, -7, 22, -1, -48, 26, -12, 41,
    42, 15, -23, 23, 34, -59, -39, 22, -5, -6, -50, -24, -20, 1, -3, 45, 45, -9, -1, 11,
    -7, -7, -15, 49, 42, 60, 1, -27, -17, -19, -54, 0, 13, -16, 42, 16, 29, 10, 54, -30,
    -10, -31, 31, 21, -41, 2, 44, -11, -25, 21, -27, 10, -5, 4, -9, 50, 18, 19, 4, 3,
    -32, 43, -14, 20, 25, -12, 12, -10, -3, 7, 127, 21, -34, -34, 28, -5, -37, 19, 37, -16,
    28, 41, -43, 24, -19, -37, 43, -28, 15, -18, 2, -10, 0, 9, -8, -62, -20, -9, -18, -55,
    -7, -22, -7, 35, 20, 38, 15, 41, -38, 19, -42, -55, 43, -127, -50, 83, 2, -1, 15, -27,
    28, 7, -13, 10, -22, 81, 39, 24, -13, -8, 22, -22, -2, 0, -9, -37, -21, -3, -73, -27,
    31, -15, -17, 17, 1, 41, 4, -3, -40, 37, -20, -16, -39, -36, 33, -27, -33, -33, -75, 1,
    -3, 29, 85, 27, -17, -5, 18, 54, 24, -121, -34, -12, -101, -39, 19, 38, -45, -8, -60, -59,
    -66, -19, 17, -51, -5, -13, 20, 69, -13, -6, -44, -19, 71, -26, -36, -32, -29, 5, 6, 43,
    -3, -3, 46, -14, 22, -59, 40, -7, 6, -12, -26, -3, -49, 57, 40, 7, 52, -21, 7, 29,
    36, -6, 39, -50, 41, 62, -8, 24, -24, 31, -13, 15, -57, -15, -71, -51, 17, -64, -6, 5,
    56, -14, -10, -43, 4, 3, -36, 17, 0, 22, -13, -3, -37, 50, 36, 8, 30, 28, -30, 5,
    -57, 59, 8, -77, 9, -38, 7, 6, -33, -12, 11, -8, 24, 26, -43, -7, 2, 22, 7, 59,
    4, 91, -35, -40, -6, 29, -44, 3, -60, 75, 62, -10, 39, -4, 17, 60, 3, -47, 17, 15,
    3, -3, -1, 10, 13, 49, -13, -34, -64, 20, -24, 69, 3, -29, -5, 11, -42, 32, -24, 20,
    -117, -35, 22, 25, -77, 6, 27, -23, 0, -127, -40, 46, -14, 47, 81, 43, 41, 51, -16, 9,
    6, -54, 40, 8, 35, -19, -43, -2, 79, 57, -13, 3, 29, 60, -12, -24, 26, 3, -127, -16,
    -5, -47, -32, 2, -30, 11, -29, -12, 27, 30, 28, -88, -40, -22, 40, 53, -16, -31, 10, 45,
    -34, 13, 77, -40, 25, 11, -3, 6, 49, 7, 61, 2, 6, 77, 58, -49, -65, -40, -21, -2,
    -25, 7, -21, 10, 32, -41, -3, 26, 38, -19, 8, 39, 5, -82, 28, -61, 4, 36, -16, 13,
    -79, 29, -57, -19, 15, 38, 47, -65, 31, -18, 9, -23, 98, 28, -26, 84, 25, 24, 5, 18,
    9, -41, -56, -56, -38, -83, -25, 54, 30, -41, 45, -8, -68, 8, -17, 25, 37, -31, 16, -5,
    18, -25, -35, -40, -39, -7, 31, -60, 17, -1, -55, 39, -58, -10, 7, 23, -49, -6, -41, 34,
    -57, 58, 12, -61, -55, -127, 54, 23, -31, -41, 57, 63, -87, -14, 94, 111, -36, -63, 11, 68,
    -20, 27, 20, -13, -15, -8, 45, 20, 72, 22, -46, 98, 51, -28, 1, 0, -27, -10, -31, -86,
    -54, -71, 28, -51, 21, -67, -63, -3, -82, -56, 7, -41, -21, -7, -29, -74, -32, 0, -14, 22,
    126, 15, -71, 29, 66, -4, -55, -117, -39, -18, 22, 51, -30, 64, -18, -18, -76, 71, -45, -57,
    74, -16, 14, -6, 33, -24, -45, -88, -5, 38, 9, -29, 26, -66, -65, 13, -71, 20, 22, 48,
    48, 16, 67, -64, -18, 0, 61, -30, 3, -24, 8, 46, -53, 11, 33, -13, 6, -2, 14, -53,
    -59, -80, -24, 87, -13, 77, -4, 55, 46, -13, 85, 43, -66, -57, -7, -4, -32, -86, 24, 0,
    60, 115, 28, -21, 3, 3, 29, 101, 14, -20, 37, 79, -8, -66, 119, -94, -33, -48, 36, -53,
    113, 10, 69, -25, -5, -40, 26, 40, -127, -5, -33, 16, 46, 67, 62, 60, 33, -112, 48, -20,
    50, -34, -29, -80, 20, -18, -61, -71, 6, 48, -72, -70, -23, -48, -20, -73, 12, 74, -12, 21,
    -24, 15, -49, 34, 39, 4, -98, -38, -25, -43, 39, -28, -77, 36, 14, -22, -69, -97, -84, 43,
    3, 31, 72, -44, 78, -104, -13, -91, 2, 32, 23, -22, -33, 16, -12, 3, 0, 43, -17, 5,
    17, 47, 51, 73, -15, -3, -47, 27, -77, 35, 38, 27, 84, 15, 37, 0, -4, -6, 61, 22,
    -14, -27, 27, -77, 53, -31, 20, 68, -6, 83, 47, -80, 32, -16, -24, -9, 65, 56, 43, -22,
    -20, 27, -86, -42, -65, 46, -8, -11, -102, -33, 19, -59, -45, 39, -89, -23, -21, 90, -12, 28,
    45, 70, 12, 67, -39, -39, 26, 52, -16, 66, 11, -13, 47, 24, 55, -11, 64, 68, -35, -39,
    -46, 5, 26, 20, 36, -19, -19, 115, -33, 2, -30, -4, -32, 37, 11, -25, 23, -26, 8, -41,
    51, 7, 8, 6, 82, -74, -88, 35, 13, 27, 102, -51, 23, -45, 35, 34, 45, 0, -52, -41,
    -127, -49, -50, 78, 25, 32, -40, 75, 86, 54, 62, -1, -7, 11, -27, 48, -40, 117, -53, -72,
    10, 39, 9, 47, 67, 49, 30, 48, 8, -72, 39, -10, 49, -27, -12, -43, -26, 11, -33, -49,
    38, -50, -25, -19, -26, -28, -29, 0, -3, -59, -21, -42, 36, 14, -82, 7, -81, -49, 29, -23,
    11, -17, 23, 14, 21, -2, 40, 9, -4, 43, -40, -63, -42, -25, -27, -8, 16, 27, 13, -34,
    -15, 30, 32, 12, -44, -30, -12, 3, -15, 59, 54, -29, -7, 64, 73, 9, 50, 31, -18, -46,
    15, 27, -43, 32, 11, -21, -11, 16, -15, -2, 35, -9, 7, -12, -7, 52, -65, -43, 21, 52,
    -27, -17, 72, 38, 17, 21, 9, -2, -2, -55, 3, 56, -38, 2, 18, -17, 127, 38, 63, -31,
    -29, 54, 46, 33, 46, -9, 54, 3, -14, 6, -51, 49, -6, -14, 25, -8, -10, -79, -24, -24,
    39, -2, 24, -33, 40, 14, 16, 9, 28, 69, -96, -24, 9, -96, -127, -11, 6, 20, -12, -1,
    -116, -11, 13, 32, -92, 56, 11, -5, -10, -36, -49, 11, -11, 42, -41, 16, 4, 24, -13, -58,
    60, 27, 58, -38, 16, -47, -33, 0, 69, -15, 13, 4, -90, 10, 29, -13, 20, 40, 15, -51,
    -15, -30, 41, 17, -6, 11, 4, 79, -19, -17, 32, -69, 16, 22, 34, 27, -75, 20, 7, 69,
    -34, -37, 45, -65, -84, -35, 31, 46, -13, 40, 4, -21, -57, 90, -60, 73, 45, 3, -5, 31,
    -12, -44, -57, -2, -29, 55, -35, -78, -55, 4, -73, -29, 21, -80, -69, -20, -24, 4, -11, 0,
    -30, -1, 33, -3, -2, 6, -36, -65, -69, 25, 34, -19, -85, 1, 6, 23, -79, -16, -87, 41,
    -43, 8, 47, -10, 63, -14, -69, -5, 62, -41, -42, -55, -59, -42, -4, -93, -45, -9, -30, 90,
    -91, -4, 11, 5, 19, 46, 9, 37, -49, -33, 37, -54, 46, 43, -50, -3, -16, -24, -21, 22,
    -127, -22, 24, -66, -25, 1, -35, 24, 46, 24, -5, -6, 21, 17, 4, 2, 28, -86, -7, -18,
    41, -23, 22, -31, 48, -11, 18, -68, 14, -24, 19, -25, -10, -8, -19, -58, -13, -24, -66, -51,
    39, 18, 79, -2, -3, 66, -78, -55, 27, 63, -32, 14, -125, -40, 34, -15, 11, -18, -6, -15,
    -68, -13, -25, -16, -51, -13, 5, -42, -18, 67, 37, -67, 14, 33, 21, 29, 38, 15, 42, -21,
    -11, 26, -61, 5, -59, 8, -28, -23, -18, -43, 1, 83, -10, -45, 6, 10, 26, -3, 0, 10,
    -43, 44, -28, -26, 28, 14, -57, -7, -10, 38, -43, 51, 76, 15, -25, 4, -19, 21, -22, -33,
    127, -34, -62, -9, -36, -47, -23, 18, -45, -22, -16, -15, -20, -17, -33, 45, 0, -39, -28, -26,
    1, -37, -43, -69, 50, 12, -22, 5, -12, -3, 33, 28, 46, 26, 14, -34, -27, -10, 10, -57,
    -27, -24, -50, -21, 83, 44, -4, -45, -17, 36, -4, -31, 6, -13, 11, 81, 40, 83, 40, -9,
    34, -99, -5, 58, 36, 68, 33, -11, 14, 2, -93, 22, -10, 7, 75, 6, -7, -4, -24, 85,
    24, -9, 26, 87, 12, -14, -9, -36, -11, -40, -42, -46, -21, -49, 4, -21, 9, 43, -21, 14,
    -46, -17, 18, -31, 31, 70, -20, -10, -36, -31, -13, 32, 52, 64, 57, -59, 65, -48, 19, -33,
    -66, 28, 42, -5, 26, 25, -75, 32, -28, 8, 33, 32, 47, 46, -17, 39, -13, 7, -2, -16,
    -43, 112, 22, -32, -51, 59, 10, 28, 15, -34, 50, -22, 119, 8, 14, -4, 11, 43, 13, -29,
    -127, 54, -18, 19, 38, -5, -62, 2, 2, -9, -28, 31, -30, 16, 54, 12, -62, -35, 30, -22,
    41, -84, 25, 75, -15, -36, 5, -31, 29, 41, -22, 8, -92, -33, 18, -6, 86, -50, 41, -39,
    44, -65, -71, -22, 5, 30, -39, -2, 7, -3, -102, -79, -127, -99, -16, -33, 43, -30, 47, -120,
    -9, 0, -28, -99, -1, 9, -10, 57, -60, 24, -19, 44, -47, -96, 73, -13, -2, 17, 2, 3,
    30, 83, 25, 11, -13, -79, 26, 108, -124, -54, -76, -54, -42, 27, 48, 57, -62, -38, -90, 23,
    -17, 9, 45, 36, -72, -29, 87, 38, -84, 31, -28, 26, -5, 58, 27, 10, -7, -1, 63, 15,
    62, -67, 113, -25, 20, -16, -4, -91, 51, -34, -31, 75, 39, -57, 20, -42, 68, -57, 79, 28,
    -44, -37, 17, 107, 60, -16, -25, 19, -49, 105, -63, 82, -1, -20, 12, -22, -7, -27, 37, 30,
    -13, 27, -68, 4, 14, 10, -9, -36, -46, -73, -2, 52, 14, 16, 76, -45, 31, 41, 51, 51,
    -47, -45, 25, -21, -55, -22, 35, 2, -63, 70, 19, 52, 4, 37, 28, -18, 28, 5, -13, -2,
    54, -45, 18, -12, -75, -127, 40, -45, 15, -22, -15, 11, -54, 12, 1, 33, 64, 11, 39, 1,
    -7, -66, -51, -17, 121, -73, -13, -11, -10, -57, -26, -28, -110, 15, -20, -67, 42, 27, 7, -13,
    2, -24, 8, 38, 35, 17, -6, 16, -53, -122, 15, -37, 104, -60, -58, -49, -14, -27, 107, 45,
    -36, -43, 53, -59, -2, -24, -9, -96, -39, -4, -27, 12, -28, 6, 51, 8, 42, -3, -97, -18,
    14, 92, 28, 14, -12, -66, 46, 28, -31, 54, 68, 4, -59, 21, 41, -34, -49, 27, 7, 30,
    -36, 35, 43, 29
};

alignas(16) static NS_PUT_IN_TCM int32_t conv_3_bias[] = {
    877, -24, 4679, 2084, 4050, -3403, 6739, 5773, 7236, 2344, 111, 608, -6480, 7218, 4539, -626, -934, 6218, 2210, -215,
    6135, -2244, 6653, 6603, 7104, 7329, -14313, -459, -1121, -3379, -3546, 1804, 7385, 5838, -351, -3746, 3950, -2046, -5178, 1252,
    -3752, 3273, 1284, 1978, -2264, 3138, -8038, 3369, -8580, -642, 6970, -4767, 5103, -242, 7388, 2820, 3940, 251, -2302, 2267,
    1136, -8953, -2216, 8728, 2162, 554, 6408, -7357, 6424, -4763, -3350, -5630, -5670, -5024, -14978, 4862, -698, 884, -13161, 1313,
    -4241, 2783, 6712, 278, -4116, 7389, 781, -3481, 407, 6785, -10547, 2067, -16488, -423, 10589, -4242, -10484, 418, 8862, 6949,
    -9713, -5037, -2512, 333, -690, 2759, -1027, -4046, 6501, -2454, -1122, -6547, 5436, 2553, 3740, 3157, 9154, 2520, -14402, -11377,
    -2644, 1108, 3531, -3674, -197, 9526, 5135, 571
};

alignas(16) static NS_PUT_IN_TCM int8_t conv_3_scratch_buffer[SCRATCH_BUFFER_SIZE];
alignas(16) static NS_PUT_IN_TCM int8_t conv_3_weight_sum_buffer[WEIGHT_SUM_BUFFER_SIZE];

static cmsis_nn_context conv_3_ctx = {
    .buf = conv_3_scratch_buffer,
    .size = sizeof(conv_3_scratch_buffer),
};

static cmsis_nn_context conv_3_weight_sum_ctx = {
    .buf = conv_3_weight_sum_buffer,
    .size = sizeof(conv_3_weight_sum_buffer),
};

const cmsis_nn_per_channel_quant_params conv_3_quant_params = {
    .multiplier = (int32_t*)conv_3_multiplier,
    .shift = (int32_t*)conv_3_shift,
};

const cmsis_nn_conv_params conv_3_conv_params = {
    .input_offset = -conv_3_input_zero_point,
    .output_offset = conv_3_output_zero_point,
    .stride.w = 1,
    .stride.h = 1,
    .padding.w = 0,
    .padding.h = 0,
    .dilation.w = 1,
    .dilation.h = 1,
    .activation.min = -128,
    .activation.max = 127,
};

int32_t
str_ww_ref_model_conv_3_init(void) {

    return arm_convolve_weight_sum(
        (int32_t *)conv_3_weight_sum_buffer,
        conv_3_weights,
        &conv_3_input_dims,
        &conv_3_filter_dims,
        &conv_3_output_dims,
        conv_3_conv_params.input_offset,
        conv_3_bias
    );

}

int32_t
str_ww_ref_model_conv_3_run(
    const int8_t* __restrict input,
    int8_t* __restrict output
) {

    return arm_convolve_wrapper_s8(
        &conv_3_ctx,
        &conv_3_weight_sum_ctx,
        &conv_3_conv_params,
        &conv_3_quant_params,
        &conv_3_input_dims,
        input,
        &conv_3_filter_dims,
        conv_3_weights,
        &conv_3_bias_dims,
        conv_3_bias,
        &conv_3_output_dims,
        output
    );

}