/******************************************************************************
 * @file        str_ww_ref_model_conv_7.c
 * @brief       Autogenerated AOT CONV_2D kernel
 * @details     This file was generated by HeliosAOT v0.2.2 on 2025-08-05.
 *   This kernel represents node #7 in the corresponding graph.
 *
 * @date        2025-08-05
 *
 * @copyright
 *   © 2025 Ambiq. All rights reserved.
 *
 *   This generated C module is licensed for use **only** on Ambiq hardware
 *   incorporating Ambiq’s sub-threshold power optimized technology.
 *   Any other use is strictly prohibited.
 *
 *   See “LICENSE.txt” at the root of this distribution for full terms.
 *
 * @note        Do not edit this file—any changes will be overwritten.
 ******************************************************************************/
#include <stdalign.h>
#include "ns_ambiqsuite_harness.h"
#include "arm_nnfunctions.h"
#include "arm_nnsupportfunctions.h"
#include "str_ww_ref_model_conv_7.h"

#if defined(ARM_MATH_MVEI)
#define SCRATCH_BUFFER_SIZE 0
#define WEIGHT_SUM_BUFFER_SIZE 128
#elif defined(ARM_MATH_DSP)
#define SCRATCH_BUFFER_SIZE 512
#define WEIGHT_SUM_BUFFER_SIZE 0
#else
#define SCRATCH_BUFFER_SIZE 0
#define WEIGHT_SUM_BUFFER_SIZE 0
#endif

// Input dimensions: input shape is [1, H_IN, W_IN, C_IN]
static const cmsis_nn_dims conv_7_input_dims = { .n = 1, .h = 1, .w = 1, .c = 128 };

// Filter dimensions: weights shape is [C_OUT, H_FILT, W_FILT, C_IN].
static const cmsis_nn_dims conv_7_filter_dims = { .n =  32, .h = 1, .w = 1, .c = 128 };

// Bias dimensions: bias shape is [1, 1, 1, C_OUT].
static const cmsis_nn_dims conv_7_bias_dims = { .n = 1, .h = 1, .w = 1, .c = 32 };

// Output dimensions: output shape is [1, H_OUT, W_OUT, C_OUT].
static const cmsis_nn_dims conv_7_output_dims = { .n = 1, .h = 1, .w = 1, .c = 32 };

// Quantization parameters (per-channel quantization)
static const int32_t conv_7_multiplier[32] = {
    1709049600, 1675339520, 1924403840, 1716284416, 1082146944, 1227465216, 1307493632, 1642577792, 1562782592, 1982389248, 1157968896, 1160952576, 1271430400, 1223889536, 1296278656, 1457572608, 1177281792, 1088883712, 1275127680, 1393931392,
    1748988032, 1291499264, 1821943552, 1566118656, 1534542080, 2015819264, 1268854784, 1146500096, 1673798528, 2142642048, 1424374528, 1169985536
};
static const int32_t conv_7_shift[32] = {
    -8, -8, -8, -8, -7, -7, -7, -8, -8, -8, -7, -7, -7, -7, -7, -8, -7, -7, -7, -7,
    -7, -7, -8, -8, -7, -8, -8, -7, -8, -8, -7, -7
};

// Offsets and activation parameters.
static const int32_t conv_7_input_zero_point = -5;
static const int32_t conv_7_output_zero_point = -128;

// Weight and bias data.
alignas(16) static NS_PUT_IN_TCM int8_t conv_7_weights[] = {
    100, 17, 50, -19, -5, 32, 77, 42, -29, -23, 72, -96, -82, 48, -48, -97, 38, 29, 122, 76,
    -32, 15, -12, -61, 6, -64, 71, -47, -120, -16, 19, -19, 51, -120, 65, 82, -28, -106, 68, -87,
    96, 109, 8, 23, -37, 15, 1, -8, 16, 7, 37, -49, 63, 36, -30, 19, 17, -56, -11, -46,
    -45, -58, -67, 60, -18, -127, -21, -14, 8, -27, -49, 15, 50, 67, 7, 51, 26, 36, -40, -90,
    -44, 13, -92, -49, 86, 37, 22, -56, -43, -7, -19, 85, 41, 23, 19, 31, 66, -28, 36, 108,
    -63, 21, -46, 51, -54, -34, -85, -20, 53, -74, -31, -41, 18, -47, -8, 69, 16, -89, 4, -58,
    78, 58, -54, 50, 84, 0, -44, -26, -22, -35, 51, -83, 42, -14, 53, -27, -33, -14, 57, -40,
    -55, -7, 49, -23, -38, -27, 26, -31, -23, 71, 40, -31, 43, -56, -25, -52, -64, -8, 42, 4,
    -10, -1, -7, -13, -76, 2, 31, -17, 72, -16, -15, 30, 11, -57, 54, -68, 32, -1, 96, -52,
    51, 39, 7, 55, 79, -13, 1, -33, 1, -60, 28, 79, 58, -6, -1, -38, -17, -4, -18, -75,
    -55, -39, -35, -10, -35, -9, -7, -55, 4, -79, -127, -63, 60, -8, 11, 29, -41, -105, -89, -11,
    -23, -21, 12, -52, 36, -92, 56, 46, -39, -17, -2, -36, 13, -37, -49, 25, -18, 40, -4, 72,
    15, -35, 21, 0, -33, -25, 44, -60, -111, 25, -68, -62, -19, 47, 7, -59, 9, -56, -22, -48,
    -64, -12, 109, 45, -4, 40, 82, -36, -51, -30, 29, -67, -53, -66, 20, -35, 34, 32, -54, 41,
    -29, 25, 2, -29, -123, -54, -45, 2, -12, -29, 22, 47, 0, 34, 25, -14, 53, -3, -29, -17,
    1, -52, 91, -5, 17, 54, -11, -13, -4, 26, 3, -42, -35, -34, 39, 12, -90, -30, -32, -22,
    4, 34, -71, -26, -9, -37, -94, 23, -13, -69, 34, -32, 64, -11, -7, -54, 27, -107, -24, -116,
    17, -24, 33, -34, -127, -59, 6, 4, 17, -57, 62, -31, -45, -81, 16, 41, -29, -23, -46, 16,
    -60, 36, 15, -48, -78, 27, -45, 75, 20, 27, 60, 37, -23, -14, 37, 28, -69, 60, -30, 1,
    -38, -16, 27, -24, 93, -121, 53, -97, -76, -16, 22, 53, -45, 39, -21, -41, -109, 80, 2, -111,
    -14, -8, -26, -31, -21, 47, 48, -15, 24, 88, 19, -93, -62, -12, 57, 73, 106, -127, -44, 60,
    54, -50, 6, -68, -2, 58, 52, 53, 35, 75, 35, -17, 26, -38, 90, -28, 48, 49, -41, 29,
    71, -28, 83, 62, -87, -87, -73, 55, -24, -120, -67, 87, 70, -60, -82, 33, 55, -1, 113, 57,
    -35, 76, 17, -84, -30, -12, -49, -22, -67, -64, 58, -18, -81, -24, -30, 95, -31, -46, -38, 58,
    -54, -4, -10, 95, -13, 10, -74, 47, 66, -66, -49, -39, 69, -22, 0, 38, -11, -9, 41, 96,
    10, -98, -61, -18, 30, -51, 28, -1, 85, 35, 33, 38, 14, 13, 83, 26, -38, -10, 66, -29,
    -17, 15, 68, 29, -67, 48, -6, 9, 45, -10, 26, -33, 61, -2, -7, 55, -11, -36, -58, -90,
    -20, -31, -33, 29, -16, 34, 27, -11, -43, -20, -39, 88, -14, 29, -49, 30, 1, -7, 108, 25,
    79, 40, 54, -55, 55, -38, -41, 54, 25, 9, -13, -12, 7, -25, 1, 65, 42, 32, 34, 48,
    -34, 28, -98, -72, -21, -2, 3, -71, -18, -20, -11, -30, -44, -70, -92, -50, 23, -91, 3, 21,
    -75, 15, 20, 53, -23, 12, -67, -89, 11, -127, 36, 31, -32, 20, -60, -66, -80, 31, -43, 13,
    41, 28, 42, -25, -22, 25, 68, -1, -51, -15, 12, 57, -63, 9, -32, -17, -34, -24, 8, -25,
    -29, 24, 28, -39, 3, -54, 79, -33, -112, 22, -43, -24, -71, 56, 37, -10, 8, 16, 78, 67,
    1, -12, -127, 31, 0, 22, -37, -42, 14, -93, 6, 79, 33, -30, -34, -15, 47, 44, 98, -18,
    23, -28, -46, 44, 63, 23, 15, 15, 69, 77, 103, -101, 53, 24, -53, 36, -12, -127, -21, 48,
    -43, -48, -21, 81, 62, -59, 22, -38, 74, 93, -47, -82, 43, 88, 48, -7, -72, -39, 4, 28,
    17, 8, -22, -80, -54, -91, 62, -38, -25, 19, -14, 17, 74, -44, -40, -10, -47, -20, -49, 54,
    -10, 33, -10, -49, -81, 58, 36, -27, -8, -74, 3, 8, 10, 34, 27, -77, -57, -52, 74, -35,
    -56, 27, -88, 37, 43, -57, -68, -26, 10, 45, 19, -86, -32, 52, 32, 59, -1, -1, -49, -76,
    55, 60, -33, -119, 4, -1, -20, -32, -63, -25, -79, 8, 14, 72, 61, 40, -32, -33, -62, -43,
    19, -56, 50, 50, 59, -30, -109, -61, 27, 24, -15, 42, -18, -91, -14, -69, -77, 10, 82, -80,
    -2, -2, 75, -53, 1, -48, -57, 85, 28, -13, 7, 29, 6, 6, -46, 3, 24, -43, -34, -33,
    30, 112, -67, -22, -55, -127, -61, -16, 1, 26, 11, -6, -32, 22, 44, -22, 6, 64, -77, 41,
    19, -3, 66, -26, -23, 10, -3, 9, 77, 46, 48, -108, -1, -30, -55, -30, -58, -82, 44, -24,
    6, -19, 9, 18, -71, -76, 13, 16, 7, 27, 25, 26, 91, -25, -72, 28, -48, 30, 50, 15,
    -36, 61, 25, 65, -53, -63, 81, -45, -93, -10, 82, -30, 15, -54, 81, 52, -103, 6, 70, -104,
    100, 35, 70, -73, 58, 9, 49, 69, 109, -127, 7, 108, -28, -29, 38, -3, -23, 44, -77, -18,
    -69, -50, 106, -50, -25, 22, 101, -23, 88, 59, -102, 76, -56, -113, 20, -53, -91, -123, -105, 50,
    43, -59, -4, 57, 33, -64, 10, -11, 11, 28, 67, -45, -98, 44, 83, 22, 17, -73, -83, -69,
    102, -124, 69, -15, -106, -93, -26, 6, -19, -50, -26, 60, -20, -43, -55, 78, -74, -54, -73, -73,
    27, -42, 57, -27, 13, 25, -84, -40, -91, -35, 45, -8, -22, 16, 41, 71, 8, 35, -85, -63,
    53, 25, -43, 33, -2, -34, 13, 18, -33, 51, 15, 57, 12, -27, 23, -23, 9, 3, 66, -76,
    75, 58, 27, 44, -77, 33, -46, -27, 60, 127, -22, 46, 12, -48, -18, -67, -33, -3, -26, -2,
    8, -61, -24, -121, -12, 40, 54, -49, -111, -74, -50, 11, -20, 4, 35, -102, 16, -26, 17, -26,
    65, -4, -5, 71, 6, 21, -20, -7, -41, -24, 41, 42, 33, -15, -31, 23, 93, 53, -12, 36,
    -40, 5, -4, -67, 7, 10, 91, 21, -70, 13, 12, 59, 7, 52, -15, 46, 28, -7, 57, -65,
    -71, 59, -38, 21, 46, 44, 15, -11, 0, -14, 14, 24, 22, -127, 15, -13, -8, -4, -23, 82,
    -12, -105, -9, 42, 4, -37, 74, -31, 6, 92, -56, 37, 59, 51, -88, 31, -6, 40, -26, 13,
    59, -7, 20, -6, 65, 52, 15, 12, 99, -6, 64, -35, 49, -56, 49, 52, -52, -100, 42, -11,
    16, 40, 58, -78, -55, 75, 34, 62, -43, 73, 8, 9, -70, -24, 30, 47, 24, 16, -22, 14,
    -97, -98, -37, 48, -97, -11, 55, -22, -59, 79, 27, -95, -45, 87, 44, -111, 18, 75, -2, -82,
    -107, -3, 25, 19, 65, -64, -16, 59, 16, 77, -57, -3, -22, 85, 33, 48, -73, 57, -73, 23,
    26, 74, -6, -31, -28, 66, 81, -32, -13, 40, -49, 9, 68, -7, 21, 77, 127, -49, 38, -1,
    -10, 16, 9, 48, 12, -81, -16, 36, 2, -28, -49, -10, 56, -57, 74, -16, 4, -57, -36, 40,
    -55, -59, 51, -22, -62, 23, -5, 28, -100, -33, -59, 91, 29, 22, -2, -73, 75, 24, -76, -6,
    -35, 30, 100, 47, -36, 45, 82, -65, 29, 59, -15, 56, 92, -78, 70, -64, -6, 111, -89, 55,
    -35, -3, 5, -27, -55, -49, 84, -59, -24, -47, 87, -61, 34, -18, -38, -35, 30, 47, 99, 15,
    -15, -37, -7, 26, 49, 44, -70, 61, 36, -29, -77, -37, -95, 2, 108, 41, 16, -80, -32, 28,
    -9, -96, -58, -58, -82, -25, -22, 36, -66, 8, -81, 98, 32, -82, 40, -62, 72, -40, -70, 15,
    73, 26, 47, -65, -66, -1, -3, -31, -97, -34, 30, -33, 55, -16, 38, 121, 51, -127, -1, 60,
    -82, 20, 28, 16, -13, 53, -45, 11, -68, 67, 34, 23, -15, -27, 19, -58, -18, -64, 43, -68,
    17, 28, -23, -8, -10, -71, 39, -55, 2, 43, -58, 59, -50, -85, -8, 0, -127, -1, -37, 27,
    24, 21, 49, 6, 28, -66, 1, 108, 77, -112, -20, -20, -10, -76, 3, -36, 44, 46, -39, -68,
    -13, 8, 123, -2, 27, -60, -7, 23, -46, -54, -79, 103, -51, 56, 26, -80, -18, 59, -45, 15,
    -2, -2, -60, -82, -19, -103, 8, -53, -82, -61, -57, -92, 90, -8, 78, 23, 1, 36, -55, 42,
    62, -6, -70, -20, 17, -38, 89, 8, -91, -111, 28, -45, -55, -1, -41, -18, -39, -39, 38, 52,
    -51, -44, 19, -39, -23, -2, 0, -31, -46, 115, -28, -75, 30, 48, 16, 73, -66, 38, 5, -55,
    -47, 19, 49, -5, 10, -17, 11, 4, -3, 25, 34, 10, -9, 8, -4, 12, -16, 97, -37, -11,
    -16, -14, -10, 18, -94, 29, -79, -41, 53, 8, 75, 7, -43, 12, 36, -24, 25, 46, -90, -28,
    -25, -55, 88, -77, 49, 2, 74, 29, 46, -17, -12, -5, -1, -32, 42, -15, -24, 24, 20, 30,
    -36, 30, -41, -64, -14, 22, -20, -11, -34, -6, 2, -44, 9, -75, 28, -76, -31, -110, -87, -106,
    -38, -44, -32, 1, -83, -47, -25, 31, -53, -16, 29, -84, -60, -127, 3, -48, -70, -42, -45, 48,
    -15, -54, 3, -10, -33, -18, -52, 5, -46, -5, -77, 12, -37, 2, -27, 51, -10, 1, -24, -49,
    -28, -12, -44, 49, -39, 5, 17, -57, -62, -13, 84, 47, -7, -3, 62, -100, -41, 40, 0, -7,
    11, -68, 79, -9, -76, 60, -56, -51, 27, 67, 4, 40, -110, 26, -19, -65, 88, -67, 58, 59,
    76, 4, 13, 1, -14, -33, -40, 13, -30, 9, 60, -59, 75, 83, 73, -25, 29, -7, 29, -21,
    -4, -77, -8, -37, -54, -34, 40, 49, -48, 36, -25, 26, -15, -23, -91, -16, -23, 38, -57, 18,
    56, -89, 42, 4, -8, -48, -29, -127, -30, 6, -5, 59, -33, -63, -37, 67, 71, -29, 16, -41,
    -59, -8, -66, 33, -46, -53, -14, -59, -50, 6, -7, -75, -44, -11, 58, -13, 18, -46, -7, 5,
    -8, -57, 6, -4, -8, 26, 5, -53, 43, -58, 52, -32, 7, 68, 37, 20, 9, -20, 4, -42,
    -55, -78, -28, 57, 61, 45, -52, -1, -31, -59, -2, 12, 31, -3, -21, 91, -46, -7, -69, 1,
    -73, -81, -44, -65, -68, 63, 9, 0, 23, 3, -26, 23, 55, -14, 14, -41, -74, -24, -14, 18,
    -45, 50, 19, -12, -43, -47, 70, 36, 62, 7, -15, 63, -5, 57, 4, 105, 82, 25, 59, -80,
    -17, 5, -44, 12, -54, 52, -85, -86, 31, -113, 54, -22, -40, -27, -52, -25, -28, 60, 58, 32,
    -72, 24, -62, 39, 43, 21, 23, -26, -37, -84, 8, -30, -12, 27, 39, -2, -27, -48, -58, -64,
    -42, -29, -35, -31, 35, -63, 24, 44, -51, 11, 68, -24, -127, 12, 51, -63, 19, 19, -47, -9,
    59, -45, -8, -108, 8, -20, -6, 0, -5, -7, -34, -72, -14, -1, -1, -118, 58, 2, -21, -73,
    4, -40, -55, 36, 47, 17, 34, -12, -80, -32, 9, -39, -2, 19, 68, -26, 56, 0, -115, -91,
    41, 55, 15, -13, -4, -84, 3, -11, -54, -21, 13, -52, -21, -44, 65, 11, 53, -27, -97, 42,
    15, 16, -16, 12, -32, 58, 86, -15, 45, -34, 23, 1, 33, 51, -53, 20, -38, -35, -89, -89,
    13, 37, 39, -112, -67, -15, 7, 50, 37, 102, 44, 44, -40, -24, 69, -127, -3, -6, -42, 19,
    81, 17, 55, -14, 81, -25, 31, -49, -53, -4, -11, -57, -15, -77, -7, 18, -16, -42, 24, -20,
    43, 113, 103, -16, 53, 32, 13, -34, 15, 45, 0, -2, 5, -92, 51, -50, 22, -43, 6, 67,
    51, -10, 43, -8, -6, -10, 26, -24, 45, 42, -74, 31, -44, 26, -37, 2, 22, 18, -119, -68,
    27, -8, -20, -13, 56, -8, -29, 39, 19, -50, -10, -31, -29, -48, 88, -84, -13, 28, 39, -15,
    -27, 38, 84, 36, -53, -35, 57, 50, -14, -14, -18, 43, 2, 31, -20, 51, 61, 91, -60, -45,
    18, 2, -67, -98, 25, -43, 42, 67, -59, -65, -2, -30, -61, -36, 8, -58, -43, 40, -76, 75,
    90, -57, -40, -88, -18, -32, -27, -102, -22, 23, 59, -57, -32, 40, 1, -32, -68, -26, 12, -56,
    -3, -12, 33, 55, -8, 16, 27, 10, -127, 40, 16, -73, -93, -67, -16, 7, -14, -11, -13, 45,
    9, 67, -63, 19, 25, 97, 39, -39, 64, 3, -8, 54, 35, 35, 24, -48, -43, 103, 29, 60,
    -68, -45, 57, -9, -3, 18, -65, -68, -20, 72, 5, 25, 46, 42, 30, 3, -10, 26, -1, 62,
    -34, 33, -33, 66, 24, -80, -58, 80, -87, 40, 28, 10, 7, 17, -55, -18, 5, 127, 33, -65,
    -51, 15, 18, -16, -52, -36, 65, -31, -32, -9, 39, -34, 18, -21, -2, 1, 49, -37, 92, 2,
    -67, -15, -48, -19, -19, 13, -43, -51, 19, 4, 74, -28, 31, 56, 17, -32, 57, 38, 48, 21,
    120, 22, 16, -62, -61, 63, -26, -18, 36, 16, -11, 5, -65, -19, -98, -4, -7, 50, 67, 46,
    -45, -49, 32, -60, -23, -17, 69, -64, -118, -38, -3, 61, -14, -33, 28, -75, 68, -39, 10, -123,
    -83, 40, -38, 5, -80, -4, 49, -15, 22, 65, 23, 42, -110, -19, -34, -12, 18, -69, 88, 56,
    -30, -89, -87, -14, -24, 1, -28, 29, -96, 29, 79, -4, -26, -5, 36, -64, -78, 10, 31, 52,
    72, -41, 127, 95, 9, 34, -4, 2, 103, -89, -17, -38, 49, 8, 4, -39, 11, 14, -69, 23,
    63, 56, -24, -66, 13, 15, -42, -120, -89, 47, 31, 31, -39, -44, -8, 98, 60, -94, -22, -6,
    -68, -69, -41, 9, 11, -40, 6, 92, -7, -83, -4, -7, -119, 48, -52, -38, -24, -51, -17, 116,
    -5, -81, 18, 12, -18, 24, 53, 18, -24, -56, 25, 44, 60, 33, -29, 30, -18, 56, -63, -38,
    12, 24, -16, 2, 19, 47, -3, 34, -37, 51, -34, -22, -43, -25, 17, -27, -66, -79, 82, 31,
    -29, 100, 24, -38, -28, 102, -19, 20, -6, 41, -24, -19, -79, -23, 54, 52, 58, 59, 22, 69,
    0, -22, -46, 74, -70, -6, -6, -107, -67, 90, -15, -119, 18, 127, 17, -80, -8, 23, 14, 41,
    -126, -68, 53, -14, -19, -85, 38, 50, 10, 19, 14, 21, -21, 20, 88, 9, 2, 15, -24, 11,
    19, -49, 32, -28, -36, 40, 66, 93, -68, 40, 41, -40, 74, -7, -33, 52, -21, 24, 36, -21,
    20, 121, 28, -29, 4, 30, -34, -14, 29, 15, -10, 76, 12, -5, 51, 38, -26, 6, 2, 25,
    8, -41, 37, -49, 36, -77, 25, 21, -67, -19, -45, 47, 5, -7, -36, 15, -64, -65, 22, 31,
    2, 42, -29, -69, -15, 22, 43, 14, 23, -91, -18, 14, 76, -90, 15, -40, 2, -24, 30, -30,
    -6, -3, -34, 2, -16, -17, 44, -14, 62, 55, 26, -34, 53, 16, -18, 22, 12, -31, -15, 10,
    -19, -59, -39, -7, -5, -4, 14, 33, 127, 28, 22, -29, -18, 27, -53, 43, -27, -49, 27, 47,
    -59, 10, -49, -18, -20, -5, -39, 37, -13, -25, -66, 15, 21, -53, -59, 2, 12, 6, 48, -19,
    3, -8, 16, -52, -58, -6, -4, -22, -34, -76, 4, 17, -3, -18, 14, -58, -42, 40, 12, 20,
    -64, 14, -82, -69, -2, 12, 34, -6, -12, 0, -33, -14, 61, -53, -53, 38, 10, 78, -11, 43,
    -10, -21, 11, 50, 18, -21, -1, 58, -52, -31, 34, 6, -34, -91, 88, 24, -45, 98, -56, -52,
    -54, 22, 36, -46, -39, 9, -39, -18, -58, -15, 27, -75, 31, 59, -17, 39, 83, -98, -76, 95,
    -106, -68, 26, -95, 7, 64, 53, -3, 59, 78, -4, -104, -48, -21, 37, -67, -127, -57, 17, -6,
    12, -84, -77, 2, 100, 113, -31, 5, 8, 22, 41, 28, 64, 6, 20, -36, 32, -14, 64, -50,
    -1, 22, -9, 59, 34, 5, -60, -10, 80, -30, 12, 83, 28, -75, -63, -49, 8, 63, 67, -44,
    41, 54, -51, -62, 2, 35, -37, -11, 63, -82, 31, 50, 29, -52, 12, -22, 95, 39, -62, 89,
    34, 51, -115, -16, 94, 79, 76, 4, 30, -15, 11, 70, 49, 71, 31, -17, -11, 44, 51, 16,
    -30, -53, 75, 45, -4, 45, -48, 5, -10, 116, 59, -9, -39, 53, -45, -41, -91, 35, 17, 21,
    -12, 65, -126, 79, 4, -114, 26, 20, 1, -12, 40, -73, -87, 60, 15, -53, 3, 126, -52, -83,
    -64, 22, 52, -6, -63, -30, 57, 56, 30, -74, 46, -59, 4, -41, 8, 37, -12, -28, 127, 18,
    -9, 19, -48, 58, 14, 102, -26, -69, -86, 65, 17, 54, 43, 21, -29, 6, 51, 5, 16, 51,
    89, -16, -59, 8, -35, 53, -32, -12, 62, -72, -24, 44, 56, -29, -111, -38, 43, -96, 122, 26,
    19, -104, -24, -49, -81, -2, 43, -60, 21, -59, 26, 9, -57, -48, 99, 31, -77, -48, 43, 14,
    108, -19, -22, -90, 8, 127, -19, -29, 54, -15, 9, 5, -86, -24, -8, 4, 7, -105, -24, -10,
    -64, -69, 94, 22, 31, 74, -51, 93, -56, -21, 95, 2, 60, -21, 32, 6, -9, 59, -55, -24,
    -41, 38, 50, 32, -75, -81, 18, 8, 50, -33, -64, 44, 20, 77, -53, -65, -37, 13, 75, 26,
    29, 63, -17, -75, -40, -54, -118, 19, 57, -95, 2, 10, -85, -99, -23, -15, -35, -117, 44, -46,
    -68, -50, -51, 15, -107, -7, -52, 27, -7, 66, 43, -43, -27, -47, 0, 74, 24, 3, 90, 3,
    -48, -53, 24, 56, -122, 1, -34, -66, -28, 34, 16, 9, -64, -66, 70, -75, -74, -21, 6, 73,
    -37, -66, 25, 25, 33, 28, 42, -16, -40, 47, -36, -13, 14, 50, 93, 7, 60, 91, -62, -22,
    -19, -57, -14, -19, -16, -14, 26, 5, 18, -47, -66, 27, -33, 9, 20, -26, -76, -37, 95, -10,
    -23, 3, 20, -29, 22, -2, -56, 3, -6, -45, 82, 41, 12, -52, -26, 31, 37, -22, -50, -12,
    76, 2, -58, -18, -19, 61, 5, -29, 56, 30, 5, 37, 31, -40, -24, 12, 3, -63, -11, 11,
    -37, 26, -25, -14, 18, -75, -32, -76, 21, -69, -104, -60, 64, 85, 19, 47, -40, -56, 56, -44,
    -27, -15, -70, 31, -12, -16, 14, 29, -51, -23, 63, -6, -127, -28, -7, -55, -52, -16, -42, -10,
    -46, -2, 9, 24, 52, -39, 14, -37, -18, 88, -115, 65, 60, -60, -29, -42, -58, 8, -4, -5,
    8, -44, 4, 14, 23, 68, 16, -73, 99, -13, 17, 44, -85, -75, -51, 33, 61, -7, -15, 9,
    -20, -27, 24, -86, 64, 42, -14, -35, 127, 41, 57, -55, 61, 38, -31, -1, 30, 8, -47, 87,
    32, -22, 14, -35, -34, -27, -22, -41, 80, 52, -25, 37, 31, 90, -12, -36, -9, 52, -53, 10,
    -44, 85, -14, 96, 11, -41, -36, -40, 35, -57, -13, -25, 49, -8, -21, 39, -38, 44, 50, -64,
    -50, -41, 17, 50, 26, -41, -17, -24, -14, 4, -14, -78, -11, 8, -67, -109, 23, 63, 24, -45,
    14, -82, -6, 11, -47, -33, 23, -47, -37, -60, -9, -5, 19, 36, -16, 6, 16, -75, -6, -39,
    52, 29, 17, -28, 56, 32, 49, 2, -3, -52, -45, 19, -30, 78, -4, -1, -81, 32, -53, 7,
    39, 24, 77, -7, -39, -11, -8, -15, -26, -8, 78, -26, -79, -86, -17, 1, -91, -40, -23, -45,
    4, -52, -19, 33, 36, -39, -20, 17, 30, 20, -36, -16, 69, 24, 26, 40, -19, -48, 40, 9,
    29, 15, 59, -40, 53, 21, 3, -2, 24, -42, 46, -16, -111, 26, 10, -2, -31, 40, 6, 41,
    35, -30, 23, -127, -22, 35, -20, 8, 42, -43, 4, -54, 45, 8, 3, 43, 39, -30, -46, 46,
    62, -10, -45, 79, -6, -52, 62, -49, -19, 23, 83, 52, 55, 22, 46, -9, 36, -15, -40, -51,
    34, 67, -33, 17, 107, 10, 49, -50, 64, -38, 73, 68, 30, -23, -23, -72, -1, -6, 18, -29,
    3, -71, -30, 36, 46, 55, -40, -110, -61, 89, 52, 62, 100, 57, -7, 12, -54, -60, 55, -44,
    -17, 49, -24, 79, -13, -119, -58, 64, -73, 37, 5, -33, -62, 57, 43, -58, -16, 127, 56, -50,
    -5, -31, -6, 14, -77, 46, 38, 24, -53, -40, 7, 35, -13, -29, -19, 58, -2, 38, 126, 5,
    -27, 48, 25, 78, 95, 9, 53, -41, 17, 64, 72, -11, -33, 5, 21, 37, 55, 29, -9, 10,
    67, 20, -19, 66, 0, 84, 6, 35, 71, -85, -29, -8, -19, -7, -85, 35, 64, -77, 70, 52,
    71, 32, 24, 30, 55, 91, -61, -15, -48, 12, -98, 35, 113, 42, 67, -43, 42, 76, -16, 12,
    59, 11, 3, -75, 9, 0, -42, -40, -59, -8, 70, 9, 69, 10, -41, -98, -42, 126, 30, -9,
    68, 33, 52, -23, -71, 29, 3, -18, -65, 99, -102, -4, -46, -97, -82, 101, -79, -8, 26, -79,
    2, 43, 18, -32, -59, 32, -5, -15, -11, 37, 15, 47, -88, -50, 53, 24, -72, -67, 48, -3,
    -71, 17, -24, 70, -2, 11, 109, 46, -20, 45, -35, 31, 121, 106, -60, -70, 37, 101, 32, 14,
    -26, 5, -83, -58, -27, 35, -20, 52, 22, 12, 110, -31, -17, 60, 41, 11, 40, -88, -58, -46,
    35, -54, -96, 41, 66, -74, 127, 71, 14, -78, -1, -75, 23, -106, 38, 25, 16, -26, 112, -10,
    -54, -77, -27, -42, -48, 62, -32, -15, -1, -20, 30, -10, -115, -4, -51, -8, 4, 77, 37, -46,
    -40, -70, 37, 46, 77, -34, 43, -4, -24, -56, -7, 32, 39, 84, -50, 74, 104, 68, 66, 2,
    44, 19, 26, -3, -15, 14, 23, 53, 88, -127, -17, 33, 21, -84, 70, 67, 34, -7, -47, -27,
    43, -81, 1, 9, 0, 21, -42, -15, -14, -73, -64, -72, -29, -54, -46, -53, 50, -4, 5, 58,
    -107, 24, -67, 13, 9, -84, -16, -27, -56, -67, 56, 27, -29, 9, -4, -24, -30, -80, -77, -8,
    80, -42, -8, 87, 21, -3, -50, -21, 21, 62, 30, -49, -47, 82, -72, -112, 84, 20, -23, 112,
    40, 58, -85, 74, -2, 18, -39, 33, 3, -13, 105, 28, -19, 37, 72, 113, -56, -56, -68, -82,
    84, -1, 38, 58, -74, -65, 1, 52, -31, 76, -25, 4, -25, 67, 16, 39, 73, 14, -42, 45,
    -53, 84, 6, -3, -5, 20, -88, -8, -69, -67, -69, 120, -38, 30, -11, -11, 18, 15, 30, -86,
    -82, 1, -25, -27, 1, 49, -52, -4, -23, -19, 27, 28, -63, -119, -16, 40, 0, -3, -31, 36,
    13, -18, 35, 72, 50, 15, -34, -27, 63, -22, -19, -127, -73, 78, 26, 61, -25, 109, 46, 12,
    82, 13, 38, 55, 6, 42, 29, 49, -8, 114, -64, 44, 47, 32, -15, -6, 68, -28, -69, -39,
    81, 5, -24, -44, -20, -69, 43, 20, -40, -17, 53, -41, 14, 3, 87, 73, -9, 87, -20, -11,
    -14, -30, 70, -50, 54, 4, 73, -34, 1, -23, 15, 13, 29, 8, 13, -24, 2, 33, -44, -1,
    51, -127, -34, -10, 0, 87, 37, -57, 0, -24, -80, 50, 10, -73, 37, -46, -7, 61, 80, -62,
    29, 0, -30, 24, -17, -45, 47, -14, -5, -94, -40, -11, 31, -36, -32, -10, 45, 31, 0, -54,
    5, -17, 14, 42, -79, -5, 37, -44, 15, -25, -66, -10, -3, -41, -28, 71, -86, -58, -42, 41,
    37, -97, 16, 14, -4, -53, -49, 38, -77, -57, -73, 18, 36, 67, -21, 35, -46, -39, -7, -54,
    5, 28, 6, -58, 2, -48, 34, 50, -7, 2, 25, 12, 80, 58, -28, 112
};

alignas(16) static NS_PUT_IN_TCM int32_t conv_7_bias[] = {
    -28, 2216, 2957, 2227, 3189, 7307, 1218, -143, -4645, -1452, 1918, -144, 1633, 112, 3087, -9315, 3070, -278, 3585, -2209,
    5240, 7779, 1550, 1928, 6150, 23006, -13325, -1511, -141, 3622, -803, 925
};

alignas(16) static NS_PUT_IN_TCM int8_t conv_7_scratch_buffer[SCRATCH_BUFFER_SIZE];
alignas(16) static NS_PUT_IN_TCM int8_t conv_7_weight_sum_buffer[WEIGHT_SUM_BUFFER_SIZE];

static cmsis_nn_context conv_7_ctx = {
    .buf = conv_7_scratch_buffer,
    .size = sizeof(conv_7_scratch_buffer),
};

static cmsis_nn_context conv_7_weight_sum_ctx = {
    .buf = conv_7_weight_sum_buffer,
    .size = sizeof(conv_7_weight_sum_buffer),
};

const cmsis_nn_per_channel_quant_params conv_7_quant_params = {
    .multiplier = (int32_t*)conv_7_multiplier,
    .shift = (int32_t*)conv_7_shift,
};

const cmsis_nn_conv_params conv_7_conv_params = {
    .input_offset = -conv_7_input_zero_point,
    .output_offset = conv_7_output_zero_point,
    .stride.w = 1,
    .stride.h = 1,
    .padding.w = 0,
    .padding.h = 0,
    .dilation.w = 1,
    .dilation.h = 1,
    .activation.min = -128,
    .activation.max = 127,
};

int32_t
str_ww_ref_model_conv_7_init(void) {

    return arm_convolve_weight_sum(
        (int32_t *)conv_7_weight_sum_buffer,
        conv_7_weights,
        &conv_7_input_dims,
        &conv_7_filter_dims,
        &conv_7_output_dims,
        conv_7_conv_params.input_offset,
        conv_7_bias
    );

}

int32_t
str_ww_ref_model_conv_7_run(
    const int8_t* __restrict input,
    int8_t* __restrict output
) {

    return arm_convolve_wrapper_s8(
        &conv_7_ctx,
        &conv_7_weight_sum_ctx,
        &conv_7_conv_params,
        &conv_7_quant_params,
        &conv_7_input_dims,
        input,
        &conv_7_filter_dims,
        conv_7_weights,
        &conv_7_bias_dims,
        conv_7_bias,
        &conv_7_output_dims,
        output
    );

}